svm_type c_svc
kernel_type rbf
gamma 0.013888888888888888
nr_class 2
total_sv 300
rho 0.12755593513947275
label 0 1
nr_sv 131 169
SV
1.150112317696085 1:-166.79631 2:-161.27826 3:-279.5954 4:3969.5737 5:63.004555 6:178.29913 7:71.07756 8:67.425018 9:49.974861 10:167.03629 11:12.924252 12:72.243034 13:-11.607891 14:-14.566164 15:-42.749882 16:398.29861 17:19.95742 18:23.087696 19:5.9641967 20:5.3567133 21:-5.1141176 22:32.055786 23:5.6617827 24:8.2235889 25:-9.6036558 26:-12.915834 27:-27.257252 28:121.40996 29:11.018619 30:14.616434 31:10.451067 32:8.8657131 33:-4.0945945 34:61.334431 35:7.8316302 36:13.059833 37:-6.6960945 38:-5.4406648 39:-21.596373 40:59.284107 41:7.6996174 42:10.204009 43:-3.7954633 44:-3.9434052 45:-13.706928 46:18.187744 47:4.264709 48:5.709053 49:-4.0372186 50:-4.298481 51:-12.776442 52:15.042309 53:3.8784416 54:5.5983429 55:-10.495154 56:-8.60532 57:-25.191051 58:34.278439 59:5.8547792 60:12.017767 61:-9.4874735 62:-9.8947067 63:-18.412386 64:16.259382 65:4.0322924 66:10.308809 67:-1.4881377 68:-1.9628537 69:-9.9055414 70:22.517551 71:4.7452664 72:4.9731383 
1.1276560069854875 1:-163.65655 2:-161.47073 3:-278.32466 4:3969.2169 5:58.394894 6:181.65598 7:72.025152 8:68.995001 9:49.267327 10:171.38331 11:15.67364 12:74.93594 13:-11.058622 14:-11.749444 15:-44.312983 16:399.83211 17:21.255948 18:27.61365 19:6.8715099 20:2.1625447 21:-5.9337998 22:29.395936 23:4.5779106 24:13.373477 25:-9.8566378 26:-10.520146 27:-23.598893 28:123.62169 29:9.8544931 30:17.264056 31:16.508922 32:9.213286 33:-3.4553599 34:64.920651 35:6.7900797 36:14.971909 37:-7.5281083 38:-5.0497046 39:-19.366844 40:58.950484 41:6.6209772 42:16.554986 43:-2.4889651 44:-4.9354567 45:-14.140123 46:16.404448 47:-0.46376931 48:10.691616 49:2.065665 50:-0.76142552 51:-13.244191 52:14.729422 53:6.3695896 54:5.5748135 55:-7.61446 56:-9.0108115 57:-18.923417 58:34.535241 59:6.3914601 60:11.206246 61:-4.4449896 62:-10.839089 63:-19.730269 64:21.0616 65:3.8125701 66:7.4083386 67:0.47727666 68:-4.3213119 69:-8.7232706 70:23.556117 71:4.8612699 72:6.9758392 
1.1258265519104167 1:-163.46458 2:-164.22892 3:-282.79916 4:3967.8974 5:62.773155 6:178.14537 7:73.810867 8:66.99034 9:51.649436 10:165.58264 11:12.139454 12:75.081431 13:-16.209029 14:-12.190576 15:-39.701151 16:400.01313 17:17.886609 18:24.013005 19:5.5483014 20:4.0457984 21:-5.857607 22:34.418927 23:7.4161639 24:9.6348129 25:-10.165794 26:-9.5141589 27:-24.516353 28:122.61012 29:11.750814 30:18.177806 31:12.9286 32:10.9285 33:1.5099313 34:60.766517 35:5.9768941 36:14.829289 37:-7.2323196 38:-5.4730106 39:-24.47131 40:64.407872 41:6.9066424 42:11.008536 43:-0.47613767 44:-5.9836676 45:-18.2193 46:23.93065 47:5.9457409 48:5.8800597 49:-4.864068 50:-3.8894158 51:-6.5636644 52:17.093595 53:5.5712505 54:8.6282312 55:-11.657471 56:-5.0111149 57:-25.238194 58:36.090032 59:8.6224941 60:12.606704 61:-6.1249937 62:-8.6941667 63:-18.383662 64:17.41805 65:3.8142906 66:8.594134 67:-2.8926758 68:2.2417887 69:-11.362344 70:25.269841 71:5.5725621 72:4.3232674 
1.1276927379582458 1:-165.21501 2:-157.46454 3:-277.99343 4:3970.2373 5:64.435126 6:180.82869 7:73.846873 8:68.772556 9:50.741421 10:165.81629 11:12.391418 12:72.86073 13:-13.204942 14:-13.033402 15:-44.369992 16:399.98634 17:18.104839 18:26.809238 19:6.7529712 20:5.5804186 21:-7.1556276 22:35.259677 23:7.2203434 24:14.803388 25:-5.5173767 26:-11.716154 27:-27.70915 28:126.97186 29:18.576618 30:12.670055 31:6.1552685 32:10.491935 33:-5.394814 34:68.893134 35:4.6776631 36:11.377358 37:-5.4646708 38:1.2039987 39:-20.76008 40:57.784314 41:8.389257 42:6.8329664 43:-8.0988879 44:-8.6307055 45:-18.205067 46:25.707794 47:2.1257627 48:7.2226135 49:1.2433668 50:-3.6103285 51:-9.8318743 52:14.013479 53:7.2175268 54:5.4754481 55:-7.9022381 56:-8.8770082 57:-21.410918 58:32.045964 59:8.9710257 60:12.589192 61:-10.408318 62:-9.148362 63:-19.671324 64:19.442443 65:9.0534155 66:12.974863 67:-1.3741239 68:-4.3110286 69:-8.5176085 70:25.376478 71:2.573437 72:9.3076778 
1.1272173313475533 1:-165.40322 2:-158.06855 3:-275.74339 4:3968.0331 5:61.3852 6:174.86726 7:72.742364 8:69.530839 9:52.205786 10:166.46624 11:14.098101 12:72.593269 13:-14.790675 14:-11.662131 15:-42.675708 16:402.23587 17:27.292422 18:24.166864 19:4.4338378 20:7.9755039 21:-4.7642295 22:31.790579 23:5.5434627 24:5.5486911 25:-6.2748834 26:-9.0458594 27:-21.654817 28:124.22018 29:11.461321 30:17.321752 31:14.103652 32:4.6204112 33:1.2481845 34:61.00485 35:8.6118561 36:11.925966 37:-10.906523 38:-5.8388531 39:-19.593482 40:63.909489 41:4.8388358 42:9.9497516 43:-4.5172689 44:-3.8642313 45:-13.471306 46:19.304362 47:4.0607252 48:5.2786063 49:-1.7099189 50:-0.011294247 51:-7.2435634 52:19.169936 53:6.6908137 54:6.0487054 55:-3.9126184 56:-5.7278301 57:-24.399238 58:34.357232 59:5.1228777 60:11.880808 61:-12.717987 62:-11.294068 63:-18.232967 64:15.86367 65:5.9724648 66:11.532743 67:-0.23472542 68:4.2177184 69:-11.496241 70:23.523833 71:1.5839507 72:9.9730293 
1.1269466642226498 1:-162.85404 2:-162.8934 3:-280.09959 4:3968.2651 5:63.049432 6:185.30551 7:69.731566 8:71.672502 9:55.378766 10:171.42789 11:14.525956 12:76.728145 13:-12.402227 14:-8.5210166 15:-42.778231 16:401.96634 17:19.783993 18:24.944467 19:11.719709 20:4.7127597 21:-4.5590671 22:33.631959 23:7.6746358 24:6.9811281 25:-8.8023517 26:-10.558606 27:-25.073658 28:125.68795 29:11.574975 30:16.394337 31:11.122845 32:10.163015 33:0.42608199 34:61.161506 35:13.405126 36:15.373493 37:-4.9756238 38:-4.5525168 39:-17.196684 40:61.778297 41:8.5383769 42:11.770295 43:-1.5619189 44:1.2032776 45:-12.093657 46:19.740631 47:9.3486472 48:5.4341213 49:-3.2402666 50:-7.8433352 51:-11.193869 52:15.735576 53:3.6304213 54:6.1488385 55:-11.686814 56:-6.3194219 57:-26.63616 58:30.275306 59:0.63981099 60:13.826501 61:-5.994562 62:-9.5251272 63:-18.136345 64:19.211717 65:0.49316899 66:13.1631 67:-2.6720085 68:-1.9862298 69:-8.4026742 70:21.001616 71:4.2771306 72:7.2067111 
1.1244817059560697 1:-168.17067 2:-158.42748 3:-279.75735 4:3969.1553 5:61.014013 6:185.48436 7:70.02758 8:69.2114 9:50.097362 10:165.20334 11:13.449917 12:75.322886 13:-10.525999 14:-14.107317 15:-38.977396 16:399.76515 17:21.332872 18:26.510919 19:6.1397141 20:9.9678766 21:-3.8799473 22:34.754969 23:7.3140436 24:9.7035933 25:-10.548337 26:-9.9364261 27:-30.185773 28:119.69165 29:14.365819 30:12.638504 31:12.893785 32:11.629766 33:-4.0485517 34:59.762706 35:7.7513463 36:14.871195 37:-9.5920903 38:-9.2432401 39:-26.974295 40:61.884229 41:7.0838674 42:8.6212232 43:-3.0489237 44:0.15739029 45:-11.340404 46:19.461075 47:4.8875389 48:5.6296936 49:-3.6999978 50:-2.1483486 51:-13.192452 52:13.156343 53:4.4352828 54:7.8436571 55:-7.6368444 56:-9.6605909 57:-22.041171 58:33.77456 59:6.8327411 60:10.960407 61:-16.025283 62:-10.081079 63:-17.755573 64:17.477059 65:0.022518217 66:9.663792 67:-0.93533145 68:-0.098932379 69:-6.1720259 70:23.249529 71:7.7639388 72:3.9003955 
1.1274573411336029 1:-165.66298 2:-162.24293 3:-279.03241 4:3973.9831 5:67.47916 6:174.67642 7:75.651768 8:65.117329 9:51.665567 10:170.1659 11:14.45412 12:73.375548 13:-10.807231 14:-12.410876 15:-43.372495 16:399.58302 17:17.951167 18:25.655542 19:5.403511 20:3.4196357 21:-5.7254982 22:29.19678 23:5.5287564 24:6.6837563 25:-9.3060495 26:-7.6763151 27:-27.601831 28:121.3213 29:6.1052548 30:15.234802 31:11.677852 32:13.893504 33:1.2618338 34:65.943318 35:11.99127 36:16.201779 37:-5.0109744 38:-4.7649711 39:-19.91878 40:61.83663 41:5.4788412 42:8.732081 43:-2.1084492 44:-2.1474586 45:-14.419033 46:13.249496 47:5.8643995 48:8.8666181 49:-3.689267 50:-0.6373693 51:-12.851781 52:15.260402 53:2.9782928 54:11.450134 55:-12.408455 56:-1.3212434 57:-26.633358 58:36.150603 59:5.9216759 60:17.268168 61:-11.533298 62:-12.701497 63:-15.404135 64:21.396947 65:12.143888 66:8.5302117 67:-1.9966128 68:-1.1097112 69:-6.4471318 70:24.087443 71:7.2866538 72:7.2544422 
1.1242501380682801 1:-165.68572 2:-160.45579 3:-277.37808 4:3969.72 5:66.232322 6:179.56983 7:71.36516 8:64.543894 9:51.087926 10:167.60549 11:17.246168 12:73.835886 13:-10.553771 14:-11.13577 15:-44.082434 16:400.58982 17:22.37876 18:21.549127 19:7.5975705 20:2.4300982 21:-6.3293693 22:33.198664 23:5.4137918 24:8.9949872 25:-10.949261 26:-15.136866 27:-28.48853 28:121.21407 29:14.779735 30:16.99717 31:9.4872285 32:11.938757 33:-5.5109551 34:61.634399 35:11.082705 36:16.879362 37:-4.3515778 38:-2.7882504 39:-19.032109 40:55.649166 41:8.6253395 42:9.3482432 43:1.9765422 44:-0.78312982 45:-14.547146 46:18.232696 47:0.58425666 48:5.7284275 49:-4.9294939 50:-4.1015447 51:-8.2212644 52:14.992728 53:4.9589695 54:10.341418 55:-11.224525 56:-5.8152469 57:-19.536618 58:30.453909 59:5.900696 60:13.097012 61:-10.932015 62:-5.9798593 63:-20.019479 64:15.158206 65:7.0308019 66:11.737918 67:-4.5313076 68:1.7022794 69:-8.0779597 70:22.238388 71:7.00972 72:4.9613789 
1.1280894633653913 1:-171.68108 2:-156.52916 3:-280.38095 4:3974.2577 5:66.043747 6:170.96169 7:70.155934 8:68.325435 9:52.628332 10:169.54862 11:12.523228 12:71.836019 13:-11.13008 14:-10.002312 15:-44.13096 16:396.45188 17:23.575013 18:23.504192 19:5.667824 20:4.5513133 21:-6.8689795 22:35.406756 23:3.5940973 24:9.5338334 25:-8.9421553 26:-13.278086 27:-24.318895 28:126.2167 29:11.740937 30:12.201849 31:12.7714 32:9.1204114 33:-1.1893199 34:61.384322 35:13.038259 36:20.355469 37:-7.9400526 38:-3.0734383 39:-18.369955 40:59.704024 41:10.15225 42:11.643347 43:-1.8423734 44:2.043485 45:-11.546184 46:17.714681 47:6.1174166 48:7.8458882 49:-5.9273336 50:-4.5860865 51:-9.636066 52:18.274568 53:6.5985573 54:7.0405528 55:-6.3269837 56:-8.1070899 57:-25.446907 58:38.319561 59:3.5273573 60:15.383961 61:-6.2897873 62:-8.2832069 63:-17.431659 64:23.962211 65:3.9741819 66:10.222037 67:0.50621086 68:-0.033822107 69:-13.931411 70:23.615815 71:6.6226804 72:7.1479897 
1.1258551670696806 1:-165.34307 2:-155.1237 3:-277.9039 4:3969.2944 5:62.796999 6:177.03513 7:68.741077 8:65.442499 9:49.972137 10:162.77922 11:15.513555 12:69.947428 13:-9.9001318 14:-14.188446 15:-41.134622 16:403.22924 17:23.417802 18:25.183502 19:6.7769059 20:6.3461108 21:-4.6715386 22:36.198747 23:5.9073696 24:9.4876331 25:-5.9111478 26:-12.571076 27:-25.860611 28:123.17123 29:11.813115 30:14.975813 31:12.939227 32:8.203359 33:-2.956718 34:66.602676 35:8.6088426 36:12.884935 37:-2.984016 38:-4.213618 39:-17.854675 40:59.692423 41:9.2908576 42:10.902015 43:-2.8097273 44:-1.0802932 45:-12.257738 46:20.005122 47:5.5479963 48:11.29141 49:-5.4299536 50:2.6670198 51:-13.648679 52:15.979307 53:6.3715425 54:8.8636649 55:-10.31928 56:-7.0423738 57:-18.659198 58:37.174549 59:8.8518222 60:11.412499 61:-4.9224113 62:-7.1384909 63:-14.44079 64:17.055455 65:11.136303 66:13.92452 67:-2.7606917 68:-1.9996363 69:-10.154086 70:22.276405 71:6.0696035 72:4.2513242 
1.1270914987218197 1:-163.12345 2:-164.27085 3:-279.19176 4:3973.1309 5:67.884488 6:176.21762 7:72.975333 8:65.74838 9:45.916305 10:171.79111 11:13.185672 12:78.194374 13:-9.7776742 14:-11.459632 15:-42.936181 16:401.13247 17:18.469667 18:24.506845 19:10.370169 20:9.7467612 21:-2.5955137 22:29.337913 23:6.2581405 24:9.5020376 25:-7.0286537 26:-10.219008 27:-23.607168 28:117.39552 29:12.798865 30:17.322233 31:15.842195 32:9.8391867 33:-6.3986691 34:62.427539 35:8.6857825 36:11.986362 37:-5.9259138 38:-4.3099597 39:-21.615639 40:62.80851 41:12.032256 42:12.429628 43:3.953394 44:1.3679193 45:-14.202462 46:14.822813 47:4.5675301 48:12.072774 49:-3.6869231 50:-4.329622 51:-15.030025 52:18.615436 53:3.1881389 54:8.5662753 55:-9.8799216 56:-5.4901456 57:-24.097199 58:39.001216 59:7.0737521 60:9.4379906 61:-5.9734327 62:-8.7754522 63:-18.332453 64:19.35606 65:3.047053 66:11.469326 67:1.9830193 68:1.9409289 69:-8.7862963 70:25.38039 71:6.173776 72:4.4695942 
1.1277803227062002 1:-166.24663 2:-160.71129 3:-281.56685 4:3969.5562 5:61.797279 6:178.08799 7:74.313688 8:69.184719 9:53.08203 10:169.4648 11:15.120116 12:71.772708 13:-10.950006 14:-14.34355 15:-43.215109 16:403.32564 17:17.597159 18:24.261288 19:7.7062078 20:6.8202009 21:-4.5624806 22:31.920991 23:7.1102356 24:7.3376307 25:-3.9709245 26:-14.038114 27:-26.787207 28:124.75297 29:12.353334 30:16.05283 31:10.362513 32:5.7707944 33:-3.9752978 34:61.867873 35:7.4087891 36:20.45245 37:-3.3433957 38:-5.6034408 39:-20.769467 40:58.299911 41:8.3186531 42:10.4323 43:-1.8804617 44:-1.6907286 45:-10.908178 46:13.635434 47:7.0437661 48:7.0745482 49:-2.4736996 50:-2.5696332 51:-13.555777 52:15.499348 53:2.2218223 54:6.0528559 55:-9.820686 56:-11.257518 57:-15.500639 58:36.866038 59:10.003669 60:17.895893 61:-9.3408827 62:-12.851564 63:-19.368311 64:21.241554 65:6.7695734 66:5.7956063 67:-1.3395723 68:0.78292847 69:-9.341089 70:25.105673 71:4.0485739 72:2.042621 
1.1259106393867171 1:-168.64196 2:-156.31543 3:-277.76641 4:3970.6836 5:62.908927 6:178.16239 7:76.372886 8:66.796225 9:49.562822 10:166.56948 11:15.008561 12:71.609251 13:-9.975048 14:-11.494351 15:-38.265233 16:401.45015 17:21.378473 18:23.577251 19:6.3727368 20:5.433117 21:-1.5738268 22:29.116027 23:9.5329899 24:6.0182452 25:-9.3723194 26:-11.037924 27:-22.936295 28:122.91644 29:10.965314 30:15.140382 31:12.315401 32:10.955442 33:-3.7072359 34:62.771696 35:6.8541548 36:16.884067 37:-5.2965082 38:-5.5561802 39:-16.377201 40:59.403435 41:7.1127738 42:12.733582 43:-3.5403882 44:0.57107969 45:-14.487744 46:14.466237 47:5.5577977 48:8.0589457 49:-3.1047948 50:-6.9368414 51:-13.310581 52:12.515034 53:4.3343224 54:4.5510959 55:-6.6610858 56:-10.70003 57:-19.295278 58:37.044105 59:4.6121195 60:10.704969 61:-9.8747389 62:-4.9619593 63:-22.339418 64:13.376944 65:8.3306202 66:9.2722998 67:-1.7167558 68:-1.7474223 69:-11.503411 70:20.102341 71:2.4382814 72:8.6413269 
1.1262778341968651 1:-163.75881 2:-160.55107 3:-278.41468 4:3969.5389 5:61.721488 6:180.52281 7:70.070391 8:68.308328 9:55.41629 10:167.83957 11:14.204706 12:72.200058 13:-7.5345907 14:-16.387917 15:-40.970692 16:399.43814 17:19.690456 18:24.589049 19:10.627433 20:12.546178 21:-5.9564864 22:36.38045 23:9.2265556 24:12.602986 25:-13.414175 26:-11.450839 27:-25.86239 28:123.47955 29:12.248611 30:16.142161 31:11.899846 32:9.8404505 33:-8.7924066 34:62.216518 35:11.12997 36:14.822362 37:-11.427167 38:-6.005517 39:-19.180161 40:61.787756 41:8.8331719 42:11.81548 43:-7.1640082 44:-2.7898524 45:-12.183345 46:19.146842 47:3.4449072 48:7.6473316 49:-2.982519 50:-2.4029544 51:-10.6769 52:11.904993 53:-2.0032008 54:8.5126928 55:-10.783788 56:-7.4593874 57:-21.462041 58:34.804244 59:8.8784478 60:11.760974 61:-11.628204 62:-13.98339 63:-17.006612 64:16.47554 65:5.2497508 66:13.271968 67:-5.7530344 68:-2.1609516 69:-10.199158 70:20.604324 71:5.3250081 72:8.9552237 
1.1268443167797606 1:-168.94694 2:-159.46092 3:-277.48197 4:3968.9177 5:60.55359 6:180.45148 7:70.761265 8:67.366076 9:52.131925 10:167.94685 11:15.314432 12:74.745535 13:-13.708864 14:-14.929333 15:-39.473446 16:398.26756 17:20.106997 18:23.056269 19:9.1098387 20:7.8890761 21:-3.7511983 22:35.433448 23:3.6908549 24:8.5965235 25:-14.963091 26:-9.1548244 27:-28.333478 28:118.28198 29:11.90519 30:9.0897706 31:4.8904819 32:11.273708 33:-1.969135 34:65.879659 35:7.7441133 36:16.865946 37:-5.8696582 38:-1.6182477 39:-19.705273 40:57.541195 41:7.5520481 42:8.9361098 43:-5.4547566 44:-7.8941079 45:-13.888968 46:19.372073 47:1.1303581 48:6.1442332 49:-3.9775615 50:-6.1355782 51:-10.541651 52:17.202021 53:5.8993639 54:3.8603762 55:-11.109846 56:-9.5170763 57:-21.877607 58:35.854897 59:8.2026846 60:13.17261 61:-6.4397031 62:-6.408554 63:-12.735364 64:9.7864944 65:5.4136813 66:8.8138087 67:-1.8148765 68:-3.1593176 69:-7.6757782 70:27.241009 71:5.0692203 72:8.3717581 
1.1265378590955819 1:-167.97823 2:-161.03645 3:-279.87445 4:3972.7599 5:66.087978 6:177.39969 7:71.904556 8:72.043866 9:52.852274 10:169.52668 11:12.53036 12:75.481717 13:-10.55556 14:-14.053246 15:-41.476092 16:396.30033 17:21.856049 18:21.2854 19:4.091591 20:5.0827716 21:-4.1318449 22:31.387039 23:4.0513358 24:10.566612 25:-5.8373628 26:-13.586446 27:-30.919862 28:123.52202 29:14.293699 30:15.73374 31:13.723823 32:11.530916 33:-5.7905743 34:61.787193 35:6.3489978 36:13.23975 37:-1.3814575 38:-2.96044 39:-19.706346 40:64.306926 41:12.572549 42:11.626526 43:-0.48427873 44:-5.1081752 45:-14.722689 46:19.675596 47:1.6455253 48:8.407412 49:-5.5965064 50:-6.5963082 51:-12.437308 52:16.56888 53:-1.7893939 54:2.9955958 55:-13.24296 56:-7.6918369 57:-20.15303 58:37.490956 59:5.8138031 60:15.665952 61:-8.5969736 62:-11.024304 63:-15.370792 64:18.490404 65:5.6400203 66:8.2473971 67:2.4670773 68:-0.67125699 69:-9.8872257 70:25.772057 71:7.894485 72:8.0008858 
1.1272542526157201 1:-165.06708 2:-167.76313 3:-274.28575 4:3967.7034 5:63.315551 6:180.2847 7:71.799556 8:71.524766 9:55.29428 10:164.92171 11:17.52199 12:69.398875 13:-11.147325 14:-14.141197 15:-43.781974 16:399.01349 17:18.359074 18:21.674326 19:7.1677682 20:7.0290839 21:-7.4965775 22:34.42155 23:6.9187572 24:12.110554 25:-9.5734949 26:-10.353807 27:-23.231032 28:119.75006 29:13.239528 30:19.271677 31:12.266682 32:9.2301444 33:-4.3265251 34:59.487727 35:9.8640159 36:16.773627 37:-3.306764 38:-6.1630772 39:-18.212908 40:61.961783 41:5.7535831 42:10.799023 43:-3.5975435 44:-2.1178575 45:-10.38153 46:16.686471 47:1.3522139 48:7.0168377 49:-2.2720236 50:-2.6429335 51:-8.4145319 52:20.462315 53:7.0464707 54:11.970435 55:-10.113547 56:-6.0105281 57:-25.161948 58:35.514225 59:0.60267457 60:10.005596 61:-4.7670664 62:-7.8574888 63:-16.351056 64:17.347844 65:0.71460925 66:7.6984808 67:-0.51641242 68:-3.3401802 69:-6.1157993 70:20.973826 71:3.104435 72:7.3645176 
1.1266464665430218 1:-168.17866 2:-159.49163 3:-274.29042 4:3971.0387 5:62.400201 6:179.21401 7:70.726416 8:69.269621 9:50.31269 10:164.96535 11:15.272685 12:73.217636 13:-9.671887 14:-14.835985 15:-39.801287 16:396.98098 17:26.209832 18:25.392939 19:5.902722 20:9.0549137 21:-2.2268518 22:33.910489 23:7.1884229 24:4.8368888 25:-7.9668617 26:-11.255846 27:-24.758025 28:126.49041 29:14.253234 30:11.636364 31:10.603886 32:8.6687038 33:-6.5105887 34:63.84048 35:10.805152 36:14.790634 37:-9.8346483 38:-5.9892742 39:-16.499725 40:55.785575 41:8.5891582 42:11.397561 43:-3.8603724 44:-2.9987542 45:-16.408756 46:18.373553 47:9.5592345 48:7.815358 49:-0.14482537 50:-1.7150584 51:-16.123558 52:11.695563 53:6.010072 54:8.6365249 55:-10.226674 56:-7.5578558 57:-25.023041 58:35.036787 59:4.0268029 60:10.466658 61:-10.136467 62:-11.981353 63:-17.646629 64:19.744523 65:2.2106696 66:9.0386003 67:1.4360912 68:-3.7928946 69:-12.048224 70:25.075918 71:6.7585278 72:11.886443 
1.1283835163711522 1:-166.30385 2:-159.25113 3:-276.95455 4:3968.1281 5:64.147524 6:179.88194 7:74.089919 8:70.890274 9:56.350141 10:171.95576 11:11.99944 12:76.488785 13:-12.216154 14:-11.514861 15:-41.809418 16:397.63915 17:20.275126 18:22.456687 19:9.9307617 20:7.8708547 21:-2.3190266 22:31.223857 23:8.9729352 24:7.873391 25:-5.2805329 26:-13.359953 27:-28.706512 28:125.06894 29:11.547115 30:19.433429 31:9.7903972 32:12.815579 33:-1.9696488 34:66.082751 35:9.1258692 36:14.92845 37:-8.1179362 38:-7.287152 39:-19.730081 40:63.008684 41:9.9046137 42:10.210812 43:1.161041 44:-2.0151571 45:-10.395909 46:19.723023 47:1.4049441 48:7.9257709 49:-1.0770737 50:-6.4868524 51:-11.524172 52:13.164983 53:2.8261065 54:9.1053516 55:-10.518871 56:-5.083204 57:-25.154258 58:34.695345 59:6.2589595 60:13.415732 61:-4.6524841 62:-6.3158723 63:-17.288329 64:17.907723 65:1.2032504 66:9.8037138 67:-1.1671188 68:-0.18671745 69:-5.9029031 70:22.205141 71:6.1563339 72:2.5682953 
1.1272524267056601 1:-163.65138 2:-161.38929 3:-278.85962 4:3972.7386 5:63.985612 6:180.47325 7:69.166073 8:65.617101 9:51.449474 10:167.44812 11:14.695301 12:78.972068 13:-12.655971 14:-11.215849 15:-43.244676 16:396.76692 17:20.13889 18:20.941981 19:10.513374 20:6.4808416 21:-3.8353932 22:32.528283 23:8.055254 24:7.6616271 25:-10.920329 26:-13.509735 27:-29.188594 28:119.45524 29:5.4144973 30:16.855162 31:10.323996 32:5.8394852 33:-2.5779363 34:57.917416 35:6.1494214 36:14.379059 37:-5.054355 38:-3.6327008 39:-20.85649 40:62.671179 41:11.75691 42:13.625607 43:2.0702456 44:2.3504427 45:-12.468263 46:16.332886 47:5.8684523 48:15.778897 49:-3.1530439 50:-0.80209494 51:-13.154324 52:16.960209 53:2.6979735 54:9.0181536 55:-8.4178116 56:-9.2376792 57:-27.297194 58:36.370853 59:0.36923674 60:17.561064 61:-3.1448197 62:-9.6292293 63:-16.623619 64:14.007835 65:4.8559046 66:9.5459319 67:-2.154509 68:-1.8429101 69:-5.7762355 70:23.021761 71:5.5336544 72:6.8903257 
1.1267590308893789 1:-167.86349 2:-162.79979 3:-280.52553 4:3968.9736 5:66.478759 6:181.63974 7:71.964462 8:67.755599 9:56.188148 10:166.68137 11:14.17333 12:75.165098 13:-11.292867 14:-16.116605 15:-47.095003 16:397.54711 17:19.663696 18:25.332452 19:7.8823481 20:6.0326616 21:-0.93835012 22:28.16381 23:6.7797801 24:9.4692731 25:-14.142076 26:-13.603482 27:-25.333431 28:126.38351 29:7.5025664 30:12.982588 31:7.6284821 32:12.449188 33:-1.6260328 34:65.514501 35:8.7456856 36:12.212943 37:-8.4787193 38:-4.3456311 39:-19.050183 40:62.708576 41:7.541106 42:9.7777676 43:-3.4654167 44:-6.0650559 45:-17.577924 46:21.516533 47:4.5971793 48:3.8513778 49:-3.7319125 50:-4.4526575 51:-9.9413302 52:12.349434 53:7.9531692 54:4.4698868 55:-6.5734419 56:-8.3167541 57:-22.45266 58:39.346832 59:3.872829 60:13.503861 61:-14.966507 62:-8.6136434 63:-20.086196 64:21.509181 65:5.3882867 66:11.56648 67:0.26760921 68:-3.8186387 69:-6.4980416 70:21.370234 71:7.9283675 72:7.3794263 
1.1275898586935249 1:-168.97854 2:-164.38139 3:-277.73211 4:3970.5445 5:59.792724 6:175.54861 7:69.055796 8:68.727837 9:54.446603 10:167.91022 11:14.90184 12:73.675575 13:-12.507303 14:-12.203137 15:-42.897241 16:399.62881 17:23.007131 18:28.529574 19:4.8809833 20:8.0823089 21:-9.0587418 22:38.257181 23:1.785777 24:11.303453 25:-7.9756172 26:-13.772723 27:-25.588162 28:123.00986 29:9.5682694 30:13.268047 31:7.2978904 32:10.371148 33:1.5675814 34:62.910845 35:5.4160567 36:8.9468273 37:-3.0559166 38:1.973284 39:-22.325852 40:56.722166 41:7.1789489 42:13.422955 43:-3.6077485 44:-9.7269995 45:-14.521775 46:21.383202 47:6.0755192 48:7.5708726 49:2.6814492 50:-1.010587 51:-13.851254 52:19.061587 53:4.3798486 54:7.7047667 55:-9.6472089 56:-11.162567 57:-21.866307 58:34.905565 59:9.2565009 60:14.244905 61:-13.99211 62:-5.0875047 63:-17.314199 64:15.952332 65:2.2919842 66:8.6219444 67:-1.4237459 68:-2.6868708 69:-10.931061 70:22.375482 71:11.767797 72:6.3441513 
1.1273391317911929 1:-167.70127 2:-153.79979 3:-281.59369 4:3968.311 5:63.235622 6:173.51121 7:71.796725 8:70.73185 9:49.871274 10:171.36803 11:13.188771 12:70.006753 13:-5.9755509 14:-13.942587 15:-37.198285 16:402.85142 17:15.781287 18:24.547007 19:6.685916 20:6.7822357 21:-7.350609 22:33.930548 23:9.2412743 24:11.439533 25:-6.9737245 26:-13.549259 27:-29.002201 28:118.78947 29:12.861419 30:14.037436 31:7.0457812 32:9.5685149 33:-3.6512796 34:59.239019 35:11.588053 36:15.208436 37:-4.6103149 38:-7.2211866 39:-20.518915 40:57.200034 41:11.468017 42:11.620249 43:-2.2720622 44:0.030134046 45:-13.228764 46:14.085312 47:5.2037453 48:11.621802 49:-3.7521498 50:-6.4881433 51:-10.547717 52:24.316302 53:5.7625494 54:8.1561017 55:-12.200778 56:-8.9266713 57:-25.196058 58:39.631371 59:4.6572954 60:11.000011 61:-15.313358 62:-7.6787811 63:-16.183819 64:17.531727 65:4.7909704 66:9.7288455 67:2.8574145 68:1.1415385 69:-6.4566005 70:23.144012 71:6.5546574 72:2.9516951 
1.12745517009356 1:-165.75868 2:-158.17151 3:-273.49759 4:3966.6682 5:63.077476 6:179.73073 7:72.621252 8:70.855249 9:52.719174 10:167.35472 11:14.272658 12:77.256614 13:-8.4051394 14:-18.194953 15:-42.376353 16:398.24682 17:21.955018 18:20.978581 19:7.1871187 20:7.1341838 21:-7.8822118 22:35.692031 23:3.4649612 24:10.036269 25:-7.5542278 26:-15.358538 27:-27.587554 28:118.62803 29:6.1562183 30:19.768389 31:8.5729956 32:9.0695506 33:-3.0635749 34:65.125971 35:13.514552 36:13.95919 37:-8.8041246 38:-4.4859222 39:-20.388618 40:58.774197 41:12.036977 42:9.7298787 43:-1.9676791 44:-5.968179 45:-11.857285 46:16.227737 47:4.0628191 48:6.4037283 49:-5.0805404 50:-3.3463509 51:-15.667914 52:12.904187 53:3.444896 54:4.1936232 55:-7.6086765 56:-5.1758703 57:-18.267425 58:35.758959 59:12.742554 60:15.478227 61:-8.7482231 62:-5.8774025 63:-16.90432 64:11.820843 65:10.025051 66:10.74871 67:-1.3138791 68:3.9578276 69:-14.48702 70:20.780736 71:6.440488 72:2.1433615 
1.1261038112693396 1:-166.68231 2:-162.38414 3:-284.29584 4:3971.8285 5:62.781818 6:178.62358 7:69.428366 8:71.107122 9:49.261728 10:170.15097 11:15.56776 12:75.523282 13:-9.49434 14:-19.71902 15:-44.110649 16:399.83695 17:26.526999 18:28.043138 19:4.3861694 20:3.6811789 21:-4.5913883 22:35.251733 23:3.3514355 24:10.615513 25:-8.761975 26:-11.559688 27:-32.708789 28:122.77768 29:9.5560715 30:13.346271 31:9.8078524 32:7.2350349 33:-4.2963587 34:64.962368 35:7.9217 36:12.96797 37:-6.3245086 38:-9.0266597 39:-20.396373 40:57.101702 41:6.6267646 42:12.069911 43:-3.051347 44:-4.7739101 45:-16.19243 46:20.343397 47:6.205619 48:4.802098 49:-5.6890422 50:-1.7090818 51:-10.372791 52:19.207849 53:2.4454611 54:11.163287 55:-9.164446 56:-3.3922338 57:-23.632656 58:34.205708 59:7.1257749 60:13.287965 61:-10.123635 62:-6.8859844 63:-15.645264 64:16.14874 65:5.2253802 66:8.9278757 67:3.1524851 68:-2.7038937 69:-7.5361982 70:23.204312 71:8.3495019 72:5.8461349 
1.1276704199283758 1:-167.5537 2:-157.0397 3:-282.17561 4:3969.418 5:63.026833 6:178.58696 7:73.54263 8:66.209753 9:55.1324 10:168.54366 11:14.987493 12:73.791339 13:-10.261922 14:-10.209276 15:-44.645773 16:400.60735 17:21.283159 18:26.146372 19:9.1626649 20:8.0247493 21:-5.1487147 22:31.346557 23:5.2428393 24:14.394894 25:-13.09767 26:-9.0484807 27:-22.645424 28:122.59854 29:17.883239 30:12.600049 31:11.361319 32:10.378759 33:0.091872925 34:61.687463 35:13.168173 36:13.523511 37:-5.6265053 38:-1.3144 39:-19.756848 40:59.599865 41:11.29135 42:7.1152347 43:-2.3436041 44:-1.572619 45:-12.442435 46:19.640482 47:6.4216888 48:9.2113556 49:-3.8150951 50:-6.1171735 51:-9.721837 52:17.065902 53:3.0772301 54:11.152925 55:-12.093992 56:-10.440534 57:-24.470422 58:36.000363 59:7.2811522 60:13.824299 61:-10.319269 62:-9.2650723 63:-18.862554 64:14.990793 65:3.6911278 66:12.10124 67:-6.6088758 68:1.0383209 69:-5.9121108 70:24.84309 71:9.2358037 72:4.0966321 
1.1274708218641833 1:-166.96302 2:-160.31892 3:-276.25732 4:3970.8977 5:65.533918 6:179.28187 7:76.123645 8:66.695653 9:51.311477 10:162.99154 11:8.8085638 12:75.46374 13:-9.9098433 14:-14.060144 15:-40.736845 16:398.69149 17:18.557054 18:23.148666 19:8.2046254 20:9.7932937 21:-1.998231 22:31.464071 23:6.7423034 24:14.634172 25:-8.4824498 26:-8.4551315 27:-23.67416 28:117.39559 29:15.311859 30:17.438076 31:13.606083 32:2.4238305 33:-6.5715895 34:61.157437 35:7.553202 36:13.905654 37:-6.4135058 38:-1.248715 39:-26.374364 40:62.395296 41:14.920132 42:11.372296 43:-6.3573789 44:-1.2552696 45:-12.612213 46:18.445293 47:8.8052436 48:8.5506895 49:-1.8009323 50:-0.30327875 51:-15.646831 52:14.448707 53:9.1023786 54:6.5533807 55:-13.380569 56:-8.6175864 57:-27.244838 58:35.568979 59:10.6225 60:12.195696 61:-7.4669742 62:-12.793914 63:-19.212949 64:19.482969 65:7.5913989 66:5.6693694 67:2.2145311 68:-3.4710841 69:-8.1583379 70:21.869849 71:7.8943052 72:0.47734064 
1.1267756103201871 1:-166.51001 2:-163.018 3:-279.28161 4:3968.6303 5:64.090669 6:178.51216 7:77.899649 8:65.377668 9:54.383947 10:169.65024 11:15.227584 12:74.287873 13:-11.373151 14:-15.188614 15:-42.320405 16:399.68945 17:21.263467 18:24.071968 19:5.8659013 20:2.9048901 21:0.23840422 22:33.578588 23:6.2075849 24:6.6409016 25:-8.5655694 26:-9.147701 27:-24.796606 28:126.34978 29:10.451264 30:11.650437 31:10.839625 32:5.6259942 33:-2.8506369 34:63.374801 35:5.5936737 36:15.098443 37:-3.868324 38:-0.92313973 39:-19.474399 40:57.394867 41:4.8567036 42:12.374481 43:-0.64009393 44:0.25687634 45:-14.08173 46:23.774463 47:5.2898938 48:5.4609725 49:-2.4309454 50:-2.5665161 51:-14.90347 52:13.577542 53:4.2045577 54:8.323829 55:-10.415517 56:-5.1731746 57:-25.701081 58:32.988092 59:8.5899293 60:13.651887 61:-3.5563499 62:-5.5743521 63:-17.910102 64:14.423574 65:8.0233158 66:13.752057 67:-0.73500718 68:-1.8064383 69:-15.997842 70:21.433648 71:8.234489 72:2.9266014 
1.1246212753806839 1:-167.52725 2:-160.8877 3:-278.70462 4:3971.725 5:65.617767 6:176.75073 7:70.719483 8:66.388967 9:52.99053 10:162.85589 11:13.984275 12:68.392398 13:-8.7977659 14:-12.806299 15:-46.372176 16:399.6122 17:20.578175 18:23.694253 19:8.4845065 20:8.1146364 21:-4.7433624 22:36.425604 23:8.7222686 24:10.554316 25:-10.108882 26:-6.9839459 27:-28.565902 28:123.28915 29:10.878964 30:15.851001 31:10.524122 32:4.422997 33:-3.2827471 34:64.459079 35:6.9687178 36:14.813777 37:-7.2468172 38:-5.1964143 39:-18.349963 40:55.934735 41:9.4609253 42:6.8057265 43:2.4397696 44:-3.9821754 45:-15.026245 46:17.339014 47:7.4371192 48:6.7259948 49:-5.6383746 50:-2.3889946 51:-13.42212 52:13.938665 53:6.942638 54:7.9763471 55:-7.875512 56:-11.396544 57:-28.003487 58:36.063437 59:1.822495 60:17.029232 61:-11.330324 62:-10.463051 63:-20.340505 64:17.793872 65:2.4568905 66:13.088439 67:-2.8348456 68:-1.7303335 69:-12.454792 70:24.366004 71:6.99326 72:6.0523691 
1.1278796006830578 1:-165.78277 2:-163.99236 3:-273.95413 4:3971.0666 5:61.196427 6:174.71485 7:73.094525 8:67.230806 9:54.249533 10:167.2667 11:15.683363 12:74.576019 13:-11.476201 14:-11.283642 15:-44.712393 16:402.99771 17:23.390932 18:27.768365 19:3.9890566 20:4.2906774 21:-0.87471044 22:32.788172 23:6.2763778 24:6.2272099 25:-7.555582 26:-11.771282 27:-25.236506 28:122.68467 29:10.361031 30:14.183257 31:13.996987 32:10.404006 33:-0.83769153 34:66.779169 35:10.572577 36:10.581492 37:-3.9195998 38:-3.6891001 39:-14.253452 40:63.59003 41:7.2857987 42:11.3529 43:-0.43508296 44:-4.9388107 45:-11.863126 46:22.2607 47:5.7917093 48:4.116252 49:-4.7482755 50:-3.8539404 51:-8.2796315 52:15.211789 53:6.0505325 54:2.1361159 55:-7.7388996 56:-4.6413495 57:-24.996338 58:35.356296 59:3.8980516 60:14.993601 61:-8.1163798 62:-7.4822739 63:-16.528496 64:20.163747 65:3.1627605 66:10.63457 67:-0.32587719 68:-1.0461039 69:-11.949317 70:27.911145 71:7.6779109 72:4.7710472 
1.1256970179759378 1:-165.47643 2:-162.431 3:-276.15316 4:3971.7885 5:58.4522 6:177.7549 7:71.703332 8:66.693475 9:50.086744 10:163.4774 11:10.490999 12:72.19073 13:-14.103235 14:-18.244042 15:-44.337883 16:398.25202 17:21.67104 18:20.094775 19:4.8463034 20:11.005144 21:-6.0079119 22:34.431622 23:7.7102142 24:9.8336289 25:-10.911021 26:-11.576414 27:-27.765918 28:115.29139 29:12.1816 30:15.6481 31:9.7647966 32:9.549386 33:-3.4767693 34:67.485969 35:7.2040215 36:14.133179 37:-8.433445 38:-10.292427 39:-20.904401 40:60.265724 41:11.658275 42:13.621733 43:-0.49051697 44:-5.9753918 45:-15.773478 46:18.144469 47:4.0762533 48:2.6977113 49:-5.5902263 50:-5.0575615 51:-12.128412 52:19.904124 53:6.5011351 54:4.802637 55:-6.0048812 56:-7.4784717 57:-22.400871 58:35.763747 59:3.9334033 60:13.151095 61:-6.2438222 62:-11.457178 63:-13.933794 64:14.136877 65:4.6968538 66:16.792716 67:2.1604898 68:1.3846468 69:-7.6833048 70:21.538656 71:4.5909985 72:6.5070762 
1.1268885991984094 1:-170.45599 2:-161.03453 3:-278.75304 4:3969.168 5:61.957941 6:184.05951 7:76.01882 8:66.573061 9:54.974459 10:167.21449 11:15.193722 12:73.656939 13:-10.116128 14:-19.18338 15:-42.022185 16:398.16028 17:27.651772 18:24.430942 19:7.5390172 20:8.7245082 21:-2.3804665 22:33.351619 23:5.5370815 24:6.0704892 25:-11.237108 26:-10.40206 27:-27.474657 28:123.37054 29:11.309537 30:15.339276 31:9.5906568 32:3.5203487 33:0.80500662 34:62.83034 35:6.5709583 36:13.11504 37:-4.4129529 38:-1.7909503 39:-17.279541 40:59.763244 41:4.4132392 42:13.441608 43:-3.8346186 44:2.1708094 45:-15.10048 46:17.568669 47:10.187095 48:1.9558258 49:-1.9156318 50:-2.0118372 51:-11.96771 52:11.514518 53:7.7487504 54:8.3240724 55:-13.659728 56:-8.3750492 57:-27.460053 58:31.196971 59:4.4563533 60:9.7022592 61:-8.5263755 62:-9.1000421 63:-20.239382 64:13.699764 65:0.63817521 66:11.257685 67:1.5434653 68:3.7991123 69:-11.240545 70:25.70471 71:7.403753 72:7.4416446 
1.1270011120205361 1:-166.54677 2:-157.51158 3:-278.73903 4:3976.7153 5:62.78733 6:180.80924 7:70.507591 8:68.894639 9:46.22303 10:165.80474 11:11.459195 12:72.035038 13:-13.120914 14:-16.0673 15:-39.625793 16:401.04841 17:21.925837 18:19.967887 19:8.6756559 20:7.6318296 21:3.0347617 22:33.158973 23:9.2684778 24:7.7211376 25:-6.5374225 26:-12.557966 27:-29.6719 28:114.92013 29:9.108306 30:17.488171 31:14.792808 32:11.720829 33:-7.0514886 34:60.845733 35:9.8883127 36:13.955719 37:-8.8384719 38:-5.5746385 39:-16.773107 40:60.921814 41:8.2296502 42:9.587315 43:-2.9347681 44:-0.38426912 45:-12.799107 46:22.674978 47:6.7939132 48:5.5325377 49:-5.3033112 50:-2.3184215 51:-12.222534 52:15.126384 53:8.9219465 54:5.5227486 55:-10.828848 56:-5.3217334 57:-24.95703 58:34.463551 59:12.745624 60:9.478534 61:-7.2518126 62:-8.2970114 63:-15.803321 64:20.685671 65:8.4536163 66:12.739658 67:-0.44335122 68:1.7260992 69:-9.7686847 70:23.053536 71:1.5443883 72:8.9071625 
1.1273868009839971 1:-163.80197 2:-160.48466 3:-274.62085 4:3970.6905 5:61.013508 6:171.89451 7:73.407145 8:67.466138 9:53.201711 10:167.5294 11:10.594909 12:70.388275 13:-7.5114289 14:-15.964182 15:-40.59681 16:395.11588 17:21.723588 18:28.535298 19:4.1607876 20:7.0123665 21:-7.6931934 22:34.089482 23:7.5709238 24:9.1886499 25:-5.0784122 26:-12.16351 27:-27.135259 28:124.62474 29:11.915975 30:12.222657 31:15.615295 32:9.8299307 33:-9.647077 34:62.446924 35:5.4487108 36:11.921281 37:-7.8001067 38:-6.695482 39:-18.56133 40:59.135599 41:7.8656883 42:7.3599606 43:-2.4794831 44:-2.3411656 45:-5.2570179 46:17.82337 47:-0.1331239 48:6.3014755 49:-4.9281653 50:-0.89992659 51:-11.142681 52:13.697941 53:0.52511301 54:11.499912 55:-12.798252 56:-5.3184233 57:-22.49796 58:38.380076 59:7.958929 60:12.398022 61:-6.5452529 62:-9.9581683 63:-15.414629 64:18.818939 65:6.5566095 66:13.886544 67:-3.4275035 68:-8.516359 69:-7.6124241 70:20.783544 71:9.9885891 72:4.8828325 
1.1269275275048325 1:-163.43852 2:-158.66548 3:-282.7722 4:3974.1329 5:63.142347 6:179.29303 7:71.445606 8:68.318074 9:47.522709 10:168.06439 11:14.402939 12:71.178747 13:-8.9140809 14:-16.677832 15:-42.746704 16:401.52687 17:24.788267 18:23.73918 19:2.5577721 20:6.0399825 21:-5.9740883 22:39.060022 23:8.0878924 24:12.231061 25:-13.83104 26:-11.798159 27:-20.862047 28:122.76965 29:9.9168692 30:13.797752 31:13.316932 32:7.959077 33:-0.75031257 34:64.169049 35:7.8478414 36:15.214048 37:-6.5619482 38:-6.7506009 39:-22.816619 40:62.239452 41:9.3541367 42:12.730005 43:-1.5421217 44:-1.8668697 45:-12.542518 46:20.593286 47:7.0332674 48:12.037902 49:-2.4958032 50:-2.5270787 51:-9.0752172 52:16.304337 53:-0.89158091 54:7.4006482 55:-9.2189745 56:-8.8300927 57:-22.922621 58:36.636692 59:9.5994602 60:13.567091 61:-7.253737 62:-9.9392253 63:-15.607326 64:18.267783 65:6.9129186 66:14.503702 67:1.5792786 68:-2.1254358 69:-10.988538 70:24.241432 71:3.3160373 72:6.7889786 
1.1288531682970602 1:-162.1403 2:-160.54892 3:-277.06155 4:3972.507 5:65.946569 6:180.35233 7:69.748887 8:69.163701 9:50.159979 10:167.03141 11:12.279968 12:72.539312 13:-12.237458 14:-11.057583 15:-38.458537 16:397.66945 17:20.484971 18:27.653941 19:5.3008331 20:10.520023 21:-6.2898616 22:31.254145 23:9.8748113 24:10.677099 25:-6.5577718 26:-11.441659 27:-25.852977 28:122.69353 29:5.8540305 30:13.94494 31:7.4349066 32:10.047029 33:-0.47805381 34:55.483227 35:10.935527 36:16.12893 37:-11.178783 38:-4.0062235 39:-19.39127 40:59.653455 41:6.9287692 42:16.661521 43:-4.9170692 44:-3.1765439 45:-9.1020678 46:19.136387 47:9.6598377 48:4.0669336 49:-4.1662805 50:-0.13489995 51:-14.40645 52:16.244701 53:7.275927 54:5.7604769 55:-8.1791248 56:-9.7259999 57:-20.98969 58:36.543843 59:6.7631587 60:11.639092 61:-9.3330691 62:-6.0972644 63:-18.477742 64:17.044991 65:5.0106621 66:10.398575 67:2.7769723 68:-3.0715505 69:-10.351706 70:24.575959 71:3.4290343 72:5.6756829 
1.1277054893706107 1:-160.28503 2:-159.90925 3:-277.26461 4:3966.6213 5:59.927378 6:178.77151 7:67.879657 8:70.18309 9:52.294201 10:168.46961 11:13.138192 12:76.342772 13:-15.004613 14:-14.774334 15:-39.757017 16:403.82542 17:22.342831 18:19.159164 19:7.6659199 20:0.81415454 21:-6.3629835 22:33.580771 23:7.3190853 24:7.2257196 25:-11.086701 26:-13.194561 27:-23.792092 28:121.02892 29:13.065686 30:11.448954 31:11.081075 32:8.1121331 33:-3.4792315 34:63.260479 35:6.6510943 36:13.645795 37:-7.109393 38:-5.536296 39:-20.177438 40:61.889303 41:6.0252068 42:8.6853641 43:-7.2895178 44:-1.7236226 45:-10.647806 46:21.169706 47:8.108083 48:-0.44668499 49:1.4102007 50:-0.95541739 51:-13.713602 52:15.477701 53:3.3256552 54:7.0091942 55:-8.8632372 56:-10.043839 57:-18.220915 58:38.77319 59:11.390443 60:13.653253 61:-7.4834311 62:-4.76587 63:-14.103318 64:19.002505 65:4.407677 66:10.784752 67:1.59627 68:1.7008723 69:-3.8663542 70:23.957439 71:4.0928878 72:8.516447 
1.1273896432522958 1:-168.0009 2:-156.77826 3:-276.67022 4:3971.3595 5:63.451693 6:179.61561 7:70.456742 8:67.871898 9:44.624599 10:163.87885 11:15.5981 12:73.884046 13:-12.317121 14:-10.600421 15:-48.145202 16:402.52529 17:19.177642 18:23.088565 19:5.9022099 20:2.8892517 21:-7.2737817 22:33.235657 23:9.3482311 24:8.5842923 25:-9.2697918 26:-7.2941673 27:-28.41513 28:124.44822 29:15.040807 30:17.133204 31:10.160024 32:11.027906 33:-3.4930071 34:66.881531 35:12.058099 36:14.241179 37:-7.6970684 38:-0.095137809 39:-19.699096 40:64.120266 41:5.2814437 42:11.066971 43:-4.9998144 44:-2.7187572 45:-16.363037 46:12.424769 47:5.6533593 48:7.480716 49:-3.5679619 50:-1.2987578 51:-10.096884 52:15.626231 53:6.1794638 54:10.222906 55:-10.232535 56:-7.8319871 57:-25.819647 58:38.140457 59:11.655861 60:9.5946267 61:-8.5573681 62:-9.2247815 63:-17.922093 64:15.353758 65:1.4648906 66:7.4696684 67:-3.6161668 68:-1.923722 69:-8.374682 70:28.184377 71:6.3851797 72:7.3518766 
1.1139136219521388 1:-167.94204 2:-160.68968 3:-278.52097 4:3968.183 5:61.700714 6:178.87847 7:70.795664 8:69.980336 9:50.41653 10:166.24282 11:17.07246 12:69.588947 13:-11.210002 14:-12.478927 15:-41.839145 16:393.01035 17:20.66546 18:23.504709 19:6.6223534 20:5.7855671 21:-3.691883 22:37.080939 23:7.361033 24:9.2739447 25:-8.6228456 26:-9.5058215 27:-30.533619 28:124.81372 29:10.504504 30:13.593591 31:10.962548 32:10.228762 33:-6.5524706 34:59.679512 35:7.95403 36:16.129195 37:-7.7730671 38:-6.4489299 39:-20.796807 40:59.540814 41:8.2323486 42:11.481484 43:-2.9300348 44:-2.7141562 45:-11.66785 46:19.591813 47:4.6932632 48:5.1823153 49:-1.0767093 50:-3.6498562 51:-6.0673076 52:14.642155 53:5.9105527 54:7.6413125 55:-11.643634 56:-7.8025632 57:-27.365719 58:33.881894 59:9.4923515 60:12.436588 61:-13.949799 62:-7.7753016 63:-16.852834 64:16.455423 65:5.7783139 66:8.2600979 67:-0.098336828 68:0.075267783 69:-7.6852137 70:23.845751 71:5.8670931 72:7.4759957 
1.1273387554714771 1:-167.62661 2:-158.20028 3:-281.96343 4:3968.6772 5:65.777571 6:178.98862 7:71.030048 8:68.999145 9:52.454259 10:169.03666 11:14.106917 12:73.843313 13:-13.820316 14:-14.241349 15:-41.012712 16:397.0108 17:17.952185 18:24.061479 19:4.0564477 20:8.7309439 21:-11.778141 22:36.239686 23:5.3714951 24:7.225255 25:-5.5106102 26:-6.6856981 27:-22.420441 28:126.99287 29:10.36587 30:20.623916 31:17.572594 32:10.042617 33:-1.6672199 34:64.082884 35:5.2664916 36:12.613048 37:-7.4176264 38:-3.5753915 39:-21.3302 40:59.397137 41:5.42756 42:13.492876 43:-2.8898394 44:-2.2989661 45:-10.190263 46:21.592141 47:8.3757386 48:3.7367288 49:-2.3612632 50:-6.8839382 51:-9.8851976 52:18.070422 53:4.2632552 54:4.9727576 55:-5.2652082 56:-4.8529284 57:-24.025302 58:37.873148 59:8.4757437 60:9.2987256 61:-5.8419675 62:-3.501926 63:-18.004085 64:12.010636 65:5.783164 66:10.897837 67:5.8649671 68:-1.6984621 69:-11.747853 70:21.513232 71:5.380389 72:4.112542 
1.1277790192507582 1:-162.92474 2:-162.17443 3:-278.9125 4:3970.6504 5:68.132896 6:184.427 7:72.091088 8:71.669578 9:52.122847 10:163.52889 11:16.582974 12:74.085353 13:-8.8462227 14:-15.160013 15:-39.627522 16:398.76843 17:16.931703 18:22.07263 19:7.4889749 20:9.0944964 21:-5.5190553 22:33.569501 23:6.312386 24:11.36985 25:-8.7633675 26:-12.537504 27:-26.910912 28:122.13191 29:12.208451 30:12.941934 31:13.04062 32:10.801496 33:0.93246153 34:60.865526 35:11.577614 36:7.460183 37:-6.249584 38:-5.1323727 39:-19.572492 40:57.036668 41:10.519768 42:9.429201 43:-3.9404053 44:-3.1207942 45:-16.2712 46:23.085372 47:2.8300424 48:7.1424866 49:-3.8877092 50:-1.2267098 51:-12.692563 52:13.933511 53:8.2517174 54:5.6171299 55:-8.1656241 56:-7.9947843 57:-26.365422 58:39.664363 59:2.5707611 60:8.3770464 61:-7.8168613 62:-5.9541322 63:-15.463403 64:19.579403 65:8.4521283 66:18.349943 67:3.3453288 68:-0.85030157 69:-11.394517 70:21.07883 71:11.332824 72:5.3631282 
1.1282186781711321 1:-165.39043 2:-161.10768 3:-275.35297 4:3973.2284 5:70.030502 6:184.25513 7:71.238143 8:67.541859 9:53.231122 10:165.37471 11:12.203477 12:66.838807 13:-15.27812 14:-12.951434 15:-43.012878 16:400.423 17:20.635851 18:23.746141 19:10.026915 20:8.4564175 21:-3.5486004 22:35.87233 23:5.0981217 24:8.1973593 25:-7.5237979 26:-12.71913 27:-26.326801 28:122.61834 29:9.1409765 30:12.473751 31:9.9203338 32:9.3911044 33:-5.4549853 34:63.229089 35:9.7177313 36:10.417811 37:-7.9958028 38:1.5088059 39:-24.448143 40:63.930911 41:9.2403621 42:9.2903183 43:-2.4691223 44:-2.4682164 45:-13.935149 46:17.725198 47:10.604323 48:7.303429 49:-3.6864861 50:-2.0384677 51:-9.4697533 52:21.051337 53:6.0530841 54:7.6765058 55:-9.8425632 56:-3.5533936 57:-25.328841 58:33.735207 59:4.866574 60:13.147784 61:-7.0639615 62:-8.8195013 63:-17.420626 64:20.367024 65:6.7016147 66:12.358702 67:1.334547 68:1.7122352 69:-2.1672363 70:24.233545 71:5.5410745 72:4.5037897 
1.1274238615116328 1:-163.72872 2:-160.61438 3:-283.1269 4:3972.5374 5:64.116642 6:180.387 7:72.820349 8:68.320261 9:53.040836 10:167.65467 11:15.859855 12:72.355257 13:-16.713339 14:-16.098688 15:-42.793407 16:398.02189 17:22.684928 18:20.806995 19:10.726475 20:8.6611066 21:-5.6944218 22:32.418956 23:9.8879442 24:10.683613 25:-6.9016481 26:-13.36075 27:-25.851797 28:122.46091 29:8.7459594 30:18.606112 31:6.5866625 32:11.332745 33:-3.9750563 34:60.657292 35:13.224719 36:14.413643 37:-9.7176003 38:-0.48355406 39:-19.638043 40:57.016685 41:9.6668548 42:11.960683 43:-7.7750009 44:-2.6931312 45:-9.6206872 46:20.651173 47:2.3893352 48:4.3957977 49:0.30291528 50:-3.9782196 51:-13.635259 52:19.945132 53:7.9723207 54:6.3959269 55:-6.3531383 56:-10.658698 57:-26.291791 58:32.884745 59:10.071194 60:15.721154 61:-11.76908 62:-13.067068 63:-15.232265 64:19.382152 65:3.8740213 66:13.047894 67:-2.8653649 68:-5.8800366 69:-8.4218126 70:18.532992 71:6.9434948 72:7.1423165 
1.1286737390518629 1:-165.15303 2:-163.05612 3:-280.53551 4:3972.2626 5:60.320121 6:179.1372 7:74.98493 8:68.329411 9:45.978861 10:167.85245 11:11.902208 12:72.576464 13:-13.755178 14:-14.825485 15:-38.766392 16:401.38216 17:24.504734 18:25.685827 19:10.361329 20:4.863681 21:-1.8824257 22:34.566697 23:5.0284327 24:3.6272969 25:-9.3322749 26:-9.883737 27:-24.792094 28:123.7526 29:9.1141713 30:19.167059 31:8.2080763 32:9.2648419 33:2.4539568 34:63.397075 35:7.1658852 36:13.057005 37:-4.5467012 38:-4.3314493 39:-25.058256 40:61.001476 41:9.2713809 42:12.112799 43:-3.0940098 44:3.9627064 45:-14.065324 46:17.666857 47:11.174297 48:5.6904995 49:-5.9410593 50:-3.1398993 51:-9.9425041 52:12.744322 53:2.6467989 54:7.7719902 55:-8.9386993 56:-11.194659 57:-21.542293 58:37.943657 59:10.059342 60:11.007851 61:-11.552165 62:-13.270774 63:-14.665019 64:14.542002 65:5.6798168 66:12.314054 67:-3.6688919 68:3.1462956 69:-6.0129851 70:24.385491 71:8.607514 72:7.410239 
1.1220026633332363 1:-164.37685 2:-160.0591 3:-276.76703 4:3970.9101 5:61.457911 6:177.66967 7:73.482087 8:67.002933 9:52.753656 10:167.39552 11:14.909279 12:74.108442 13:-4.8703473 14:-9.7804702 15:-42.260592 16:399.41313 17:22.636776 18:24.617733 19:3.1784237 20:9.9235446 21:-8.7262083 22:33.987205 23:4.7745745 24:11.121599 25:-9.5457844 26:-10.50648 27:-25.62288 28:120.87822 29:13.469184 30:14.445828 31:10.030556 32:7.4910997 33:-8.4168077 34:65.578409 35:10.768272 36:12.43985 37:-6.4719359 38:-2.2777429 39:-19.186646 40:60.550327 41:8.8971747 42:13.576053 43:-1.9247541 44:-1.3365387 45:-8.9737154 46:17.16529 47:4.184119 48:2.5643008 49:-2.0272013 50:-3.3421182 51:-14.169361 52:13.709898 53:5.404921 54:6.9057898 55:-9.0447508 56:-7.4183354 57:-25.117679 58:33.694374 59:7.3336427 60:13.955133 61:-10.127655 62:-4.5466201 63:-16.244353 64:16.377526 65:3.2850772 66:6.9628324 67:-2.7885755 68:-1.5083797 69:-13.27015 70:24.984446 71:5.7505892 72:3.7007694 
1.1266435990152339 1:-164.55916 2:-158.11885 3:-282.10472 4:3971.1117 5:64.339613 6:176.947 7:74.271704 8:71.4188 9:53.764265 10:170.91863 11:14.841429 12:76.023105 13:-10.613411 14:-11.286745 15:-42.362994 16:401.42746 17:18.239152 18:22.693534 19:6.1631036 20:4.271121 21:-7.0622043 22:34.1094 23:7.369242 24:8.3717772 25:-12.213481 26:-12.887454 27:-21.208204 28:119.7584 29:14.649408 30:16.744586 31:14.776147 32:10.963713 33:-2.6286814 34:57.110931 35:6.9616993 36:18.036109 37:-5.6304102 38:-7.7130437 39:-23.136787 40:62.17661 41:12.420335 42:13.197014 43:-3.1340922 44:-4.5967968 45:-11.550813 46:23.508035 47:9.4963561 48:4.464093 49:-1.7678154 50:-2.6640818 51:-15.418958 52:13.096842 53:2.6547336 54:6.4600704 55:-9.8524649 56:-10.115365 57:-21.396553 58:37.817491 59:10.357338 60:13.898096 61:-5.3151848 62:-13.24284 63:-15.918203 64:18.086814 65:5.3836726 66:8.5564873 67:-2.9446689 68:1.7323959 69:-5.1560768 70:29.710313 71:5.6791992 72:5.3670934 
1.1259556017807288 1:-165.97982 2:-162.23298 3:-280.80905 4:3971.0572 5:63.866644 6:180.9069 7:75.08071 8:68.663337 9:48.102708 10:167.09813 11:13.573688 12:75.06036 13:-7.2794704 14:-16.062551 15:-38.597347 16:396.70555 17:24.212695 18:24.741677 19:5.5271696 20:5.5301181 21:-7.920203 22:32.687141 23:8.2733389 24:13.248957 25:-11.255229 26:-15.310129 27:-26.608573 28:119.54074 29:15.636421 30:17.694229 31:14.238118 32:10.870316 33:-2.919116 34:62.573338 35:9.0098547 36:13.068464 37:-5.5012389 38:-8.8770438 39:-19.797074 40:60.69825 41:6.5780536 42:11.162877 43:-2.6639809 44:-4.5223699 45:-12.863509 46:23.52968 47:4.4871949 48:4.295146 49:-6.3095402 50:-2.5814499 51:-15.848012 52:14.40948 53:0.86787046 54:4.3949387 55:-8.5057523 56:-7.671275 57:-25.336082 58:37.666436 59:7.6744298 60:16.517612 61:-13.619433 62:-11.644632 63:-12.699279 64:16.874736 65:4.2468699 66:11.664758 67:0.73086184 68:-7.4773763 69:-6.818551 70:18.397718 71:7.5958203 72:2.3092521 
1.127522836091031 1:-163.30317 2:-158.93686 3:-276.86831 4:3973.4962 5:68.607398 6:181.46219 7:69.745993 8:68.417476 9:50.047876 10:170.71878 11:15.486227 12:76.681352 13:-11.579797 14:-14.726291 15:-41.130934 16:404.5633 17:19.364851 18:27.761102 19:5.6167137 20:8.4530192 21:-4.7383999 22:26.973657 23:4.0117987 24:9.21772 25:-7.833091 26:-13.558846 27:-28.424302 28:121.49056 29:11.430282 30:15.310164 31:12.951229 32:12.142239 33:-1.2386637 34:58.640394 35:13.352712 36:18.102132 37:-1.9613362 38:-5.8466744 39:-16.074604 40:58.472581 41:8.0251871 42:12.360048 43:-3.3598242 44:-3.8993324 45:-12.339114 46:17.470803 47:3.6544729 48:2.617841 49:2.0603803 50:-1.2045239 51:-12.060511 52:21.21515 53:6.6564309 54:1.3863383 55:-16.110215 56:-6.6654388 57:-20.50117 58:35.003251 59:5.9234462 60:9.5135111 61:-3.2664607 62:-10.345416 63:-14.037412 64:15.938071 65:5.6105539 66:9.3332329 67:-3.9184717 68:-9.2755336 69:-8.7987264 70:25.52732 71:9.2107889 72:8.3480548 
1.1232788326100995 1:-166.29745 2:-159.08211 3:-282.70852 4:3970.4342 5:64.764092 6:182.26349 7:74.011635 8:71.096017 9:51.633705 10:168.50137 11:11.866378 12:73.429747 13:-9.7140294 14:-13.580497 15:-37.743811 16:404.51795 17:19.88004 18:22.967183 19:9.89868 20:9.6141107 21:-4.1523149 22:36.204329 23:8.183015 24:8.2621595 25:-9.3015649 26:-10.624934 27:-26.535145 28:122.51653 29:10.462819 30:17.184108 31:9.8288807 32:7.9542932 33:-3.6352434 34:59.064093 35:7.4551154 36:14.655365 37:-4.0244346 38:-6.8517771 39:-20.536735 40:61.408439 41:14.672805 42:7.9507211 43:-1.3646146 44:-0.20150799 45:-12.990912 46:17.519136 47:2.2515562 48:3.5459613 49:-3.4868456 50:-5.6022858 51:-12.634313 52:20.487617 53:5.9649462 54:5.1998753 55:-11.559919 56:-7.7394492 57:-21.278347 58:36.058932 59:4.9535615 60:12.518074 61:-11.92272 62:-8.768287 63:-20.667173 64:17.587357 65:4.612457 66:8.3780358 67:0.046105188 68:-1.2570462 69:-11.142425 70:22.891989 71:5.5487469 72:4.2799221 
1.1253690966614369 1:-164.5449 2:-162.85947 3:-278.98449 4:3971.1116 5:66.670121 6:178.36086 7:71.439634 8:71.187858 9:50.433762 10:170.12697 11:12.940972 12:72.572461 13:-14.608107 14:-12.803208 15:-39.613566 16:397.28174 17:19.271275 18:19.558961 19:6.4043395 20:6.3055584 21:-7.0309984 22:36.152311 23:7.5425502 24:11.911547 25:-12.312869 26:-14.435725 27:-23.303308 28:123.27969 29:15.43575 30:16.098402 31:9.9095242 32:11.674619 33:-3.0388153 34:61.502482 35:8.6378755 36:8.6524605 37:-8.0765995 38:-7.3243558 39:-21.021117 40:60.12936 41:14.497427 42:11.352003 43:-1.8586569 44:-2.8780682 45:-9.4048309 46:20.57508 47:8.0138061 48:3.515717 49:-4.2951808 50:-2.3904418 51:-12.756171 52:16.849525 53:5.2841712 54:4.6686954 55:-10.861749 56:-4.1735463 57:-19.174759 58:34.915666 59:4.7043318 60:15.197511 61:-8.8544508 62:-5.6968688 63:-18.428491 64:12.767425 65:2.8532893 66:12.20133 67:-3.3787061 68:-1.9416492 69:-13.211772 70:21.997774 71:5.8471354 72:4.0266698 
1.1268784169690478 1:-166.17004 2:-158.84141 3:-281.5328 4:3971.0083 5:64.261505 6:178.48306 7:68.40569 8:71.425448 9:53.46458 10:168.97227 11:16.306996 12:68.822203 13:-11.565614 14:-17.245845 15:-43.492572 16:395.62825 17:18.622692 18:23.439084 19:6.6642849 20:5.7786991 21:-4.3216765 22:29.848427 23:1.8956546 24:7.3646714 25:-9.0152603 26:-17.215063 27:-28.332832 28:123.18529 29:11.071751 30:16.5743 31:11.619087 32:10.7242 33:-1.2563593 34:62.682641 35:8.227166 36:13.07959 37:-6.4721837 38:-3.9371895 39:-18.89408 40:58.095589 41:5.2350849 42:13.880535 43:-6.5329075 44:-3.4519286 45:-11.324145 46:17.889001 47:8.9511491 48:8.0555556 49:-0.36066404 50:-6.0186622 51:-12.405669 52:15.873201 53:2.3046787 54:4.3383376 55:-12.301596 56:-2.3112346 57:-23.942527 58:36.889573 59:6.851233 60:15.089981 61:-6.8804853 62:-5.2383895 63:-12.703372 64:19.835726 65:6.7507102 66:7.3338561 67:-0.53872324 68:-0.074266143 69:-9.2803975 70:28.883761 71:5.8212355 72:4.1265355 
1.1278094728050461 1:-165.35502 2:-164.27823 3:-272.88245 4:3971.5265 5:60.253185 6:180.05806 7:66.371869 8:67.937505 9:48.905755 10:164.38985 11:13.043478 12:73.979571 13:-9.7518649 14:-14.190743 15:-41.847012 16:400.41856 17:19.443079 18:26.324346 19:5.866654 20:8.3218488 21:-1.5250986 22:29.442663 23:6.8899344 24:5.8675321 25:-9.3066781 26:-9.0320394 27:-22.250676 28:121.00492 29:12.620675 30:13.611741 31:14.474283 32:4.9643899 33:-8.7694768 34:60.5492 35:8.2560511 36:18.495385 37:-6.2269262 38:-6.8587659 39:-21.602991 40:62.988297 41:5.4817304 42:6.7130579 43:-7.4982542 44:-3.9465398 45:-9.3468427 46:20.045341 47:8.1458449 48:7.9948384 49:0.23675739 50:-2.0091672 51:-8.946522 52:14.837664 53:5.2745564 54:5.7840801 55:-8.1339713 56:-4.4658835 57:-19.349847 58:38.695058 59:8.3923281 60:13.266393 61:-11.55809 62:-5.3246782 63:-21.398491 64:19.361821 65:7.9383935 66:11.568312 67:4.4507527 68:-0.2755784 69:-9.1402405 70:27.788618 71:7.7289714 72:3.2459913 
1.1273213507081732 1:-164.45318 2:-159.89161 3:-279.35163 4:3972.6937 5:63.315123 6:175.95765 7:76.849121 8:72.003321 9:46.972497 10:169.66804 11:11.456992 12:76.023711 13:-9.440163 14:-9.1521681 15:-39.954927 16:399.77673 17:23.252673 18:21.663906 19:9.888707 20:7.3342949 21:-1.4371006 22:30.705201 23:1.0616711 24:8.0118769 25:-3.7381147 26:-12.44741 27:-27.497637 28:118.16645 29:15.363442 30:16.230531 31:15.695714 32:13.651322 33:-3.439972 34:61.755958 35:10.314181 36:14.325308 37:-5.6965929 38:-4.1409066 39:-20.059159 40:55.85377 41:10.170612 42:12.316715 43:-3.5037574 44:-5.2573903 45:-14.125699 46:20.303051 47:8.6883287 48:8.4461602 49:-3.715078 50:-4.2290076 51:-7.9606273 52:10.539866 53:1.7456233 54:4.191496 55:-7.8710299 56:-4.0232431 57:-19.982568 58:31.040158 59:5.2740857 60:15.355082 61:-10.355005 62:-8.8735454 63:-19.356843 64:17.016814 65:3.3788062 66:10.827693 67:1.6123812 68:1.9073238 69:-8.120117 70:27.730127 71:-0.10589721 72:6.6813294 
1.1252479702307432 1:-164.6261 2:-160.14076 3:-280.96268 4:3969.295 5:66.683034 6:182.94181 7:72.2065 8:70.603593 9:49.279972 10:171.82089 11:15.086695 12:73.737728 13:-14.383212 14:-13.717062 15:-42.792877 16:397.71586 17:24.925773 18:23.945846 19:11.032503 20:9.3548314 21:-1.4263262 22:33.438282 23:8.7593084 24:9.3384686 25:-11.383373 26:-8.7287925 27:-31.456925 28:123.30743 29:13.740206 30:12.748189 31:13.711231 32:7.4793525 33:-2.4422563 34:63.062012 35:7.7703462 36:11.782677 37:-4.5402335 38:-4.6039147 39:-20.605883 40:56.861509 41:5.4369048 42:12.023956 43:-1.6557417 44:-1.1018278 45:-14.227537 46:22.494956 47:7.2469394 48:7.3562518 49:-2.5944379 50:-5.5350408 51:-14.121629 52:11.833539 53:1.6870517 54:7.0072266 55:-10.285355 56:-7.6452768 57:-32.984562 58:34.472967 59:6.1903651 60:13.608339 61:-7.5172709 62:-9.4151458 63:-16.44958 64:14.858573 65:3.0132287 66:5.6956551 67:0.01634134 68:1.1756194 69:-8.5865452 70:27.702023 71:5.3521063 72:4.5094726 
1.1277281163436115 1:-161.67223 2:-155.0642 3:-280.93242 4:3966.4832 5:63.991023 6:176.17189 7:72.825732 8:64.892636 9:49.490355 10:167.92302 11:13.335967 12:77.83511 13:-7.9955408 14:-14.560379 15:-42.484399 16:398.8449 17:20.117344 18:24.167238 19:5.8874091 20:2.7064793 21:-7.7103805 22:36.134671 23:6.1816533 24:12.197217 25:-7.8855893 26:-10.935056 27:-31.469505 28:121.5104 29:9.9170427 30:15.523936 31:13.278032 32:8.0055077 33:-3.1841797 34:63.101279 35:5.2979201 36:9.964885 37:-7.2436918 38:-4.766263 39:-14.617154 40:63.396178 41:13.770511 42:9.6922397 43:0.035301413 44:-1.6807207 45:-8.9879817 46:21.093975 47:7.086453 48:5.7187701 49:-4.607788 50:-3.2031725 51:-10.790023 52:15.205034 53:-0.46729251 54:10.485574 55:-14.655134 56:-8.2565003 57:-21.432288 58:34.057254 59:6.6926323 60:17.366025 61:-5.3435846 62:-9.2505044 63:-13.623071 64:14.079906 65:1.502567 66:16.072153 67:-2.3472058 68:0.16716069 69:-16.721553 70:16.766483 71:4.720139 72:8.0274283 
1.1278036957469075 1:-156.02576 2:-161.63359 3:-285.02197 4:3976.6381 5:64.791126 6:185.00458 7:76.443521 8:66.455756 9:52.147139 10:164.4055 11:16.858566 12:70.875606 13:-6.5591919 14:-11.959825 15:-42.148653 16:401.27698 17:25.809688 18:24.386366 19:8.0804743 20:2.1448029 21:-7.3553236 22:36.318749 23:8.7733955 24:13.931989 25:-9.0138459 26:-14.418284 27:-30.14961 28:121.61256 29:11.031623 30:13.287626 31:13.697871 32:9.4758834 33:-1.2468878 34:62.90256 35:12.42213 36:11.888198 37:-3.6973039 38:-3.0716862 39:-23.54095 40:59.617902 41:8.8610503 42:6.0880097 43:-1.8347327 44:-2.2343716 45:-17.311187 46:23.065043 47:6.2442865 48:3.6456742 49:-4.5604547 50:-4.2862546 51:-12.438646 52:18.880148 53:8.8443733 54:3.3119046 55:-9.7217362 56:-8.0095069 57:-24.852471 58:35.200214 59:2.4246074 60:19.715623 61:-7.7742271 62:-9.7548701 63:-19.773595 64:15.917307 65:2.842885 66:13.55976 67:-0.61284932 68:-4.1446569 69:-5.5710118 70:22.181167 71:6.68689 72:5.0838631 
1.1273004932440989 1:-166.1376 2:-165.44762 3:-280.40779 4:3978.7275 5:60.373248 6:179.9656 7:72.958068 8:68.601063 9:49.842505 10:168.42015 11:15.627822 12:70.427113 13:-7.8292572 14:-12.603376 15:-36.661133 16:403.37602 17:21.114647 18:22.917746 19:4.2463387 20:6.5433323 21:-9.4645002 22:32.526252 23:5.6255371 24:11.00725 25:-9.251908 26:-11.284064 27:-29.009547 28:112.88562 29:11.172846 30:14.948311 31:12.063688 32:10.770373 33:-5.7064392 34:62.694596 35:10.034263 36:15.979481 37:-1.0546998 38:-3.1678503 39:-25.023064 40:58.296145 41:13.475026 42:11.782643 43:0.43903451 44:-2.7935636 45:-12.72447 46:24.305546 47:5.8692731 48:10.713194 49:-5.6916717 50:-0.7757415 51:-12.513636 52:13.964781 53:3.6334666 54:5.9718239 55:-7.8751106 56:-9.2254 57:-30.796647 58:34.541456 59:4.0420596 60:11.026424 61:-8.5758077 62:-11.234594 63:-14.179549 64:15.528739 65:2.07125 66:14.714276 67:2.3458814 68:4.2594798 69:-11.10717 70:25.502985 71:8.7783677 72:4.9549543 
1.1266463225738108 1:-163.23385 2:-158.04291 3:-282.57435 4:3972.3678 5:59.288408 6:181.29264 7:68.696354 8:68.616535 9:48.070385 10:166.17221 11:13.778078 12:77.415635 13:-12.009365 14:-13.506636 15:-43.259258 16:394.96895 17:18.22068 18:23.008871 19:6.5386732 20:6.9746352 21:-3.596218 22:32.874793 23:6.7193265 24:8.2125947 25:-11.883105 26:-11.901605 27:-23.753582 28:124.86172 29:13.736153 30:10.036242 31:7.08883 32:8.4313634 33:-6.3907508 34:62.786231 35:10.865035 36:13.134863 37:-4.1720702 38:-5.1456388 39:-23.219051 40:58.10641 41:5.9504728 42:12.763432 43:-3.4978179 44:0.48990002 45:-6.0372794 46:20.727704 47:4.0596354 48:6.1406518 49:-5.1658702 50:-3.490472 51:-4.6468627 52:17.461336 53:9.6610681 54:7.3074022 55:-12.759504 56:-7.3923597 57:-25.790012 58:36.709519 59:9.0354161 60:12.365757 61:-8.62619 62:-10.135766 63:-19.497479 64:15.760449 65:3.6825313 66:6.8121732 67:0.4039419 68:-1.5121289 69:-5.1459374 70:21.727691 71:7.4601892 72:3.576139 
1.1269274505869664 1:-165.28563 2:-160.26307 3:-277.01683 4:3974.3417 5:64.132776 6:180.67554 7:73.510203 8:67.077989 9:51.690168 10:170.76346 11:17.710013 12:77.308418 13:-10.956751 14:-14.002149 15:-37.720117 16:399.56986 17:19.356387 18:24.234456 19:7.076632 20:8.1119565 21:-1.9344508 22:34.056047 23:6.1331536 24:4.7320642 25:-4.1145653 26:-16.246166 27:-26.138481 28:116.60905 29:10.918271 30:13.561664 31:11.598236 32:13.153007 33:-4.9624649 34:61.828827 35:10.519748 36:11.589652 37:-0.61972159 38:-6.1395926 39:-21.36296 40:58.591542 41:11.466601 42:12.042241 43:1.4628267 44:-1.0042288 45:-12.616687 46:17.861919 47:11.054016 48:8.4093604 49:-6.7962464 50:-1.8150448 51:-9.3900241 52:17.860009 53:4.8260649 54:5.5915971 55:-14.128108 56:-8.3364965 57:-24.831334 58:38.761074 59:8.3916978 60:7.9374673 61:-4.5690871 62:-12.908418 63:-17.074649 64:16.457936 65:6.0719389 66:8.6476728 67:-3.5705477 68:-2.2897916 69:-9.2292856 70:21.761368 71:7.5325548 72:6.6383734 
1.1266852027110863 1:-169.63177 2:-160.29524 3:-275.51195 4:3969.4682 5:68.957602 6:175.57597 7:67.652636 8:70.719474 9:48.880121 10:166.96557 11:12.256264 12:75.603946 13:-9.5861392 14:-10.857163 15:-43.420244 16:402.05228 17:19.071599 18:24.262094 19:6.6475571 20:9.1636065 21:-2.6629374 22:32.179001 23:5.5723533 24:9.8609977 25:-9.4296045 26:-19.827127 27:-25.267809 28:119.38449 29:13.422271 30:13.751285 31:12.601177 32:12.016526 33:-3.4167549 34:59.925425 35:9.7590941 36:12.644995 37:-6.325941 38:-4.5079999 39:-18.852362 40:64.654312 41:8.6267247 42:10.108278 43:-0.80706165 44:2.9612224 45:-13.312258 46:14.378649 47:3.1592813 48:4.9557644 49:-2.5788342 50:-5.1829629 51:-12.457911 52:16.15983 53:4.9072558 54:5.7710603 55:-8.0488 56:-6.0890642 57:-25.228682 58:33.656342 59:6.7050647 60:14.80459 61:-6.6755922 62:-9.6870224 63:-16.157683 64:19.019113 65:9.1851489 66:13.92913 67:-2.3879851 68:-3.0446995 69:-3.9627908 70:23.279671 71:5.05006 72:4.9821923 
1.1271231724937505 1:-167.14749 2:-161.39463 3:-273.34056 4:3972.4033 5:65.876238 6:184.6773 7:69.534927 8:68.168239 9:50.019871 10:167.87124 11:12.618777 12:74.518163 13:-9.9363034 14:-14.459551 15:-41.299601 16:398.936 17:20.672444 18:24.181689 19:8.4766865 20:5.9165312 21:-4.8487769 22:37.130131 23:4.3925408 24:12.835186 25:-10.551589 26:-13.633437 27:-25.477125 28:120.61135 29:11.907222 30:16.574692 31:10.578228 32:7.0162457 33:-1.9935383 34:64.011681 35:4.2052665 36:13.221391 37:-5.9735633 38:-4.935325 39:-19.89427 40:61.333772 41:9.5778709 42:14.303804 43:-3.4183064 44:1.4027285 45:-6.4050773 46:19.388226 47:5.4517139 48:2.6738224 49:-2.35769 50:-2.9201971 51:-9.9814883 52:13.00058 53:8.774576 54:7.256411 55:-8.3906166 56:-8.0626866 57:-30.071672 58:35.52117 59:6.3299399 60:10.737104 61:-13.12852 62:-8.0341252 63:-18.339851 64:18.373662 65:5.9820842 66:14.769355 67:-0.76298913 68:-3.6311817 69:-9.7970898 70:28.145717 71:10.130739 72:7.5621498 
1.1276829199677787 1:-164.78097 2:-162.99464 3:-283.61707 4:3969.4924 5:65.490297 6:179.00291 7:69.490962 8:67.975889 9:54.551257 10:171.98296 11:14.077622 12:80.175318 13:-16.174182 14:-15.961438 15:-42.284917 16:402.35611 17:19.111909 18:26.850939 19:7.9919082 20:2.0002065 21:-0.66973272 22:32.430955 23:8.6140971 24:10.478067 25:-8.665836 26:-11.854099 27:-25.481406 28:123.35708 29:8.3929278 30:15.401816 31:11.710613 32:7.6383704 33:-5.9480721 34:60.922961 35:8.7373375 36:11.922645 37:-2.4947857 38:-3.9137556 39:-18.601448 40:59.449257 41:10.474454 42:11.586822 43:-4.6876019 44:-3.8972522 45:-11.990263 46:23.477291 47:3.9435049 48:3.8873935 49:-4.5775073 50:-4.3151557 51:-12.553262 52:19.476807 53:9.2504974 54:9.9462174 55:-6.5041987 56:-8.0738095 57:-29.031985 58:31.67242 59:10.346595 60:10.519177 61:-7.0772899 62:-13.580194 63:-15.080445 64:18.63637 65:7.2930797 66:13.982101 67:3.9964164 68:1.7455935 69:-11.328881 70:23.359924 71:10.189464 72:6.2847818 
1.1175832104351215 1:-169.61696 2:-158.73034 3:-279.15284 4:3975.3421 5:62.652555 6:176.83198 7:70.492997 8:70.925617 9:52.279383 10:168.20517 11:13.387078 12:73.34497 13:-11.041252 14:-14.055775 15:-40.39853 16:396.77025 17:22.408603 18:21.410819 19:5.2464406 20:9.7916011 21:-3.1889953 22:33.217192 23:8.2245352 24:8.8757115 25:-9.9286908 26:-10.124422 27:-25.083897 28:118.51752 29:8.6411076 30:15.489097 31:9.1443154 32:11.124277 33:-3.4209027 34:66.235185 35:8.9919881 36:14.705521 37:-2.7079942 38:-4.253382 39:-20.525318 40:60.715017 41:8.0541431 42:13.36764 43:-0.14620255 44:-7.3408671 45:-16.344985 46:19.51707 47:5.0809541 48:4.1760388 49:-5.9282097 50:-0.49909231 51:-11.293194 52:14.290097 53:6.4304605 54:6.0021877 55:-10.07113 56:-10.180822 57:-23.371224 58:36.371438 59:7.5930817 60:12.962701 61:-8.801131 62:-9.4328085 63:-17.1678 64:16.077208 65:1.4407103 66:9.3359432 67:0.028706428 68:2.0995305 69:-6.3616571 70:25.538963 71:3.2535345 72:3.1206004 
1.1263782209431927 1:-165.49552 2:-162.25911 3:-280.21907 4:3973.6379 5:68.483794 6:177.55662 7:70.842015 8:69.67597 9:53.566265 10:168.67218 11:10.601839 12:73.12717 13:-9.795837 14:-13.324846 15:-39.207656 16:398.22778 17:22.524928 18:25.241939 19:5.2915055 20:7.7574419 21:-2.3058422 22:32.871719 23:8.3617107 24:10.144352 25:-9.9497447 26:-8.2081356 27:-24.608584 28:122.06665 29:4.9306345 30:12.352901 31:13.141234 32:12.869592 33:-2.4122322 34:61.462611 35:8.8171626 36:14.742709 37:-8.8972491 38:-2.7425423 39:-20.728965 40:57.47374 41:9.2668746 42:10.466245 43:0.73418249 44:-3.9738954 45:-13.875022 46:18.186635 47:5.6529972 48:3.4195574 49:2.4471141 50:-5.0386543 51:-12.533814 52:20.683831 53:2.1857254 54:9.1606361 55:-6.8481883 56:-4.828386 57:-26.336906 58:35.373889 59:7.0131027 60:14.756874 61:-10.850651 62:-4.295882 63:-19.648892 64:17.053222 65:8.6804167 66:11.763035 67:-3.6311105 68:-0.61938996 69:-5.8370156 70:25.928307 71:7.6279627 72:5.6998863 
1.1258620153898691 1:-164.42369 2:-163.30677 3:-278.92065 4:3970.1293 5:69.297471 6:176.87679 7:67.669123 8:68.741529 9:48.503358 10:169.02877 11:10.209641 12:75.259943 13:-9.8876919 14:-13.757565 15:-39.58661 16:396.58001 17:23.53756 18:21.747275 19:3.9308464 20:7.0181207 21:-5.5431614 22:33.203262 23:3.3389793 24:4.7348956 25:-10.387528 26:-13.483758 27:-27.709765 28:120.2943 29:10.491502 30:14.511981 31:8.3547541 32:12.57142 33:-6.373362 34:60.689433 35:10.937758 36:19.063854 37:-7.3373208 38:-5.8936202 39:-23.273427 40:59.91388 41:6.1202024 42:13.36833 43:-3.3268344 44:-5.1076369 45:-11.201912 46:20.757384 47:6.4958938 48:10.404306 49:-4.2976308 50:-3.1071872 51:-7.3492442 52:16.663655 53:6.8671591 54:6.6588395 55:-9.0935629 56:-12.069907 57:-19.328005 58:38.802272 59:8.8098475 60:15.905085 61:-10.089995 62:-7.0336512 63:-14.43716 64:13.607992 65:3.8016207 66:13.053288 67:-1.3744861 68:0.95561188 69:-6.5615091 70:27.154404 71:4.4067822 72:1.9156364 
1.1279593734302265 1:-162.97039 2:-163.01623 3:-271.41749 4:3967.1812 5:65.486685 6:179.18443 7:74.744661 8:67.303817 9:52.418251 10:169.24578 11:15.977301 12:71.191828 13:-8.089387 14:-14.263656 15:-41.191958 16:399.43582 17:18.087969 18:29.511881 19:9.4249065 20:9.3514717 21:-5.5403262 22:35.461021 23:4.9210527 24:7.9312649 25:-8.4180606 26:-9.8227819 27:-27.001793 28:120.57909 29:8.2636537 30:13.232405 31:12.346299 32:7.4890921 33:-1.193478 34:60.208093 35:9.7643696 36:16.537615 37:-4.9783536 38:-2.828446 39:-19.940317 40:60.380593 41:9.7877154 42:9.9388229 43:-5.2920412 44:-2.6457087 45:-16.544188 46:22.142741 47:-0.025739311 48:6.6768271 49:0.31087107 50:-3.2974832 51:-10.736921 52:14.666839 53:8.1040482 54:4.6518951 55:-8.3967047 56:-4.9159037 57:-25.64417 58:38.04183 59:7.1843028 60:8.914346 61:-9.1289297 62:-9.7368716 63:-17.848458 64:16.290402 65:5.9778857 66:11.401398 67:-2.2324383 68:1.7915286 69:-7.648261 70:21.566986 71:5.6743021 72:5.9147256 
1.1272199763904891 1:-163.34027 2:-159.64089 3:-276.82159 4:3964.9261 5:63.592697 6:175.89176 7:69.255614 8:68.492268 9:43.736789 10:165.71182 11:19.543606 12:72.590631 13:-4.2853207 14:-8.6165328 15:-42.721967 16:400.02356 17:23.432968 18:19.670768 19:6.4736656 20:9.0918351 21:-0.87930213 22:28.750093 23:9.0104572 24:4.3226871 25:-10.713262 26:-12.15531 27:-26.079485 28:125.01565 29:9.9150508 30:15.278053 31:9.9781374 32:8.4626339 33:-1.508446 34:63.929834 35:8.0493559 36:20.050345 37:-8.2671793 38:-4.7529457 39:-20.824726 40:63.665645 41:4.7346865 42:12.868622 43:-0.39588962 44:-1.9465847 45:-15.772088 46:17.335553 47:3.0600644 48:7.7766812 49:-3.3245323 50:-4.0453906 51:-11.106313 52:15.195022 53:4.7053903 54:5.6179759 55:-11.016552 56:-10.282079 57:-24.357764 58:36.050054 59:8.2491116 60:14.224669 61:-9.323194 62:-12.461411 63:-17.854075 64:19.79868 65:4.8698424 66:11.579525 67:1.3344842 68:1.7890382 69:-11.163955 70:17.672885 71:7.9363024 72:11.510545 
1.1286934748403679 1:-168.49626 2:-163.83188 3:-280.35881 4:3967.055 5:61.730704 6:176.38851 7:74.015309 8:66.668354 9:50.325722 10:169.58567 11:10.848113 12:71.305987 13:-13.463312 14:-13.244754 15:-39.930998 16:404.39751 17:25.082016 18:25.694061 19:8.6972344 20:5.9927853 21:-2.0632547 22:35.192387 23:11.964131 24:8.4500187 25:-3.9127406 26:-15.924228 27:-26.377911 28:120.0385 29:10.693689 30:16.74898 31:10.444456 32:6.389141 33:-0.94594658 34:66.970266 35:10.315281 36:14.116488 37:-3.6349767 38:-0.8425664 39:-18.596184 40:60.782809 41:7.7003873 42:11.010008 43:-3.0666153 44:1.4356153 45:-14.163527 46:15.380055 47:4.6734117 48:2.3792205 49:2.1512523 50:-5.0444379 51:-12.102519 52:17.440843 53:3.8277211 54:5.6481987 55:-10.819082 56:-7.6487382 57:-23.791937 58:34.720799 59:8.2389999 60:15.585103 61:-8.6188883 62:-8.2847735 63:-18.178775 64:16.085181 65:5.7580654 66:7.1222256 67:-3.5547307 68:0.03009877 69:-11.417169 70:24.483047 71:4.2461229 72:8.742101 
1.1278809472574878 1:-164.45532 2:-162.8959 3:-274.62476 4:3973.5998 5:64.930354 6:180.84555 7:73.539335 8:63.931727 9:46.61176 10:172.10702 11:14.828497 12:75.259661 13:-11.175474 14:-9.9950991 15:-40.13577 16:395.93581 17:27.179283 18:23.309607 19:4.1661534 20:5.3027201 21:-6.7971116 22:33.652894 23:5.7577558 24:9.3660724 25:-6.475222 26:-13.562159 27:-25.913931 28:122.03137 29:11.058611 30:16.729433 31:8.7270135 32:8.6964766 33:-5.8113952 34:63.817866 35:5.3898651 36:11.738852 37:-7.5383072 38:-5.7582057 39:-22.530252 40:59.853248 41:8.1008374 42:6.8350858 43:-1.6845067 44:-2.1760937 45:-10.402064 46:15.687228 47:9.0094127 48:8.0438008 49:-5.3805296 50:-4.8637175 51:-11.040651 52:21.693138 53:4.3550345 54:5.984882 55:-8.4125349 56:-8.7190237 57:-23.638062 58:35.431639 59:4.5016592 60:16.240774 61:-7.6855633 62:-7.8181802 63:-14.539576 64:18.695404 65:5.4778814 66:11.063523 67:-3.7260802 68:-0.61811014 69:-10.052249 70:25.316477 71:2.3847144 72:9.6677881 
1.1229884214118142 1:-165.37559 2:-161.30011 3:-278.76391 4:3966.8658 5:65.089059 6:178.69282 7:71.101722 8:66.232384 9:50.935528 10:166.92152 11:10.616736 12:71.323793 13:-14.016676 14:-10.581968 15:-40.002665 16:394.09624 17:19.728382 18:22.233621 19:10.063682 20:9.3279678 21:-4.0391647 22:35.185827 23:5.6460576 24:8.4863399 25:-8.0003729 26:-7.8368199 27:-24.143291 28:123.94383 29:8.0848602 30:10.88458 31:12.32487 32:11.820787 33:-4.1996866 34:62.592209 35:7.7645332 36:14.654056 37:-5.7513247 38:-3.9840998 39:-15.349461 40:59.979708 41:9.796703 42:9.9636142 43:-2.0715174 44:-2.3350941 45:-13.680939 46:13.814292 47:2.945108 48:8.8893268 49:-2.1614785 50:-3.1642216 51:-13.740436 52:20.344742 53:4.7364737 54:4.4218477 55:-10.977597 56:-9.8025473 57:-26.627913 58:35.681246 59:6.7179371 60:12.597858 61:-5.8950516 62:-9.8493543 63:-17.636849 64:15.374742 65:8.3736609 66:12.908269 67:-0.23304972 68:-2.5760211 69:-8.8568807 70:23.207322 71:7.2873149 72:11.327424 
1.1270534702139459 1:-165.43264 2:-154.35628 3:-278.42522 4:3971.3252 5:62.17465 6:178.0535 7:72.683507 8:65.864291 9:51.679052 10:168.20767 11:17.479586 12:74.044898 13:-13.377894 14:-10.447484 15:-44.831647 16:395.1757 17:21.987487 18:22.080566 19:6.1527471 20:4.2244069 21:-0.4616891 22:34.699801 23:7.2635766 24:3.1220389 25:-8.6371313 26:-11.676768 27:-32.343819 28:120.38096 29:13.924809 30:15.605226 31:10.036497 32:6.9790896 33:-3.9947192 34:62.484419 35:7.7042199 36:10.476591 37:-4.6529433 38:-1.838281 39:-17.178946 40:67.890519 41:9.0132098 42:10.494908 43:-4.3072673 44:0.64229265 45:-13.89205 46:14.983529 47:2.7581508 48:6.0054058 49:-0.64398123 50:-5.267186 51:-13.434159 52:17.13629 53:8.5548487 54:5.2325764 55:-12.312201 56:-9.5044896 57:-28.625684 58:35.068024 59:8.8072466 60:12.767351 61:-6.9705274 62:-8.5492693 63:-17.400252 64:18.078024 65:10.903129 66:10.399385 67:-0.83067174 68:4.4395255 69:-7.5791566 70:22.443532 71:9.0080301 72:4.8348786 
1.1254372005658202 1:-169.36223 2:-159.33555 3:-275.56896 4:3972.277 5:62.88432 6:176.0842 7:72.020906 8:70.838185 9:48.070816 10:172.3122 11:11.164828 12:74.598684 13:-9.7353125 14:-11.978277 15:-42.91981 16:400.90826 17:20.226869 18:21.479386 19:8.2396182 20:7.4814846 21:-8.2205578 22:29.574478 23:6.1839325 24:8.1582897 25:-6.5410431 26:-8.7155007 27:-25.032552 28:122.77071 29:9.7048502 30:19.077336 31:9.8762505 32:13.549265 33:-0.6186464 34:59.767439 35:5.6822545 36:13.812582 37:-8.7940397 38:-5.4685133 39:-20.444146 40:60.188888 41:3.833943 42:12.618355 43:-5.2577118 44:-0.34390681 45:-12.644113 46:19.511827 47:4.2973841 48:7.8476188 49:-1.6924826 50:-3.4068179 51:-13.716509 52:16.828507 53:6.2071785 54:7.6229711 55:-8.4480382 56:-8.3575733 57:-26.483483 58:37.077038 59:2.6950394 60:14.914801 61:-7.1571664 62:-9.6373675 63:-16.50185 64:15.317489 65:4.6269716 66:6.3983395 67:0.55741315 68:-1.1052136 69:-6.9483705 70:27.257362 71:3.5582637 72:8.5760801 
1.126183426464769 1:-166.53142 2:-158.9629 3:-282.87608 4:3972.2921 5:66.103713 6:180.28485 7:75.2822 8:69.821058 9:52.72206 10:168.11677 11:15.554465 12:71.370786 13:-11.597391 14:-11.563696 15:-43.161439 16:400.5968 17:22.975284 18:19.249975 19:9.1423708 20:8.4139508 21:-3.9885215 22:34.141028 23:5.1849357 24:5.9538373 25:-5.9066352 26:-10.380716 27:-30.862072 28:120.50802 29:12.874368 30:13.843304 31:9.1651224 32:7.8929214 33:0.19515666 34:66.421464 35:6.4266668 36:17.249345 37:-3.4051286 38:-2.019541 39:-19.515183 40:65.716433 41:9.3585825 42:13.553827 43:-6.445986 44:-2.817714 45:-14.48656 46:15.381804 47:6.5385359 48:6.4260483 49:-5.0988438 50:-5.5206643 51:-13.887153 52:17.606757 53:5.6015021 54:-0.3771481 55:-8.9666007 56:-6.9300243 57:-20.656342 58:34.947867 59:6.658106 60:10.594768 61:-8.7817647 62:-9.9855768 63:-18.952809 64:15.660084 65:5.0118488 66:12.224818 67:-2.7279599 68:0.19395023 69:-8.8244448 70:25.704696 71:7.6936535 72:8.3333099 
1.1270768031837504 1:-161.59518 2:-161.1218 3:-279.23988 4:3971.1122 5:63.819414 6:178.90107 7:72.675365 8:69.981919 9:48.926375 10:167.90502 11:10.208241 12:70.237879 13:-7.6923627 14:-10.967958 15:-39.513638 16:402.8149 17:21.608946 18:24.452829 19:9.5519074 20:3.6952965 21:-3.3545417 22:32.68339 23:6.9006097 24:8.213855 25:-10.112803 26:-11.649773 27:-28.643709 28:123.84243 29:6.3790006 30:14.966953 31:16.740101 32:9.7596696 33:-3.1948431 34:62.907927 35:9.3433694 36:16.636195 37:-2.478792 38:-3.7892621 39:-20.12681 40:60.68151 41:9.6416858 42:12.293419 43:-3.9986809 44:0.14770725 45:-9.7608931 46:22.791598 47:8.4885616 48:5.7439832 49:-6.3462911 50:-5.9165352 51:-13.417335 52:14.406715 53:1.7639149 54:5.7201576 55:-12.766988 56:-5.8675207 57:-30.066789 58:30.828911 59:4.5976118 60:15.400826 61:-2.1059388 62:-4.6066317 63:-18.679593 64:13.100531 65:2.7978718 66:6.9577292 67:-3.5647231 68:-1.4012221 69:-11.417604 70:21.638865 71:5.3008594 72:6.9797417 
1.1265713170140772 1:-165.12731 2:-160.45208 3:-276.7043 4:3968.8956 5:64.32948 6:178.7582 7:71.54 8:70.688307 9:51.124088 10:167.3616 11:8.7780592 12:70.613413 13:-8.5825164 14:-10.719092 15:-42.423896 16:399.36881 17:20.760067 18:26.657287 19:4.4168562 20:4.8941753 21:-4.8422167 22:33.618662 23:9.7147842 24:9.531433 25:-8.5165618 26:-18.275578 27:-27.955237 28:119.31606 29:14.793001 30:10.82172 31:11.555967 32:9.0598957 33:-1.1460105 34:64.186505 35:6.3849433 36:12.616953 37:-5.2879255 38:-5.95428 39:-20.149017 40:57.326565 41:9.3413956 42:9.3273509 43:-3.5581385 44:-1.893434 45:-11.886703 46:22.378456 47:-1.1394171 48:6.6707264 49:-8.3081091 50:-0.81921192 51:-13.234808 52:12.992307 53:5.0067701 54:10.669197 55:-6.406404 56:-4.6714933 57:-22.454323 58:33.488555 59:10.199983 60:11.119406 61:-7.2816063 62:-9.6692519 63:-17.188274 64:14.049803 65:8.3909541 66:12.739065 67:-4.1024833 68:-1.2820271 69:-10.060193 70:24.951003 71:8.3388873 72:3.5404324 
1.1271519453715024 1:-166.79872 2:-160.35489 3:-280.1089 4:3968.3597 5:65.445438 6:178.14207 7:76.424554 8:65.96086 9:50.774949 10:166.06869 11:13.216186 12:73.113955 13:-5.2286495 14:-10.599555 15:-44.359327 16:397.57487 17:21.591487 18:23.682391 19:9.3021736 20:7.2239421 21:-5.6991233 22:32.558634 23:5.9648876 24:8.3233203 25:-7.6265117 26:-12.268679 27:-26.737076 28:120.95061 29:17.482019 30:19.088448 31:13.214456 32:12.236268 33:-3.9498379 34:61.366254 35:6.2694593 36:14.327461 37:-7.7184742 38:-4.4882373 39:-20.679951 40:65.782575 41:8.2069945 42:16.817507 43:1.2738367 44:-1.8302171 45:-13.744789 46:18.364865 47:9.6145113 48:8.8679017 49:-1.4492222 50:-0.49325505 51:-9.4517181 52:12.513761 53:4.9169911 54:3.8106924 55:-9.6633018 56:-10.725087 57:-21.661404 58:36.85439 59:6.0308327 60:12.105937 61:-9.1223671 62:-12.286554 63:-14.125717 64:17.191029 65:7.708377 66:15.955861 67:-2.0180785 68:1.2793351 69:-6.0207862 70:26.348617 71:5.5759126 72:4.6817624 
1.1278750550988357 1:-163.85063 2:-156.93879 3:-276.59032 4:3972.0133 5:62.680182 6:179.88268 7:69.155796 8:70.006718 9:51.891585 10:170.38809 11:13.643381 12:70.611664 13:-8.0038597 14:-10.614383 15:-44.544072 16:397.84641 17:23.780776 18:23.74872 19:9.8584908 20:6.9376432 21:-4.0052741 22:34.334286 23:8.1188246 24:5.5920301 25:-8.2840298 26:-7.2225031 27:-21.452493 28:120.03864 29:12.115679 30:12.872766 31:8.5976122 32:7.3273291 33:-5.4937883 34:64.712303 35:8.912326 36:15.468675 37:-4.5063621 38:-3.668614 39:-16.142138 40:61.329455 41:6.8769168 42:7.7394279 43:-4.5889346 44:0.71662562 45:-11.512496 46:17.839255 47:0.78643741 48:5.1720913 49:-1.0873858 50:-4.2533141 51:-10.152092 52:16.993308 53:8.9404638 54:4.9526371 55:-10.644961 56:-8.4646478 57:-23.54821 58:29.337288 59:6.9711361 60:16.640195 61:-7.7715905 62:-2.9414204 63:-19.567133 64:16.873297 65:5.4092165 66:11.886772 67:2.4614561 68:-5.1558675 69:-1.2343694 70:25.796683 71:5.53028 72:10.314527 
1.1269700874711202 1:-167.64097 2:-163.57641 3:-273.54189 4:3969.3425 5:63.100623 6:177.06477 7:69.3464 8:65.489816 9:53.50441 10:167.16374 11:14.619148 12:79.224684 13:-10.107415 14:-13.558401 15:-42.147942 16:401.57631 17:23.28235 18:23.272414 19:5.7242041 20:4.2227407 21:-5.6334845 22:36.072341 23:7.0658612 24:6.1864022 25:-8.0113192 26:-12.368307 27:-29.483202 28:123.98968 29:14.281058 30:19.951971 31:12.776352 32:4.2854305 33:-3.2711904 34:61.566613 35:7.7324515 36:16.390965 37:-3.0902562 38:-4.0226408 39:-19.034473 40:62.546322 41:6.528037 42:13.667518 43:-3.9951014 44:-1.6434039 45:-10.384902 46:20.793228 47:5.6144509 48:4.0456851 49:-4.5320081 50:-5.7715462 51:-10.59583 52:15.526407 53:2.3538985 54:4.6914616 55:-11.96592 56:-7.9083315 57:-29.834239 58:32.627543 59:7.2819241 60:17.887381 61:-7.4940687 62:-8.7400188 63:-20.245674 64:21.022204 65:8.9812108 66:7.386526 67:2.2148662 68:1.5656644 69:-8.5874632 70:21.096568 71:6.228868 72:7.9152616 
1.1271371235073424 1:-165.89905 2:-162.97589 3:-281.58053 4:3966.9921 5:63.629425 6:177.9167 7:70.890688 8:68.192875 9:49.638804 10:168.33654 11:11.833817 12:74.634678 13:-9.6249039 14:-7.2812145 15:-42.46729 16:398.44884 17:17.698636 18:22.559859 19:7.7477681 20:2.0869041 21:-5.3172507 22:31.849133 23:10.255588 24:10.956582 25:-9.2122642 26:-10.566208 27:-32.502319 28:119.83467 29:10.70266 30:14.923582 31:14.474215 32:11.303346 33:-5.4324978 34:67.03862 35:8.443214 36:14.805252 37:-2.9497402 38:-6.7025499 39:-20.976824 40:63.987069 41:11.526066 42:13.294534 43:0.58791587 44:-5.0145078 45:-15.05377 46:19.152613 47:7.2851857 48:1.2976548 49:-4.4383398 50:-1.4348605 51:-14.84935 52:15.143742 53:7.2848375 54:7.4468208 55:-12.605836 56:-7.9495915 57:-22.845396 58:37.890875 59:3.4370136 60:16.423606 61:-12.919778 62:-7.6236832 63:-18.987351 64:18.326795 65:3.6955333 66:9.0777189 67:2.5737258 68:-1.166867 69:-4.4055334 70:22.954095 71:7.1290176 72:10.549481 
1.1248729479524122 1:-166.29691 2:-160.9551 3:-280.1063 4:3972.3922 5:61.361946 6:177.1396 7:66.25465 8:68.048731 9:46.505452 10:170.44992 11:15.661701 12:72.417738 13:-11.62038 14:-15.258822 15:-40.376495 16:399.27099 17:17.420398 18:20.320248 19:5.8068729 20:10.394381 21:-3.5798338 22:30.553978 23:6.6733846 24:9.243268 25:-8.2544231 26:-13.429232 27:-28.348407 28:121.1852 29:10.158281 30:11.950865 31:12.328603 32:9.0318079 33:-1.8057052 34:61.64058 35:9.5095832 36:11.921648 37:-12.185167 38:-5.5132037 39:-26.049844 40:61.373101 41:9.6683157 42:12.803434 43:0.85038202 44:0.66162114 45:-10.680199 46:16.259 47:8.2354853 48:11.183648 49:-0.19908742 50:-2.8278147 51:-13.272276 52:17.479366 53:8.2006875 54:5.7979263 55:-9.1173518 56:-6.2000705 57:-23.620996 58:34.829986 59:2.6538778 60:13.287908 61:-3.7526555 62:-9.5606379 63:-16.501267 64:17.312396 65:3.6339514 66:10.653074 67:-1.5276049 68:-2.3085549 69:-11.49716 70:20.882088 71:3.6850996 72:10.009795 
1.1243402252268473 1:-166.54895 2:-157.97418 3:-281.41835 4:3968.6146 5:65.693773 6:178.03599 7:70.218991 8:65.37914 9:48.29295 10:169.86076 11:16.826591 12:73.365406 13:-8.847421 14:-17.03808 15:-43.20922 16:400.40683 17:20.758932 18:21.311975 19:4.8803951 20:7.6953924 21:-4.4490757 22:33.11905 23:8.141649 24:7.5106636 25:-8.1229155 26:-7.2027492 27:-26.582771 28:121.0575 29:11.808386 30:18.676615 31:10.032204 32:10.00969 33:-3.8956671 34:65.029552 35:11.241907 36:13.224908 37:-6.2882888 38:-4.0947463 39:-19.471628 40:57.528343 41:7.7082082 42:16.479432 43:0.19948087 44:-5.9861592 45:-10.913594 46:16.069682 47:4.2215669 48:3.7327865 49:-4.7808873 50:-1.5097679 51:-12.622251 52:12.1188 53:3.6621472 54:3.7063941 55:-7.0883583 56:-7.4360073 57:-25.856127 58:35.621222 59:4.4815447 60:15.479899 61:-8.0562668 62:-12.917565 63:-17.069109 64:15.893861 65:6.7535901 66:11.217338 67:-0.0039823368 68:-1.7027165 69:-4.5417232 70:22.207565 71:8.3917442 72:9.2874589 
1.1271960903383611 1:-167.57973 2:-159.32547 3:-279.26964 4:3968.3442 5:66.455659 6:179.08438 7:73.372854 8:68.372772 9:54.543618 10:169.30122 11:14.123664 12:73.371924 13:-11.714671 14:-12.677145 15:-41.63961 16:399.06118 17:21.320168 18:28.173448 19:5.6701113 20:5.1306336 21:-2.1765114 22:33.222202 23:6.1753351 24:11.434492 25:-7.1984994 26:-11.434508 27:-29.999023 28:124.25742 29:13.638335 30:15.664179 31:13.707518 32:10.96238 33:-2.0389054 34:65.306186 35:9.5090323 36:12.103172 37:-7.761157 38:-4.0197247 39:-26.440877 40:61.777778 41:13.251091 42:10.168615 43:-2.5787711 44:-2.8076941 45:-17.229291 46:19.325426 47:1.5283283 48:9.6572903 49:-7.9575226 50:0.55625092 51:-11.126089 52:14.503314 53:6.37172 54:4.3437666 55:-13.393703 56:-9.4674275 57:-26.988283 58:39.105801 59:5.5017248 60:14.159299 61:-6.1116825 62:-11.450467 63:-16.278865 64:17.234328 65:5.8625844 66:3.3759989 67:-0.48099305 68:2.0770654 69:-5.9991214 70:33.664468 71:2.1492797 72:3.5052628 
1.1279145025752455 1:-163.92227 2:-158.37699 3:-274.45965 4:3969.2718 5:64.032695 6:177.94947 7:74.542607 8:64.250229 9:49.345298 10:166.64524 11:14.173114 12:69.418099 13:-10.452137 14:-14.557165 15:-40.528232 16:398.5062 17:23.974537 18:25.133887 19:0.61463228 20:10.273592 21:-4.7348642 22:30.158532 23:6.9610872 24:13.516842 25:-12.329301 26:-13.145336 27:-27.296504 28:124.43835 29:7.1813593 30:13.688842 31:15.952989 32:8.0935806 33:-1.0247855 34:63.512869 35:11.030983 36:14.011154 37:-4.9325183 38:-2.5969723 39:-20.080023 40:62.333251 41:11.033596 42:15.78845 43:1.9210686 44:-3.722555 45:-12.004825 46:17.820826 47:3.4286898 48:5.5792855 49:-2.3534416 50:-5.6654667 51:-16.545637 52:17.594346 53:6.0976318 54:5.0329091 55:-9.0263335 56:-10.502648 57:-22.239272 58:39.657738 59:2.9275835 60:13.223277 61:-8.8152608 62:-7.3375903 63:-19.239167 64:19.404995 65:8.3877958 66:10.293109 67:2.1528641 68:-5.0884085 69:-7.7960087 70:27.712178 71:4.6528774 72:6.3896407 
1.1274617209523905 1:-165.06167 2:-160.82238 3:-282.87636 4:3966.1955 5:64.529413 6:178.10462 7:73.274133 8:70.537294 9:52.575426 10:169.45588 11:13.075393 12:72.357175 13:-8.3646696 14:-13.964272 15:-41.098027 16:396.00629 17:23.062585 18:27.595665 19:7.5048073 20:10.145114 21:-8.872602 22:33.360922 23:8.5022072 24:11.156349 25:-7.0438425 26:-10.879764 27:-26.056943 28:120.08291 29:11.851444 30:11.318837 31:11.51169 32:10.0293 33:-6.4842825 34:68.498938 35:15.425019 36:13.897313 37:-8.2190316 38:-7.3439704 39:-19.374466 40:56.49815 41:11.82121 42:8.0036156 43:-5.2445061 44:0.54576837 45:-17.707814 46:13.820749 47:6.6863251 48:4.987415 49:-3.676266 50:-2.6870324 51:-12.671921 52:19.61357 53:5.7813748 54:4.8181888 55:-14.091644 56:-9.8257231 57:-22.205949 58:36.12025 59:3.3546888 60:12.940061 61:-6.8747101 62:-8.6008987 63:-15.987047 64:16.98602 65:1.8075574 66:9.2041182 67:1.5965388 68:-2.3898174 69:-8.2092649 70:28.630001 71:3.0258226 72:4.4682596 
1.1270670798238012 1:-170.02032 2:-157.90357 3:-279.82099 4:3972.1633 5:62.099267 6:177.5288 7:67.60994 8:69.196053 9:46.444824 10:165.85629 11:10.786021 12:71.625659 13:-11.295155 14:-12.358432 15:-37.389163 16:400.03978 17:20.20207 18:24.128834 19:7.7370199 20:3.73129 21:-1.0324974 22:31.824018 23:9.5638021 24:5.8277863 25:-11.587089 26:-13.425056 27:-23.526655 28:119.82084 29:9.2970962 30:16.378641 31:10.430737 32:9.9382371 33:-9.1422953 34:62.447493 35:9.2193639 36:13.254239 37:-6.2701453 38:-3.6590922 39:-18.668807 40:63.60759 41:6.3613083 42:14.247328 43:-8.3152513 44:-0.52056099 45:-7.5459595 46:18.294122 47:3.6298069 48:7.7322436 49:-1.8274302 50:-8.5575599 51:-17.701463 52:16.994378 53:2.687491 54:7.9543739 55:-8.5899941 56:-4.0949047 57:-27.118054 58:33.287295 59:4.9848665 60:10.883847 61:-4.0745713 62:-14.982402 63:-19.611121 64:19.589543 65:8.5857605 66:9.7796607 67:-1.3325382 68:0.086086014 69:-7.0920622 70:26.973558 71:3.7321733 72:4.5696549 
1.1265664089959102 1:-163.63142 2:-159.44823 3:-273.83957 4:3971.9985 5:63.49679 6:177.4842 7:72.351231 8:64.461999 9:51.200467 10:168.39001 11:14.658668 12:74.314309 13:-8.8810758 14:-11.984765 15:-39.349809 16:401.88051 17:20.207887 18:22.29368 19:6.5179824 20:5.6267531 21:-3.6697568 22:29.633225 23:2.2902531 24:4.8946407 25:-10.890254 26:-14.802991 27:-28.57793 28:123.10148 29:11.158839 30:14.136742 31:14.762705 32:9.398237 33:-5.0902726 34:63.766391 35:4.1399964 36:16.892019 37:-4.8566013 38:-5.1471882 39:-21.359912 40:58.406377 41:15.228056 42:13.659664 43:-2.8167615 44:-8.0074321 45:-11.974143 46:19.980498 47:6.8827969 48:7.0068577 49:-3.9817701 50:-3.8751034 51:-12.227845 52:14.202792 53:4.1484115 54:8.011789 55:-7.7184752 56:-9.6395047 57:-22.509326 58:34.074257 59:7.6482723 60:12.893253 61:-3.4956151 62:-7.2937723 63:-18.908444 64:22.230495 65:4.9251588 66:10.723585 67:1.3063441 68:-1.680376 69:-13.49482 70:22.247408 71:3.6443039 72:2.3185917 
1.127494103813135 1:-167.77462 2:-157.05175 3:-281.39181 4:3969.3338 5:62.436963 6:179.98628 7:71.21818 8:69.643692 9:48.963198 10:170.01588 11:16.212899 12:76.46899 13:-10.982311 14:-16.222367 15:-37.876985 16:393.56051 17:20.308101 18:19.628393 19:4.9546761 20:10.044109 21:-6.7967593 22:34.691082 23:2.2966176 24:11.779944 25:-9.8216686 26:-14.929633 27:-25.712051 28:119.87307 29:12.978909 30:16.96787 31:6.46052 32:8.7737627 33:0.58766246 34:63.353627 35:3.9061827 36:16.407215 37:-5.4316751 38:-7.6857594 39:-22.210286 40:56.958703 41:7.1929218 42:8.7132567 43:-2.1219976 44:-3.0520625 45:-10.919428 46:23.726235 47:5.4081829 48:10.411472 49:-1.4054294 50:-0.1644861 51:-12.697485 52:12.912451 53:6.6417283 54:1.9130987 55:-7.457296 56:-6.173774 57:-28.834732 58:36.24484 59:12.706321 60:15.171073 61:-6.2426332 62:-7.4117168 63:-11.477045 64:19.908328 65:5.3913684 66:10.554269 67:7.8258885 68:5.2448096 69:-8.0541096 70:19.365676 71:6.8682626 72:3.4200946 
1.1267433506201503 1:-167.37992 2:-156.62449 3:-275.53977 4:3969.3341 5:64.834225 6:179.60466 7:68.943378 8:64.725686 9:51.280676 10:167.53908 11:15.936908 12:69.414006 13:-11.19567 14:-10.264401 15:-40.351992 16:403.143 17:24.57599 18:25.327418 19:10.687579 20:6.9784853 21:-0.92894491 22:38.063998 23:1.4336236 24:10.673725 25:-12.25653 26:-12.134967 27:-24.540409 28:121.67938 29:8.9762894 30:17.688279 31:14.674698 32:7.1516618 33:-3.5177257 34:62.049402 35:8.3719192 36:14.978821 37:-6.4055817 38:-7.2014711 39:-22.291628 40:59.233636 41:6.0708237 42:9.0595377 43:-6.8654256 44:0.59373701 45:-8.8808869 46:19.321303 47:6.2087715 48:4.8744038 49:-2.2331192 50:-5.2410902 51:-14.573198 52:13.775747 53:3.4640285 54:13.735816 55:-10.417652 56:-10.378854 57:-22.329859 58:36.75262 59:7.0279676 60:10.597496 61:-7.3406569 62:-8.5225467 63:-19.790584 64:16.638619 65:5.4336616 66:8.7952295 67:-1.2037608 68:1.1108051 69:-4.0143356 70:24.189227 71:3.1592137 72:8.2782245 
1.1269410251207836 1:-163.20304 2:-162.73817 3:-278.34813 4:3969.8796 5:59.806983 6:178.54272 7:73.155587 8:69.389795 9:54.199549 10:167.83251 11:20.423691 12:75.44176 13:-10.366236 14:-16.145738 15:-42.132143 16:399.92482 17:25.97915 18:26.913774 19:2.9325802 20:6.6851211 21:-1.6001118 22:30.057773 23:8.5416764 24:10.846742 25:-13.602569 26:-13.24976 27:-25.497922 28:119.58327 29:13.502498 30:13.196334 31:10.231267 32:7.6764378 33:-5.5133104 34:63.854422 35:5.3136315 36:10.729723 37:-3.6748897 38:-3.8128808 39:-24.280801 40:56.219974 41:9.3922814 42:13.684369 43:-0.92453061 44:-3.0420175 45:-14.732639 46:22.772579 47:4.1735157 48:2.9789681 49:-4.9062524 50:-2.2352256 51:-14.433008 52:11.765946 53:7.4247758 54:8.4673091 55:-10.372891 56:-7.597668 57:-21.078273 58:36.333638 59:3.5564864 60:13.498733 61:-9.8527498 62:-11.251055 63:-18.792479 64:19.841955 65:7.935184 66:13.732012 67:-3.9960572 68:2.561934 69:-8.4938335 70:24.027149 71:5.8000316 72:4.5991539 
1.1273506930971331 1:-165.88943 2:-157.6257 3:-274.3975 4:3969.5232 5:66.812994 6:181.9716 7:71.841508 8:66.807159 9:51.615791 10:165.86304 11:11.258106 12:76.194721 13:-13.437804 14:-13.782678 15:-44.708166 16:397.38481 17:22.145185 18:25.357472 19:7.3384289 20:9.817219 21:-2.6324892 22:31.444267 23:7.692451 24:10.493798 25:-10.459374 26:-10.691312 27:-27.267265 28:120.04531 29:14.103183 30:15.143572 31:11.606234 32:7.3417184 33:-4.0776299 34:61.938759 35:13.986866 36:11.145651 37:-8.8178953 38:-3.0061347 39:-17.194397 40:62.820063 41:7.6821572 42:12.258339 43:-0.99184492 44:-0.31519301 45:-15.867008 46:17.658776 47:3.7490759 48:6.8305397 49:-2.4970864 50:3.2784495 51:-14.75221 52:12.51737 53:5.3973385 54:7.0132428 55:-4.7029664 56:-7.2726297 57:-23.256468 58:31.412606 59:6.5998942 60:15.717583 61:-7.8272612 62:-10.36647 63:-13.731169 64:19.826781 65:3.5145867 66:10.783111 67:-0.9219152 68:-3.919066 69:-11.618741 70:24.813687 71:3.0577898 72:6.0543892 
1.1268830768455116 1:-163.49752 2:-161.08849 3:-271.15466 4:3967.3987 5:63.507884 6:176.89459 7:71.193589 8:70.685789 9:52.445308 10:169.55311 11:13.470028 12:69.495638 13:-9.7567413 14:-11.285489 15:-39.349657 16:401.90955 17:21.155511 18:20.260155 19:5.6671565 20:4.5577478 21:-4.1895743 22:28.760918 23:3.5648234 24:10.955192 25:-9.9135283 26:-11.860595 27:-23.377152 28:124.73363 29:7.4174931 30:13.349241 31:15.134441 32:8.7510526 33:-8.3535545 34:60.878709 35:11.369496 36:8.1332245 37:-6.7047122 38:-2.7344315 39:-20.22794 40:64.023055 41:12.764 42:7.6069236 43:-4.8586487 44:-4.9731695 45:-16.015555 46:15.94242 47:2.3967725 48:9.5420081 49:-1.616276 50:-3.4168824 51:-15.353801 52:13.583514 53:6.968178 54:5.9612451 55:-10.026344 56:-8.6960333 57:-26.802691 58:40.906659 59:5.0061107 60:13.052883 61:-6.1011379 62:-7.4176227 63:-20.323887 64:16.38746 65:7.5777274 66:10.118421 67:3.1887814 68:1.4486986 69:-5.4571529 70:23.781673 71:5.6908623 72:11.186925 
1.1220072189098835 1:-166.72009 2:-161.84163 3:-278.11635 4:3971.6137 5:64.819738 6:177.51216 7:73.611544 8:68.933003 9:51.823278 10:169.74826 11:13.037092 12:75.090222 13:-10.62382 14:-13.957257 15:-41.189756 16:402.16249 17:20.074887 18:22.340369 19:4.2805466 20:5.2451646 21:-4.3732729 22:34.280473 23:7.4307589 24:11.068576 25:-7.7772552 26:-13.404255 27:-22.556965 28:121.44963 29:9.8925934 30:12.522246 31:11.262982 32:6.7151028 33:-6.3200606 34:61.178754 35:14.7389 36:10.757938 37:-5.9285501 38:-0.64214233 39:-24.474127 40:62.222246 41:10.219511 42:7.8718099 43:-1.0064271 44:-0.78679227 45:-10.73243 46:18.848893 47:9.049927 48:6.8855097 49:-0.66835645 50:-4.8175494 51:-9.8122195 52:14.786631 53:6.9253954 54:7.2498754 55:-9.2681323 56:-7.0551656 57:-25.597602 58:32.703455 59:6.3006617 60:8.7357169 61:-6.4561304 62:-3.8052219 63:-16.218458 64:15.00597 65:7.3176383 66:11.04532 67:-1.0659773 68:-1.4653593 69:-10.168894 70:26.098039 71:3.6150668 72:2.6005644 
1.1268683494593019 1:-165.053 2:-163.33227 3:-280.72959 4:3970.3222 5:69.177916 6:176.83675 7:75.290793 8:70.249027 9:53.239999 10:170.87683 11:14.313895 12:71.266704 13:-12.660864 14:-18.256414 15:-44.020755 16:400.83161 17:22.829861 18:25.451866 19:3.6602982 20:3.1991651 21:-6.7753518 22:35.794654 23:4.8528514 24:6.2099496 25:-12.825672 26:-11.748477 27:-20.761504 28:119.83276 29:14.657471 30:17.940445 31:14.104438 32:11.739701 33:-0.99923709 34:59.545853 35:2.5445276 36:9.5048194 37:-9.1177156 38:-3.4110086 39:-20.848681 40:63.502016 41:13.56236 42:11.184964 43:-2.9696983 44:-2.9457202 45:-12.689593 46:21.618906 47:8.3313836 48:9.3383174 49:-6.2864668 50:-2.2106712 51:-15.038621 52:17.717944 53:2.9557994 54:4.6012373 55:-12.79016 56:-8.1798035 57:-24.115694 58:36.90233 59:8.7638469 60:16.241661 61:-13.781404 62:-7.3978012 63:-14.041982 64:17.306472 65:6.6186061 66:14.642646 67:-0.82241693 68:-1.0309135 69:-9.2432015 70:22.660928 71:5.0092729 72:8.5470708 
1.1275470171342006 1:-164.06115 2:-158.77104 3:-277.2111 4:3974.5954 5:67.278719 6:180.69882 7:71.11667 8:65.964322 9:54.167748 10:165.16047 11:10.055358 12:72.099668 13:-12.49487 14:-14.620672 15:-48.610958 16:400.67397 17:26.315145 18:24.740998 19:7.1642057 20:5.1329652 21:-2.658471 22:32.486491 23:4.1792972 24:10.568128 25:-5.2182302 26:-10.885934 27:-23.961531 28:120.15525 29:15.163417 30:18.819827 31:13.087867 32:10.141889 33:-6.3345335 34:58.240947 35:9.7821644 36:15.76583 37:-9.592355 38:-2.1482342 39:-18.35027 40:60.701355 41:13.561463 42:9.9357138 43:-1.8112761 44:-1.2016532 45:-16.246689 46:20.18636 47:9.2892668 48:5.8170174 49:-5.0731167 50:-2.4837099 51:-9.9683893 52:11.366307 53:3.0606646 54:6.6407205 55:-11.608027 56:-7.5180486 57:-26.038219 58:40.201832 59:8.2785782 60:13.649092 61:-10.643815 62:-8.5148847 63:-19.748741 64:18.630068 65:7.620694 66:15.086662 67:-4.5731743 68:-0.27544365 69:-7.0869868 70:22.831036 71:10.776061 72:4.989766 
1.125985572155916 1:-167.77141 2:-163.32429 3:-279.17493 4:3970.9499 5:66.031861 6:180.52102 7:69.233548 8:70.388802 9:52.52544 10:163.32944 11:17.537188 12:71.831568 13:-8.1760845 14:-17.814226 15:-46.06663 16:398.29223 17:21.290835 18:26.002677 19:10.791754 20:7.9376206 21:-7.8986298 22:32.749678 23:9.2906203 24:8.4275023 25:-12.390688 26:-12.129842 27:-25.199708 28:122.98635 29:12.943131 30:15.236488 31:13.306664 32:5.854593 33:-4.3721038 34:63.716643 35:9.3462619 36:16.177356 37:-7.2708918 38:-8.7127517 39:-22.642811 40:59.320079 41:9.8951468 42:11.043816 43:-5.5816001 44:1.7917026 45:-11.889144 46:19.231555 47:0.93053004 48:1.854352 49:-8.0028639 50:-6.2905186 51:-11.230809 52:17.181798 53:5.5689585 54:6.4798587 55:-9.1336812 56:-7.1471672 57:-22.005727 58:34.413138 59:6.0982461 60:13.438218 61:-12.539264 62:-8.1631732 63:-14.81707 64:16.5597 65:3.0536466 66:15.326936 67:1.869806 68:-1.8444555 69:-4.7774695 70:26.452202 71:3.7145208 72:5.120842 
1.127914268642946 1:-163.42455 2:-165.61454 3:-281.47472 4:3975.8884 5:64.939775 6:183.13291 7:72.601042 8:69.648789 9:52.367281 10:168.42499 11:13.738989 12:73.510414 13:-12.485903 14:-11.076494 15:-42.104388 16:401.04124 17:19.359618 18:27.526343 19:8.4856382 20:5.1579863 21:-1.1536551 22:30.431121 23:10.475243 24:5.327975 25:-8.6492828 26:-10.039246 27:-24.203854 28:124.38976 29:10.440654 30:13.006669 31:10.939518 32:10.711261 33:-4.6792798 34:61.490575 35:12.301895 36:11.707246 37:-5.6355843 38:-1.6901446 39:-18.52666 40:56.436958 41:11.002081 42:8.081239 43:-1.7942951 44:1.509022 45:-15.080351 46:17.790778 47:10.675812 48:8.6322397 49:-5.5731788 50:-3.3867147 51:-13.262248 52:14.647629 53:2.4164204 54:7.3455694 55:-4.4210395 56:-8.4696352 57:-22.255781 58:31.455304 59:7.0972811 60:10.198036 61:-8.6882098 62:-6.7829123 63:-15.549049 64:15.266733 65:4.252155 66:6.9606169 67:-5.0254332 68:-2.5164102 69:-5.6598329 70:22.349239 71:8.3147557 72:13.102875 
1.1278022644024059 1:-162.77315 2:-162.10839 3:-273.6399 4:3970.0816 5:66.345009 6:180.43654 7:71.658069 8:67.78442 9:51.963975 10:169.51827 11:14.286024 12:74.312965 13:-8.7914638 14:-14.317605 15:-41.790782 16:396.80711 17:18.998694 18:25.73218 19:5.1857691 20:6.7725822 21:-0.19224604 22:29.489738 23:9.8307948 24:7.440984 25:-8.8940871 26:-11.603615 27:-27.929996 28:122.19989 29:9.059216 30:15.947933 31:12.955376 32:7.4271914 33:0.8516904 34:60.714816 35:2.2195041 36:14.238601 37:-2.2856528 38:-6.0366649 39:-22.738041 40:60.619855 41:8.4262496 42:12.856088 43:-3.397738 44:-3.3584109 45:-8.9954048 46:16.244572 47:6.0492157 48:7.2408043 49:0.40634504 50:-3.1724644 51:-14.648588 52:17.153085 53:0.043217309 54:8.6990486 55:-9.3286567 56:-4.1964056 57:-23.049951 58:37.593655 59:11.541145 60:11.568259 61:-11.489725 62:-10.898914 63:-15.565422 64:15.634837 65:5.7026584 66:16.805869 67:-0.64701676 68:-1.7997986 69:-9.5712205 70:23.306062 71:2.0309042 72:1.633665 
1.1264877016952948 1:-164.95938 2:-161.21682 3:-276.13101 4:3966.5749 5:63.020182 6:175.09415 7:74.183773 8:63.412439 9:55.357741 10:171.23984 11:12.507421 12:71.525211 13:-8.2899471 14:-12.87744 15:-38.428061 16:401.05589 17:16.923001 18:25.716862 19:5.6538272 20:9.1491421 21:-4.8457327 22:31.712301 23:8.496655 24:6.0646622 25:-7.2063341 26:-13.300777 27:-25.587703 28:119.82186 29:14.98725 30:15.199517 31:10.60056 32:8.3757418 33:-5.7372857 34:61.410794 35:10.912354 36:15.458738 37:-3.5444683 38:-2.1925451 39:-20.954963 40:62.617042 41:7.1688507 42:11.058465 43:-6.6001175 44:-2.4768839 45:-13.599521 46:15.703915 47:7.923123 48:4.0152818 49:-1.7371959 50:-7.1047735 51:-18.414032 52:16.182069 53:6.3609612 54:5.970272 55:-11.825729 56:-8.4720754 57:-29.994661 58:33.83363 59:10.55667 60:13.282858 61:-5.8981913 62:-6.6466823 63:-21.403621 64:12.15959 65:6.3036877 66:11.426224 67:-0.83881045 68:2.0871155 69:-5.2607329 70:22.625189 71:7.0568253 72:5.3048638 
1.1282914343929111 1:-163.40368 2:-157.29245 3:-278.53559 4:3969.3658 5:61.071819 6:178.85351 7:71.801188 8:67.217977 9:48.293265 10:167.24479 11:13.938929 12:72.004076 13:-9.4164111 14:-15.795722 15:-42.51146 16:394.20339 17:21.787308 18:26.40473 19:6.1744741 20:8.4288635 21:-2.2772205 22:30.567902 23:8.7082245 24:10.369604 25:-12.241331 26:-7.4417337 27:-27.429302 28:125.71471 29:15.155535 30:13.174977 31:11.527508 32:10.602129 33:-2.5029459 34:63.265657 35:10.028969 36:13.359749 37:-0.75809909 38:-2.2775405 39:-20.110549 40:64.3113 41:4.5899339 42:7.6289221 43:0.18577585 44:-5.7766123 45:-17.012645 46:15.255799 47:5.7631207 48:10.275287 49:-2.5589381 50:-2.45788 51:-10.562265 52:15.196527 53:6.2723894 54:4.5421685 55:-7.4102841 56:-1.65318 57:-24.297508 58:36.216289 59:7.4631906 60:16.10852 61:-6.6209696 62:-9.8052189 63:-24.378864 64:14.338288 65:7.1774065 66:11.721675 67:-1.0056346 68:-1.0885555 69:-9.6266924 70:22.679925 71:6.3630182 72:9.1392256 
1.1276815441096524 1:-157.76473 2:-164.06229 3:-275.44253 4:3971.174 5:68.454293 6:177.04635 7:70.556775 8:66.411676 9:49.693271 10:164.29324 11:12.416654 12:70.162834 13:-7.6221879 14:-13.566334 15:-43.29283 16:404.73442 17:19.452488 18:22.182428 19:9.5588554 20:8.652882 21:-4.1831977 22:34.4297 23:5.7485925 24:8.753795 25:-10.473196 26:-8.5963575 27:-27.755959 28:122.9902 29:8.0788502 30:18.257145 31:11.041886 32:8.9262625 33:1.1315452 34:60.134687 35:4.7292136 36:12.030377 37:-3.7708724 38:-3.6877059 39:-21.759457 40:58.61403 41:9.2995772 42:12.524089 43:-1.0118786 44:-0.59963142 45:-14.073809 46:17.487099 47:3.2327905 48:5.3526741 49:-3.265034 50:-1.7788649 51:-7.3255176 52:15.786656 53:4.3339964 54:5.0281813 55:-8.9442385 56:-6.3087192 57:-18.725919 58:33.153376 59:4.6640277 60:16.550051 61:-8.1632895 62:-7.7157983 63:-18.352045 64:20.935487 65:5.3615595 66:9.6162345 67:-1.1208344 68:-2.2979074 69:-11.109431 70:23.223112 71:11.899833 72:6.5006072 
1.1270486268897626 1:-160.91725 2:-164.991 3:-279.08564 4:3971.2371 5:63.304507 6:181.7136 7:72.101923 8:67.798015 9:54.008857 10:170.30133 11:17.8514 12:74.832127 13:-8.6548833 14:-15.987536 15:-42.414593 16:402.49029 17:20.860332 18:23.588365 19:4.7326554 20:3.4941271 21:-8.5605463 22:31.018653 23:8.5463579 24:9.70958 25:-11.704155 26:-11.310741 27:-21.584605 28:121.79966 29:9.6078007 30:13.606053 31:9.5202445 32:6.880155 33:-4.650756 34:64.486148 35:11.929138 36:18.232452 37:-3.5029735 38:-5.0936078 39:-20.901109 40:62.795006 41:8.4359455 42:12.591177 43:-5.5096854 44:-2.995276 45:-11.432682 46:19.634673 47:6.3998011 48:9.6945801 49:-4.5075364 50:-1.139124 51:-15.113174 52:16.276872 53:2.8422357 54:3.2929964 55:-12.367145 56:-7.4528245 57:-27.440639 58:37.500755 59:6.7342164 60:12.904181 61:-4.301181 62:-8.4575315 63:-21.687215 64:13.309859 65:7.1052708 66:15.510708 67:-2.145188 68:-1.2932273 69:-6.0918466 70:22.382741 71:5.035072 72:6.9683939 
1.1264809237547335 1:-170.12974 2:-162.60333 3:-273.93988 4:3970.9873 5:61.774816 6:179.71666 7:74.95701 8:69.045834 9:53.854187 10:166.9292 11:15.119799 12:70.083672 13:-7.4668115 14:-13.527057 15:-47.169789 16:397.57867 17:22.542453 18:24.332136 19:7.2785833 20:2.6291367 21:-7.025045 22:38.396687 23:11.775174 24:8.3724824 25:-10.050156 26:-13.080028 27:-26.151743 28:122.97686 29:9.9047825 30:16.174303 31:10.459348 32:12.738643 33:-4.4727997 34:58.256407 35:11.68083 36:12.342489 37:-3.9704559 38:-6.9059599 39:-19.578234 40:61.740476 41:9.4675823 42:11.939891 43:-1.1686101 44:-2.3362361 45:-14.516677 46:17.283516 47:7.0516923 48:2.3013112 49:0.49927183 50:-7.9611325 51:-11.81015 52:13.924253 53:7.8196525 54:4.3778431 55:-9.5166767 56:-8.3222932 57:-22.863001 58:36.308613 59:2.7345356 60:12.489102 61:-8.7346261 62:-10.629508 63:-20.14475 64:16.841973 65:7.237264 66:12.904602 67:2.2820068 68:-0.1819415 69:-12.906404 70:22.406049 71:7.9563812 72:7.0970696 
