svm_type c_svc
kernel_type rbf
gamma 0.10000000000000001
nr_class 2
total_sv 321
rho 0.40657693088316155
label 0 1
probA -2.5323077320600258
probB 0.04948235059952473
nr_sv 147 174
SV
2.6029600511075839 1:0.70418799 2:-1.3230383 3:-0.12348829 4:-2.196905 5:-0.41898803 6:-0.59646416 7:0.6474795 8:-0.24240214 9:-0.2286288 10:-0.22009582 11:0.69480844 12:0.66728514 13:-0.017263763 14:-0.027375432 15:-0.013683496 16:-0.036374736 17:0.0023494879 18:0.0058076187 19:0.017064669 20:0.01995215 21:0.0071652008 22:-0.006729734 23:0.0084887499 24:0.0062099512 25:0.0079415078 26:0.0035632874 27:-0.00029705325 28:8.3692886e-05 29:0.0008566169 30:-0.00094144211 31:1.8444774e-05 32:7.3291064e-05 33:0.00085524799 34:-0.0039069204 35:-0.002815426 36:0.00014076461 37:0.572487 38:-1.7946306 39:-0.40347118 40:-2.6648378 41:-0.51171749 42:-0.64890762 43:0.72495854 44:-0.32246839 45:-0.17205366 46:-0.31318292 47:0.79692837 48:0.81383735 49:0.0049610485 50:-0.00031443052 51:0.0010120457 52:-0.051816514 53:0.029239483 54:0.0072106928 55:0.02827488 56:0.016629534 57:-0.0092036018 58:0.0005702977 59:0.0092901671 60:0.007422975 61:0.007318739 62:0.015082262 63:0.003081296 64:-0.0094281691 65:-0.0012677734 66:-0.0012323567 67:-0.0020126489 68:-0.0014373555 69:0.0030956349 70:2.6387972e-05 71:-0.0020133308 72:-0.0017691279 
4.2057904312174559 1:1.2304471 2:0.2032712 3:1.4981972 4:-0.91824459 5:2.1665554 6:0.21441297 7:-0.24444039 8:0.62113408 9:0.065781567 10:-0.30913328 11:0.77824485 12:0.7381738 13:0.0059504171 14:0.045418722 15:0.051273848 16:0.026077403 17:0.010833563 18:0.014495742 19:0.033484906 20:0.021000949 21:0.0050895656 22:-0.014412503 23:-0.01966585 24:-0.02357006 25:0.0095870973 26:0.012908572 27:0.011794691 28:0.0057989253 29:-0.002994944 30:-0.0025037505 31:0.0063715309 32:-0.0061212871 33:0.008114208 34:-0.0029277563 35:0.00029762079 36:-0.0031072588 37:0.89306416 38:0.088714525 39:1.9259687 40:-0.79591816 41:2.6050465 42:0.55887222 43:-0.26892286 44:0.69132781 45:0.18600621 46:-0.27001733 47:0.90194428 48:0.65683006 49:0.007556408 50:0.099137519 51:0.018664998 52:0.029950399 53:-0.023230071 54:0.021962071 55:0.028145822 56:-0.0061252331 57:0.0069399318 58:-0.019831728 59:-0.034179775 60:-0.068838467 61:0.0051800636 62:0.0086868692 63:0.0047355861 64:-0.0075919166 65:-0.0064057115 66:-0.016198659 67:0.0010557536 68:-0.0026410665 69:0.0092499641 70:-0.0053669309 71:0.002138628 72:-0.0091973208 
0.24554623448038024 1:1.998723 2:-0.64575309 3:0.15660998 4:0.052933131 5:0.58689076 6:0.14410692 7:0.5519511 8:0.59514015 9:0.63401739 10:0.17990139 11:0.30549036 12:0.37424059 13:0.047891974 14:-0.036524489 15:-0.035445326 16:0.0056469562 17:-0.0020141791 18:-0.017376256 19:0.0048617822 20:-0.0062194849 21:-0.01365612 22:0.0095949411 23:0.00064558304 24:0.0026864905 25:-0.00071725131 26:-0.002708227 27:-0.00081291076 28:-0.0018166845 29:-0.00085221596 30:2.4374219e-05 31:-0.0027283435 32:0.00034105379 33:0.00067570863 34:-0.0012354321 35:0.00048134273 36:0.0012820767 37:1.3935127 38:-0.89322581 39:-0.09569938 40:0.21204494 41:0.51172406 42:0.16588374 43:0.56938645 44:0.74931129 45:0.66904866 46:0.19878131 47:0.30291562 48:0.36328787 49:0.0026008433 50:0.024119351 51:-0.012010214 52:0.015918545 53:0.0083078723 54:0.0064808837 55:-0.0069040716 56:-0.010542946 57:-0.010835836 58:0.010414663 59:-0.011411178 60:-0.012022615 61:0.0002411227 62:0.0088033415 63:-0.00016576086 64:0.0037707665 65:-0.0060009368 66:-0.00082320821 67:-0.005753908 68:3.1108926e-06 69:0.0026717228 70:-0.0018830814 71:0.0038998897 72:-0.0028497147 
9.6938646098820183 1:3.4662205 2:0.2127686 3:0.67541563 4:-0.2207158 5:-0.03906816 6:-0.27296808 7:0.29159141 8:-0.19170168 9:0.011923121 10:0.63609113 11:0.40517502 12:0.12195611 13:-0.0030292685 14:-0.0048400597 15:-0.0031215714 16:0.00053203652 17:4.7774937e-07 18:0.0081303184 19:0.0045656937 20:0.0041406009 21:0.0022300445 22:-0.0044451588 23:-0.0057694567 24:-0.0025993658 25:0.00052879287 26:-0.0023107203 27:-0.00020672921 28:0.00011477456 29:0.0012325185 30:0.00018859174 31:-0.00047939985 32:3.0545734e-05 33:0.00060310007 34:0.00085365788 35:-0.00069078226 36:-0.00086762219 37:2.96243 38:0.27589071 39:0.7367122 40:-0.28949171 41:-0.026999758 42:-0.16184903 43:0.2041734 44:-0.030854051 45:-0.065916599 46:0.55646604 47:0.26426135 48:0.11610962 49:0.014907385 50:-0.038720438 51:-0.015860863 52:0.039185388 53:-0.0034394504 54:0.0089767171 55:-0.0078769992 56:0.022170175 57:0.012763467 58:-0.027261708 59:-0.0058930502 60:-0.020455094 61:-0.0063044824 62:-0.0085314645 63:-0.0090502914 64:0.0020860721 65:0.005527426 66:-0.0039818341 67:-0.0009814319 68:-0.0058375543 69:-0.0012967964 70:0.0032282203 71:-0.0025999519 72:-0.00055353193 
5.0326900513685153 1:3.6175318 2:-0.57122938 3:0.19702929 4:-0.079490543 5:-0.16925952 6:-0.52308583 7:0.62401469 8:-0.020796729 9:-0.34364166 10:-0.45536951 11:0.067948337 12:0.019162147 13:0.07452789 14:-0.028128991 15:-0.022999764 16:0.013796322 17:-0.029881134 18:0.02067484 19:-0.00052637058 20:0.013904764 21:-0.010154802 22:-0.029221491 23:-0.018924953 24:-0.025414012 25:-0.0089543722 26:0.0035577742 27:0.0013556072 28:-0.0024270299 29:0.0041552834 30:-0.0045940342 31:0.00040965219 32:-0.0027498567 33:0.0012639609 34:0.0016532788 35:-0.0009903363 36:-0.0004642979 37:3.0589792 38:-0.99775822 39:0.3747753 40:0.016102886 41:-0.22192749 42:-0.25892821 43:0.73772675 44:0.020364962 45:-0.58741836 46:-0.518116 47:-0.055188719 48:-0.010641446 49:-0.060979424 50:0.036141399 51:-0.044559521 52:0.018188524 53:0.017213406 54:0.037218699 55:-0.013187791 56:-0.016830798 57:0.030917826 58:-0.031873997 59:-0.019217633 60:-0.022440373 61:-0.0079854059 62:0.003335546 63:0.009306696 64:-2.0417528e-05 65:-0.00021544494 66:-0.0075111422 67:0.0028482589 68:-0.0049416821 69:0.0028310833 70:0.0011015066 71:0.0032603274 72:-0.0009072261 
5.8182169560075057 1:1.294692 2:-0.58306339 3:-0.034879784 4:-0.10745181 5:0.42496106 6:-0.1035025 7:-0.13912906 8:0.26932749 9:-0.3390241 10:0.11301988 11:0.50115531 12:0.36199125 13:-0.0043083744 14:-0.025199564 15:0.0093715465 16:0.002715325 17:-0.0020918308 18:-0.002967536 19:0.0050401306 20:-0.0050582212 21:0.00017659142 22:-0.0046698592 23:-0.0018627203 24:0.012705291 25:-0.00087570896 26:-0.0017972759 27:-0.00036540891 28:-0.00073536221 29:-0.0011005862 30:-0.00022952775 31:0.0010314592 32:-9.9554963e-05 33:-0.0013149763 34:-0.00035200052 35:0.00040609202 36:-0.00064750674 37:2.401618 38:-0.80218267 39:-0.13362697 40:0.051519865 41:0.44865541 42:0.22201369 43:-0.12299761 44:0.27546158 45:-0.42483759 46:0.10163204 47:0.53500775 48:0.3805231 49:0.016271193 50:0.044802497 51:0.036440071 52:0.019920251 53:-0.0045053914 54:0.030485538 55:0.010359935 56:-0.0061001106 57:-0.010283096 58:-0.0022550318 59:-0.015844333 60:0.01437489 61:0.0015894076 62:-0.0035609848 63:-0.00077667307 64:-0.0053593135 65:-0.007357289 66:0.0028054137 67:0.00056194183 68:-0.00296394 69:0.0025624877 70:-1.4066058e-06 71:-0.0045096471 72:-0.0012393044 
4.6592278909713967 1:1.6752469 2:-0.027503435 3:0.84876698 4:-0.0032759026 5:0.47095838 6:-0.1266225 7:-0.27090752 8:-0.8206307 9:0.45279893 10:0.2741523 11:0.37758422 12:-0.05652359 13:-0.020815076 14:-0.013443488 15:0.0368805 16:0.0073358957 17:-0.0028003997 18:-0.01528225 19:0.0048891528 20:-0.00024852908 21:0.0085702909 22:0.0069726639 23:0.012539172 24:-0.0015433308 25:0.0069192526 26:0.0039576823 27:0.0056717649 28:0.0026627217 29:-0.00095782683 30:0.001161406 31:-0.0043235452 32:0.0015235037 33:-0.005206455 34:4.2244667e-05 35:-0.0033859879 36:-0.001982622 37:1.6969851 38:-0.043538768 39:0.71730411 40:-0.025681566 41:0.49642355 42:-0.11534519 43:-0.40885425 44:-0.75080927 45:0.57418918 46:0.26194641 47:0.42724389 48:-0.072005838 49:0.024295416 50:-0.057942873 51:0.031096631 52:0.012330252 53:-0.0011564863 54:-0.018451794 55:0.015642545 56:-0.010443311 57:0.0038540507 58:0.0060185304 59:-0.0026722687 60:0.008135182 61:-0.025102563 62:0.020422262 63:0.01523712 64:-0.00087250327 65:0.0025749795 66:0.001459149 67:-0.01231831 68:0.0056662201 69:0.00090991879 70:0.0069642245 71:-0.0066764138 72:-0.0089903995 
4.5219191161386734 1:3.0814433 2:-0.22290683 3:0.89134564 4:-1.1052185 5:0.4604936 6:-0.086637274 7:-0.20102948 8:-0.081293414 9:-0.45926139 10:-0.35771736 11:0.35458422 12:0.2843412 13:-0.0077410344 14:-0.010026371 15:0.012100593 16:-0.017046645 17:-0.0037364389 18:0.025543158 19:0.025766607 20:0.0099444403 21:-0.0081615152 22:-0.00040314568 23:-0.0034847248 24:0.0035923336 25:0.0096600732 26:-0.0011750089 27:-0.0010707482 28:-0.00045562624 29:-0.0084769663 30:-0.00010184746 31:0.0018115606 32:-0.00020488721 33:0.0010272374 34:0.0049554376 35:0.00025926175 36:0.00048497238 37:2.9890054 38:-0.37733085 39:0.99171838 40:-1.1408295 41:0.43320935 42:-0.051330341 43:-0.17213468 44:-0.033057319 45:-0.3986715 46:-0.40851628 47:0.35671218 48:0.31795773 49:0.079362577 50:0.026029124 51:-0.03224681 52:0.0083675605 53:-0.012408294 54:0.03531233 55:0.028005833 56:0.02577996 57:-0.0019562446 58:0.020914457 59:-0.017572462 60:-0.0058384625 61:-0.0038238913 62:-0.0046830082 63:-0.0038501039 64:-0.004887175 65:-0.0060272039 66:0.0092930244 67:-0.0041532668 68:-0.0045697908 69:-0.0024293066 70:0.0014976181 71:-0.0012292658 72:0.0031899821 
1.5192314226382082 1:4.1562752 2:0.96372156 3:1.1476892 4:-0.002759634 5:1.1070712 6:-0.49096595 7:0.58650654 8:-0.23266068 9:-0.57763512 10:-0.62474102 11:-0.042206617 12:0.26626643 13:0.049588441 14:0.0062280092 15:0.0021274694 16:0.046315432 17:0.0010120741 18:0.032879003 19:0.021278435 20:-0.0036050911 21:0.00092654632 22:-0.0012880796 23:-0.0044939023 24:0.017523514 25:0.0040207965 26:-0.016421507 27:0.0018508229 28:0.0011871127 29:-0.0085846611 30:0.003147446 31:0.00059605071 32:0.0078144985 33:0.0029272866 34:0.010113642 35:0.0022288646 36:0.00075852583 37:3.8835901 38:0.79679553 39:1.0770666 40:-0.070372916 41:0.96133146 42:-0.32127243 43:0.63658003 44:-0.16595764 45:-0.56003268 46:-0.38104434 47:0.027761074 48:0.25167845 49:0.044014961 50:0.018857231 51:-0.035614867 52:0.041183291 53:-0.019831999 54:0.04156704 55:-0.038741488 56:-0.028727205 57:-0.0070947408 58:-0.0046378859 59:0.052388238 60:0.042178549 61:0.0031893763 62:-0.014630919 63:0.011353769 64:0.0048502544 65:-0.013184082 66:0.00070169842 67:-0.00062426471 68:0.00095017037 69:0.0011617764 70:0.014394871 71:-0.0053784878 72:0.0059140865 
2.1204291870050835 1:3.2493805 2:-0.22279976 3:0.98721039 4:-1.0655698 5:0.64776652 6:-0.072102235 7:-0.65066016 8:-0.91796785 9:-0.21286999 10:-0.21167399 11:0.68936241 12:0.94679555 13:0.12699379 14:-0.056329149 15:-0.011048348 16:0.011382817 17:-0.028983287 18:0.024777382 19:0.024333968 20:0.003554377 21:0.011008762 22:0.010756319 23:0.000214905 24:0.011895328 25:-0.0017324264 26:-0.00079865115 27:-0.0085250289 28:-0.0063455477 29:-0.0023143995 30:-0.0021974019 31:-0.0061293375 32:-0.007086322 33:-0.0031825328 34:-0.0032770629 35:-0.0025763467 36:-0.0023041501 37:2.8018402 38:-0.56456147 39:0.77212126 40:-1.1684329 41:0.42260097 42:-0.032176617 43:-0.7963437 44:-0.94684828 45:-0.29761464 46:-0.092007022 47:0.74050165 48:0.8737783 49:0.11802956 50:-0.08805404 51:-0.049328185 52:0.036835376 53:-0.061280114 54:0.0095842299 55:-0.022837031 56:-0.024339432 57:0.010215169 58:0.015760854 59:-0.013502078 60:0.059330815 61:-0.00027329991 62:0.005187756 63:0.0048989491 64:0.001619188 65:0.0019595566 66:-0.0085296593 67:-0.0044261901 68:-0.0079654174 69:-0.001455453 70:-0.01116492 71:-0.0030399835 72:-0.0069909333 
10 1:3.515807 2:-0.1444833 3:0.33678073 4:-0.64952973 5:0.95419982 6:0.034803456 7:-0.19379519 8:-0.088708618 9:0.34901838 10:0.10794599 11:0.55243887 12:0.33290694 13:-0.0083319782 14:-0.023868219 15:0.0069405857 16:-0.0074990021 17:0.00047267657 18:0.0037249249 19:0.0096434034 20:0.0074859648 21:-0.0055834932 22:0.0023806493 23:0.0056764205 24:0.0077360286 25:0.00026742233 26:0.00098537871 27:-0.00033723397 28:-0.0010182189 29:-0.0010519003 30:-0.00015268802 31:0.00053097232 32:0.00010794259 33:0.00046847559 34:0.00043993761 35:0.00051179525 36:0.00044778028 37:3.7953116 38:-0.074708597 39:0.36289008 40:-0.11396961 41:0.83873249 42:0.16891561 43:-0.10088631 44:0.030346423 45:0.27707337 46:0.11845028 47:0.5111627 48:0.30038063 49:0.017738941 50:-0.0028801639 51:0.0050307212 52:-0.0081413766 53:-0.0077101665 54:0.0066877396 55:0.0048360218 56:0.0028379625 57:-0.008833531 58:0.0067183388 59:0.0031911278 60:-0.0065231483 61:-0.0035984425 62:0.0081895249 63:-0.00091226166 64:0.0020307333 65:-0.00115575 66:-0.0037690013 67:-0.0033548555 68:0.0026168096 69:0.003821233 70:0.002393347 71:0.00036244247 72:0.0019895564 
1.1867277155202864 1:1.3503171 2:0.734641 3:1.3126355 4:-1.0197408 5:0.55428828 6:0.26875299 7:-0.34884082 8:-0.081919103 9:-0.40566769 10:-0.28518637 11:0.49797309 12:0.56458723 13:-0.039899242 14:0.013363456 15:0.006491554 16:-0.020415685 17:0.010085647 18:0.025112162 19:0.016020638 20:0.018252761 21:0.0062371987 22:-0.0021413869 23:0.016615571 24:0.017070473 25:0.025688872 26:-0.0037203405 27:0.011180137 28:-0.0011775375 29:-0.0016844846 30:-0.0059784666 31:0.008982503 32:-0.0054998422 33:0.00060224288 34:0.0086247994 35:0.0039040505 36:0.0038705081 37:0.87492534 38:0.7694434 39:1.3943233 40:-0.93950612 41:0.52861918 42:0.22160508 43:-0.3230779 44:-0.057527118 45:-0.3161614 46:-0.22651775 47:0.53451136 48:0.61419422 49:-0.018310786 50:0.0016141687 51:0.02211851 52:0.030887721 53:0.0027536862 54:0.074921823 55:0.020227781 56:1.9491169e-05 57:0.021972822 58:0.020903977 59:-0.01325581 60:-0.059333679 61:0.012141076 62:-0.003556384 63:-0.006619593 64:-0.016177165 65:-0.0054151477 66:-0.0010813712 67:0.025573439 68:0.0010375604 69:0.0033941004 70:0.0041860093 71:0.0072493512 72:0.0094143482 
10 1:3.4210324 2:0.33413848 3:1.7709535 4:-0.072862664 5:1.0841725 6:-0.16490766 7:-0.11865013 8:0.077948586 9:-0.48361513 10:-0.35834159 11:0.10391158 12:-0.097556311 13:0.040250624 14:-0.007639599 15:0.037147812 16:-0.0010254824 17:0.014475377 18:0.017534684 19:0.031343902 20:0.029400796 21:0.008179746 22:-0.00034635184 23:-0.0064574028 24:-0.013797968 25:0.012635019 26:-0.0018139335 27:-0.0027186159 28:0.0066843776 29:0.00046528284 30:0.0071289486 31:0.0077561249 32:0.0014058403 33:0.0054850055 34:0.0067070107 35:0.0025471136 36:0.00012500963 37:3.6124962 38:0.31186917 39:2.0410189 40:0.025333526 41:1.1440983 42:-0.1587161 43:0.021614523 44:0.13705768 45:-0.49661721 46:-0.35930748 47:0.043120176 48:-0.13931703 49:0.098331069 50:0.040445478 51:0.065169499 52:0.0075928945 53:0.039354139 54:0.031011686 55:0.038666743 56:0.043383892 57:0.018001681 58:0.010630703 59:-0.021865941 60:-0.018048712 61:0.0045911997 62:-0.0157722 63:0.00029566286 64:0.010017875 65:-0.0040264882 66:0.0052878593 67:-0.0026939328 68:-0.0026976899 69:0.0079296132 70:0.006300246 71:0.0035293587 72:-0.00040352909 
10 1:2.7726513 2:0.18427364 3:0.35572011 4:-0.96053351 5:0.88738261 6:0.0010374043 7:-0.085579387 8:0.2640357 9:0.073546655 10:-0.2585476 11:0.50186527 12:0.60711636 13:-0.012026021 14:0.0058416632 15:0.0030091441 16:-0.0044389464 17:-7.9076726e-05 18:0.0053693247 19:0.0065423006 20:0.0017579014 21:0.0026218276 22:0.00069018908 23:0.0022848503 24:-0.0031580383 25:0.00099819636 26:-0.00011162583 27:-0.00019109461 28:0.00073137229 29:-3.1862565e-06 30:-9.5615826e-05 31:-0.00017712818 32:0.00019206256 33:0.00014031975 34:0.00038784133 35:3.8684908e-05 36:-0.00033764647 37:2.4781999 38:0.21737589 39:0.36317609 40:-1.0601384 41:0.90072903 42:-0.12972849 43:-0.12784147 44:0.32813451 45:0.050181236 46:-0.17145542 47:0.51290439 48:0.57578643 49:-0.012740516 50:-0.0032124728 51:-0.028100278 52:0.0031372916 53:0.001602099 54:-0.0016371568 55:-0.0091122352 56:-0.015884307 57:-0.002818392 58:0.0037460299 59:0.0036445216 60:-0.0009085372 61:0.013450322 62:-0.0018805451 63:0.0067527839 64:0.011148137 65:0.0024065953 66:-0.0019893496 67:0.0033676883 68:-0.00092627661 69:4.8577659e-05 70:0.0020456035 71:-0.0030776767 72:0.00088432171 
4.2382760284344565 1:0.67454109 2:0.030421047 3:0.033664321 4:-0.68499521 5:0.55170291 6:-1.3347962 7:-0.028069225 8:-0.2186761 9:0.067104158 10:0.49744769 11:-0.090239393 12:-0.15238222 13:-0.07845111 14:0.025756131 15:-0.0026142232 16:0.0075284515 17:0.015634509 18:-0.011023796 19:0.0114768 20:-0.014062653 21:-0.0075481653 22:0.009569503 23:-0.017663384 24:0.0041475371 25:0.0075053791 26:-0.0001137898 27:-0.00030212045 28:-0.00065853743 29:0.0017634869 30:0.0038693109 31:0.0025924641 32:0.0012690698 33:0.00071556365 34:0.0018654643 35:0.00017923904 36:0.0030672487 37:-0.11273849 38:0.21641312 39:0.44044992 40:-0.40742917 41:0.50449034 42:-1.4562826 43:0.061819446 44:-0.20042308 45:0.034956275 46:0.47857215 47:-0.025912147 48:-0.23613575 49:-0.12907824 50:0.0058341176 51:-0.00057462296 52:0.019791665 53:0.014921323 54:-0.002978948 55:-0.0040711514 56:-0.04800267 57:-0.024725339 58:0.021605654 59:-0.015925715 60:0.029075916 61:0.020119143 62:0.0049039776 63:0.0057759001 64:0.0024559833 65:0.0050302424 66:0.011261443 67:1.1909529e-05 68:-0.0017651449 69:0.00048919655 70:0.0079270345 71:-0.005137383 72:0.0049913662 
0.70559678096389411 1:1.8802328 2:0.14724954 3:1.495061 4:-0.89346603 5:0.58432759 6:-0.7819152 7:-0.13215968 8:-0.39025058 9:-0.070123945 10:-0.25951042 11:0.17146276 12:0.13010272 13:-0.0082313607 14:0.0039400145 15:0.0088109414 16:-0.0043370755 17:0.0062698004 18:-0.0039855884 19:0.00020358673 20:-0.0018472584 21:-0.0036056399 22:-0.0053439029 23:-0.0012588527 24:0.0027846846 25:0.0014209548 26:0.001794714 27:0.0002709434 28:-0.00081654634 29:-0.00024309842 30:0.00069330647 31:-0.00038576107 32:0.00083981518 33:-0.00019172783 34:0.00063004462 35:0.00021614938 36:0.00033570383 37:0.93902341 38:0.51516222 39:1.5817283 40:-0.92685448 41:0.51832351 42:-0.65545032 43:-0.12931242 44:-0.42240575 45:-0.068212376 46:-0.20307405 47:0.14182404 48:0.13838521 49:0.036396536 50:0.020413202 51:-0.0047348716 52:-0.013050057 53:0.0084413936 54:0.017289194 55:0.0074307615 56:0.019253769 57:-0.0083076604 58:-0.0033815081 59:-0.002547785 60:0.0050091142 61:0.0041007206 62:-0.0018194179 63:-0.0016231991 64:0.0046163518 65:0.0053108079 66:-0.0050354165 67:0.0012834312 68:0.000279385 69:0.00060201555 70:-0.0048203431 71:-0.00089021715 72:0.00021746595 
3.9967110739785401 1:2.2424523 2:0.16251463 3:0.83598292 4:-1.2875723 5:1.59201 6:-0.27010097 7:0.17907326 8:-0.042901633 9:0.010552807 10:0.12649932 11:0.3939344 12:0.29522147 13:-0.029856392 14:0.0026624636 15:0.0036903324 16:-0.01291828 17:0.0038822615 18:-0.0007753517 19:0.0094695819 20:0.003785006 21:-0.00024103565 22:-0.0030964483 23:0.0039212581 24:-0.00040718717 25:0.0025555553 26:-0.0040637958 27:-0.0011610309 28:0.0023176867 29:-0.0015514339 30:-0.00012780606 31:0.00028860824 32:-0.0005045334 33:0.0001453742 34:0.00022782899 35:0.00053374115 36:-0.00022708674 37:2.0580625 38:0.052373282 39:0.76706208 40:-1.2912803 41:1.6778106 42:-0.33313214 43:0.18033894 44:0.014738129 45:-0.016524263 46:0.097247125 47:0.39490866 48:0.27422878 49:0.0051133264 50:-0.026464562 51:-0.0082245697 52:0.0023881008 53:0.000562882 54:0.00079195034 55:0.0033676262 56:-0.0031936183 57:-0.0042743447 58:-0.010673049 59:0.004018845 60:0.011942421 61:0.0030534884 62:-0.0054411056 63:-1.3057204e-05 64:0.00033302053 65:-0.0028856076 66:0.0032038522 67:-0.0015753399 68:-0.00046436369 69:0.0011292629 70:0.00094593499 71:0.0037970861 72:0.0019498462 
2.4906303841122148 1:1.7823139 2:0.28615914 3:0.27732839 4:-0.59012699 5:0.14662796 6:-0.73577844 7:0.11443926 8:-0.242536 9:-0.23421451 10:0.54555718 11:0.36867959 12:0.060885129 13:-0.072286691 14:0.013063045 15:-0.0045205332 16:-0.0093494865 17:0.019442629 18:-0.0064849218 19:0.00084692092 20:-0.0033750533 21:-0.0041631532 22:0.0067399645 23:-0.0059925667 24:0.0028090971 25:0.0099090093 26:-2.0229205e-05 27:1.1574024e-05 28:-0.0014216581 29:0.0013683509 30:0.0044987553 31:0.0029309281 32:0.0045637038 33:0.0012768779 34:0.00064224071 35:0.001109001 36:-0.00015067802 37:0.87506461 38:0.42698972 39:0.44321892 40:-0.75379098 41:0.25474527 42:-0.82910908 43:0.018177553 44:-0.45676746 45:-0.17132513 46:0.43997363 47:0.23622119 48:0.055783309 49:-0.058388624 50:0.0081018013 51:0.041448308 52:0.014803938 53:0.010160238 54:0.028276474 55:0.03102991 56:0.028671022 57:0.021432412 58:0.033367033 59:-0.02483528 60:-0.022090922 61:0.0058977381 62:-0.0045647956 63:0.0023192612 64:0.001962317 65:0.0096706761 66:0.0012813015 67:-0.006725561 68:0.00093931793 69:0.0044882787 70:0.0037209204 71:0.0066248798 72:-0.00439171 
2.0610897099602488 1:1.5944882 2:-0.79473493 3:0.21936929 4:-0.70958843 5:0.3555081 6:-0.31157362 7:0.039129908 8:0.26759755 9:0.52804142 10:-0.60523726 11:0.11537401 12:0.1423182 13:0.23950349 14:0.11618189 15:0.050452424 16:-0.018033002 17:0.068134004 18:0.056267992 19:0.057766668 20:0.037549111 21:-0.035916115 22:-0.020349659 23:-0.0075427251 24:0.013035043 25:0.0039097842 26:-0.0076873931 27:-0.011069628 28:0.011625005 29:-0.0082332791 30:-0.0025599294 31:-0.012394928 32:-0.0033331037 33:0.00045393169 34:-0.0019707297 35:-0.00037529853 36:-0.0037115062 37:0.04092374 38:-1.3072307 39:0.084588702 40:-0.77602644 41:0.68739238 42:-0.13327622 43:0.038573253 44:0.23590742 45:0.93022387 46:-0.58978502 47:0.042560506 48:0.11749094 49:0.21148538 50:0.14115877 51:0.04819387 52:-0.037312615 53:0.070941026 54:0.037985864 55:-0.031489673 56:0.02643549 57:0.029808551 58:0.016570407 59:-0.032739458 60:0.011252511 61:0.022354945 62:-0.011422443 63:0.0013717667 64:0.0074823758 65:-0.016167414 66:-0.0053296416 67:-0.0054278446 68:-0.023174441 69:0.0076667483 70:0.00097282426 71:0.0084279873 72:-0.0072118403 
3.4145224335236897 1:2.3276003 2:-0.02814621 3:0.20605667 4:-1.1990772 5:0.96444895 6:-0.057668564 7:0.35942132 8:0.29026075 9:0.36009667 10:0.012865519 11:0.38686064 12:0.87076096 13:0.014332077 14:0.016010495 15:-0.010647392 16:-0.0093874747 17:-0.0021292081 18:-0.0070919635 19:-0.0079912072 20:-0.0035766743 21:-0.0042885652 22:-0.0051617663 23:-0.00029226151 24:0.0053009434 25:-0.00078082354 26:-0.0011013429 27:0.00011532071 28:-0.00099677486 29:-0.00088949771 30:-0.0012552413 31:-0.00050867256 32:-0.00043221113 33:0.00078625671 34:-0.00082117815 35:-0.00059212665 36:0.0010254948 37:1.7664658 38:0.018849773 39:0.068013279 40:-1.3414777 41:0.94340657 42:-0.14214744 43:0.29444317 44:0.29154504 45:0.30994303 46:0.072249599 47:0.36794754 48:0.87136639 49:0.0061486335 50:0.023022567 51:-0.024970858 52:-0.0076204686 53:-0.0032700863 54:-0.0070755786 55:-0.012935998 56:-0.00983331 57:-0.0063223502 58:-0.014655192 59:-0.0059234878 60:0.0018414874 61:0.0041405382 62:0.0048769561 63:0.0056302413 64:0.0028269969 65:0.00068239221 66:-0.005480579 67:-0.0047009597 68:-0.0079680423 69:0.0044550816 70:-1.2927998e-05 71:-0.0049115269 72:0.0038979328 
9.1754818962526414 1:2.3797746 2:0.99084105 3:0.7013992 4:0.23460012 5:0.95294091 6:-0.50798081 7:0.09124839 8:-0.18997431 9:-0.56596926 10:0.090917481 11:0.68202378 12:-0.43343405 13:0.031323992 14:0.011622023 15:0.0093395383 16:0.0019245574 17:-0.00067494293 18:0.0074457152 19:-0.0064787918 20:-0.017135355 21:-0.0041678989 22:0.0032628402 23:0.0016580101 24:0.00017483289 25:-0.0015695233 26:0.00083606118 27:-0.0021615919 28:0.00076826657 29:-0.00041208967 30:-0.00027287785 31:0.0011414812 32:0.0017052308 33:0.0011485838 34:-0.00074942958 35:-0.0024410767 36:-0.0023036411 37:3.1346711 38:1.0400692 39:0.74899382 40:0.26813422 41:0.99701068 42:-0.73534933 43:-0.11361695 44:-0.41454802 45:-0.33188071 46:0.047790146 47:0.58151716 48:-0.30721248 49:-0.089410226 50:0.011567243 51:0.015077699 52:-0.011301263 53:0.022196674 54:0.061921836 55:0.017926891 56:0.023081746 57:0.03133209 58:0.024878994 59:0.00073132636 60:0.006115968 61:-0.0011187295 62:-0.0066898969 63:-0.0032464897 64:0.00038244047 65:-0.011470239 66:-0.0018209947 67:-0.0043184313 68:0.00022214764 69:0.0024053316 70:-0.0032642674 71:-0.0014933314 72:-0.003505716 
10 1:2.5589205 2:0.19313975 3:1.2987425 4:0.012760195 5:1.6574971 6:0.37166238 7:0.16573162 8:0.78175867 9:0.45953767 10:0.079840874 11:0.5695956 12:0.71989839 13:0.003926566 14:-0.015599236 15:-0.0081521746 16:-0.0021572961 17:-0.0062876056 18:-0.0074751741 19:0.013152836 20:0.014313032 21:0.0050434932 22:0.015060393 23:0.02214476 24:-0.0021189538 25:0.01164646 26:-0.0048288066 27:-0.0069302614 28:0.0039042105 29:-0.0021272572 30:0.001215828 31:0.0092775472 32:0.0047298172 33:0.0031198279 34:0.0063346673 35:0.0017202448 36:-0.00099436551 37:2.6015348 38:0.17678769 39:1.4440083 40:-0.0031770338 41:1.5393303 42:0.47281335 43:0.33386582 44:0.82316652 45:0.42105711 46:0.18302099 47:0.6398751 48:0.7610332 49:0.019662516 50:-0.025687031 51:-0.026019663 52:-0.030580556 53:-0.016799128 54:-0.027428199 55:0.0033896927 56:0.0045670553 57:0.0036944685 58:-0.0015476038 59:0.011142461 60:-0.01454407 61:0.0076712009 62:-0.0013260726 63:-0.00031823331 64:0.0051023239 65:-0.0030419017 66:0.00223542 67:0.0040188898 68:0.001952385 69:0.0028406283 70:0.0035541548 71:0.00089612024 72:-0.0031764317 
10 1:2.0401386 2:0.081049296 3:0.98963405 4:0.097903307 5:0.74555016 6:0.21190041 7:0.19371902 8:0.10868879 9:-0.28876079 10:-0.42608936 11:0.40634534 12:0.42122796 13:0.098386778 14:0.024476359 15:-0.010555844 16:0.030162151 17:-0.0044624032 18:-0.0025272723 19:0.0093011136 20:-0.0062964091 21:0.012362434 22:0.0087275473 23:-0.012978785 24:-0.014912889 25:0.00040845531 26:0.00084313235 27:0.0027549868 28:-0.00031988509 29:0.0019193947 30:0.0027978734 31:0.00046260861 32:0.0019815495 33:0.0013895369 34:0.002883576 35:0.0014938388 36:0.000914236 37:2.3228475 38:0.078260079 39:0.98182305 40:0.3365249 41:0.63698483 42:0.0057764393 43:0.17714795 44:0.055511234 45:-0.29996555 46:-0.44442578 47:0.41805211 48:0.34628416 49:0.06380625 50:0.021947594 51:-0.024968816 52:0.0020084262 53:0.013387182 54:0.0019484042 55:0.013835369 56:-0.01594566 57:0.024804233 58:0.024216203 59:-0.008272934 60:-0.014442857 61:-0.013084283 62:-0.0013915642 63:0.0022795038 64:-0.01077905 65:0.0006886133 66:-0.003671491 67:0.0034676188 68:0.0028302469 69:-0.0012065536 70:0.0053298332 71:0.0046733968 72:-0.0021817052 
0.87239866534825861 1:-2.024945 2:-1.0465897 3:1.4102594 4:-1.0578637 5:0.6063605 6:-0.31321557 7:-0.5497074 8:-0.47937749 9:0.12596548 10:0.10372324 11:0.72461041 12:0.099003902 13:0.063253127 14:-0.015148686 15:-0.0057010613 16:-0.012016054 17:-0.013468347 18:-0.021504758 19:-0.016022683 20:-0.0092647392 21:-0.0064823237 22:0.012154154 23:0.023714642 24:-0.008310923 25:0.0049142586 26:0.0061310596 27:0.00072100372 28:-0.0023325947 29:-0.00056560659 30:0.0013917659 31:-0.0011080029 32:-0.0013434389 33:-0.0013002277 34:-0.0011142232 35:-0.0025989276 36:0.00060432781 37:-2.2035248 38:-0.95925735 39:1.3642757 40:-1.0244902 41:0.73994216 42:-0.076289068 43:-0.38862998 44:-0.48540369 45:0.15147662 46:0.13968344 47:0.69808836 48:0.072585362 49:0.04360217 50:-0.013640814 51:-0.0080698346 52:-0.0080673189 53:-0.0095916385 54:-0.014930561 55:-0.013648204 56:-0.0054506659 57:-0.012703664 58:-0.0015426793 59:0.011954981 60:-0.0090135766 61:-0.0018599185 62:-0.0021807784 63:0.0047185517 64:-0.0059201528 65:-0.0023525632 66:0.0027810628 67:-0.0030000222 68:0.0034447705 69:0.0004491606 70:0.00048241156 71:0.0016598338 72:0.0017221979 
2.9469109819813557 1:0.51953829 2:-0.30119954 3:0.35240933 4:0.1726304 5:0.27544101 6:-0.6478267 7:-0.12869297 8:-0.52427586 9:-0.62706023 10:-0.15334137 11:0.90850214 12:0.72978383 13:-0.04347495 14:-0.0099752053 15:0.030920552 16:-0.03350249 17:0.03018203 18:0.0087285846 19:0.002567516 20:-0.013638467 21:-0.0074140931 22:0.0022908313 23:0.015430765 24:0.012719338 25:-0.0057286843 26:-0.0012636779 27:0.003644067 28:-0.0028164848 29:0.0060067705 30:0.0040279679 31:-0.00099380472 32:-0.0014647676 33:0.0030592493 34:0.0013758724 35:-0.00055147641 36:0.00012772309 37:-0.50956113 38:-0.89085925 39:0.26611036 40:0.054640007 41:0.21770641 42:-0.61818845 43:-0.14570433 44:-0.74248215 45:-0.65815476 46:-0.059620139 47:0.99542368 48:0.80311699 49:-0.040147308 50:0.033914401 51:0.0082068337 52:-0.043009313 53:0.021349091 54:0.021244375 55:-0.00072885436 56:-0.020078461 57:-0.023219607 58:0.0064653393 59:0.019530047 60:-0.0050735808 61:-0.0038016364 62:-0.0044622241 63:0.00074276478 64:0.0022652141 65:0.0081825239 66:0.0033571213 67:-0.0030040389 68:-0.0078873794 69:0.0030912194 70:-0.0023505169 71:0.0010108665 72:-0.0022209821 
6.9493595631019858 1:3.1038558 2:0.41963558 3:1.7044261 4:0.074669228 5:1.5359631 6:0.4696382 7:0.17152132 8:0.69751837 9:0.202116 10:0.18428183 11:0.45673428 12:0.53584746 13:0.0040763427 14:-0.011285316 15:0.0034723609 16:-0.010705374 17:-0.010686936 18:-0.010892838 19:-0.0046707331 20:-0.00051236372 21:-0.0055631443 22:-0.0037840112 23:0.0072900989 24:0.0047646365 25:0.0023042541 26:-0.0018927372 27:-0.0020646816 28:-7.4263623e-05 29:-0.0003467563 30:-0.0014862477 31:-7.4244605e-06 32:-0.00035314606 33:-0.0010163453 34:0.00019622541 35:0.00028992075 36:-7.3853684e-05 37:3.0326899 38:0.40101973 39:1.6068633 40:0.19493765 41:1.5286881 42:0.56312179 43:0.2621633 44:0.80663451 45:0.21296769 46:0.20059808 47:0.59643821 48:0.57478706 49:0.068096513 50:-0.014215486 51:-0.03541253 52:-0.02079057 53:-0.035672746 54:-0.017571076 55:-0.015541426 56:-0.025224696 57:-0.0090856327 58:-0.016665294 59:-0.0078980534 60:-0.0050864612 61:0.0030465848 62:-0.00303261 63:-0.0060699061 64:0.0002712709 65:-0.0065987365 66:-0.00023782805 67:0.0046122156 68:-0.0012314857 69:0.00064001807 70:-9.6736832e-05 71:-0.0022081076 72:-0.00058556884 
1.734141566854227 1:0.89490427 2:-0.12007998 3:1.0580507 4:-0.2420982 5:1.1587429 6:0.38806946 7:0.54742282 8:0.82953003 9:0.098997764 10:0.180483 11:0.84649929 12:0.7767612 13:0.0031650553 14:-0.021543438 15:0.0020726837 16:-0.0090899792 17:0.0024580362 18:-0.0058510194 19:-0.009100522 20:-0.0075885521 21:-0.0072399085 22:-0.0011446205 23:0.000320639 24:-0.0045963361 25:0.0035858295 26:-0.00091901859 27:-0.0020314853 28:-0.0015684488 29:0.000513732 30:0.00022840364 31:-0.00026752538 32:-0.00053878213 33:3.6391527e-05 34:0.00043926709 35:0.0006773561 36:0.00029185143 37:0.80058606 38:-0.20737818 39:1.0802487 40:-0.29216151 41:0.97805912 42:0.6145895 43:0.63065308 44:0.8652005 45:0.17408749 46:0.13446317 47:0.80997001 48:0.72078347 49:0.017226121 50:0.024471691 51:0.024560237 52:-0.0030206679 53:-0.00672945 54:-0.027715305 55:-0.024497194 56:-0.019106911 57:-0.0052073082 58:-0.0073785922 59:-0.015995366 60:-0.018429284 61:0.013900089 62:-0.00071807483 63:-0.0053471256 64:-0.0026900307 65:0.0020587311 66:0.00039019844 67:-0.0052287631 68:0.002694129 69:-0.0019331708 70:-0.00085874538 71:0.0013642252 72:0.0067997132 
4.6342805657741666 1:1.7051793 2:-0.095713887 3:0.72294439 4:-0.53221151 5:0.17254089 6:-0.28866237 7:0.036676332 8:0.33962837 9:-0.40281446 10:-0.71030185 11:0.12160252 12:0.17884388 13:0.087209715 14:-0.044481152 15:-0.011560604 16:-0.0074182977 17:-0.019675858 18:-0.013802804 19:0.015249407 20:0.042981147 21:0.0019287723 22:-0.013111864 23:0.0047553843 24:0.012280746 25:0.0058129437 26:0.0063410103 27:0.0039631715 28:0.0045486702 29:0.0023814108 30:0.0050282307 31:0.0056806711 32:0.00065812629 33:0.0039117399 34:0.0027273149 35:-0.00073807737 36:0.00053730784 37:1.0984658 38:-0.019928938 39:0.68129636 40:-0.41585668 41:0.17982266 42:-0.21449909 43:0.10479495 44:0.375058 45:-0.32646474 46:-0.75588176 47:0.10622033 48:0.08289224 49:0.11142975 50:-0.056862208 51:-0.030318889 52:-0.020895236 53:-0.0028966162 54:0.045262664 55:0.024769904 56:0.043421926 57:-0.0054444077 58:-0.0044558972 59:0.0067432901 60:0.0095570296 61:-0.020326162 62:-0.0050078143 63:0.011142887 64:-0.0060492598 65:0.0049759694 66:0.0095463542 67:-0.0033365331 68:0.0078784233 69:0.0047898441 70:0.002353834 71:-0.00058059142 72:-0.0029840217 
5.092569703817424 1:4.5377298 2:1.3722191 3:1.4643456 4:0.47929074 5:0.88919485 6:-0.099711639 7:0.77355924 8:0.15183475 9:-0.1183407 10:-0.53029342 11:0.18462358 12:0.32690559 13:0.013405862 14:-0.020693486 15:0.01849942 16:0.0060509989 17:0.016580599 18:0.033040419 19:0.023472117 20:0.011707927 21:0.0067164834 22:0.037189853 23:0.013062651 24:-0.00021337477 25:0.005854033 26:-0.0082532181 27:-0.0012273647 28:0.00053838936 29:-0.008584785 30:0.00025897364 31:-0.0010955921 32:-0.0033229534 33:0.0020732333 34:0.0096174892 35:-0.0004825103 36:0.0012984458 37:4.5406471 38:1.1634378 39:1.3200859 40:0.59870557 41:0.94258939 42:0.11820012 43:0.84423468 44:0.12526857 45:-0.077798196 46:-0.37972081 47:0.13406129 48:0.31292198 49:0.00019005656 50:0.0064248738 51:-0.018218609 52:-0.011615193 53:-0.0092164544 54:0.051692729 55:-0.014585406 56:0.012753033 57:0.020619488 58:0.038236359 59:0.01405031 60:-0.016305391 61:0.016502103 62:-0.0096476767 63:-0.0060151832 64:0.0018048253 65:-0.0023428854 66:-0.0058412565 67:-0.0042733806 68:-0.0071830023 69:0.0025855874 70:0.0023452596 71:-0.0011404943 72:0.010667098 
6.823046146184887 1:0.085465389 2:-1.4440436 3:-0.16868452 4:-0.81597479 5:0.59522399 6:-0.37023697 7:0.02651953 8:0.066537664 9:0.0099972765 10:0.045873692 11:0.45268819 12:0.41248001 13:0.019985962 14:-0.034352463 15:0.020489353 16:0.024942265 17:0.018434478 18:0.023391534 19:0.01430247 20:0.021766965 21:-0.0027368529 22:-0.013339836 23:0.0061025751 24:0.0051836671 25:0.010279583 26:0.01125876 27:-0.0024761511 28:0.0032615641 29:0.00024669438 30:0.010000557 31:-0.0014701874 32:0.002768216 33:0.00073035498 34:0.00049121895 35:0.0019021466 36:0.0034300248 37:0.16287314 38:-1.7760021 39:-0.3651308 40:-1.1200109 41:0.46134411 42:-0.5963657 43:0.12831278 44:-0.0045452879 45:-0.050003868 46:0.08506613 47:0.54388693 48:0.5698466 49:0.08208039 50:0.015090992 51:0.019931258 52:0.05725067 53:0.031561165 54:0.054375907 55:0.0050935885 56:0.030933138 57:-0.01029278 58:-0.018640195 59:0.016622511 60:0.027081383 61:-0.0050846862 62:0.0026319287 63:-0.006057464 64:0.0099254263 65:0.0020834596 66:-0.0011216133 67:-0.0078493644 68:0.0044699856 69:-0.0036740703 70:-0.0043256255 71:-0.004345424 72:-0.0026925804 
0.36607702702269451 1:1.8498422 2:0.17835955 3:1.2960147 4:0.034332346 5:2.0639582 6:0.39435379 7:1.1671724 8:0.40057106 9:0.13391242 10:0.27458777 11:0.79279018 12:0.056477713 13:0.002197071 14:-0.025475388 15:0.0034017333 16:0.0078675385 17:0.0066658113 18:0.010963742 19:0.0086559145 20:0.0023375223 21:-0.0078716783 22:0.0076961617 23:0.011010994 24:0.0028855732 25:0.00045694578 26:-0.0040811043 27:-0.00085085926 28:-0.0019716314 29:-0.0011952291 30:0.0002470897 31:-0.0002161973 32:-0.0033520684 33:-0.0023500281 34:-0.0012168731 35:-0.00014318307 36:-0.00025859297 37:1.5680564 38:0.37263566 39:1.4138694 40:0.020951999 41:2.3014702 42:0.47069143 43:1.1194607 44:0.51248367 45:0.088212024 46:0.29295123 47:0.76597217 48:0.14806036 49:-0.057416689 50:0.012694197 51:-0.034424233 52:0.00053153251 53:-0.047123087 54:-0.014741483 55:0.011290978 56:-0.0073525686 57:-0.011551102 58:0.0094077342 59:0.041308362 60:0.0039191978 61:0.002702667 62:-0.020209936 63:0.0017087224 64:-0.0018533401 65:-0.0012329219 66:0.0085334658 67:0.0081599149 68:-0.0070533086 69:0.0038731619 70:0.00071760117 71:0.003015852 72:-0.0027748135 
0.5021912239780334 1:0.76881378 2:-1.1006886 3:0.46974634 4:-0.20677763 5:-0.315675 6:-0.58953364 7:-0.23376264 8:-0.7924067 9:-0.66602812 10:-0.17270099 11:1.0920859 12:0.83700931 13:-0.010865417 14:-0.054958093 15:0.024858333 16:-0.027092655 17:-0.023793701 18:0.00076320285 19:-0.010147526 20:-0.0084235041 21:-0.020354513 22:0.0023335411 23:0.022418824 24:0.013045434 25:0.0046463026 26:0.0071014044 27:-0.00045084542 28:0.0020796654 29:6.7425184e-05 30:0.0062652241 31:-0.00042815723 32:0.0057567115 33:-0.0013420947 34:0.0013880446 35:-0.0029882469 36:-0.0011784947 37:-0.39925049 38:-1.1351969 39:0.49717526 40:-0.18066953 41:-0.21808921 42:-0.60925462 43:-0.23752805 44:-0.79768057 45:-0.75844732 46:-0.10547195 47:1.1787357 48:0.86900154 49:-0.021609318 50:0.044443478 51:-0.031774306 52:-0.027994777 53:-0.031492363 54:0.024065915 55:-0.011158482 56:-0.01309439 57:-0.025722341 58:0.015440401 59:0.016571281 60:-0.0073305252 61:-0.024740118 62:-0.0017817537 63:-0.0061429308 64:0.0024926788 65:-0.0014442637 66:0.0025811772 67:0.00072567788 68:0.0044977118 69:0.0054174435 70:-0.0061473373 71:0.0046180876 72:0.00090553459 
0.67900278334316733 1:1.9529322 2:0.00010663915 3:1.2376299 4:-1.3944399 5:1.0742844 6:0.14590001 7:-0.07063162 8:0.12109405 9:0.57612383 10:-0.1183393 11:-0.41098773 12:-0.18889651 13:0.043811921 14:0.031679369 15:0.016068453 16:0.0086326014 17:0.0013814092 18:-0.029591713 19:0.043157637 20:0.056048689 21:0.0089034894 22:0.018620288 23:0.0047402165 24:-0.018664153 25:0.0084282066 26:-0.0030834128 27:-0.0025743776 28:-0.0018041893 29:0.0068177751 30:0.003767005 31:0.0049514649 32:0.0064803867 33:0.0022737565 34:0.00057999976 35:0.00099322507 36:0.0013439629 37:2.233638 38:-0.15954818 39:1.3512362 40:-1.5679033 41:1.0161038 42:0.14945558 43:-0.077626717 44:0.13002303 45:0.62386985 46:-0.070017204 47:-0.2385256 48:-0.14270316 49:0.048927833 50:0.00077734081 51:-0.013539378 52:-0.022765087 53:0.035873592 54:-0.058297226 55:0.054857358 56:0.060796613 57:0.0037562251 58:0.0082331746 59:0.0036920099 60:-0.0035006994 61:0.026771071 62:0.0027259698 63:0.0019461002 64:-0.0063099953 65:-0.0010682545 66:0.0011819813 67:0.0016020229 68:0.0040951951 69:-0.0014694134 70:-0.0036902686 71:0.0041867785 72:-0.0061619481 
2.4837769715904092 1:1.1998995 2:-1.0101762 3:0.31700808 4:-0.96940459 5:0.29940015 6:0.78028922 7:-0.049099921 8:0.092317474 9:0.48405202 10:0.13363731 11:0.0013191772 12:0.67119823 13:-0.0015509729 14:0.0062165437 15:-0.010886879 16:0.0029972355 17:0.00055730446 18:0.0066726468 19:0.00036758349 20:-0.0038323874 21:-0.0022936837 22:0.0062667681 23:0.011515833 24:-0.0022974079 25:-0.00083278349 26:-0.0025026022 27:-0.00124454 28:-0.0012306148 29:-0.00035313535 30:0.00079956482 31:-0.00023795723 32:0.00012994376 33:-0.00021225802 34:-0.00075230529 35:8.5079723e-05 36:0.00066082076 37:0.59480661 38:-1.0549451 39:0.27238738 40:-1.2753797 41:0.28887497 42:0.86030414 43:-0.059217061 44:0.14901444 45:0.50044421 46:0.23881125 47:0.018882209 48:0.62720778 49:-0.04659423 50:0.0049011447 51:0.0022971032 52:-0.0061662849 53:-0.011046088 54:-0.0021589966 55:0.0041918777 56:0.0058994535 57:-0.0078598072 58:-0.0039191459 59:0.0068699495 60:-0.00464289 61:0.0036250945 62:6.4011184e-05 63:0.00027396528 64:0.0034542617 65:0.0040810662 66:-0.00048933758 67:-0.0057532427 68:-0.0024856139 69:-5.3087021e-05 70:-0.0013553415 71:0.0013232802 72:-0.0023241321 
0.44546194887958285 1:1.0778254 2:-2.3315643 3:1.2336508 4:0.18791124 5:2.3882977 6:-0.17494401 7:0.65409354 8:-0.16683229 9:-0.63171343 10:-0.14081098 11:0.18420394 12:-0.84073219 13:-8.6338243e-05 14:-0.0037071046 15:0.016712968 16:0.0071400735 17:0.020472032 18:0.0096360822 19:0.035183878 20:0.015096085 21:0.0064339064 22:0.0090569376 23:0.0088953622 24:0.0072877894 25:0.0192982 26:0.0041675187 27:-0.0068030613 28:0.00035040364 29:-0.0018719547 30:0.0071246103 31:0.0021167584 32:0.0049665762 33:0.0063438679 34:-0.0017330481 35:0.0002011411 36:0.0035302383 37:0.93659573 38:-2.4111996 39:1.1226921 40:0.23770424 41:2.4222852 42:-0.16447389 43:0.75405537 44:-0.088483618 45:-0.61097068 46:-0.099048339 47:0.229998 48:-0.84477818 49:0.024427938 50:0.085181203 51:-0.014836768 52:0.020470331 53:-0.021249639 54:0.01361235 55:0.065518548 56:0.014537671 57:0.014407504 58:0.022116164 59:-0.0074725582 60:-0.015922839 61:0.02376733 62:-0.013984742 63:0.0076088742 64:3.5033809e-05 65:-0.0050497657 66:-0.0013152569 67:0.0068718286 68:0.011123053 69:0.0057937956 70:-0.010631097 71:0.005729603 72:0.0045868768 
3.5839018172264523 1:3.3611244 2:-0.1413887 3:1.344025 4:-1.1849423 5:1.1303353 6:0.25022731 7:0.37650375 8:-0.35595294 9:-0.20460099 10:-0.23895047 11:0.38260723 12:0.50473052 13:-0.0067470816 14:0.012062485 15:-0.0034074063 16:0.001386699 17:-0.0032349219 18:0.0045917466 19:0.0051781035 20:0.0017307864 21:-0.00019334876 22:0.00070305918 23:-0.0024915003 24:-0.00029309557 25:-0.0021858191 26:-0.00077828287 27:-0.00079267699 28:-0.00082125543 29:-0.001437643 30:0.00050383948 31:-0.00043708921 32:-0.0013937145 33:-0.001625719 34:4.3618719e-05 35:-0.0013563 36:-0.00092207996 37:4.1748581 38:-0.096363862 39:1.3403327 40:-1.1956857 41:1.1646296 42:0.22142526 43:0.34518101 44:-0.3240293 45:-0.067039342 46:-0.22423446 47:0.36371365 48:0.52621712 49:-0.0095457173 50:0.0070851331 51:-0.048009133 52:0.021222161 53:-0.025777647 54:-0.018968925 55:0.016675016 56:0.0029436755 57:-0.0034826657 58:0.0053928618 59:-0.013226298 60:0.00313387 61:-0.00051131918 62:0.0012251105 63:-8.0728244e-05 64:-0.0032692509 65:-0.0017478837 66:-0.0018671705 67:-0.0017441088 68:-0.004966695 69:-0.00010849326 70:-0.0030611329 71:-0.0046895793 72:-0.0012789902 
10 1:3.7335445 2:0.43860266 3:1.6107012 4:0.41734393 5:1.0779203 6:0.6344298 7:0.44657875 8:0.3116424 9:0.078293764 10:0.11816614 11:0.099149538 12:0.0083470163 13:0.015483595 14:0.0065538697 15:-0.00055632597 16:0.0021590189 17:0.0067128807 18:0.0092468141 19:-0.0041016535 20:-0.0034558395 21:0.010976757 22:-0.0014930238 23:-0.0037516726 24:0.0048020973 25:-0.0011140206 26:-0.00026513372 27:0.0040752305 28:3.955602e-05 29:-8.1606158e-05 30:0.00049716783 31:-8.1924683e-05 32:0.0009528315 33:-0.0006212966 34:-0.0017313426 35:-0.00084163968 36:-0.0012828689 37:3.9102021 38:0.48575308 39:1.5023318 40:0.4842768 41:0.99857388 42:0.54687319 43:0.4035315 44:0.32276862 45:0.14871527 46:0.093646804 47:0.17753968 48:0.078527287 49:0.063730451 50:0.0035129053 51:-0.015813414 52:0.0031245361 53:0.0050718507 54:0.0087828093 55:-0.012008353 56:-0.019571109 57:0.022302022 58:-0.0060723419 59:-0.0059575671 60:0.00061275728 61:0.0055565018 62:0.010722059 63:0.0013290271 64:0.00025233489 65:-0.0011320705 66:0.0010548801 67:-0.0046179471 68:-0.0016098047 69:-0.0037328648 70:-0.0052105522 71:-0.0012376607 72:0.0011552603 
10 1:3.2371961 2:0.94967878 3:1.125349 4:-0.52630696 5:0.68988998 6:0.41183688 7:0.7629934 8:0.50960984 9:0.16293491 10:0.13873481 11:0.59411081 12:0.11515921 13:0.04945933 14:-0.0040932153 15:0.010392335 16:-0.0067876272 17:-0.0099137566 18:0.00085527385 19:0.00096631292 20:-0.004041775 21:-0.01575749 22:-0.016153618 23:-0.0059032513 24:-0.0071422671 25:-0.0006630385 26:0.0021366296 27:8.7030072e-05 28:0.00056665636 29:-0.00096180801 30:-0.00018396854 31:0.00078380731 32:-0.00079720162 33:0.00051055586 34:0.0022840881 35:0.0034224887 36:0.0011320453 37:3.0955752 38:1.2529376 39:0.95937093 40:-0.46754293 41:0.54408491 42:0.55879994 43:0.67792649 44:0.49286348 45:0.21922305 46:0.13372911 47:0.52553843 48:0.0040751039 49:0.061033367 50:0.01387024 51:-0.021140271 52:0.028398158 53:0.00087199036 54:0.007016117 55:-0.00088635798 56:-0.005302962 57:-0.013435557 58:-0.0064317443 59:-0.001991477 60:0.0065568595 61:-0.0087524138 62:0.0083683402 63:0.0080279487 64:0.0022546834 65:-0.0013036789 66:-0.0017552692 67:-0.0012725977 68:-0.0065346877 69:0.002089861 70:-0.0019323731 71:0.00048747076 72:-0.0036529511 
8.5696347474748098 1:4.2221579 2:0.41411876 3:0.1823095 4:-1.4446741 5:0.6277115 6:0.40976237 7:-0.57901072 8:-1.310626 9:-0.089890677 10:0.061133599 11:0.54656901 12:0.74584813 13:0.031695488 14:0.0036958371 15:0.0047907901 16:0.014576157 17:0.0024228713 18:-0.010589653 19:-0.0093580202 20:-0.0050079053 21:-0.0088327063 22:-0.00038562137 23:0.001036828 24:0.0092907091 25:0.0097810561 26:0.00083433213 27:-0.00036273302 28:0.0025692285 29:-0.00081857186 30:0.0011790328 31:0.0042928504 32:0.0024424826 33:-0.0021692967 34:0.0010101188 35:-0.00024847441 36:-0.00064409993 37:3.5479712 38:0.35920304 39:0.1613034 40:-1.6333819 41:0.56901834 42:0.40717868 43:-0.55730351 44:-1.5205043 45:-0.18040771 46:-0.15801134 47:0.37717892 48:0.55851431 49:0.046142301 50:0.032997176 51:-0.031745733 52:0.02661807 53:0.028747842 54:0.0087565682 55:0.0017600478 56:-0.007051473 57:-0.007393715 58:-0.022672996 59:-0.020262018 60:0.014982483 61:0.00088760371 62:0.004214058 63:0.0098330006 64:0.012411141 65:0.0002439191 66:-0.0028546413 67:-0.0046341597 68:-0.0012525043 69:0.0017743698 70:-0.00040831988 71:0.0012067444 72:0.0010543154 
10 1:1.6808446 2:-0.39579435 3:-0.25718567 4:-0.32345616 5:1.0589709 6:-0.048560679 7:-0.08886635 8:-0.24527977 9:-0.55665381 10:-0.6337756 11:-0.099442078 12:0.079665508 13:-0.026580498 14:0.0067432147 15:0.0040861106 16:-0.0066399345 17:0.00093041125 18:0.0045587124 19:0.0012648237 20:-0.0014075794 21:0.0074164 22:0.014456284 23:0.0035032364 24:-0.0050720996 25:0.0010556235 26:0.0011113378 27:0.0010382896 28:0.00055000761 29:0.0011671991 30:0.0001539962 31:0.0018995435 32:0.0018590875 33:0.00089851046 34:0.0010528433 35:-6.0047137e-05 36:-0.00078080263 37:0.91027458 38:-0.37112262 39:-0.0046431739 40:-0.16702984 41:0.9677092 42:0.012576528 43:-0.035362039 44:-0.22854743 45:-0.40807459 46:-0.69567604 47:-0.14463211 48:0.047578102 49:0.05330022 50:0.040918287 51:-0.011914365 52:-0.016112094 53:0.014604456 54:-0.012161955 55:-0.01835784 56:-0.00032239931 57:0.0006170363 58:0.026479285 59:0.012140037 60:-0.0078165545 61:-0.0035902435 62:0.010551107 63:0.0081658898 64:0.0040752319 65:0.0048792919 66:0.00091435392 67:0.00090170426 68:0.0011148174 69:0.0042570085 70:-0.0024557807 71:0.0038769379 72:-0.0017255982 
0.85161077748663128 1:1.8780494 2:-0.85112885 3:1.8315256 4:-0.35781576 5:0.75773707 6:1.1800744 7:0.48214276 8:-0.17171316 9:-0.29845723 10:0.064870396 11:0.25255141 12:0.27115714 13:0.047607997 14:-0.018410242 15:0.027795358 16:-0.00010602959 17:0.023106392 18:0.022193774 19:0.0061355672 20:0.0097393126 21:-0.01036504 22:-0.017197631 23:-0.0082418508 24:0.0026978041 25:0.010349376 26:0.0042587247 27:-0.0017181267 28:0.010437365 29:0.006833168 30:-0.0006027134 31:0.0029628157 32:0.0078241913 33:0.011363101 34:0.003241311 35:0.0041441017 36:0.0044133594 37:1.4268032 38:-0.98852516 39:1.9228405 40:-0.21825769 41:0.98745515 42:1.2505674 43:0.60182154 44:-0.015002071 45:-0.29922924 46:0.11840462 47:0.33275632 48:0.20632041 49:0.13749246 50:-0.013303062 51:0.021220876 52:-0.028436076 53:0.037310027 54:0.031544786 55:0.0088430711 56:0.033073249 57:0.0068371764 58:-0.011150315 59:-0.017028881 60:0.025984505 61:0.010258955 62:0.0046962646 63:-0.00029694956 64:-0.005537739 65:0.0073820138 66:-0.0019376938 67:-0.0011504399 68:-0.0027486782 69:0.0099553968 70:0.0057903677 71:-0.00572344 72:-0.0038798734 
10 1:1.8792983 2:-1.1995561 3:1.2397827 4:-1.3807978 5:1.0026425 6:-0.42473125 7:-0.60139459 8:-0.29198391 9:-0.14085688 10:-0.33293411 11:0.40650098 12:0.4168523 13:-0.00078510767 14:-0.011990636 15:-0.0041415091 16:0.0046409323 17:0.0047477488 18:0.0084659057 19:0.0072847267 20:0.0058660565 21:-0.00026506543 22:0.0038395258 23:0.002222531 24:-0.0019279159 25:0.0013578752 26:0.00062464319 27:-0.0023989458 28:0.00076419134 29:-0.00068371763 30:0.001314706 31:0.003056409 32:0.0022116608 33:0.0017983032 34:-3.3906335e-05 35:-0.00055951557 36:-0.0010610115 37:1.5338683 38:-1.1658704 39:1.3043184 40:-1.3281844 41:1.0525547 42:-0.25947777 43:-0.40127284 44:-0.21791685 45:-0.13047345 46:-0.28802504 47:0.42046445 48:0.4432713 49:0.099616395 50:-0.014746437 51:-0.014223189 52:0.029071928 53:-0.0083928489 54:-0.0025339161 55:0.0013875103 56:0.012826422 57:-0.0027962603 58:0.0016438599 59:-0.0076579266 60:-0.016517835 61:0.0097100575 62:-0.00022495562 63:-0.0014382948 64:0.00087437838 65:-0.0040942188 66:-0.0048678783 67:0.0082492889 68:0.00079758853 69:0.0044428006 70:0.0036894396 71:0.0017298877 72:0.0018105364 
4.7861324360305018 1:1.827887 2:-1.8148948 3:-0.73453923 4:-1.0660397 5:0.10019005 6:-0.55557963 7:-0.032840393 8:0.31618485 9:0.35548699 10:-0.34585965 11:0.65124886 12:0.34217916 13:0.047621006 14:0.0043304715 15:0.037456797 16:-0.013094304 17:-0.0045555131 18:-0.0005819412 19:-0.0016523049 20:0.0086428391 21:-0.0041195394 22:0.0041529698 23:0.015797024 24:0.014186526 25:0.036510099 26:0.011335805 27:0.0022549922 28:0.0070280036 29:0.0065207644 30:0.0058719352 31:0.0007555668 32:-0.0021302292 33:-0.007782859 34:-0.0026356982 35:-0.001768592 36:-0.0016964193 37:0.78546766 38:-1.7918544 39:-0.8793322 40:-1.1163239 41:0.041105649 42:-0.59313797 43:0.2493697 44:0.48455509 45:0.47840425 46:-0.45239608 47:0.69679965 48:0.24324746 49:0.10806038 50:-0.015809161 51:0.044735936 52:-0.030519585 53:0.012880295 54:0.0050424502 55:-0.015227559 56:0.044166821 57:-0.061050324 58:0.025657928 59:0.0060456705 60:0.017113029 61:0.018620779 62:0.043469796 63:0.012331765 64:0.013312509 65:0.0038358528 66:-0.0086267566 67:0.0011461043 68:-0.0026702534 69:0.0083497384 70:-0.016530696 71:-0.0023810078 72:-0.0050890145 
3.4608122110010404 1:1.5406739 2:-0.097345906 3:1.2190056 4:-0.96893039 5:1.3609882 6:-0.39862923 7:-0.22928266 8:-0.064319063 9:-0.057328413 10:-0.22221337 11:0.76778484 12:0.10032234 13:0.0014291228 14:-0.00034402926 15:0.001559472 16:0.0011232479 17:0.0011225345 18:-0.0055410598 19:-0.0036611621 20:0.0002364826 21:0.00056348298 22:-0.00056311344 23:-0.0017709209 24:-0.0070027553 25:0.0022546238 26:0.00047441176 27:0.00022668564 28:0.0017749639 29:0.000365391 30:-0.00081470056 31:-0.00068313787 32:0.00017546714 33:-0.0013502788 34:-0.0024928152 35:-0.00053116397 36:-0.001111531 37:0.61495057 38:-0.14762888 39:1.2610435 40:-1.097375 41:1.3632654 42:-0.4663376 43:0.0017108637 44:-0.047389949 45:-0.092169756 46:-0.078531158 47:0.79671852 48:0.0067942976 49:0.0033305282 50:0.035452816 51:-0.046274241 52:-0.0086839706 53:0.016403776 54:-0.024444706 55:-0.0035199538 56:0.0083280639 57:0.018482438 58:0.0096683679 59:-0.021699159 60:-0.0080352248 61:0.02217132 62:0.00079350321 63:0.0077765248 64:0.0048304963 65:-0.0032813647 66:-0.0016613597 67:0.0025411453 68:-0.00067162453 69:0.003259662 70:0.00015244758 71:-0.00087606015 72:-0.0017944691 
0.094260573692237462 1:0.54592692 2:-1.0394966 3:-1.2000095 4:-0.31423258 5:0.059714728 6:-1.2231735 7:-0.1935692 8:-0.46242718 9:-0.24807339 10:0.094685764 11:1.2288179 12:1.2557713 13:-0.04979579 14:0.033876246 15:0.024522911 16:-0.012767382 17:0.010703392 18:0.011241031 19:0.020313986 20:0.017983493 21:0.024830491 22:0.0020989411 23:-0.0079622892 24:-0.0026899605 25:0.013084085 26:0.0077822226 27:-0.00063586536 28:0.002937505 29:0.0001550152 30:0.0090396701 31:0.0018364966 32:0.0013615985 33:-0.002952684 34:-0.0020476405 35:-0.00046745132 36:-0.0015418113 37:0.59700527 38:-1.0369784 39:-1.5337803 40:-0.1883298 41:0.13827179 42:-1.2872205 43:-0.094389093 44:-0.51710116 45:-0.18062058 46:0.013406999 47:1.1369944 48:1.3381642 49:-0.063450815 50:0.087618238 51:0.06814847 52:-0.0054208957 53:0.0041577471 54:0.044896173 55:0.021341212 56:0.029491472 57:0.023508756 58:0.0080105259 59:-0.016568921 60:-0.025070639 61:0.017006445 62:0.0060778967 63:0.015448749 64:-0.00762506 65:0.0032893889 66:0.0072838378 67:-0.0010198247 68:0.00052611415 69:-0.0022132509 70:0.00038291978 71:-0.010231584 72:0.0027499169 
4.6433476439463899 1:2.9252082 2:1.67211 3:2.0656263 4:-0.28923802 5:1.1900977 6:0.29194867 7:0.16315702 8:-0.53031937 9:0.4831948 10:-0.028931104 11:-0.078598109 12:0.45475231 13:-0.0017610991 14:-0.017217343 15:0.0018589564 16:0.0018063589 17:-0.00036035005 18:-0.013590038 19:-0.011204637 20:-0.030368194 21:0.015909818 22:0.0017434515 23:0.0083409838 24:0.020518779 25:0.0062995842 26:-0.00082168744 27:0.0019578835 28:0.00051202357 29:0.00049814046 30:0.0020406461 31:0.002891129 32:0.0011751409 33:0.0015073925 34:0.0038019186 35:0.0018853344 36:0.00047856639 37:2.9662481 38:1.7162199 39:2.9063188 40:-0.39304814 41:1.2914044 42:0.41418072 43:0.23384148 44:-0.47560442 45:0.53910728 46:0.0065972189 47:-0.15234642 48:0.46235157 49:-0.02881545 50:0.011472291 51:0.020735949 52:-0.026053414 53:0.0075639957 54:-0.010544182 55:0.0011329806 56:-0.020509478 57:0.018998164 58:-0.0015711176 59:0.006860059 60:0.017191255 61:0.00026872255 62:0.0035487677 63:-0.00092340544 64:0.0019471466 65:0.0017341511 66:-0.0023255759 67:0.0078950549 68:0.005588326 69:0.0033904701 70:0.0077642009 71:0.0064004077 72:0.0021174379 
1.8235237471285155 1:1.7024637 2:-0.70170831 3:-1.3143331 4:-0.42039852 5:0.7513438 6:-0.43205824 7:0.71895037 8:-0.069093564 9:0.059073292 10:0.0813067 11:0.94925051 12:-0.30468836 13:0.043590549 14:0.038668407 15:0.010089709 16:0.015304908 17:0.003225413 18:0.0083337141 19:-0.0033803731 20:0.0078656633 21:0.00027778003 22:-0.0058841162 23:0.012028769 24:0.018423628 25:-0.010545128 26:0.024756272 27:0.018797485 28:0.010101284 29:0.0029369387 30:0.0096163241 31:0.0030018904 32:0.0092214614 33:0.0060359726 34:0.0024574206 35:0.00040065586 36:0.0083027323 37:0.60662095 38:-1.3975505 39:-1.4117606 40:-0.80452795 41:0.88055091 42:-0.4438482 43:0.72529512 44:0.025083326 45:0.3567535 46:0.071043981 47:0.47846493 48:-0.2337471 49:0.00019728135 50:0.1141637 51:-0.041057589 52:0.022749943 53:0.019951355 54:0.0309357 55:0.0010694614 56:0.035454793 57:0.028535059 58:0.045837334 59:0.040414794 60:0.057564607 61:0.020252486 62:0.014191015 63:0.014212765 64:0.0045187299 65:-0.0039200362 66:0.0070614748 67:-0.0038796859 68:0.0244132 69:0.021671418 70:-0.01021176 71:-0.015146126 72:0.0047103808 
9.2797940585679655 1:2.7965818 2:-0.16272288 3:1.063706 4:-1.0592497 5:1.0565241 6:-0.40054808 7:-0.061996789 8:0.77614027 9:0.52232988 10:0.061852643 11:0.4590499 12:0.38320016 13:-0.027737675 14:0.015864747 15:0.010580464 16:-0.015003194 17:0.013330379 18:-0.0049590521 19:0.0078341435 20:0.024579474 21:0.025240656 22:0.010992227 23:0.010462887 24:0.007055853 25:0.0094280587 26:-0.0017637023 27:-0.0017243111 28:0.0032930812 29:-0.0025824004 30:-0.0013487819 31:-0.0019308212 32:-0.0021768028 33:-8.9900516e-05 34:-0.0019180695 35:-0.0019775199 36:-0.0014446861 37:2.341218 38:-0.013946446 39:1.2635195 40:-1.1941922 41:1.0165214 42:-0.355103 43:-0.0053407512 44:0.9412668 45:0.44949654 46:0.10262306 47:0.43404915 48:0.33532 49:0.10228213 50:0.036745136 51:-0.010426358 52:-0.041746414 53:-0.010890073 54:-0.0097975914 55:0.0023391334 56:0.010691084 57:0.047963327 58:0.011176086 59:0.0091257068 60:0.020044163 61:0.0060770555 62:0.015958304 63:-0.0052344164 64:0.013645207 65:-0.0036356085 66:0.00031110352 67:-0.0001859575 68:-0.0044554021 69:-0.0019768883 70:0.0056707165 71:0.0030391118 72:-0.0021273254 
10 1:2.9090008 2:0.53297461 3:1.3579827 4:-0.92043266 5:1.7082628 6:-0.26911427 7:-0.3736974 8:0.024309731 9:-0.18351064 10:-0.37639983 11:0.5716867 12:0.41221993 13:0.067552756 14:-0.0022650856 15:0.0078604843 16:0.0098106074 17:-0.0094336548 18:0.006286448 19:0.017256619 20:0.0089494188 21:-0.0077772238 22:0.00043339807 23:-0.0048361445 24:-0.0034892726 25:0.0092851761 26:0.00027045458 27:0.0041163531 28:0.0022528281 29:-0.0045244325 30:0.0028948593 31:-0.0019691491 32:-0.0056021364 33:-0.0037519802 34:-5.716568e-05 35:0.00062289246 36:0.00092864671 37:3.2106609 38:0.2438817 39:1.3772297 40:-0.82064588 41:1.6779366 42:-0.24645328 43:-0.24895142 44:0.046066299 45:-0.023730995 46:-0.30148854 47:0.59445023 48:0.33637674 49:0.036270166 50:-0.033905829 51:0.026405411 52:-0.041659852 53:-0.049210618 54:-0.00012738283 55:0.022609192 56:-0.002232344 57:0.019117331 58:-0.033486341 59:-0.014905504 60:-0.0066007036 61:0.019624668 62:0.0071830407 63:0.0117013 64:0.010692599 65:-0.0072229618 66:0.0014467817 67:-0.0028925508 68:-0.0057590787 69:-0.0054842764 70:-0.0024930749 71:0.0029964839 72:-0.003463247 
10 1:2.3278179 2:-0.017068025 3:0.73189841 4:-0.57151638 5:1.1329955 6:0.23575043 7:-0.19335042 8:0.064482666 9:-0.043166118 10:-0.31755573 11:0.15800451 12:0.36365853 13:0.083065833 14:0.0099016145 15:0.011826951 16:0.058661952 17:0.028755426 18:0.0046274475 19:0.022089625 20:0.032343613 21:0.00022542781 22:-0.013952913 23:0.017855818 24:0.012644418 25:-0.0019633136 26:0.001271563 27:0.0013338245 28:-0.0028027175 29:-0.007082441 30:-0.0012512926 31:0.0009981358 32:-0.0029440683 33:-0.00013907033 34:0.0020356281 35:-0.00019189264 36:0.00060859661 37:2.2078663 38:0.1782656 39:0.66792777 40:-0.74204026 41:1.0995872 42:0.26568267 43:-0.11800139 44:0.086950904 45:-0.001072616 46:-0.28495425 47:0.12033706 48:0.31933541 49:0.084819108 50:0.017194771 51:0.015639207 52:0.050313306 53:-0.0040314735 54:0.003715682 55:0.034976257 56:0.011589378 57:0.014570265 58:-0.018475933 59:0.012389488 60:0.019831707 61:0.00026716256 62:-0.0028350844 63:0.0070016514 64:-0.002452493 65:-0.0051068216 66:0.0006432185 67:-0.00036701795 68:-0.0023196948 69:0.00035321768 70:-0.0021514716 71:0.0040016892 72:-0.0018426839 
9.7374951526700357 1:1.7136546 2:-0.27632337 3:-0.16601813 4:-0.3951932 5:1.0885501 6:0.040759034 7:-0.1025737 8:-0.18565268 9:-0.60699019 10:-0.52689042 11:0.037010858 12:0.098026396 13:-0.00041444681 14:0.013117203 15:-0.0038682743 16:0.0023151931 17:-0.0042806115 18:-0.0010081835 19:-0.0024324791 20:-0.00078738171 21:0.0015332071 22:0.0029548288 23:0.00076042898 24:-0.0068489315 25:-0.00092178863 26:-0.00073515849 27:0.0026664057 28:-0.0012071867 29:-0.0014437806 30:0.00034121602 31:0.00085723911 32:0.00091912935 33:0.00055371001 34:0.0004327554 35:0.0004497639 36:-0.00077813175 37:0.95244955 38:-0.061654805 39:0.19043053 40:-0.29602329 41:0.90325706 42:0.076939491 43:-0.095238475 44:-0.10357177 45:-0.43446894 46:-0.53635532 47:0.021360039 48:0.10408853 49:0.10804458 50:0.053291478 51:0.0044051382 52:-0.00046047552 53:-0.011558893 54:-0.020009527 55:-0.0104624 56:-0.0012747035 57:0.014942124 58:0.0096571353 59:-0.0046036615 60:-0.0099410602 61:-0.0019582959 62:0.006107829 63:0.0030166728 64:-0.0027284096 65:-0.014632348 66:-1.3268689e-05 67:0.00020259676 68:-0.00066126698 69:0.0020514377 70:-0.0035579321 71:-0.0014508635 72:-0.001572824 
4.4472103305778905 1:3.9699775 2:0.0053416995 3:1.2700406 4:-0.68047644 5:1.5226036 6:0.4562431 7:0.34626476 8:0.13382549 9:0.27134172 10:-0.057537465 11:0.41812986 12:0.57670873 13:-0.0077443863 14:-0.0082584295 15:-0.0066814311 16:0.0012362184 17:-0.0033491508 18:0.002949425 19:-0.006191729 20:-0.0072130903 21:0.0019842189 22:0.0052920814 23:0.0062840529 24:0.00098109075 25:0.00065784699 26:-0.0018229291 27:-0.00067260187 28:-0.00015413288 29:-0.00074985164 30:-0.00096493346 31:0.00079785453 32:0.0029334827 33:0.0014677004 34:0.0022752078 35:0.00053538485 36:-0.00065933078 37:5.3526292 38:-0.33033867 39:1.3780769 40:-0.36932282 41:1.7646092 42:0.25491173 43:0.33580128 44:0.23853799 45:0.28110057 46:-0.077885197 47:0.41849389 48:0.54623689 49:0.0061495174 50:-0.025219737 51:-0.051146427 52:-0.0033414757 53:-0.015914265 54:-0.01493812 55:-0.02456394 56:0.0050114155 57:0.0047694197 58:0.0010329863 59:-0.0016034297 60:-0.0094960998 61:0.0039463864 62:0.0036378923 63:0.0062075836 64:-0.0040769656 65:6.9501961e-05 66:-0.0054009134 67:-0.00092202281 68:0.0041570562 69:0.0032681102 70:0.0071995232 71:0.0016422483 72:0.0010385712 
10 1:3.5746296 2:0.77817591 3:1.7691859 4:0.3055579 5:1.3447991 6:0.24409565 7:-0.10243573 8:0.42778004 9:0.21037441 10:0.10391641 11:0.53976545 12:0.39087458 13:0.09524705 14:-0.020861434 15:-0.024612621 16:0.030475729 17:-0.011116311 18:0.0026994805 19:0.030849599 20:0.013747424 21:-0.014156489 22:0.014885396 23:-0.018100386 24:-0.021184623 25:0.0052381781 26:0.00035360979 27:0.00091303201 28:-0.0014021006 29:-0.0045248978 30:0.0011700742 31:0.0026209823 32:0.00013088685 33:0.0038909864 34:-0.00075930288 35:0.0012603094 36:0.0022044249 37:3.327531 38:0.80056874 39:1.7321489 40:0.42305777 41:1.0999514 42:0.24358811 43:-0.011889811 44:0.52115647 45:0.15030598 46:0.15354533 47:0.6546621 48:0.40502761 49:0.0692017 50:-0.001948543 51:-0.016089103 52:-0.012282871 53:-0.018760789 54:-0.0050373986 55:0.0064635473 56:-0.010630518 57:-0.022930373 58:-0.0094677785 59:-0.012443984 60:0.0046526381 61:0.0093252441 62:0.011551589 63:-0.00029332299 64:0.0024270558 65:0.0025568532 66:0.0055003024 67:0.0020802534 68:0.0048254141 69:0.0025346182 70:0.0015356857 71:0.00063354663 72:0.0019557254 
1.4293179082420384 1:2.4008716 2:-0.71464054 3:0.63944278 4:-0.70070559 5:1.3174173 6:-0.053252184 7:0.088886858 8:0.057112014 9:-0.20594884 10:0.19889672 11:0.16507178 12:-0.23350683 13:-0.038615047 14:-0.0030334329 15:0.023616512 16:0.037166359 17:0.041393846 18:0.0026593159 19:0.021519829 20:-3.5617684e-05 21:0.0022326736 22:0.011791367 23:0.0067601876 24:0.0033804943 25:0.0087705554 26:-0.0017874135 27:-0.0033667051 28:0.00031415485 29:-0.00034043784 30:-0.00021063148 31:-5.6551404e-05 32:0.0012379112 33:-0.0023730541 34:-0.00010657693 35:0.00061050378 36:-0.0018242608 37:2.0047401 38:-0.53157863 39:0.72899164 40:-0.61368638 41:1.4384166 42:-0.10035653 43:0.18242652 44:0.054193034 45:-0.33788926 46:0.028500798 47:0.20598126 48:-0.14253794 49:0.025232638 50:0.018851974 51:0.022832749 52:0.027542793 53:0.042334398 54:0.025420041 55:0.030454205 56:-0.007036118 57:-0.00063347249 58:-9.3807969e-05 59:0.018037015 60:0.0056284312 61:0.027976229 62:-0.0070136468 63:0.0012236128 64:-0.0019775653 65:0.00065009475 66:-0.0036891144 67:0.00077208511 68:-0.00038710162 69:-0.0050825995 70:0.0028484811 71:0.0024134473 72:-0.0028632713 
0.11371054892902818 1:-0.79224369 2:-2.1573027 3:-0.60188869 4:-0.91931379 5:-0.28727113 6:-1.0579628 7:-0.80120281 8:-0.70514583 9:0.073130384 10:0.49207725 11:1.2305961 12:1.064042 13:-0.02916038 14:0.019443593 15:-0.022453598 16:-0.010042662 17:-0.013995252 18:0.069092993 19:0.048745864 20:0.015824209 21:0.012568322 22:-0.00061810468 23:0.029186286 24:0.033857165 25:0.017270539 26:-0.0002455986 27:-0.019858527 28:-0.0046598399 29:-0.00020987213 30:-0.0019963758 31:0.00054477579 32:0.0012430595 33:0.00055620034 34:0.00058685393 35:0.0032570496 36:-0.0042715143 37:-0.64245461 38:-1.7067429 39:-0.92148748 40:-1.294664 41:-0.23287866 42:-1.0661021 43:-0.90846402 44:-0.75485942 45:0.018868478 46:0.31027712 47:1.2973865 48:1.097604 49:-0.022612991 50:0.077518914 51:-0.03447077 52:0.01584234 53:-0.017086723 54:0.077730062 55:0.056445398 56:0.021429863 57:0.0016456709 58:-0.0013970335 59:0.022938365 60:-0.02349556 61:0.034958982 62:-0.023196968 63:-0.0014208299 64:-0.0018408954 65:0.0014054152 66:-0.0057491927 67:0.0090612032 68:0.0041985126 69:0.0092828121 70:0.003514135 71:0.014934572 72:0.0045096702 
9.9337858894568267 1:1.0943765 2:0.39373579 3:0.73890525 4:-1.1158317 5:0.44607956 6:-0.059246396 7:-0.22719038 8:-0.11537939 9:-0.33183297 10:-0.59807549 11:0.20724046 12:0.34703972 13:-0.052526705 14:0.027936554 15:0.082858365 16:-0.07713636 17:-0.017712376 18:-0.0059266339 19:0.062315356 20:-0.00090341998 21:0.020095982 22:0.023029071 23:0.022011715 24:-0.0027894684 25:0.010836029 26:-0.019233684 27:-0.0088048871 28:0.012440156 29:0.0076441932 30:0.00051584388 31:0.0022128174 32:-0.000558367 33:0.0019919033 34:0.0020861315 35:-0.00088944857 36:0.0062057285 37:0.92884114 38:0.37562103 39:0.64338517 40:-1.0734337 41:0.56026119 42:0.031625429 43:-0.28007774 44:-0.131256 45:-0.36558041 46:-0.57553709 47:0.27044358 48:0.36491789 49:-0.041328728 50:-0.00082034029 51:0.097339638 52:-0.085184627 53:-0.025694197 54:-0.03275396 55:0.089064309 56:-0.0079993969 57:0.0056656863 58:0.034454749 59:0.0067191626 60:-0.039236907 61:0.021069242 62:-0.02247208 63:-0.016921193 64:0.027167299 65:0.0026142081 66:-0.001595486 67:0.012992691 68:0.00065593045 69:-0.00026756094 70:0.0046589471 71:7.306834e-07 72:0.021783367 
10 1:2.9297369 2:0.62841464 3:1.4681482 4:-0.43552574 5:0.83767833 6:0.90612605 7:0.28460403 8:-0.013369872 9:0.030195981 10:0.045394862 11:0.15958362 12:0.05075954 13:0.015924743 14:0.00086460652 15:-0.0025424893 16:0.032876309 17:0.026996221 18:0.0080994942 19:0.020291631 20:0.0065631514 21:-0.0022439818 22:0.0058288106 23:0.0007032107 24:-0.0063502297 25:0.014975242 26:0.0082045956 27:0.004610397 28:0.011696214 29:0.0018474467 30:-0.0017353841 31:0.00095379663 32:0.00225133 33:-0.00052738441 34:-0.0011592502 35:0.0012172096 36:0.0027006167 37:3.2434404 38:0.61076903 39:1.64469 40:-0.66474032 41:1.0654468 42:0.99081436 43:0.42664625 44:0.0042220817 45:0.064780153 46:0.077743325 47:0.17287313 48:0.14390216 49:0.09090401 50:0.024095734 51:-0.0054986666 52:0.012392918 53:0.045075831 54:-0.020708463 55:-0.013872455 56:0.025572811 57:-0.0080247294 58:0.006992465 59:0.0055375608 60:0.0047331151 61:0.0089866838 62:0.005679182 63:-0.0055131089 64:-0.0033554543 65:0.00078796784 66:-0.0096641094 67:-0.00025463533 68:-0.0067016258 69:-0.0066762803 70:0.0020028796 71:-0.0045147299 72:-0.0004312773 
8.5976853287508579 1:3.7040949 2:0.021500005 3:0.7490708 4:-0.67778066 5:0.64740296 6:0.10846246 7:0.43996229 8:0.59668857 9:-0.063920058 10:-0.053948756 11:0.33904574 12:0.31500762 13:0.065782511 14:0.0078217252 15:0.00074127584 16:-0.0027472129 17:-0.023493843 18:-0.022314947 19:-0.014091878 20:0.001988165 21:-0.0053157608 22:-0.012575898 23:-0.004995956 24:-0.0030399248 25:-0.002663127 26:-0.00080529206 27:0.0027184795 28:0.0021378614 29:0.003125299 30:0.002591156 31:0.0014074313 32:-0.0010474194 33:0.00030207186 34:7.7382668e-05 35:-3.3465897e-06 36:-5.5084433e-06 37:3.1685893 38:0.1847579 39:0.56424565 40:-0.65658861 41:0.66087293 42:0.18734069 43:0.40579949 44:0.47084945 45:-0.10113832 46:0.13615108 47:0.31408645 48:0.28072404 49:0.064130433 50:0.072847843 51:0.0069013022 52:0.013175424 53:-0.010590734 54:0.0032670983 55:-0.031398012 56:0.0051076232 57:-0.0018662284 58:0.0012731499 59:-0.011232228 60:-0.0028392791 61:0.0014372088 62:0.0015877117 63:0.0083716176 64:0.0036666198 65:0.0026091952 66:0.0015378099 67:-0.0061165616 68:0.0050704417 69:-0.0021669321 70:-0.0030482329 71:0.0031364018 72:0.000397163 
0.59273235770627575 1:2.1369458 2:-0.93379091 3:0.30061822 4:-2.0053438 5:0.70652568 6:-0.54026377 7:-1.0400408 8:-1.276821 9:-0.0049282161 10:-0.74469958 11:0.091826885 12:0.41273554 13:0.0058221937 14:-0.0074761138 15:0.012651036 16:-0.010128814 17:-0.0015558116 18:-0.0083253974 19:-0.0063302108 20:0.0045605158 21:0.0083263828 22:0.0094865039 23:-0.0080601593 24:-0.0020389395 25:0.0022478908 26:0.00031170374 27:-0.00064378908 28:0.00031099782 29:-0.00025751989 30:0.00081895969 31:0.0012375615 32:0.00051456608 33:-0.0016841072 34:0.00012722336 35:0.0007265091 36:-3.6527066e-05 37:2.9503604 38:-0.95992379 39:0.29583597 40:-2.2682389 41:0.55144057 42:-0.59356076 43:-0.99612423 44:-1.2351809 45:0.18374924 46:-0.59539122 47:0.171667 48:0.47628928 49:0.0091023754 50:-0.029400613 51:-0.011542563 52:-0.014573632 53:0.032773187 54:0.014923674 55:-0.01122435 56:-0.0029819472 57:0.0098104505 58:0.0082449387 59:-0.004057451 60:-0.011997269 61:0.0056498426 62:0.0049666474 63:-0.0023977675 64:0.00017453034 65:-0.0044989796 66:-0.0024133032 67:0.00020342754 68:0.00086339297 69:-0.0063171512 70:0.0038605897 71:-0.0028270895 72:0.0033531118 
4.2831455777921281 1:2.2077825 2:-1.6596563 3:0.78755439 4:-1.2790562 5:0.43530721 6:-1.0262576 7:-0.7411777 8:-0.4975425 9:0.23655222 10:0.052717607 11:0.38638228 12:0.02316879 13:-0.0040942466 14:-0.0061989876 15:-0.0010493818 16:-0.0035958134 17:-0.0043723175 18:-0.0013008367 19:-0.0073361863 20:-0.0073319751 21:0.008596317 22:0.006652613 23:0.00085962876 24:0.0012448589 25:-0.0018023634 26:0.00062609546 27:0.00025779136 28:0.00026333065 29:-0.0009652779 30:0.00025665846 31:-9.0529687e-05 32:-0.00012930608 33:0.00056079127 34:0.00084399686 35:0.00040749521 36:0.0015640577 37:1.2775824 38:-1.6962022 39:0.65566073 40:-1.4555084 41:0.55626805 42:-0.9795282 43:-0.78533854 44:-0.50466913 45:0.2049099 46:0.066642759 47:0.43771852 48:-0.0048173141 49:0.039894822 50:0.0039032165 51:-0.039205917 52:0.03097147 53:0.0061474156 54:0.016725461 55:0.02409462 56:-0.0039619234 57:-0.0022090082 58:-0.0095130265 59:0.0022617826 60:-0.008487755 61:0.015570918 62:-0.0023013637 63:0.0067864642 64:0.004079698 65:0.0015716246 66:-0.003451697 67:-0.0015497031 68:0.003887368 69:0.0046389608 70:0.0038392165 71:-0.0024189155 72:0.0019944963 
3.1074321080676435 1:1.6304396 2:-1.4398591 3:-1.2527584 4:-1.8177705 5:0.3651215 6:-0.67521295 7:0.12697999 8:0.2755364 9:0.0029562978 10:-0.18735395 11:0.37231593 12:-0.24352691 13:0.22325384 14:0.071154201 15:0.053618922 16:-0.0072577831 17:-0.012145133 18:0.021004286 19:-0.0086753029 20:0.0057438257 21:-0.058861552 22:0.00048439744 23:0.0048301921 24:-0.023277119 25:-0.0088702715 26:0.0048934314 27:-0.009104549 28:0.0033670039 29:0.0059837505 30:-0.0051212945 31:0.0072629915 32:-0.0019178521 33:-0.00054340767 34:-0.0042360897 35:0.0011596347 36:0.0026106822 37:0.87826167 38:-1.614909 39:-1.5476945 40:-1.8634157 41:0.69974043 42:-0.5618527 43:0.11563527 44:0.30801691 45:0.15913447 46:-0.073621463 47:0.39382811 48:-0.27015671 49:0.15803979 50:0.099749359 51:0.0051618568 52:-0.012469734 53:-0.035397861 54:0.016155426 55:-0.01595887 56:0.031467221 57:-0.029504207 58:0.018891205 59:0.0024081975 60:-0.036362108 61:0.0033529169 62:0.01634104 63:-0.0045345007 64:-0.00035475442 65:-0.0011488875 66:-0.013937311 67:0.0023915057 68:-0.00068093149 69:-0.0066652748 70:-0.0094957509 71:0.0016754638 72:0.0089236598 
4.2462920447749397 1:2.8767709 2:-0.42129634 3:0.59437759 4:-1.306243 5:1.0999982 6:-0.25666268 7:-0.029183982 8:0.53687696 9:0.50973097 10:-0.29911164 11:0.092699282 12:0.37649141 13:0.010168343 14:-0.0045847911 15:0.01081117 16:0.0067527638 17:-0.0010870241 18:-0.011930489 19:-0.010254989 20:0.0035965128 21:0.0025863874 22:-0.011000023 23:-0.0010286383 24:0.0017835482 25:-0.00093795883 26:-0.00064891435 27:2.164133e-07 28:0.0002695757 29:-0.00051375308 30:0.0011911093 31:-0.00023814755 32:-0.0013096537 33:0.0001550485 34:-0.0012217709 35:-0.00057878711 36:-0.00029854078 37:2.882366 38:-0.66999001 39:0.56360708 40:-1.4305021 41:1.0923981 42:-0.26585257 43:-0.030794766 44:0.54691507 45:0.49203305 46:-0.27830319 47:0.0674702 48:0.33456151 49:0.11727388 50:-0.031784793 51:0.0013011643 52:0.041534597 53:-0.014349467 54:-0.019039478 55:-0.013485621 56:0.0034101847 57:-0.0041617353 58:0.0083124775 59:0.0045627265 60:0.014634577 61:-0.014332586 62:0.015279512 63:-0.0013095371 64:0.004439938 65:-0.00039282656 66:0.0060526532 67:-0.0026101554 68:-0.0029358939 69:0.00058244646 70:-0.0013092369 71:-0.0030425989 72:-0.0042418074 
3.1802604478036924 1:2.5682547 2:-0.79875042 3:0.46252744 4:-2.1503746 5:0.55856764 6:-0.47585199 7:-1.2376884 8:-1.0693799 9:-0.22524498 10:-1.029786 11:0.038001606 12:0.43310065 13:-0.012330365 14:-0.013996168 15:0.011089166 16:-0.0039565204 17:0.0019817763 18:0.0074566269 19:-0.0056604152 20:-0.0093925175 21:-0.0011181227 22:0.0072009846 23:0.0048006902 24:0.0012788601 25:0.0027031059 26:0.0003585067 27:-0.0012010682 28:0.0024293173 29:-0.00088451154 30:-0.00090309191 31:0.00012189575 32:4.9177156e-05 33:0.00055633038 34:0.00023880294 35:-9.4969275e-07 36:-0.00034743867 37:2.7310747 38:-0.59129363 39:0.40985295 40:-2.214222 41:0.3433429 42:-0.43929595 43:-1.1615374 44:-1.1429238 45:-0.33849802 46:-0.92867731 47:0.034029943 48:0.44182616 49:-0.013929128 50:0.0012241007 51:-0.010837168 52:0.0032407539 53:0.007040231 54:0.020920035 55:-0.015811339 56:-0.0024864945 57:0.0074226076 58:0.01144391 59:0.0040295875 60:0.0050106644 61:0.0066438661 62:-0.0061638468 63:0.0035045806 64:-0.0039820142 65:-0.0047275239 66:-0.0031213829 67:0.0015124906 68:-0.0034749724 69:0.0026444327 70:-0.0011255049 71:0.00092656666 72:-0.0027018993 
2.0965159527927915 1:1.2916214 2:-0.12471882 3:1.6185769 4:0.44924567 5:0.85526289 6:-0.073849084 7:0.22902799 8:-0.0087528294 9:1.1695584 10:0.84746219 11:0.32720096 12:0.19847394 13:-0.0091478747 14:0.013231738 15:0.00081425353 16:0.0029542569 17:0.0030032557 18:-0.0058075782 19:0.0027876652 20:0.00025137424 21:0.0023194548 22:-0.0043085719 23:-0.0016557381 24:-0.0035020555 25:-0.0021571301 26:-0.00026474097 27:0.001809337 28:0.0021614588 29:0.0011250568 30:-5.8321034e-05 31:0.0018588417 32:0.0022931976 33:6.6504904e-05 34:0.00016909531 35:0.0010092303 36:0.001881443 37:1.1111475 38:-0.049742731 39:1.6363294 40:0.38016856 41:0.91577022 42:-0.038643512 43:0.23487051 44:0.19231002 45:1.1945353 46:0.93975686 47:0.34056558 48:0.18677041 49:-0.013365042 50:0.031515366 51:0.017946969 52:0.010472297 53:0.0021849497 54:0.0015504158 55:0.0068722605 56:3.0107991e-05 57:0.0040940759 58:0.0055810944 59:0.010467422 60:0.011692429 61:-0.0021229984 62:0.0051879134 63:0.0028834823 64:0.0096834718 65:-0.0052656145 66:0.0062718733 67:-0.0029081923 68:-0.0041548791 69:0.0013013089 70:0.0012064218 71:-0.0010236998 72:0.0021132363 
6.3903389328338793 1:-0.59785743 2:-0.89123272 3:0.29323867 4:-1.1208622 5:0.96390995 6:0.068290095 7:-0.041050749 8:0.43352035 9:0.22328659 10:0.06658808 11:1.3050023 12:0.89890257 13:0.015343731 14:-0.015317429 15:-0.014456459 16:-0.012974679 17:0.0073074525 18:-0.00024615449 19:-0.0047647669 20:-0.0037337771 21:-0.0096382474 22:9.0934395e-05 23:0.0038673583 24:-0.0020149838 25:-0.00085781051 26:-0.00095450459 27:0.00013569241 28:0.00035833723 29:0.00032264437 30:-0.00088149182 31:-0.000638658 32:-0.0001209456 33:-0.00055755164 34:-7.1905455e-05 35:0.00015205894 36:-0.00011619809 37:-0.31464749 38:-0.8316206 39:0.33420598 40:-1.3782454 41:0.83855638 42:0.31251944 43:0.0013365447 44:0.53439366 45:0.24179858 46:0.045629133 47:1.33939 48:0.79797912 49:0.023372948 50:-0.037066987 51:-0.025486388 52:-0.057811457 53:-0.0073549293 54:0.0041570017 55:-0.010415206 56:-0.012919917 57:-0.0043222801 58:-0.0090694812 59:0.022617749 60:0.0013883133 61:0.00092214966 62:-8.9280504e-06 63:-0.0045443487 64:0.0042204821 65:0.003176128 66:-0.0091361494 67:-0.001407464 68:-0.0015039216 69:0.0014902049 70:0.00041553579 71:0.0028095842 72:0.0057126138 
5.9086233030134832 1:-0.40095212 2:-0.60285548 3:1.1822619 4:-1.8009225 5:0.81616085 6:-0.70293132 7:-0.64342807 8:-0.26162358 9:-0.17965297 10:-0.11229626 11:0.96296203 12:0.57818397 13:-0.0071033777 14:-0.0022743875 15:-0.0063531024 16:-0.011906939 17:-0.00079859235 18:0.0064598307 19:0.0074956221 20:0.0025906131 21:0.00030199667 22:-0.0075445026 23:0.0051302434 24:0.0047805426 25:0.018805957 26:0.00049672462 27:-0.005323954 28:0.0057702931 29:0.00069103764 30:0.0025997312 31:0.0011835264 32:-0.0018969039 33:0.00036453916 34:-0.0021609944 35:-0.0024843678 36:-0.0012179348 37:-0.60301123 38:-0.27079037 39:1.067914 40:-1.6097435 41:0.90659733 42:-0.5437266 43:-0.56757729 44:-0.2973797 45:-0.098632359 46:-0.054134752 47:0.9770975 48:0.54601617 49:-0.027872174 50:-0.0065599763 51:-0.034799488 52:-0.018367375 53:-0.011003675 54:0.0088709236 55:0.010718531 56:-0.0074695085 57:-0.015386622 58:-0.018044192 59:-0.0068953932 60:-0.0094303662 61:-0.0016444958 62:0.0013774945 63:-0.0034303563 64:-0.00084874104 65:-0.0061683743 66:-0.0069942341 67:-0.00043035955 68:-0.0057978814 69:0.0028361358 70:-0.0011473889 71:-0.00095367881 72:-0.0012173655 
10 1:1.4737895 2:-0.059753858 3:0.23204018 4:-0.57223034 5:0.53973702 6:-1.0734388 7:-0.046963748 8:-0.15067528 9:0.088055707 10:0.43452152 11:0.32112259 12:-0.17486656 13:-0.042833201 14:0.0069654759 15:-0.00084485845 16:0.0055407965 17:0.011587236 18:0.00077877246 19:0.0069752999 20:-9.1794121e-05 21:-0.0019767011 22:0.0047635358 23:-0.0020288912 24:0.0044347681 25:0.0092219116 26:0.0040146346 27:0.0021886375 28:0.00058654403 29:0.0015340548 30:0.0070637195 31:0.0041919056 32:0.0064103957 33:-0.001093559 34:0.0010345692 35:0.0014446143 36:0.0020395223 37:0.7828731 38:0.046305078 39:0.55229706 40:-0.5841673 41:0.67588182 42:-1.1582824 43:-0.02314274 44:-0.030162325 45:0.039131 46:0.35189652 47:0.25003564 48:-0.10330565 49:-0.046211763 50:0.021556117 51:0.011405932 52:0.018835544 53:0.028783654 54:0.017082679 55:0.02770624 56:0.0078464961 57:0.0037716093 58:0.010262128 59:-0.0058780652 60:0.015892583 61:0.011065552 62:-0.0043264751 63:0.003224313 64:0.0054574645 65:0.0029966693 66:-0.0002786467 67:-0.0094191161 68:0.0031921516 69:0.0016310695 70:0.0046516985 71:0.0068320354 72:0.0039590927 
1.4953249128476009 1:0.99167657 2:0.60446016 3:1.5335349 4:-1.0579749 5:1.3528857 6:-0.072372061 7:-0.23088581 8:0.26174504 9:0.04835279 10:-0.74533291 11:0.52118805 12:0.96676102 13:0.046110121 14:0.029119876 15:0.00029698906 16:0.0090495705 17:-0.014761497 18:0.027003176 19:0.0081678373 20:0.010433853 21:0.018482593 22:0.0082230317 23:0.017914755 24:0.016849403 25:0.022431981 26:0.012365427 27:0.016520585 28:0.01877756 29:0.0012273516 30:0.0043448625 31:0.0010919302 32:0.00047129874 33:0.0015147626 34:-0.00024062257 35:-0.0032146555 36:-0.0045382422 37:0.37747678 38:0.55517066 39:1.94254 40:-0.93214965 41:1.3239565 42:0.078097623 43:-0.1632255 44:0.20002352 45:0.056909777 46:-0.73579139 47:0.54046159 48:0.95040406 49:0.043220492 50:0.014717547 51:0.022089907 52:-0.0086832526 53:-0.041777708 54:0.01555839 55:-0.0093468979 56:0.027171726 57:0.025524248 58:0.0096808886 59:-0.0023376471 60:0.019446785 61:0.031361431 62:0.020979428 63:-0.008370532 64:0.038407215 65:0.00027938153 66:0.0034249594 67:0.0051306864 68:0.003499655 69:-0.0047930501 70:-0.010252268 71:-0.0020530753 72:-0.0039675811 
0.86854062909289098 1:1.6805528 2:-1.0892385 3:-1.4808351 4:-0.5614522 5:-0.15442982 6:-0.97839427 7:1.4866116 8:0.057538853 9:0.2597204 10:-0.28388363 11:-0.18914922 12:-0.12525369 13:0.091668937 14:0.040498686 15:0.047683115 16:0.031342619 17:0.014960627 18:-0.0098070726 19:0.017326339 20:0.013157592 21:-0.0079561478 22:0.020680673 23:0.0056166873 24:-0.0030323639 25:0.0059779688 26:0.008729544 27:-0.0087070787 28:0.0023955278 29:0.007257343 30:-0.0018452256 31:0.002521861 32:0.0027346036 33:-0.0037070488 34:0.0013739816 35:0.0066497166 36:0.0018432324 37:0.51234427 38:-1.4179156 39:-1.2267835 40:-0.5124261 41:-0.17306618 42:-1.0359648 43:1.6602683 44:-0.10628361 45:0.17259929 46:-0.40560722 47:-0.080688171 48:-0.20829637 49:0.035865808 50:0.058034185 51:-0.02140288 52:-0.0024533911 53:-0.027503496 54:-0.0034499887 55:-0.0081349099 56:0.035199584 57:-0.0078767231 58:0.040116876 59:0.036046459 60:0.014611441 61:-0.011704655 62:-0.0001464874 63:-0.0092431463 64:-0.007501491 65:0.0063806739 66:-0.0019797935 67:0.00051653308 68:0.0068427567 69:-0.014217466 70:-0.0073547592 71:0.010503745 72:-0.0050430981 
10 1:3.2100814 2:-0.32023718 3:-0.28903865 4:-1.2589014 5:0.42974264 6:-0.088868432 7:0.11527588 8:0.11561545 9:-0.0084148133 10:-0.19598242 11:0.13526129 12:0.12704422 13:0.00067189719 14:0.0017042047 15:-0.0051553438 16:-0.01569365 17:-0.0047301154 18:-0.0036500581 19:-0.0014395939 20:0.00028264844 21:0.003211633 22:-0.0017469797 23:0.010046059 24:-0.0010082313 25:-0.0029583148 26:-0.00082898478 27:0.00081921993 28:-0.0012606406 29:-0.0002704956 30:0.00036082899 31:0.0004838466 32:0.00086113866 33:0.0004675324 34:-0.00047207157 35:0.0011855074 36:0.0011708999 37:3.1636652 38:-0.17658458 39:-0.20707968 40:-1.3464487 41:0.48473222 42:-0.19563685 43:-0.050749166 44:0.15304276 45:-0.032323777 46:-0.11483053 47:0.089190412 48:0.14557188 49:-0.065506591 50:-0.00093851862 51:-0.061459811 52:-0.014625549 53:-0.011224497 54:-0.025396953 55:0.01444666 56:-0.016438932 57:0.014737885 58:0.03206044 59:0.012525524 60:-0.0054784862 61:0.012399254 62:0.0012071199 63:0.0076310574 64:0.0066695066 65:-0.0037388043 66:0.004745202 67:-0.0017091032 68:0.0018632014 69:0.0033996235 70:-0.0073912813 71:-0.00075875507 72:-0.00078030211 
0.17707944544076984 1:1.0064056 2:-1.3321095 3:0.16563034 4:-1.690655 5:-0.72954228 6:-0.5840071 7:1.0143828 8:0.006004528 9:-0.27480916 10:-0.12152936 11:0.66431563 12:0.51255601 13:-0.061176097 14:-0.033863527 15:0.013681188 16:-0.031760979 17:0.0050700851 18:-0.00097107513 19:0.034809161 20:0.0022534413 21:-0.014393471 22:-0.0089792262 23:-0.0013925888 24:-0.0023279235 25:0.0073466722 26:0.00064067913 27:0.0031559633 28:0.0025781675 29:0.0045874538 30:-0.00095953145 31:-0.0026873924 32:-0.0015382841 33:-0.00062148042 34:0.00025487557 35:-0.0020488758 36:-0.0026998815 37:0.48557025 38:-1.5482802 39:-0.15039061 40:-2.1328248 41:-0.83655799 42:-0.6451663 43:1.1781148 44:0.11193677 45:-0.33969247 46:-0.16263056 47:0.64913381 48:0.54273012 49:-0.0036040975 50:0.012533145 51:0.0035506568 52:-0.024502483 53:0.023177149 54:0.0040383611 55:0.025976111 56:0.0039662549 57:-0.027301463 58:-0.0055445237 59:-0.0056914441 60:0.0019414268 61:-0.0045408236 62:0.011329078 63:0.0044680931 64:-0.0028124997 65:0.0072116549 66:0.0013981117 67:-0.010599932 68:-0.003433715 69:-0.0011564436 70:-0.00027319014 71:-0.0019382442 72:-0.011926977 
9.2509309789124554 1:2.3259104 2:-0.80459865 3:0.85386858 4:-0.19402806 5:1.5299055 6:-0.17224096 7:0.015185447 8:-0.14206285 9:0.076838702 10:0.34016306 11:0.12820826 12:-0.27790135 13:-0.0061512178 14:-0.0014619717 15:-0.0020434131 16:0.0023203657 17:-0.0097356824 18:-0.00073633046 19:0.011537256 20:0.015502272 21:0.011492985 22:0.00022902728 23:-0.0018852905 24:-0.0015350176 25:0.011119954 26:-0.002287738 27:0.0023395492 28:0.0036529027 29:-0.0064378352 30:0.0013405719 31:0.00085928201 32:-0.00083392025 33:-0.00051487389 34:0.00041087194 35:0.00062147945 36:0.00067221824 37:1.9422548 38:-0.21076721 39:0.85895686 40:-0.18436473 41:1.592268 42:-0.23107198 43:0.14312707 44:-0.12658264 45:0.065413463 46:0.36733032 47:0.17421662 48:-0.25799516 49:0.034274107 50:0.030319966 51:-0.023896874 52:0.0074576137 53:-0.046660373 54:0.016413548 55:-0.023810655 56:0.023964631 57:0.02058713 58:-0.019974394 59:-0.00293489 60:0.0024627003 61:0.0097492224 62:-0.016180049 63:-9.4439621e-05 64:0.0058010706 65:-0.0050583092 66:0.0028234125 67:0.00093206336 68:-0.0018725911 69:8.6852455e-05 70:-0.00049886487 71:-0.00061162022 72:0.0027909658 
10 1:3.4292791 2:0.49252062 3:0.73084518 4:-0.40679999 5:0.83713638 6:0.18616637 7:-0.46072015 8:0.18646856 9:0.44419271 10:-0.030083624 11:0.43902839 12:0.13131533 13:0.0096394543 14:9.5939827e-05 15:0.0033021949 16:-0.014072047 17:0.0047987849 18:-0.0022931697 19:-0.0094144707 20:-0.0027968404 21:-0.0025426163 22:0.0035481277 23:0.0043460187 24:0.0067342617 25:-0.00013576053 26:-0.0022683978 27:-0.00087093434 28:8.3838242e-05 29:0.00080042669 30:-0.00028433821 31:0.00042378373 32:-0.00078103986 33:-0.0008179872 34:3.8283406e-05 35:0.00030532802 36:0.00040071517 37:4.0808269 38:0.80453287 39:0.59896667 40:-0.012641371 41:0.84490179 42:0.23524469 43:-0.39999122 44:0.13053189 45:0.50305742 46:0.036202407 47:0.35863436 48:0.15876236 49:0.024748863 50:0.037470203 51:-0.0084356173 52:-0.010983139 53:0.0038483187 54:-0.0069572889 55:-0.01289261 56:0.0010531688 57:-0.0071611724 58:0.0031107813 59:0.0031296202 60:0.011457314 61:0.0004254477 62:-0.0017655927 63:0.0036630743 64:-9.1742204e-05 65:-0.00055500969 66:-0.00016092193 67:-0.0016188045 68:-0.0017623121 69:0.0024059532 70:0.0029363709 71:-0.0013317728 72:0.0022385254 
10 1:2.8626978 2:0.77294203 3:1.8056134 4:-0.10724861 5:1.4047409 6:0.46901921 7:0.12911355 8:0.64879956 9:0.20428257 10:0.16474902 11:0.46092022 12:0.55840926 13:0.035985696 14:0.0030059412 15:-0.0081781957 16:0.0055687176 17:0.0068472917 18:0.018217437 19:-0.0077683287 20:0.0010246493 21:-0.0011268699 22:-0.0025068883 23:-0.0014063285 24:0.0017684914 25:-0.003921608 26:0.0019441267 27:0.0012499952 28:-0.0042581397 29:-0.0021585407 30:-0.00033626942 31:0.0043442082 32:0.00037312072 33:-0.0015540146 34:-0.00052239797 35:-0.00033963087 36:0.0012408465 37:2.8752382 38:0.87555365 39:1.7632098 40:0.022756416 41:1.3911488 42:0.55351494 43:0.27133904 44:0.79377724 45:0.24386219 46:0.29412044 47:0.58202924 48:0.58474545 49:0.078551295 50:0.0097818259 51:-0.038137037 52:0.0015922691 53:-0.0091490746 54:0.01208765 55:-0.013826402 56:-0.019029873 57:-0.020191006 58:-0.010289158 59:-0.018020638 60:-0.0076591261 61:-0.0036828785 62:0.0029478974 63:0.0050781798 64:-0.0044313466 65:-0.0049455678 66:0.0024364886 67:0.0014253378 68:-0.0039303456 69:0.0070911796 70:-0.00078696869 71:-0.00054972493 72:-0.00083501588 
8.3589103191354273 1:1.7385375 2:-1.7227002 3:0.37491572 4:-2.21774 5:0.088003234 6:0.26224797 7:0.17279811 8:-0.15509508 9:-0.36203916 10:-1.3421904 11:0.22200961 12:0.41937606 13:0.05046401 14:-0.022259914 15:-0.003621867 16:-0.0044085511 17:-0.01787651 18:0.01900916 19:0.018408667 20:0.024395678 21:0.0021816965 22:-0.0049310072 23:-0.007259035 24:-0.0029084912 25:0.021098988 26:-0.0087062631 27:-0.00027908593 28:0.006549458 29:-0.0011770788 30:0.0015191255 31:0.009679994 32:0.007548851 33:-0.0010626444 34:0.0029633241 35:-0.0031797088 36:0.0013592061 37:1.3860512 38:-2.1147081 39:0.3333633 40:-2.1620418 41:0.13451092 42:0.29750298 43:0.39187719 44:-0.010404723 45:-0.27025664 46:-1.2145765 47:0.27200129 48:0.25611459 49:0.034440547 50:-0.031855943 51:0.01473408 52:-0.017896322 53:-0.035835132 54:0.026861413 55:0.0067182502 56:-0.00063496172 57:-0.043166497 58:0.012400216 59:-0.010259178 60:-0.017753506 61:0.023118875 62:0.020581859 63:0.0057455222 64:-0.00453343 65:-0.0076237249 66:-0.0034109172 67:-0.0016978211 68:-0.0083880466 69:0.003320163 70:0.0095611864 71:0.00026955813 72:0.010583068 
6.631821172124206 1:1.6618066 2:-0.93031514 3:0.92263135 4:-1.3451467 5:0.45264431 6:0.07077733 7:-0.64070222 8:-0.399854 9:0.25362327 10:-0.38870461 11:-0.10281452 12:0.19917997 13:-0.011529135 14:-0.023049645 15:0.015880237 16:-0.025866788 17:-0.0035894121 18:-0.0045957592 19:-0.011071241 20:-0.0090442169 21:-0.0065856818 22:-0.027678298 23:-0.016475705 24:0.0063440525 25:0.0017751825 26:0.00058094338 27:0.00095780052 28:0.0022629402 29:-0.00012253812 30:-0.0010392109 31:0.0015336176 32:6.1235282e-05 33:-0.00024489081 34:-0.00033400092 35:-0.0023616297 36:-0.0013527725 37:1.12114 38:-1.0966809 39:0.73367597 40:-1.4356998 41:0.43799542 42:-0.04231448 43:-0.62671759 44:-0.36463891 45:0.47058803 46:-0.26857621 47:-0.084080261 48:0.17448357 49:-0.026738785 50:-0.095247316 51:-0.018692799 52:0.0023376811 53:0.0010650211 54:0.017083872 55:-0.016330975 56:-0.012118101 57:0.0058995452 58:-0.0471404 59:-0.019803588 60:0.0016331517 61:0.015023104 62:0.0083224324 63:0.006076987 64:0.0045929462 65:0.00094756825 66:0.0039816148 67:-0.0027222871 68:-0.0013134253 69:-0.0078627114 70:-0.0075791933 71:-0.0066328199 72:0.0029001933 
10 1:2.3232357 2:0.19191388 3:0.39747678 4:-0.60726917 5:0.5192136 6:-0.87041586 7:0.0093178594 8:-0.016826441 9:-0.19152457 10:0.47733159 11:0.21806886 12:-0.044324603 13:0.015128896 14:0.0023469003 15:0.0015133669 16:-0.0011473059 17:-0.0011441856 18:0.0049929165 19:-0.00051964239 20:-0.00094648965 21:0.0046513 22:0.0030408237 23:0.00091495261 24:0.0051627195 25:0.0061418413 26:-0.00081761394 27:0.00097109305 28:-0.00080533759 29:0.00071341691 30:0.0021902244 31:0.0014152752 32:0.0019528141 33:0.0011298486 34:-0.00046236991 35:-0.00045231797 36:0.0021246714 37:2.2702008 38:0.25262439 39:0.76459742 40:-0.44201693 41:0.53975318 42:-0.68147025 43:0.076894303 44:0.099776795 45:-0.099963957 46:0.42108732 47:0.21831831 48:0.033216353 49:-0.00068218332 50:0.027920463 51:-0.0077083418 52:-0.0031146155 53:-0.018044575 54:0.022525078 55:-0.020549566 56:0.030351907 57:0.0030801384 58:-0.0060395063 59:0.00055975856 60:0.0075696866 61:0.012161358 62:-0.003000529 63:0.0047303206 64:-0.0036969475 65:0.0035626952 66:-0.0043894078 67:-0.0014468865 68:-0.0027361246 69:0.0033954108 70:0.0036012963 71:-0.0012854753 72:0.0036176658 
0.74966553064740271 1:2.0636108 2:-1.2729999 3:0.028623976 4:-1.1651238 5:1.2266927 6:-0.14149711 7:0.24614175 8:-0.023146802 9:0.18970571 10:0.2760328 11:-0.1891202 12:-0.63413371 13:0.069108117 14:0.031607997 15:0.040231279 16:0.022429357 17:0.034841763 18:-0.0081002378 19:0.029111547 20:-0.00019716881 21:0.0066395267 22:0.011497608 23:0.0027323059 24:-0.0011516415 25:-0.0037647412 26:0.0075284852 27:0.0047185157 28:0.0066913168 29:0.0033565585 30:0.0075880719 31:0.0078858272 32:0.0075473711 33:-0.0027005005 34:0.004367608 35:0.0030194247 36:0.0040193927 37:1.9461616 38:-1.2819832 39:-0.26842504 40:-1.1878902 41:1.1658159 42:-0.022070622 43:0.36023431 44:-0.026195026 45:0.19378896 46:0.23136438 47:-0.13995177 48:-0.47031926 49:0.018532512 50:0.094675994 51:0.035924307 52:0.021812923 53:0.077119051 54:-0.043047688 55:0.028130755 56:-0.019103538 57:-0.0017311192 58:0.0033372305 59:-0.021704717 60:-0.0061856021 61:-0.0027525706 62:-0.02335475 63:0.0055409239 64:-0.0035728482 65:0.0053243982 66:0.0019774059 67:-4.2152462e-05 68:0.0062961055 69:0.00046058931 70:0.01065966 71:0.0087809497 72:-0.0046055841 
10 1:2.2561263 2:-0.12104639 3:0.59702861 4:-0.26123248 5:0.58728125 6:-0.11932538 7:0.38071333 8:0.14581256 9:-0.23407135 10:-0.61894346 11:0.36912249 12:0.60309735 13:0.045673411 14:-0.01374314 15:-0.0086973959 16:-0.0094115666 17:-0.020441943 18:-0.0042402586 19:-0.0018834119 20:-0.0064386084 21:-0.014512363 22:-0.014444642 23:-0.0040065373 24:0.0056491835 25:0.013812201 26:0.0072340639 27:0.003560745 28:0.0054429431 29:0.0022876261 30:0.0015652366 31:0.0030607712 32:0.0018027061 33:0.0042905341 34:0.00032287302 35:-0.0030238787 36:-0.0018312478 37:1.3992986 38:-0.28929847 39:0.53700729 40:-0.18691113 41:0.62913687 42:-0.15405999 43:0.27977999 44:0.064445104 45:-0.26434169 46:-0.60412977 47:0.31712223 48:0.56027321 49:0.077360475 50:0.01739926 51:-0.037714092 52:-0.012780279 53:0.0092147861 54:0.0020430848 55:0.0006748591 56:0.0024070078 57:-0.029593013 58:-0.023494095 59:-0.018565748 60:0.0061876965 61:0.012217914 62:0.01285224 63:0.010262863 64:-0.0021151919 65:-0.0042736562 66:-0.0045692782 67:0.013116368 68:-0.0072507053 69:0.0011739249 70:-0.0018027879 71:-0.0050384235 72:-0.0029172438 
8.397029691967612 1:0.98479039 2:0.33269983 3:0.98325744 4:-1.4271265 5:1.7013977 6:-0.035945238 7:-0.12210766 8:0.044522713 9:0.093489903 10:-0.61266068 11:0.6934061 12:1.2444984 13:-0.020088669 14:-0.0083688242 15:0.0123287 16:-0.015175403 17:0.027625334 18:-0.0093529335 19:-0.0090914217 20:-0.021832451 21:-0.0054423754 22:-0.0071139013 23:-0.0050357849 24:-0.0053284691 25:0.019513619 26:0.0012737759 27:0.0061853964 28:0.008662196 29:-0.00051196627 30:0.0026087953 31:0.0030839121 32:0.00031812553 33:-0.0013560332 34:0.0011934516 35:-0.0043320876 36:-0.0046423037 37:0.65402592 38:0.52517152 39:1.1984038 40:-1.569037 41:1.8900751 42:0.093497297 43:-0.34113388 44:0.091271453 45:0.12734921 46:-0.62707454 47:0.67494906 48:1.3154202 49:-0.070720552 50:0.012311959 51:0.026147201 52:-0.02845057 53:-0.028441748 54:-0.041572754 55:0.0028095237 56:-0.043105606 57:-0.016757668 58:-0.0078880794 59:0.010442782 60:0.011835136 61:-0.0064610367 62:0.011836648 63:-0.010979029 64:0.010090995 65:0.002557642 66:-0.0072918512 67:-0.0020745522 68:0.0076399797 69:-0.0056125385 70:0.0010500862 71:-0.010014409 72:-0.0079206957 
0.92925294840734585 1:1.2459658 2:-0.093626532 3:0.66290694 4:-0.53573881 5:0.47280366 6:-0.96636209 7:-0.10941379 8:-0.15690049 9:-0.0041649722 10:0.45492841 11:0.064697464 12:-0.020782867 13:-0.0095441885 14:0.004147647 15:-0.0026311862 16:-0.0030848057 17:-0.00078702947 18:-0.0029259607 19:0.00091464854 20:0.0028685436 21:-0.00081857642 22:0.00334124 23:-0.0059975926 24:-0.0056593997 25:0.0049049354 26:-0.00049827934 27:0.00028138311 28:0.0008709566 29:6.855056e-05 30:0.0026165262 31:-4.6108309e-05 32:0.0011673598 33:0.0010253747 34:-0.00022035211 35:2.8727083e-06 36:-0.0010132632 37:0.95445049 38:0.012784435 39:0.88055081 40:-0.37983255 41:0.55714882 42:-0.90563061 43:-0.083152036 44:-0.053757088 45:0.048858 46:0.3879065 47:0.054722984 48:-0.013508285 49:-0.10198333 50:-0.0037865659 51:-0.014780944 52:-0.0038645227 53:0.0096368977 54:0.030084517 55:-0.0054623525 56:0.0019738852 57:-0.01378443 58:-0.0084971609 59:-0.00045668386 60:-0.019293059 61:0.015767042 62:-0.0040231131 63:0.0088667955 64:0.0078395627 65:-0.003051059 66:-0.0077060655 67:-0.0017642604 68:0.0034122192 69:0.0010069441 70:0.010946145 71:-0.00051681047 72:0.0064462731 
0.30429288332930937 1:1.9045061 2:0.24370797 3:0.81999929 4:-0.65887434 5:0.035789808 6:-0.33800812 7:0.12519585 8:0.20859817 9:-0.40313326 10:-0.687792 11:0.21488973 12:0.27361746 13:0.0093090489 14:-0.058185378 15:0.012090605 16:-0.032675839 17:-0.008802874 18:-0.023415528 19:0.0013119369 20:-0.0076950261 21:-0.024785568 22:-0.023046482 23:0.010139987 24:0.0018061885 25:0.0028155177 26:-0.00084460021 27:0.00044661153 28:0.0027272709 29:0.00024436167 30:0.00099363882 31:-0.00080589301 32:0.0017722711 33:0.003215884 34:0.0025683777 35:0.0015669167 36:0.0002549528 37:1.9383233 38:0.15137172 39:0.89997164 40:-0.54035559 41:-0.021841247 42:-0.33680262 43:0.27343564 44:0.29606262 45:-0.43170956 46:-0.73173381 47:0.13071567 48:0.24477154 49:0.10229494 50:-0.055084471 51:0.034752984 52:-0.051461766 53:-0.0077228103 54:-0.053872869 55:-0.012768081 56:-0.02095774 57:-0.022506388 58:-0.004226669 59:0.017719595 60:-0.0083753785 61:0.0025251403 62:0.0049098478 63:-0.011404908 64:0.0016903269 65:-0.0055012007 66:-0.0042842495 67:-0.0051670174 68:-0.00013678845 69:-0.0018392574 70:-0.01185179 71:0.0029965078 72:0.0081798284 
0.71344063063408514 1:3.5163065 2:0.91656269 3:0.55717029 4:-0.404135 5:-0.34269162 6:-0.62947822 7:0.64645627 8:0.014234733 9:-0.19858617 10:-0.05554528 11:-0.10131707 12:0.14243389 13:0.033477796 14:0.0033949167 15:0.0078772421 16:-0.02079957 17:-0.025448874 18:-0.023328259 19:-0.013107745 20:-0.011260911 21:-0.0070460654 22:-0.0048909758 23:-0.0024789606 24:0.0075090565 25:0.00084845498 26:0.0018512063 27:0.00016740886 28:-0.00021890048 29:-0.00073662148 30:8.8556552e-06 31:0.0011669073 32:0.001478515 33:0.00075569502 34:0.0021859681 35:0.0032017635 36:0.0012018454 37:3.8011437 38:1.2046542 39:0.57304765 40:-0.62205314 41:-0.53594095 42:-0.76984515 43:0.62573733 44:-0.013581614 45:-0.28972578 46:-0.064447476 47:-0.095056078 48:0.13982628 49:0.032166078 50:0.023842998 51:0.015049189 52:-0.0040638252 53:-0.034117257 54:-0.027459019 55:-0.051836752 56:0.0078764074 57:-0.0064420676 58:0.00069637063 59:0.013346417 60:0.010584823 61:-0.0048372261 62:0.0036983905 63:0.0024255568 64:0.0046959044 65:-0.0033063813 66:-0.00049627404 67:0.0022507672 68:0.00079258006 69:0.0030287543 70:0.0050542304 71:0.0033189594 72:0.0018182548 
2.2240377096557009 1:3.9902658 2:0.38642352 3:-0.079055481 4:-0.35360772 5:-0.67696252 6:-0.97790979 7:1.1357321 8:0.19101192 9:-0.23903606 10:-0.054330962 11:-0.17501424 12:0.098447051 13:0.055251233 14:-0.0047322641 15:-0.042196922 16:-0.021325555 17:-0.015334629 18:-0.0012722111 19:0.012149726 20:-0.0037492313 21:-0.013906359 22:-0.0068504219 23:0.00050231171 24:0.0036749631 25:-0.00072597222 26:-0.0018160657 27:1.0193016e-05 28:0.00029440189 29:0.00086492798 30:0.0011227295 31:-0.00019816138 32:-0.0013738349 33:-0.00029957188 34:0.0012713028 35:0.00021272056 36:0.00059782786 37:4.5805468 38:0.28082228 39:-0.094643849 40:-0.34155701 41:-0.64605631 42:-1.1434686 43:0.94958123 44:0.31971521 45:-0.33045427 46:-0.017536354 47:-0.18452276 48:0.12855218 49:0.079684597 50:0.022045631 51:-0.040142913 52:-0.01653869 53:0.00099527398 54:0.006340182 55:0.048595163 56:-0.0017183193 57:-0.012770456 58:-0.0042424087 59:-0.011332927 60:-0.00951315 61:0.0045827173 62:0.0023192674 63:0.0030698338 64:-0.004207289 65:-0.0039005947 66:-0.0026610723 67:0.0086589071 68:-0.0082375301 69:0.00074696606 70:-0.00040374443 71:0.001064079 72:-9.5154427e-05 
0.23324936359968174 1:1.1521004 2:0.42816789 3:1.6993432 4:-0.69372983 5:0.92330211 6:-0.70944421 7:0.019347303 8:-0.24880281 9:-0.10287034 10:-0.16060451 11:0.18052601 12:0.019592764 13:0.0027301958 14:0.0041956108 15:-0.00072773557 16:0.0031555427 17:-0.00099170018 18:-0.0029004196 19:-0.0015509542 20:-0.00022142165 21:-0.00029425387 22:0.00083322358 23:0.0018721425 24:0.0015043271 25:0.0012388895 26:0.00058506696 27:6.489223e-05 28:0.00015309622 29:-0.00071776115 30:0.00021270618 31:-0.00020644932 32:0.0003231101 33:0.00034685333 34:4.0509854e-05 35:0.0005774638 36:0.0012744991 37:0.50743597 38:0.3332472 39:1.7478822 40:-0.73383075 41:0.94516966 42:-0.60295852 43:0.060501743 44:-0.23947037 45:-0.13964476 46:-0.067862245 47:0.18166099 48:0.036134752 49:0.036712073 50:0.0088415122 51:-0.013247184 52:0.00051375206 53:-0.0052435142 54:0.018590994 55:-0.010346173 56:0.00029487759 57:-0.0048757779 58:-0.00025161916 59:0.0044925978 60:-0.00013741843 61:0.003511922 62:0.0058505719 63:-0.0035855881 64:0.00024556199 65:-6.9611319e-05 66:3.5941267e-05 67:-0.0011576131 68:0.004810566 69:0.0027121531 70:0.00030922001 71:-0.0013436979 72:8.5993759e-05 
10 1:0.96893273 2:0.43393405 3:1.3478782 4:0.083695552 5:0.95854409 6:0.16243713 7:-0.17187392 8:0.50619751 9:-0.15778081 10:-0.060474327 11:1.0409395 12:0.68276508 13:0.032394345 14:-0.02461914 15:-0.0049039358 16:-0.01089257 17:-0.00067982456 18:-0.0022537379 19:-0.011881326 20:-0.0037410247 21:-0.011730041 22:-0.0068136331 23:0.0047939081 24:0.0075592869 25:0.0012221781 26:0.0033420303 27:0.00073202552 28:0.0011733568 29:0.0019056444 30:0.0033271153 31:0.00062418904 32:0.00043864863 33:-2.4217601e-05 34:-0.00018057448 35:-6.5745947e-05 36:0.0013030449 37:0.6601319 38:-0.17427377 39:1.5212012 40:0.18407413 41:1.0231915 42:0.42148875 43:-0.11519181 44:0.67637979 45:-0.13867475 46:-0.10827395 47:0.96033961 48:0.79725882 49:0.032290462 50:0.041610595 51:0.0021397085 52:-0.027927326 53:-0.032587109 54:-0.016624086 55:-0.027924955 56:-0.024839844 57:-0.022319208 58:-0.02039798 59:-4.806667e-05 60:-0.0063749552 61:0.001056152 62:0.0057762467 63:-0.0014048484 64:0.0065303641 65:-0.00098503879 66:-0.017284362 67:-0.0030461376 68:-0.0032949043 69:0.00011500991 70:0.0022945954 71:-0.00054571175 72:0.0021117745 
2.3586424128445445 1:1.7073184 2:0.2659392 3:1.0948921 4:0.063836462 5:2.1340176 6:0.099600735 7:1.023341 8:0.23860587 9:-0.091591548 10:0.055479967 11:0.85471185 12:0.1110397 13:-0.0008394271 14:-0.0066424277 15:0.015742092 16:0.012128225 17:-0.0039493019 18:0.016010385 19:0.017310411 20:0.023127852 21:0.0092580604 22:0.0019813594 23:0.0020318339 24:0.0084822721 25:-0.00068542315 26:-0.0036405313 27:-0.00016931661 28:-0.0020220432 29:-0.0026948083 30:0.0016290228 31:0.0020975326 32:0.001177196 33:0.0006443488 34:0.00087558603 35:-2.047444e-05 36:-0.0016162822 37:1.5762312 38:0.37547522 39:1.2822585 40:0.2722103 41:2.2885631 42:0.38180943 43:1.0515667 44:0.42971191 45:-0.065692634 46:0.082426971 47:0.81578183 48:0.11526983 49:-0.089381886 50:-0.027837785 51:0.0010199732 52:-0.020196636 53:-0.011345891 54:0.024357272 55:0.026555978 56:0.0084082251 57:-0.0029779499 58:0.0047105328 59:0.025071131 60:0.0054470573 61:0.013489474 62:-0.012701397 63:-0.0038704046 64:-0.0024694988 65:-0.0097827101 66:-0.00071395844 67:0.0065719786 68:0.0048915876 69:0.0043556638 70:0.0026821488 71:0.0053725218 72:-0.0041247413 
3.570563742410362 1:1.6346242 2:-1.2181892 3:0.65241647 4:-2.0605097 5:0.46030669 6:1.2866964 7:-0.0028278689 8:-0.32796511 9:0.72632718 10:-0.18194457 11:-0.64941958 12:0.4060455 13:-0.093362697 14:0.039273698 15:-0.062282642 16:-0.043226949 17:0.018425645 18:0.049145097 19:0.0069009016 20:0.0086106797 21:-0.0091907734 22:0.040789917 23:0.0075401454 24:-0.030664971 25:0.0062011924 26:0.003467919 27:0.01402971 28:0.0064350356 29:0.00022400751 30:-0.0017322253 31:0.0024123721 32:0.0030671457 33:0.0049420193 34:-0.0038220921 35:-0.0054598833 36:0.00060699219 37:1.5512597 38:-1.316872 39:0.49470976 40:-1.9959326 41:0.57105182 42:1.6185925 43:0.12295599 44:-0.34198617 45:0.75606664 46:-0.083536242 47:-0.57067622 48:0.37471941 49:-0.060045433 50:0.1063417 51:-0.1289324 52:-0.077865802 53:-0.0037140668 54:0.011382204 55:-0.062875152 56:0.024779874 57:-0.029100775 58:0.042069781 59:0.0027536431 60:-0.028185732 61:-0.0085417269 62:0.013550095 63:0.02952258 64:0.008885595 65:0.0083156084 66:-0.0038716631 67:0.0075984758 68:0.013884934 69:0.019071199 70:0.0012940007 71:0.00067687031 72:-0.0070923076 
