svm_type c_svc
kernel_type rbf
gamma 0.013888888888888888
nr_class 2
total_sv 300
rho 0.061703989017296478
label 0 1
nr_sv 141 159
SV
1.0170262575556559 1:-166.79631 2:-161.27826 3:-279.5954 4:3969.5737 5:63.004555 6:178.29913 7:71.07756 8:67.425018 9:49.974861 10:167.03629 11:12.924252 12:72.243034 13:-11.607891 14:-14.566164 15:-42.749882 16:398.29861 17:19.95742 18:23.087696 19:5.9641967 20:5.3567133 21:-5.1141176 22:32.055786 23:5.6617827 24:8.2235889 25:-9.6036558 26:-12.915834 27:-27.257252 28:121.40996 29:11.018619 30:14.616434 31:10.451067 32:8.8657131 33:-4.0945945 34:61.334431 35:7.8316302 36:13.059833 37:-6.6960945 38:-5.4406648 39:-21.596373 40:59.284107 41:7.6996174 42:10.204009 43:-3.7954633 44:-3.9434052 45:-13.706928 46:18.187744 47:4.264709 48:5.709053 49:-4.0372186 50:-4.298481 51:-12.776442 52:15.042309 53:3.8784416 54:5.5983429 55:-10.495154 56:-8.60532 57:-25.191051 58:34.278439 59:5.8547792 60:12.017767 61:-9.4874735 62:-9.8947067 63:-18.412386 64:16.259382 65:4.0322924 66:10.308809 67:-1.4881377 68:-1.9628537 69:-9.9055414 70:22.517551 71:4.7452664 72:4.9731383 
1.0600992583142728 1:-169.81508 2:-159.04754 3:-280.07864 4:3972.4209 5:64.336711 6:180.87161 7:74.687395 8:68.752378 9:50.887041 10:167.84932 11:16.995122 12:78.774773 13:-7.8360997 14:-16.425705 15:-38.15353 16:400.52866 17:20.328096 18:24.99455 19:6.4664525 20:6.6653191 21:-6.83373 22:36.060169 23:5.1469296 24:7.7930461 25:-6.5976281 26:-11.129043 27:-27.34353 28:121.60773 29:10.053858 30:15.494462 31:13.248523 32:8.952305 33:-2.0729932 34:57.393358 35:11.674053 36:18.931841 37:-1.2536962 38:-4.4699154 39:-21.10813 40:62.281129 41:11.118729 42:8.388102 43:-6.7472448 44:-5.5908113 45:-12.358401 46:20.343305 47:6.5727202 48:6.4434708 49:-8.3817995 50:0.20569756 51:-12.963689 52:15.588696 53:1.6846676 54:1.4521294 55:-7.6115514 56:-10.492784 57:-24.229585 58:38.064172 59:5.5639206 60:15.782697 61:-8.7203891 62:-6.4456254 63:-12.787411 64:18.156401 65:4.4770975 66:5.1112818 67:-1.8017076 68:-1.0350445 69:-12.079631 70:23.742796 71:3.9418042 72:3.7021436 
1.0620014084007692 1:-171.98141 2:-163.14396 3:-275.98308 4:3968.4237 5:64.967394 6:179.9498 7:73.183794 8:72.915962 9:52.813114 10:162.07128 11:19.631383 12:77.255326 13:-13.135933 14:-11.864902 15:-42.078328 16:396.58937 17:24.75184 18:26.469789 19:9.0244129 20:6.3911496 21:-3.6362451 22:35.530945 23:4.416557 24:12.436739 25:-12.010946 26:-13.564652 27:-27.867518 28:121.85865 29:12.592733 30:16.795603 31:14.837889 32:9.6765092 33:-6.5792657 34:66.705027 35:6.77004 36:14.436959 37:-6.711808 38:-1.8278111 39:-17.81716 40:57.534908 41:9.51633 42:11.225329 43:-0.70384873 44:-6.1743312 45:-10.660314 46:23.517896 47:5.2639876 48:10.755536 49:-3.4263629 50:-2.3808809 51:-8.7332375 52:15.743794 53:2.3584684 54:6.2289154 55:-11.249514 56:-9.0783735 57:-24.553027 58:36.976734 59:8.9988606 60:11.10953 61:-7.0692258 62:-9.7869871 63:-20.509467 64:16.98989 65:8.0026576 66:9.1227998 67:-0.3962126 68:-2.2713184 69:-13.076955 70:17.813235 71:5.285331 72:6.8193662 
1.0618040009379328 1:-165.21608 2:-159.81467 3:-283.80197 4:3972.1595 5:65.412783 6:177.79602 7:69.185604 8:64.064364 9:53.046702 10:164.74454 11:12.752792 12:72.834206 13:-14.516898 14:-17.025821 15:-42.680338 16:401.54279 17:21.561339 18:23.788714 19:8.5754282 20:6.502318 21:-2.2766873 22:36.927921 23:1.7047859 24:10.487029 25:-5.9641655 26:-4.7574227 27:-25.30964 28:122.94646 29:14.327468 30:14.670344 31:7.4327984 32:12.459076 33:2.3347779 34:54.915696 35:7.5715048 36:12.662439 37:-8.5902457 38:-1.1951947 39:-18.152352 40:55.927064 41:7.2587289 42:12.679562 43:-2.12135 44:-5.2908445 45:-12.587387 46:16.946727 47:3.830289 48:4.2233488 49:-1.2328131 50:-2.70006 51:-9.0096477 52:17.712842 53:8.7660469 54:11.628705 55:-11.610572 56:-6.0892732 57:-22.676788 58:34.553942 59:8.3024348 60:10.847915 61:-6.0664427 62:-9.2936598 63:-18.248027 64:21.30569 65:6.4808021 66:9.107103 67:-0.62371455 68:0.86898195 69:-6.4688715 70:28.256257 71:4.4006364 72:1.7081862 
1.0630139690969196 1:-169.48221 2:-160.46811 3:-279.27061 4:3970.6688 5:61.067627 6:179.51781 7:75.071212 8:69.621352 9:48.948207 10:167.28495 11:11.489445 12:71.792414 13:-10.167383 14:-11.459802 15:-41.61161 16:402.24087 17:22.705163 18:21.921144 19:9.3991436 20:4.9854647 21:-9.7907099 22:30.506637 23:9.0734535 24:8.3904239 25:-12.742834 26:-15.297339 27:-25.605378 28:118.88844 29:11.010808 30:17.284908 31:8.0495019 32:10.407861 33:0.29877428 34:60.326403 35:7.5085824 36:14.209151 37:-7.1355839 38:-3.2389531 39:-17.985956 40:62.81946 41:7.0404101 42:10.192499 43:0.3422246 44:-1.8409913 45:-12.720336 46:19.382047 47:4.8406213 48:9.6871499 49:-0.28314225 50:-4.0810336 51:-10.132995 52:17.779235 53:1.4375859 54:9.317394 55:-7.9972631 56:-6.2966287 57:-25.333295 58:40.666544 59:3.9193881 60:12.503769 61:-7.4014248 62:-11.269896 63:-17.536459 64:15.689835 65:7.0920102 66:11.740958 67:-2.1623682 68:1.3372779 69:-3.3654531 70:21.222594 71:2.1515444 72:12.13418 
1.0592778833091159 1:-163.90271 2:-165.88549 3:-279.18079 4:3971.5847 5:64.745915 6:177.1626 7:70.548583 8:67.867962 9:49.898008 10:169.75136 11:18.314308 12:72.960062 13:-10.677632 14:-17.511835 15:-43.726011 16:397.50654 17:26.086568 18:22.099494 19:7.7012585 20:3.0063973 21:-7.0678341 22:30.209365 23:5.6222413 24:9.4363279 25:-6.6153885 26:-13.100103 27:-29.589363 28:121.00845 29:9.1957613 30:15.989287 31:11.682366 32:10.92479 33:-4.7863022 34:61.538753 35:9.8013946 36:18.093316 37:-2.9404472 38:-5.4189164 39:-20.076897 40:59.788262 41:12.820647 42:9.0027356 43:-1.6046363 44:-2.3409651 45:-18.861039 46:19.128202 47:6.5036943 48:3.9456211 49:-1.1524393 50:-6.4521178 51:-10.050762 52:15.63599 53:7.0406014 54:8.4270942 55:-9.7143403 56:-9.8705955 57:-22.619794 58:38.397835 59:6.4105105 60:12.037087 61:-6.832545 62:-9.5612916 63:-15.346821 64:18.533807 65:-0.58352584 66:9.2546778 67:-1.4743716 68:-2.8361215 69:-10.293078 70:28.663261 71:5.8083088 72:5.236504 
1.0603573322697117 1:-166.08979 2:-160.10499 3:-279.53727 4:3970.1516 5:63.226846 6:176.51618 7:68.553728 8:72.156878 9:55.750713 10:169.075 11:12.065908 12:67.279046 13:-11.462 14:-14.750479 15:-43.817115 16:399.2089 17:22.75243 18:25.350848 19:4.0342323 20:11.579049 21:-9.2013161 22:31.373824 23:6.3979276 24:11.052095 25:-8.6142026 26:-14.137602 27:-29.653208 28:122.24007 29:10.870159 30:11.862504 31:12.068814 32:11.768272 33:-1.3014181 34:65.04058 35:9.9429539 36:12.762075 37:-6.2853596 38:-4.1024486 39:-18.627581 40:63.25265 41:5.9241472 42:10.639247 43:-3.6093432 44:-3.1667182 45:-11.904428 46:20.475759 47:5.9729768 48:7.1934671 49:-4.0536574 50:-0.13351887 51:-9.7686274 52:14.427951 53:6.6151997 54:3.1452475 55:-13.92481 56:-9.1113251 57:-20.324891 58:33.951315 59:5.9741543 60:15.764364 61:-8.6360819 62:-4.6407749 63:-18.520759 64:18.465636 65:4.3940294 66:11.030267 67:-0.8314103 68:2.1893803 69:-5.2031108 70:23.595806 71:3.8633106 72:4.4318094 
1.0580882800529217 1:-162.855 2:-161.55289 3:-276.58181 4:3967.953 5:62.401648 6:180.38945 7:73.650238 8:68.331054 9:49.230115 10:166.41274 11:14.050371 12:75.792806 13:-8.9890677 14:-15.656594 15:-42.235087 16:401.81475 17:23.555321 18:19.928148 19:7.550958 20:10.265131 21:-4.9419483 22:30.615371 23:9.7490487 24:13.393208 25:-8.184221 26:-12.988343 27:-27.421839 28:122.09828 29:8.8851638 30:16.53953 31:9.1213893 32:7.5333 33:0.49922685 34:61.98858 35:6.9569065 36:17.63403 37:-4.1479464 38:-8.4539201 39:-22.040678 40:54.917981 41:9.5494696 42:11.750586 43:-2.4355266 44:-5.0410361 45:-11.675701 46:19.571796 47:8.6980177 48:7.5857568 49:-4.8741497 50:0.49907555 51:-13.324455 52:12.505019 53:2.7431159 54:3.4971487 55:-13.020724 56:-8.269285 57:-22.407063 58:33.392702 59:2.4126626 60:13.230226 61:-9.6890629 62:-7.1140044 63:-16.724554 64:14.758801 65:6.7872386 66:11.032548 67:-0.25310753 68:-2.6524587 69:-13.10513 70:24.982913 71:6.1830449 72:5.541171 
1.0603863884206297 1:-163.78897 2:-162.82297 3:-277.63128 4:3969.4012 5:64.186084 6:182.49648 7:71.161082 8:65.577 9:46.928804 10:165.84574 11:12.228692 12:71.829603 13:-12.894435 14:-9.9020167 15:-50.499437 16:400.48809 17:17.767852 18:25.332701 19:11.04524 20:6.746609 21:-1.261224 22:36.289826 23:9.7799564 24:13.364641 25:-13.124899 26:-10.980963 27:-24.465766 28:123.90512 29:15.455224 30:16.954775 31:15.8947 32:8.4639005 33:-1.5683178 34:66.171021 35:8.1254074 36:12.976513 37:-7.4432776 38:-6.2339081 39:-19.161115 40:60.761938 41:4.899783 42:12.37503 43:-2.8440962 44:3.3484101 45:-11.616065 46:17.33305 47:1.5183261 48:10.828808 49:-6.569427 50:-4.41701 51:-10.405687 52:16.211661 53:2.3116032 54:6.7083456 55:-11.654232 56:-10.174139 57:-24.13596 58:34.574727 59:6.5262667 60:11.799999 61:-9.2325806 62:-9.6975177 63:-20.769317 64:21.636986 65:5.6357009 66:13.214948 67:0.36328907 68:0.0987696 69:-7.9824138 70:24.112085 71:4.0014052 72:6.8660874 
1.0600940999513486 1:-161.33125 2:-160.17473 3:-278.12562 4:3968.2969 5:64.856722 6:178.32368 7:66.595109 8:67.525839 9:47.710193 10:167.17264 11:14.127756 12:72.454044 13:-8.4832465 14:-10.316414 15:-37.531696 16:396.84969 17:18.810518 18:22.521516 19:7.9620351 20:6.4697737 21:-7.2104651 22:25.836282 23:5.9509813 24:6.5890288 25:-6.1084697 26:-9.8163246 27:-30.815896 28:119.44084 29:6.1977891 30:17.365901 31:9.8740383 32:3.2239038 33:-4.4997297 34:62.300114 35:8.4651351 36:14.215991 37:-5.3058889 38:-1.8888943 39:-17.222498 40:61.892785 41:7.3224409 42:14.237593 43:-2.1874695 44:-4.4261715 45:-13.903198 46:19.029873 47:5.9192442 48:5.6424569 49:-3.7029354 50:-2.4772974 51:-9.7800311 52:16.033688 53:3.4632979 54:4.1123731 55:-8.6615753 56:-5.9103002 57:-22.041413 58:32.753636 59:9.6191245 60:17.151986 61:-12.202502 62:-6.894054 63:-16.662813 64:14.647091 65:4.9828745 66:10.455826 67:-0.30606665 68:-2.3095602 69:-11.365167 70:25.699854 71:3.3628563 72:4.0547426 
1.0609416096998694 1:-165.97944 2:-161.47326 3:-279.60036 4:3971.1893 5:61.615316 6:174.38717 7:75.76787 8:64.516102 9:49.281645 10:166.28411 11:14.331124 12:76.514341 13:-14.186049 14:-14.456086 15:-39.961978 16:397.30737 17:20.161998 18:24.783099 19:1.4565946 20:2.9332934 21:-4.1989247 22:28.869106 23:11.390276 24:6.7798263 25:-9.8242233 26:-10.368446 27:-25.930579 28:125.95642 29:12.777681 30:19.751359 31:8.1319153 32:11.14859 33:-6.9609737 34:60.563491 35:9.3634433 36:13.37754 37:-0.51831769 38:-3.9686911 39:-20.600125 40:64.301388 41:10.678359 42:12.548772 43:-3.1300223 44:-0.17949508 45:-10.351408 46:18.229244 47:7.6068971 48:5.9236584 49:0.40153931 50:-4.7198959 51:-11.099281 52:17.939269 53:6.8637847 54:2.2801306 55:-8.8420463 56:-7.0748275 57:-25.621145 58:35.077756 59:1.0004578 60:10.645569 61:-3.4939061 62:-4.7848098 63:-20.44712 64:13.592154 65:7.1597582 66:7.2486054 67:-2.4550927 68:-3.776119 69:-9.2387899 70:25.241738 71:7.7016874 72:6.247381 
1.0604322394355623 1:-167.61884 2:-156.04246 3:-283.18379 4:3971.2817 5:60.350497 6:181.32754 7:75.167039 8:66.890683 9:53.395123 10:170.49782 11:10.73878 12:68.541955 13:-6.8230987 14:-11.085628 15:-42.449091 16:395.99608 17:17.793331 18:23.551473 19:5.3482109 20:5.5814238 21:-3.6217615 22:34.568022 23:10.472699 24:5.9657157 25:-6.887021 26:-15.389606 27:-22.654053 28:127.38929 29:12.386182 30:16.845378 31:16.345021 32:13.83266 33:-1.6169291 34:62.283889 35:8.7013195 36:13.523558 37:-8.5819189 38:-8.11582 39:-23.524797 40:57.975275 41:9.4148289 42:12.209437 43:-5.626554 44:-3.4686262 45:-11.047352 46:18.558869 47:2.1804206 48:3.0336675 49:-0.75767788 50:-2.1677987 51:-10.564227 52:13.062876 53:7.1351815 54:8.7505806 55:-6.985373 56:-9.5635578 57:-23.094273 58:33.244916 59:3.1614842 60:14.097378 61:-8.8178991 62:-14.001198 63:-16.253895 64:16.043927 65:4.1699837 66:11.111097 67:0.62619476 68:-0.71837937 69:-7.9122512 70:17.672959 71:9.0441821 72:0.80741531 
1.0617794311680679 1:-162.68003 2:-162.53201 3:-278.41126 4:3965.4777 5:61.356546 6:176.27263 7:71.279142 8:69.641758 9:54.886027 10:168.31109 11:11.858564 12:73.588956 13:-8.5873835 14:-16.211765 15:-39.796012 16:394.24959 17:24.13283 18:28.328065 19:3.4533373 20:9.4281487 21:-3.483069 22:34.804818 23:5.327347 24:9.8139838 25:-6.3197169 26:-12.017722 27:-27.758708 28:118.8564 29:14.36613 30:13.151016 31:10.733754 32:8.9741975 33:-5.3667322 34:61.9621 35:10.99793 36:14.754052 37:-6.921591 38:-0.32459658 39:-22.29596 40:59.661538 41:10.201524 42:10.062262 43:4.0675147 44:-4.1531763 45:-14.488922 46:23.592965 47:5.8976214 48:9.7024217 49:-6.5233022 50:0.48887174 51:-8.2823256 52:21.614085 53:7.4016976 54:6.2749025 55:-3.8792982 56:-8.4083239 57:-25.410133 58:34.918448 59:6.5436638 60:11.069978 61:-6.6320025 62:-12.547259 63:-16.026701 64:18.982102 65:1.130929 66:14.502638 67:-3.0214102 68:0.077505198 69:-10.248634 70:22.449815 71:6.3192038 72:11.580113 
1.0599285724417962 1:-165.76128 2:-160.71469 3:-278.99865 4:3971.611 5:61.245001 6:175.03155 7:68.78317 8:68.790596 9:48.898454 10:168.26372 11:15.351684 12:72.804162 13:-10.834915 14:-12.416356 15:-40.181228 16:393.03479 17:21.290495 18:23.504946 19:4.476961 20:9.5337584 21:-3.8477414 22:31.765715 23:6.4722107 24:5.5400612 25:-7.1443039 26:-16.007676 27:-26.278872 28:119.73072 29:10.002294 30:15.494309 31:11.17023 32:9.0611948 33:-6.3917969 34:67.455023 35:6.2168951 36:12.043479 37:-8.2614328 38:-6.3655699 39:-27.842543 40:60.5026 41:5.5280691 42:15.713833 43:-3.6395721 44:-6.8261637 45:-14.04092 46:25.125676 47:1.7153538 48:1.2434962 49:-1.9189087 50:-6.4620517 51:-17.982966 52:15.798176 53:4.6832091 54:7.9105099 55:-9.4736384 56:-9.6496539 57:-24.919031 58:37.125451 59:8.1415494 60:9.3016033 61:-11.690679 62:-7.8838831 63:-21.065348 64:13.870429 65:5.9638841 66:10.712079 67:-0.44286868 68:-1.282702 69:-5.2712706 70:22.645403 71:6.2433711 72:5.8982778 
1.0617756681585897 1:-167.19354 2:-155.64678 3:-276.83721 4:3973.1081 5:61.262039 6:178.74038 7:65.175327 8:71.569666 9:49.817279 10:167.02703 11:11.860613 12:72.519912 13:-10.269423 14:-13.779799 15:-39.397803 16:403.32884 17:20.360123 18:26.64948 19:10.194718 20:6.3546907 21:-4.1206793 22:40.044334 23:10.480442 24:7.2455596 25:-7.717448 26:-14.466363 27:-27.275141 28:122.91192 29:10.102215 30:15.964201 31:13.971447 32:7.6453104 33:0.58921982 34:62.571311 35:5.2989724 36:11.220586 37:-1.9140827 38:-4.8307296 39:-20.444742 40:61.955056 41:10.49018 42:13.236136 43:-2.4564973 44:-4.3269791 45:-11.877734 46:19.556435 47:6.2543206 48:7.1147283 49:-4.7414328 50:-0.89106978 51:-14.181625 52:16.608506 53:5.3962559 54:2.2852443 55:-3.3839539 56:-9.657518 57:-30.056815 58:34.06325 59:5.9347806 60:9.359793 61:-8.0291775 62:-9.9031008 63:-20.279968 64:14.777463 65:2.9217512 66:4.4323035 67:1.7257884 68:-2.2503371 69:-11.646286 70:24.76022 71:4.8221862 72:4.4787031 
1.0608042617865567 1:-164.15763 2:-156.742 3:-283.19153 4:3966.961 5:62.609667 6:175.00873 7:71.503008 8:69.58932 9:53.478204 10:167.11533 11:15.140231 12:71.531067 13:-8.9395469 14:-14.659463 15:-43.694742 16:400.50331 17:20.968326 18:28.341186 19:6.7805243 20:1.5189869 21:-0.60345451 22:33.302912 23:6.003873 24:7.6667491 25:-9.3608491 26:-17.023845 27:-26.505343 28:121.91116 29:14.000343 30:14.371489 31:12.149307 32:13.874029 33:-1.1206699 34:61.755308 35:7.7958453 36:12.175284 37:-7.0460246 38:-3.8943225 39:-19.472667 40:63.474872 41:11.078026 42:15.617206 43:-3.3888188 44:-2.5386574 45:-10.214487 46:18.61505 47:7.3519183 48:3.1654683 49:-4.651002 50:-3.2582724 51:-9.1301084 52:16.225974 53:4.358408 54:7.7760414 55:-7.0735028 56:-5.8536848 57:-24.111934 58:29.39357 59:6.3630541 60:12.668386 61:-2.4045883 62:-14.596345 63:-16.278557 64:14.103651 65:1.4270776 66:10.0848 67:-2.3699185 68:-2.7995929 69:-12.564512 70:29.698936 71:8.7869087 72:6.2970359 
1.0611809042516012 1:-165.66893 2:-163.12662 3:-280.05737 4:3972.1347 5:61.144174 6:181.04804 7:67.548499 8:66.733258 9:54.179957 10:168.38557 11:11.144309 12:75.676698 13:-9.9146251 14:-14.255497 15:-41.743607 16:402.57576 17:24.766583 18:22.459079 19:8.3793689 20:5.4257039 21:-3.1809157 22:33.449476 23:6.5326428 24:12.256015 25:-6.321309 26:-11.466118 27:-30.646268 28:119.28017 29:18.366555 30:18.936327 31:13.648937 32:11.980288 33:-5.1138569 34:62.993047 35:7.7319893 36:15.669461 37:-3.1499475 38:-7.9698678 39:-20.809335 40:63.112121 41:3.52284 42:15.894781 43:-6.8473859 44:1.2188345 45:-13.640038 46:19.178557 47:7.6511071 48:7.9241046 49:-4.208744 50:-4.4561436 51:-10.512761 52:12.365832 53:8.6888741 54:1.9288296 55:-7.2202196 56:-5.5170419 57:-25.674314 58:33.559584 59:7.4441852 60:12.292413 61:-8.8159032 62:-11.037949 63:-14.80177 64:16.190095 65:3.5490344 66:9.1906599 67:2.0363158 68:0.1851267 69:-8.0417084 70:26.967057 71:6.3322703 72:9.1924382 
1.0601150615902035 1:-161.22522 2:-160.38963 3:-281.35626 4:3968.4911 5:65.581411 6:179.9029 7:68.025252 8:67.950835 9:53.223783 10:166.59194 11:16.903843 12:75.355008 13:-11.720294 14:-17.909463 15:-41.918166 16:399.15211 17:19.943614 18:19.821291 19:7.3832494 20:4.4458486 21:-6.7993011 22:35.722597 23:1.6512468 24:6.0801073 25:-5.7229032 26:-12.863239 27:-27.509492 28:126.33369 29:8.5516 30:11.634261 31:9.3685644 32:8.450431 33:-4.0181985 34:62.393448 35:6.6786697 36:9.0650175 37:-5.5796486 38:-8.4640935 39:-18.832913 40:63.115836 41:6.1745686 42:12.326055 43:-6.6912994 44:0.98914667 45:-18.955965 46:18.216427 47:6.052829 48:7.6989888 49:-1.8742864 50:-2.8442885 51:-12.662648 52:16.813849 53:6.8206905 54:9.2922332 55:-12.73013 56:-2.5699361 57:-24.830963 58:35.315455 59:4.0457046 60:8.6938716 61:-6.3699484 62:-8.2024004 63:-17.826181 64:16.432504 65:-1.1773391 66:9.787583 67:-3.073356 68:-0.58363944 69:-9.1231144 70:20.707774 71:3.9267772 72:3.4511286 
1.0589520650554283 1:-167.59053 2:-159.15057 3:-281.93246 4:3971.1233 5:62.531647 6:183.85706 7:76.258578 8:70.010954 9:52.161169 10:166.63412 11:12.848551 12:72.649993 13:-11.165265 14:-13.353092 15:-44.709133 16:395.46227 17:23.898417 18:20.707747 19:12.245914 20:6.0250084 21:-8.8847382 22:33.917407 23:7.2020526 24:10.065178 25:-7.8735014 26:-16.051596 27:-23.257907 28:117.39353 29:10.37412 30:15.894747 31:12.000087 32:13.221831 33:-5.4118176 34:62.765566 35:10.66301 36:13.37521 37:-8.5433428 38:-6.2731632 39:-24.257763 40:58.656231 41:5.5129837 42:10.616133 43:-3.08088 44:-3.4854382 45:-14.649219 46:17.543941 47:10.499591 48:5.1644751 49:-4.012412 50:-4.0476682 51:-11.425902 52:20.929437 53:4.545275 54:11.09874 55:-12.430977 56:-4.6394466 57:-21.247831 58:35.419989 59:5.6885892 60:14.737232 61:-9.9489131 62:-8.9226898 63:-18.554913 64:19.709308 65:5.4291446 66:10.284416 67:1.8734377 68:-1.3486056 69:-3.501424 70:24.366056 71:6.2051726 72:3.3285712 
1.0605405378691048 1:-166.18419 2:-159.55757 3:-279.1515 4:3967.5941 5:63.901762 6:180.49025 7:69.602038 8:65.997078 9:49.178152 10:164.71131 11:14.459737 12:68.680728 13:-12.876892 14:-13.308621 15:-40.586608 16:401.96777 17:22.492105 18:22.471359 19:6.4734885 20:12.573228 21:1.1825457 22:34.659281 23:3.2707217 24:8.2673051 25:-10.024221 26:-11.736092 27:-28.702182 28:123.2864 29:9.9743242 30:16.227479 31:11.231321 32:13.718059 33:-2.6218752 34:63.41563 35:5.0797271 36:15.708554 37:-6.8162385 38:-9.7940935 39:-23.221776 40:61.067994 41:12.275218 42:11.358941 43:-0.59565715 44:4.147103 45:-9.4585882 46:17.172505 47:4.3884194 48:6.1539771 49:-4.3864892 50:-3.8312406 51:-14.212515 52:18.608277 53:2.3251462 54:6.2826786 55:-8.5232055 56:-3.5499448 57:-27.210151 58:37.571197 59:2.7749774 60:12.444678 61:-8.4565352 62:-12.425363 63:-17.289081 64:15.461374 65:2.9054403 66:10.93843 67:-0.54005559 68:-2.0291897 69:-11.376496 70:22.336801 71:8.3922432 72:7.4897625 
1.0579033203249002 1:-165.73603 2:-162.64331 3:-279.77869 4:3964.9723 5:62.220315 6:180.28514 7:72.023696 8:67.144091 9:54.562416 10:168.4396 11:9.987076 12:75.508731 13:-9.8295206 14:-12.101106 15:-40.328341 16:398.82519 17:19.767061 18:23.848599 19:8.6231981 20:4.9861341 21:-0.59076417 22:31.905467 23:3.5441689 24:8.8421463 25:-6.1798611 26:-12.372217 27:-29.478816 28:123.56081 29:14.244095 30:15.995681 31:7.9946104 32:10.530928 33:2.8896444 34:60.92021 35:4.8872842 36:17.431364 37:-6.1492584 38:-4.0801092 39:-19.639119 40:60.164126 41:7.227956 42:12.833915 43:-0.10630306 44:-4.2747322 45:-8.9956337 46:16.503988 47:5.2776348 48:7.8310193 49:0.32632105 50:-3.1309425 51:-10.604123 52:19.249378 53:1.9989537 54:6.9309478 55:-10.078106 56:-5.8094397 57:-25.840186 58:37.843252 59:2.2943902 60:15.094353 61:-11.089002 62:-6.4063921 63:-16.770248 64:18.127344 65:3.0337457 66:10.759914 67:-3.8247624 68:-2.787192 69:-5.6200425 70:21.725936 71:3.8974113 72:3.8796798 
1.058138856923674 1:-164.93701 2:-157.96413 3:-277.22035 4:3973.1458 5:65.315383 6:177.93291 7:74.048153 8:67.61644 9:51.87116 10:171.49015 11:16.225112 12:72.997933 13:-15.815614 14:-13.18575 15:-40.82408 16:399.53376 17:20.752819 18:22.433013 19:8.6251543 20:1.3392624 21:-4.5002608 22:33.574726 23:6.3132444 24:7.3876733 25:-9.5003073 26:-12.865659 27:-26.521582 28:126.44021 29:10.807939 30:16.589159 31:15.154611 32:8.6447427 33:-3.1399253 34:61.45027 35:8.7715956 36:11.0204 37:-4.9133763 38:-5.6787185 39:-16.220313 40:61.837066 41:6.562175 42:10.328501 43:-4.3427735 44:-5.3100796 45:-14.088278 46:21.984146 47:0.81232283 48:4.8661794 49:-5.8308229 50:2.7272295 51:-10.348233 52:12.515533 53:8.3931311 54:9.8748534 55:-8.085505 56:-10.000892 57:-25.449301 58:37.847583 59:8.8180031 60:7.5172441 61:-9.7002998 62:-7.0973998 63:-18.031878 64:15.771241 65:3.518853 66:6.7217097 67:1.6242921 68:-0.47943492 69:-11.470496 70:21.576747 71:7.1923975 72:1.2049585 
1.0589227286962029 1:-167.30667 2:-160.46818 3:-276.01881 4:3969.5167 5:61.806046 6:176.68492 7:71.592712 8:72.494898 9:53.612093 10:168.52181 11:9.5406791 12:72.611503 13:-8.9170491 14:-15.182205 15:-43.820113 16:401.18018 17:23.47032 18:23.403357 19:9.2481416 20:2.6884334 21:-1.0617968 22:39.959797 23:9.3538257 24:9.2602962 25:-3.8129727 26:-14.893215 27:-26.351114 28:119.48812 29:10.150897 30:17.106088 31:7.6835185 32:9.3855298 33:-2.8127567 34:65.17237 35:9.9836416 36:16.401673 37:-7.176904 38:-3.3895374 39:-21.138995 40:61.124545 41:10.21659 42:5.6508234 43:-5.5934346 44:-5.4023773 45:-9.5514838 46:17.823034 47:6.0636564 48:9.3736086 49:-2.5829867 50:-4.4773739 51:-15.842984 52:11.805092 53:2.9668067 54:5.9415738 55:-7.2877589 56:-9.1616332 57:-22.918201 58:37.493758 59:9.0320836 60:9.9502396 61:-6.9802219 62:-9.1092416 63:-15.853656 64:16.352067 65:5.2913464 66:12.757471 67:-2.7994465 68:-1.4502025 69:-10.383354 70:25.546188 71:4.5591335 72:4.6553789 
1.0591679343262688 1:-166.50784 2:-161.63264 3:-278.10552 4:3967.7209 5:65.597566 6:179.36547 7:72.514984 8:65.874552 9:56.23155 10:170.06327 11:16.523798 12:70.646654 13:-14.037806 14:-14.198739 15:-43.020465 16:401.83364 17:22.260727 18:24.431536 19:7.7752735 20:3.8579699 21:-6.0466969 22:32.357902 23:4.3907417 24:10.020911 25:-7.6633579 26:-16.100849 27:-26.552824 28:125.25092 29:9.0191835 30:20.273449 31:14.427321 32:8.0639969 33:-2.8823232 34:61.909456 35:6.2293488 36:15.922538 37:-5.408875 38:-4.1196182 39:-18.219727 40:60.0491 41:11.820607 42:10.956361 43:-3.0692154 44:-6.4448948 45:-14.276191 46:17.579521 47:3.7442547 48:8.1699717 49:-1.6480201 50:-5.2083093 51:-13.122342 52:18.884598 53:0.54188435 54:8.6998944 55:-11.97991 56:-7.3325268 57:-25.174287 58:34.109766 59:9.6199408 60:18.788454 61:-10.303021 62:-12.311254 63:-17.416948 64:14.10554 65:5.438514 66:6.6523021 67:2.067469 68:-7.5691274 69:-11.146157 70:20.23956 71:4.4479806 72:3.8540982 
1.0609471951209353 1:-158.67622 2:-158.10131 3:-279.03506 4:3971.7678 5:67.131056 6:184.40526 7:73.3154 8:70.436863 9:48.630325 10:164.64278 11:13.559203 12:74.361394 13:-7.1257662 14:-11.793658 15:-42.727728 16:396.79685 17:21.713526 18:22.634325 19:5.8472954 20:6.0708866 21:-2.1383753 22:30.879592 23:9.9419239 24:5.4771995 25:-7.0081989 26:-11.706606 27:-28.615303 28:120.92372 29:6.9512645 30:16.223475 31:11.347451 32:8.2424202 33:-6.8305089 34:61.786722 35:6.9122376 36:12.382137 37:-3.5660072 38:-7.8991834 39:-26.338877 40:61.789376 41:10.621295 42:11.724642 43:-3.1439727 44:-2.3401771 45:-11.965064 46:18.581923 47:2.8299003 48:5.5484733 49:-4.9403702 50:-3.618683 51:-6.9147923 52:18.230791 53:3.3996216 54:5.7535825 55:-7.0703539 56:-9.7292972 57:-27.271916 58:32.863495 59:5.5204717 60:13.354413 61:-7.6067614 62:-10.687913 63:-16.972511 64:20.030909 65:3.9433645 66:13.005031 67:0.046496702 68:1.5594513 69:-12.009808 70:18.504414 71:5.6698813 72:0.58646317 
1.0616185605981732 1:-168.65969 2:-161.98906 3:-277.456 4:3968.5067 5:64.355776 6:183.96449 7:69.132967 8:62.77079 9:52.996532 10:164.81353 11:14.49114 12:73.947264 13:-4.7074805 14:-15.358664 15:-41.882739 16:403.10333 17:21.962959 18:32.063639 19:9.7935122 20:7.2759511 21:-5.6615814 22:29.079704 23:3.999684 24:10.524038 25:-7.0006167 26:-8.3657159 27:-27.252841 28:120.83886 29:11.577077 30:12.309612 31:12.456307 32:6.6744151 33:-4.9224458 34:64.71581 35:7.2396158 36:12.442125 37:-4.3170785 38:-3.3203859 39:-22.739987 40:61.1623 41:7.4861462 42:4.6650558 43:-0.14977977 44:-5.3642524 45:-11.452199 46:20.792208 47:3.390295 48:11.304489 49:-1.8308813 50:-5.9265956 51:-11.055821 52:15.28606 53:5.2332659 54:4.8687288 55:-10.418854 56:-8.1293022 57:-22.536928 58:37.533442 59:11.449453 60:14.92283 61:-9.4220767 62:-9.149017 63:-23.743901 64:14.599441 65:-0.3597221 66:11.487613 67:-0.30290398 68:-1.2573692 69:-6.5052974 70:26.934967 71:8.2782092 72:5.7331466 
1.0590898559201052 1:-164.48371 2:-158.98292 3:-282.21693 4:3968.0917 5:62.16723 6:177.13702 7:71.928708 8:68.32792 9:53.668198 10:166.10158 11:13.009618 12:69.315431 13:-9.7853109 14:-13.819227 15:-39.409731 16:396.68686 17:21.634405 18:22.701394 19:6.5388017 20:8.529805 21:-5.4472775 22:30.602396 23:5.5724257 24:9.2347086 25:-10.716653 26:-8.1845041 27:-28.144293 28:119.89107 29:16.204064 30:13.589257 31:11.290299 32:5.7260697 33:-4.6750664 34:64.605937 35:9.1407872 36:7.0859501 37:-3.909588 38:-5.843925 39:-24.0243 40:60.132204 41:9.0988963 42:9.2835199 43:-1.0785485 44:-4.8973847 45:-14.256556 46:22.396609 47:5.3924847 48:7.0513785 49:0.17731577 50:-6.5076121 51:-10.060203 52:15.422801 53:5.5525358 54:3.5336832 55:-10.380883 56:-2.4163459 57:-22.995742 58:40.382456 59:3.8994759 60:15.113372 61:-6.8000631 62:-9.6406002 63:-17.840898 64:15.246659 65:-1.7776232 66:9.3690663 67:-0.97261348 68:-6.111796 69:-6.0358056 70:27.325824 71:5.9574878 72:5.1748304 
1.0615602312977748 1:-169.72374 2:-161.3139 3:-280.09665 4:3972.1951 5:64.433738 6:178.19049 7:70.316589 8:68.135905 9:56.191765 10:164.86135 11:18.894492 12:70.841592 13:-9.0767408 14:-18.440039 15:-42.068527 16:398.97094 17:18.733277 18:28.081642 19:9.4097231 20:5.0771153 21:-6.3256028 22:34.365037 23:5.392734 24:11.842968 25:-8.8152537 26:-8.9078592 27:-24.572816 28:119.39523 29:5.8613956 30:13.952417 31:4.1874663 32:10.184556 33:-0.57365828 34:58.831444 35:7.8602494 36:14.429104 37:-6.7646517 38:-0.28214225 39:-18.318749 40:59.281968 41:1.0174536 42:11.925786 43:-3.9189959 44:-2.2771302 45:-14.051822 46:20.552014 47:5.6170857 48:4.8272841 49:-4.0644968 50:-2.5279738 51:-15.107606 52:18.73308 53:6.1462059 54:5.8087791 55:-9.4742337 56:-6.1894966 57:-26.689298 58:32.774273 59:8.676356 60:9.625128 61:-5.4147087 62:-7.291963 63:-19.740506 64:22.255924 65:5.8099264 66:9.9672221 67:1.9311529 68:0.73505931 69:-5.0410177 70:26.324982 71:5.0521958 72:7.2236048 
1.0594321869623611 1:-167.19643 2:-157.44935 3:-278.18902 4:3969.8202 5:64.430446 6:182.91662 7:69.930604 8:64.097972 9:50.840053 10:167.7082 11:13.330882 12:75.460187 13:-9.5001141 14:-13.530813 15:-34.813964 16:397.63814 17:18.370474 18:25.74103 19:6.7017145 20:9.2829678 21:-5.3212103 22:29.156411 23:9.0170152 24:7.761777 25:-8.4293793 26:-12.617505 27:-29.976589 28:123.35914 29:11.753093 30:15.082723 31:13.054326 32:12.107449 33:-2.6600119 34:57.979338 35:11.885217 36:12.956499 37:-3.7705878 38:-7.624083 39:-23.655745 40:61.2399 41:10.957642 42:13.132456 43:-0.45263714 44:-3.3809532 45:-12.115411 46:20.56715 47:9.0410356 48:9.3753761 49:-1.7927946 50:-5.4695719 51:-12.380502 52:14.070897 53:1.8286369 54:5.0297393 55:-6.7825347 56:-6.8322989 57:-22.998801 58:33.618484 59:3.2274751 60:12.34656 61:-4.012669 62:-11.279477 63:-18.514116 64:15.885787 65:6.0396631 66:12.926022 67:-1.440457 68:-2.1514613 69:-12.369099 70:23.253029 71:1.6989396 72:5.7571343 
1.060581158852149 1:-169.51787 2:-158.43721 3:-275.82339 4:3973.9135 5:64.445243 6:181.84011 7:73.599739 8:69.98321 9:49.241835 10:165.39346 11:11.285834 12:71.852409 13:-7.1381912 14:-14.453914 15:-44.316688 16:397.91476 17:22.246795 18:26.629832 19:11.37963 20:4.3463041 21:-2.4627264 22:39.060503 23:7.2348277 24:8.049649 25:-10.886821 26:-5.8560097 27:-25.354859 28:123.40568 29:13.695279 30:13.900889 31:12.205814 32:6.2280726 33:-3.7384784 34:61.914577 35:8.2631138 36:12.477492 37:-3.0158412 38:-5.5646345 39:-22.903583 40:58.05902 41:12.52168 42:9.6971423 43:-4.6875851 44:0.45814116 45:-11.463344 46:18.212112 47:1.1775669 48:2.5077752 49:-4.2774501 50:-3.938156 51:-12.989671 52:15.696184 53:8.2925906 54:6.8033193 55:-9.5161782 56:-8.6378493 57:-26.974588 58:35.91099 59:10.59451 60:13.394301 61:-10.36064 62:-6.1390723 63:-16.92859 64:18.748857 65:5.9098275 66:11.570076 67:0.80310583 68:-2.901584 69:-8.7495973 70:28.255623 71:7.8060563 72:4.447879 
1.0579772787455848 1:-169.75737 2:-162.88217 3:-273.88671 4:3971.5403 5:61.224346 6:181.8676 7:71.441333 8:68.165072 9:51.344985 10:166.26055 11:11.927677 12:67.105542 13:-11.020848 14:-13.167299 15:-44.244473 16:395.26214 17:22.667639 18:20.414095 19:9.1177708 20:1.1685304 21:-0.26710074 22:31.368879 23:8.1412009 24:7.136405 25:-8.7532461 26:-14.864094 27:-24.291428 28:124.66405 29:11.217226 30:13.765015 31:11.587592 32:8.6068448 33:0.0044772654 34:66.310071 35:10.28274 36:11.271284 37:-8.5675271 38:-5.4121719 39:-18.562668 40:58.33961 41:7.195037 42:10.045285 43:-2.9167224 44:-0.52099425 45:-12.304607 46:20.215955 47:2.9357958 48:5.9600109 49:-3.0645005 50:-4.8731075 51:-11.521631 52:12.772189 53:2.6164703 54:3.6478526 55:-9.500372 56:-9.5971678 57:-22.225163 58:36.54806 59:9.0547598 60:14.396507 61:-8.4418606 62:-11.117695 63:-15.872719 64:18.133919 65:6.7034697 66:11.997324 67:-2.6565425 68:3.434729 69:-9.23572 70:24.442616 71:6.3880587 72:3.8679512 
1.0601526555401424 1:-165.05522 2:-162.06861 3:-276.22098 4:3970.087 5:61.219668 6:180.02033 7:70.409006 8:67.005537 9:50.440511 10:171.84237 11:13.391947 12:74.163576 13:-10.625295 14:-12.820724 15:-42.818633 16:397.81482 17:17.917838 18:24.085008 19:4.1315925 20:4.8618114 21:-4.6406785 22:29.711342 23:7.2005045 24:6.9448279 25:-10.759396 26:-12.053103 27:-28.458496 28:123.89174 29:13.246298 30:18.020243 31:8.6347954 32:5.9671941 33:-8.5867425 34:60.054574 35:9.9271031 36:16.73887 37:-2.7487756 38:-3.3049078 39:-24.193487 40:55.124147 41:4.3140877 42:11.3925 43:-3.760477 44:-1.2091815 45:-12.023874 46:18.913 47:11.817565 48:3.7129508 49:-2.8943843 50:-3.8174173 51:-14.725189 52:12.899247 53:6.6430627 54:6.9098594 55:-9.5327026 56:-7.7932812 57:-26.782434 58:40.857251 59:0.38890702 60:15.281816 61:-4.2826178 62:-12.237294 63:-19.035792 64:15.737626 65:6.2203679 66:9.4623211 67:1.0725535 68:1.6394754 69:-7.7243479 70:19.820871 71:3.4438 72:8.8770963 
1.0625562431151188 1:-167.2749 2:-165.47118 3:-279.29964 4:3975.2453 5:60.671215 6:180.0109 7:73.456989 8:65.183793 9:51.776486 10:168.29118 11:15.539825 12:74.560587 13:-9.9198041 14:-15.18368 15:-39.438837 16:397.95853 17:18.199599 18:24.105225 19:8.5714019 20:7.9794331 21:-8.4366459 22:31.416924 23:2.9274511 24:14.889287 25:-8.7716716 26:-10.85144 27:-27.112918 28:117.84243 29:10.64086 30:19.168626 31:11.490076 32:7.8909609 33:-0.87585353 34:63.357724 35:9.6582233 36:20.46905 37:-4.5345985 38:-5.2125451 39:-21.353368 40:61.217287 41:10.900075 42:13.638777 43:-2.2193109 44:-0.90772063 45:-16.310495 46:23.184223 47:2.3004334 48:9.5480885 49:-2.3440531 50:-2.9890278 51:-14.3248 52:19.063496 53:6.7879666 54:6.8028171 55:-9.8561878 56:-7.9887519 57:-22.800465 58:34.96526 59:7.4298986 60:13.741158 61:-11.360342 62:-9.3038998 63:-17.443521 64:18.942955 65:4.7173106 66:13.123992 67:-0.39858091 68:0.10344581 69:-5.6325907 70:24.822544 71:7.4905522 72:5.7729079 
1.0561523097197874 1:-166.79519 2:-160.09123 3:-281.39993 4:3969.5562 5:61.900764 6:179.73317 7:73.457636 8:68.414369 9:49.341881 10:170.16688 11:14.815432 12:77.419243 13:-10.275039 14:-9.5278572 15:-40.543406 16:400.052 17:21.732269 18:24.504157 19:8.7480507 20:2.2891752 21:-3.1385655 22:31.942687 23:8.3766595 24:7.5461422 25:-8.92753 26:-12.427454 27:-25.347086 28:121.98126 29:11.027166 30:15.175323 31:10.957604 32:6.4704439 33:-4.1897981 34:64.558866 35:11.13342 36:17.370074 37:-6.79733 38:-6.5834024 39:-23.258549 40:61.345724 41:2.1573098 42:14.373197 43:-2.9935435 44:0.94084087 45:-11.427125 46:15.744786 47:6.9634726 48:5.7437948 49:-3.5218807 50:-4.3176969 51:-16.661724 52:14.663479 53:8.2093262 54:6.7526228 55:-10.704136 56:-7.6989112 57:-19.829962 58:37.044385 59:6.4610429 60:10.168416 61:-9.539873 62:-9.5778534 63:-20.714957 64:17.121527 65:4.4783923 66:12.384955 67:-2.25856 68:-3.4974861 69:-7.8115836 70:26.168369 71:4.1060618 72:7.6397231 
1.0605855952760854 1:-167.23662 2:-156.93183 3:-277.77546 4:3971.3335 5:64.336055 6:176.01787 7:71.513556 8:68.168412 9:54.621529 10:164.64358 11:17.242639 12:78.061995 13:-9.1523811 14:-15.355273 15:-35.973819 16:401.33387 17:17.2509 18:23.600814 19:7.9280889 20:2.9901469 21:-5.3889124 22:35.891036 23:4.4780244 24:6.2205485 25:-6.860993 26:-12.48519 27:-28.389234 28:122.64912 29:10.045298 30:13.002941 31:10.173655 32:9.5521216 33:-5.0726896 34:63.115497 35:6.5706726 36:16.236455 37:-3.1956571 38:-5.1152348 39:-20.444649 40:66.454615 41:9.1890195 42:11.059213 43:-6.8082532 44:-3.9340941 45:-16.041654 46:18.953789 47:6.0482574 48:4.8263687 49:-3.8552525 50:0.83991111 51:-14.532735 52:14.869565 53:8.2081789 54:4.5940732 55:-9.2385835 56:-6.5177789 57:-21.975986 58:36.37805 59:1.2842598 60:16.841506 61:-9.2054698 62:-4.4259992 63:-16.217527 64:19.306239 65:3.449993 66:12.07188 67:-0.95485318 68:0.30919083 69:-6.9452127 70:27.679683 71:3.7154361 72:4.5890249 
1.059300236847708 1:-168.69458 2:-162.36488 3:-276.62788 4:3965.6196 5:61.953504 6:179.90924 7:71.622638 8:69.48326 9:52.30888 10:172.77843 11:12.940548 12:72.278509 13:-5.454884 14:-14.234664 15:-40.122275 16:400.06897 17:19.340582 18:27.877432 19:5.5202971 20:4.9564996 21:-4.3061225 22:31.398738 23:9.2571998 24:9.9904533 25:-9.5564897 26:-10.819593 27:-31.091255 28:123.63299 29:13.922446 30:15.274721 31:12.521923 32:11.374368 33:-0.81498263 34:59.692386 35:13.619242 36:14.241139 37:-10.297813 38:-6.00433 39:-16.804313 40:58.717803 41:11.104675 42:9.4957988 43:-2.7526949 44:-2.0664513 45:-16.306221 46:18.850957 47:7.4053212 48:6.4999407 49:-1.6698564 50:-2.8781929 51:-9.7589921 52:17.559111 53:4.8705103 54:6.9943441 55:-9.0290393 56:-3.8587244 57:-23.46222 58:35.417502 59:9.0836247 60:17.21668 61:-9.2651487 62:-8.3474979 63:-15.288008 64:18.53259 65:3.4863191 66:15.105111 67:-4.3834975 68:2.9594904 69:-9.1806165 70:24.432924 71:6.8247953 72:4.5811671 
1.0559606011616154 1:-163.44898 2:-161.13614 3:-278.58383 4:3970.0742 5:60.284991 6:183.13114 7:68.394013 8:70.921992 9:53.011358 10:164.9778 11:14.035688 12:76.567639 13:-9.2490849 14:-13.828228 15:-43.995811 16:396.9859 17:19.205126 18:22.077072 19:7.6062357 20:1.8064041 21:-6.5573302 22:36.058715 23:7.0525004 24:7.1661381 25:-4.8632233 26:-14.199246 27:-23.111833 28:122.13367 29:11.729365 30:16.039519 31:10.115028 32:10.764164 33:1.8548055 34:60.975203 35:10.028916 36:15.13381 37:-5.6056266 38:-4.0493631 39:-22.318798 40:62.479064 41:7.8942535 42:9.9809554 43:-3.4343864 44:-5.9627846 45:-14.775292 46:20.728707 47:0.25510853 48:9.7305301 49:-4.9040605 50:-1.8456407 51:-13.35592 52:16.595335 53:2.3014214 54:5.7466156 55:-11.786997 56:-6.985033 57:-23.935934 58:36.628885 59:7.8666437 60:12.585085 61:-13.849887 62:-6.1447082 63:-16.982865 64:19.951657 65:4.301161 66:8.0140937 67:0.48953978 68:-2.8464809 69:-10.81382 70:22.790671 71:1.8510479 72:5.4641825 
1.0620585122388773 1:-165.60879 2:-163.03186 3:-277.65981 4:3969.9683 5:63.530503 6:179.01302 7:73.231225 8:68.49728 9:53.250799 10:167.85397 11:14.196108 12:76.763828 13:-11.294758 14:-12.030322 15:-43.539028 16:402.69603 17:24.165329 18:27.10607 19:9.1130635 20:10.500454 21:-5.3889449 22:28.694725 23:4.2861373 24:5.6642927 25:-8.4103904 26:-11.909821 27:-19.177352 28:121.36409 29:12.538318 30:12.601937 31:12.703652 32:7.5890784 33:-4.165004 34:63.59933 35:9.3335604 36:10.039382 37:-3.587723 38:3.4951701 39:-22.520672 40:62.474414 41:7.2487191 42:10.362227 43:-1.0291694 44:-4.3051827 45:-16.305624 46:16.793093 47:3.6842085 48:11.01057 49:0.62377993 50:-5.2003846 51:-15.73255 52:14.984859 53:0.085544987 54:4.8011533 55:-9.8629531 56:-9.4104192 57:-27.399633 58:38.035698 59:6.4370112 60:14.341055 61:-5.6323378 62:-13.350751 63:-18.507457 64:15.029242 65:5.9449122 66:16.339057 67:0.70143743 68:1.6866329 69:-11.751109 70:28.169437 71:6.0918082 72:6.8351424 
1.0610521295460364 1:-165.94407 2:-160.69033 3:-275.80006 4:3972.8674 5:64.233954 6:176.51633 7:75.105462 8:70.372441 9:49.217343 10:166.28038 11:11.93533 12:75.407743 13:-8.9836952 14:-12.838465 15:-42.672543 16:401.12099 17:26.510876 18:20.99909 19:8.5724203 20:3.2664887 21:-6.9868935 22:32.666934 23:6.5551349 24:10.964976 25:-13.4488 26:-16.222276 27:-28.427292 28:121.5868 29:14.974332 30:14.95724 31:12.954982 32:7.7952752 33:-4.6466949 34:61.958585 35:8.6708044 36:12.744795 37:-5.8765338 38:-2.9193104 39:-24.749612 40:59.889256 41:7.1415104 42:8.3908626 43:-2.8573707 44:-1.0563998 45:-9.7941789 46:20.943688 47:3.9110517 48:3.1431862 49:3.0181119 50:-2.4485372 51:-12.372674 52:21.33399 53:4.8277561 54:9.1424496 55:-5.4925751 56:-5.241331 57:-23.153084 58:34.12728 59:4.0417413 60:9.1880058 61:-9.7185999 62:-2.4588613 63:-15.184255 64:16.386179 65:3.1496354 66:12.522763 67:-2.5766327 68:-1.0980927 69:-9.1635144 70:19.537657 71:6.9916562 72:1.3465579 
1.0614972774801172 1:-162.86352 2:-157.44967 3:-275.66367 4:3971.9131 5:65.368071 6:179.79927 7:75.483562 8:71.527178 9:45.14282 10:168.16338 11:16.902267 12:73.416452 13:-12.092367 14:-16.135841 15:-41.546593 16:400.07561 17:21.989535 18:22.0906 19:9.6603087 20:6.2737608 21:-7.9162672 22:33.556704 23:7.0160531 24:10.082584 25:-8.0380948 26:-10.334819 27:-27.829676 28:122.20266 29:14.426968 30:15.764365 31:15.820307 32:6.7413268 33:-7.7355785 34:60.691074 35:7.0179057 36:13.746788 37:-7.7168738 38:-10.719152 39:-20.572669 40:60.76519 41:7.4040727 42:9.4594803 43:-5.4511734 44:-6.7469933 45:-10.345388 46:21.880843 47:3.3377594 48:8.5430213 49:1.553795 50:-3.6866632 51:-6.3404682 52:17.600509 53:6.4153128 54:5.2060372 55:-8.1193078 56:-8.8313534 57:-23.964638 58:33.005112 59:7.3288438 60:14.014204 61:-4.62449 62:-2.0391049 63:-19.028099 64:21.634258 65:10.966169 66:13.597363 67:-2.3820721 68:-1.5239903 69:-10.650291 70:21.966025 71:5.8855535 72:4.8312307 
1.0582391475928874 1:-166.88786 2:-161.99328 3:-281.6917 4:3971.0337 5:66.078799 6:179.65448 7:71.678018 8:68.420279 9:49.629217 10:170.80765 11:13.743746 12:71.953529 13:-12.253097 14:-14.04142 15:-43.830095 16:401.86069 17:23.263862 18:23.074719 19:5.3608243 20:5.7916111 21:-6.8490772 22:35.111131 23:9.2699289 24:11.384618 25:-7.2404019 26:-13.594252 27:-24.631503 28:124.85144 29:10.932217 30:11.409665 31:14.624347 32:9.1214559 33:-6.7557534 34:56.399762 35:4.7024414 36:13.359198 37:-5.0981277 38:0.024293759 39:-22.741788 40:62.906512 41:6.1371702 42:6.8031673 43:-4.8383508 44:-8.4364043 45:-12.942598 46:18.799704 47:4.7425141 48:6.9259708 49:-1.4441106 50:-5.0188236 51:-9.1663213 52:12.998154 53:2.9708179 54:5.3746123 55:-10.556809 56:-8.4603327 57:-23.412055 58:33.854642 59:6.6232052 60:13.229863 61:-7.1015422 62:-9.0296475 63:-13.612365 64:12.884251 65:7.4438447 66:14.44943 67:-0.5718571 68:1.0875247 69:-10.310594 70:24.593328 71:3.4749213 72:7.5238459 
1.0615857220563387 1:-161.42601 2:-158.39289 3:-275.79188 4:3972.1918 5:62.548228 6:180.19042 7:73.183156 8:67.472834 9:51.260696 10:167.35025 11:17.971261 12:74.184313 13:-9.62983 14:-14.073629 15:-39.483658 16:401.30488 17:23.791589 18:24.936711 19:7.5966688 20:2.3104531 21:-3.2668248 22:31.404531 23:3.7616452 24:10.552077 25:-6.5100654 26:-11.663392 27:-24.641032 28:120.59349 29:14.228601 30:17.606114 31:15.116699 32:8.9515273 33:-0.97811515 34:62.421999 35:5.4422907 36:12.221194 37:-2.1116868 38:-3.1430316 39:-21.310873 40:63.819443 41:7.7014739 42:12.929699 43:-1.0601996 44:-3.0880131 45:-14.423931 46:18.385645 47:3.6446409 48:8.7436752 49:-2.1685051 50:-4.091278 51:-12.90643 52:17.440721 53:6.0734521 54:6.8336246 55:-8.6105768 56:-12.633711 57:-27.152962 58:35.72589 59:9.5618402 60:9.6298601 61:-7.6299544 62:-9.5194791 63:-19.059492 64:18.087164 65:8.3271121 66:11.843243 67:0.39680376 68:-1.7312437 69:-9.8351276 70:19.34325 71:2.0108534 72:5.382333 
1.0603388074004751 1:-162.65458 2:-162.3605 3:-277.81691 4:3967.2777 5:68.254341 6:178.07751 7:72.686915 8:66.506467 9:53.358193 10:165.19932 11:13.610191 12:73.125829 13:-12.392123 14:-16.007464 15:-43.009991 16:399.06868 17:19.093093 18:21.202146 19:3.8636224 20:5.0049846 21:-1.0374205 22:28.310393 23:8.096958 24:12.974283 25:-8.8990506 26:-11.456023 27:-23.239349 28:121.69189 29:10.212203 30:13.901793 31:13.998291 32:8.5577116 33:-4.2181475 34:61.305598 35:9.9218644 36:13.794561 37:-7.1754661 38:-5.8455161 39:-21.987519 40:62.888317 41:4.3808684 42:12.638379 43:-5.275523 44:-0.68965176 45:-10.935323 46:25.094412 47:3.9163002 48:5.1195308 49:-0.23474815 50:-3.9434295 51:-7.8691052 52:17.461156 53:5.6202459 54:10.715339 55:-6.4720829 56:-8.589566 57:-22.890769 58:31.941103 59:8.0515068 60:13.96929 61:-6.8965708 62:-6.6715093 63:-15.059608 64:18.064198 65:4.1880689 66:18.916874 67:-1.9049401 68:1.1491583 69:-9.1104643 70:23.556873 71:3.8981601 72:8.6220866 
1.061255601144367 1:-168.71205 2:-161.31491 3:-274.40819 4:3969.6559 5:66.361932 6:172.4875 7:70.625822 8:69.142444 9:54.949443 10:167.25657 11:14.766639 12:72.270725 13:-15.190005 14:-11.067351 15:-42.321062 16:402.65972 17:22.457194 18:22.858222 19:12.929559 20:3.4112334 21:0.85987808 22:34.184502 23:7.085305 24:6.7487168 25:-4.9279289 26:-13.866155 27:-28.020762 28:121.08261 29:8.5419991 30:16.078236 31:9.8261435 32:9.0836102 33:-3.671134 34:63.059205 35:8.7645861 36:17.588357 37:-5.054332 38:-4.8373058 39:-19.837405 40:55.826129 41:8.1375758 42:10.623822 43:2.9973832 44:-4.4753493 45:-10.516174 46:19.337612 47:5.2734523 48:7.9346224 49:-1.9591896 50:-5.4820847 51:-11.830883 52:15.470126 53:6.7066755 54:6.5215793 55:-11.795168 56:-5.5797427 57:-29.14908 58:34.214591 59:4.9011103 60:13.390641 61:-2.9663766 62:-7.0035957 63:-19.934094 64:16.614932 65:1.5773841 66:11.68839 67:-1.1713851 68:-3.3588306 69:-9.0430574 70:23.418676 71:6.9531171 72:7.5151506 
1.0617381719250067 1:-166.52375 2:-158.62411 3:-279.21069 4:3967.3679 5:64.739668 6:184.41169 7:72.110075 8:63.212215 9:46.787614 10:173.01087 11:12.406486 12:71.47167 13:-8.6873679 14:-12.976987 15:-43.216531 16:392.34361 17:22.813308 18:27.763222 19:12.423445 20:2.9413874 21:-3.7145502 22:34.218226 23:4.2461256 24:9.3680804 25:-10.103071 26:-15.669273 27:-29.814996 28:122.08245 29:12.555895 30:14.40101 31:19.059576 32:12.085872 33:-4.3193505 34:56.107922 35:10.633487 36:17.604596 37:-5.1598081 38:-5.0924439 39:-18.384085 40:59.582841 41:9.6761794 42:12.882889 43:-0.61754266 44:1.4600547 45:-9.9263642 46:16.79438 47:3.9819519 48:7.8883008 49:-5.6549256 50:1.3919962 51:-13.192308 52:22.424775 53:2.4308778 54:4.5118284 55:-7.7997706 56:-6.4010721 57:-23.778343 58:34.461905 59:7.1618802 60:11.191838 61:-9.200853 62:-8.8379909 63:-19.411147 64:19.285769 65:7.251996 66:12.71413 67:1.1244559 68:-4.1152511 69:-8.8215524 70:23.643646 71:7.086218 72:3.6979448 
1.0626802160595168 1:-168.91786 2:-165.49149 3:-278.46591 4:3972.1427 5:64.750913 6:176.64241 7:74.278589 8:73.233931 9:50.644645 10:166.44938 11:19.093885 12:74.994017 13:-7.8949679 14:-7.036961 15:-40.117164 16:396.00822 17:20.262283 18:26.312221 19:7.9490213 20:8.8356195 21:-3.0790608 22:30.087451 23:2.9946349 24:7.1498307 25:-1.2807398 26:-11.737648 27:-26.325991 28:121.1948 29:15.384548 30:14.156529 31:6.5144568 32:12.69138 33:-5.4937428 34:60.701002 35:8.6688128 36:14.207789 37:-5.0595778 38:-7.629056 39:-20.898183 40:62.279095 41:10.394547 42:7.187883 43:-4.5882656 44:-0.78541595 45:-10.452296 46:17.757693 47:4.5919105 48:5.575863 49:-0.72297207 50:-5.0341593 51:-7.4840323 52:12.960814 53:4.9180537 54:4.8295254 55:-7.9982017 56:-10.435432 57:-31.183197 58:37.294686 59:8.3612431 60:15.245559 61:-7.6409233 62:-6.1163229 63:-15.567345 64:16.202019 65:10.202719 66:10.015214 67:2.145278 68:0.25436862 69:-11.024477 70:23.632184 71:3.2013395 72:6.6906506 
1.0598192295346267 1:-165.62019 2:-157.44361 3:-279.04435 4:3972.9963 5:62.037045 6:180.38792 7:70.910519 8:67.666922 9:54.178539 10:167.3426 11:13.161901 12:74.390861 13:-11.603067 14:-14.137038 15:-39.977733 16:400.22821 17:23.137658 18:20.114187 19:9.9916562 20:7.0302908 21:-3.0858615 22:31.203074 23:7.8672222 24:7.5642326 25:-7.8280215 26:-12.671454 27:-25.333231 28:123.6609 29:15.068356 30:18.620202 31:12.872691 32:10.45387 33:-5.9431482 34:59.612263 35:4.6575688 36:14.46625 37:-4.1174992 38:-4.3599664 39:-17.718064 40:62.738316 41:5.2051701 42:12.921961 43:-5.7862512 44:-2.3067932 45:-6.7630455 46:23.439068 47:0.96612263 48:2.5680404 49:-4.7777147 50:0.13355275 51:-11.886868 52:14.904332 53:9.1551899 54:6.4642144 55:-7.9638834 56:-7.3043074 57:-23.055572 58:36.612484 59:12.01299 60:14.677139 61:-7.5416311 62:-5.3098274 63:-15.865983 64:19.137409 65:10.142592 66:10.370387 67:1.0623744 68:0.38843947 69:-10.273909 70:23.356876 71:6.97849 72:5.881429 
1.0619128196054812 1:-167.22915 2:-162.23929 3:-276.5907 4:3972.8226 5:62.183056 6:177.5364 7:65.896228 8:68.125321 9:53.127075 10:167.56043 11:13.994239 12:71.03485 13:-11.381125 14:-15.215772 15:-38.077348 16:400.31885 17:24.077212 18:20.433039 19:3.4499641 20:9.4461884 21:-7.2929478 22:32.676412 23:3.2018354 24:9.5471825 25:-4.706866 26:-8.5727945 27:-28.202021 28:117.1031 29:13.209787 30:16.083942 31:10.137151 32:10.944125 33:0.6539949 34:61.877617 35:10.320874 36:14.42008 37:-4.0233907 38:-3.9047653 39:-24.516297 40:58.970857 41:8.9947727 42:9.8005734 43:-1.9902577 44:-7.2161301 45:-12.452455 46:17.488911 47:8.5385903 48:12.186104 49:-2.8711685 50:-6.428162 51:-13.892616 52:16.349843 53:1.6676734 54:5.8318745 55:-10.332639 56:-10.820894 57:-21.569618 58:35.020709 59:4.880114 60:14.945756 61:-5.6887669 62:-6.3841933 63:-17.850763 64:20.043791 65:12.998498 66:11.379959 67:-2.8627807 68:-2.4044471 69:-10.255686 70:22.272891 71:6.1026395 72:4.9392757 
1.0608373239415636 1:-167.58273 2:-162.9594 3:-275.90631 4:3968.6018 5:65.394231 6:181.5124 7:71.73279 8:65.920123 9:54.600631 10:171.30331 11:15.409065 12:75.582109 13:-10.767242 14:-13.789371 15:-41.955657 16:401.80409 17:25.583736 18:25.609439 19:2.7523297 20:2.3775014 21:-3.901143 22:35.630936 23:2.891686 24:8.4752327 25:-14.323477 26:-12.293806 27:-27.214579 28:119.41158 29:14.447227 30:15.612133 31:13.811919 32:9.3552261 33:1.5312963 34:62.451743 35:9.638959 36:14.514584 37:-2.8072161 38:-7.8178968 39:-19.495534 40:60.927591 41:5.9061046 42:14.896367 43:-1.4867921 44:-0.37391986 45:-16.660098 46:18.213084 47:5.1161986 48:4.571734 49:-2.3923688 50:-5.9524687 51:-14.380362 52:16.025371 53:1.4943069 54:9.9922182 55:-8.9131451 56:-6.007371 57:-26.890428 58:39.306873 59:8.3371638 60:15.2037 61:-9.3036775 62:-12.095752 63:-10.355803 64:21.308835 65:6.0960338 66:12.373955 67:1.368405 68:-1.5752953 69:-5.0105437 70:26.237064 71:3.2905346 72:4.0159131 
1.060879331505046 1:-167.68069 2:-158.72146 3:-275.53249 4:3966.0303 5:62.762381 6:183.5734 7:76.359427 8:66.134403 9:49.82068 10:168.8315 11:11.02051 12:73.398875 13:-9.2387652 14:-12.050924 15:-40.767465 16:396.11403 17:23.34966 18:24.502704 19:9.8269792 20:7.4055274 21:-10.559303 22:34.045232 23:6.033937 24:10.293413 25:-7.4167369 26:-8.9681411 27:-22.747284 28:124.40834 29:17.785169 30:10.965105 31:8.7583218 32:6.1890406 33:-4.9223178 34:61.77619 35:5.4563786 36:14.9497 37:-4.0287415 38:-7.1525211 39:-19.660777 40:61.169368 41:11.22715 42:8.7722989 43:-0.063517718 44:-1.2677746 45:-13.353306 46:21.283669 47:3.8275002 48:6.1210182 49:-3.5022989 50:-6.2304288 51:-14.017081 52:20.031452 53:7.6071117 54:4.6739598 55:-14.572088 56:-4.5546508 57:-20.903011 58:36.927993 59:5.3786236 60:16.084622 61:-7.1128883 62:-7.0212131 63:-17.080056 64:16.529915 65:3.9646166 66:13.0053 67:1.0038654 68:1.3798106 69:-8.3982826 70:19.470753 71:3.8241481 72:4.587876 
1.062510182680604 1:-166.34916 2:-157.50976 3:-273.40426 4:3969.2624 5:63.210411 6:181.84484 7:68.392417 8:69.292607 9:52.932606 10:167.9379 11:19.169717 12:77.361942 13:-10.20622 14:-11.022702 15:-41.577792 16:399.55789 17:19.848735 18:24.511495 19:7.1235237 20:7.4386748 21:-6.7819261 22:33.504647 23:11.682686 24:15.206029 25:-8.6884512 26:-11.88771 27:-29.034493 28:122.892 29:12.37733 30:13.645244 31:13.949735 32:10.232595 33:-1.1689689 34:64.13541 35:8.9906325 36:12.065224 37:-6.4007798 38:-5.2332909 39:-21.276193 40:63.359596 41:4.4765257 42:13.187923 43:-2.3077393 44:-2.0110629 45:-16.8442 46:11.061642 47:6.4403679 48:7.057646 49:0.9619319 50:-0.6197712 51:-12.360423 52:15.887948 53:8.98682 54:3.0636893 55:-11.385652 56:-3.7131934 57:-29.707437 58:31.129877 59:3.3377022 60:11.448051 61:-9.9878572 62:-8.3967926 63:-17.827204 64:16.926855 65:4.4677899 66:8.255299 67:-1.6289701 68:-1.3929653 69:-9.3635784 70:23.373785 71:3.1461655 72:-0.8103694 
1.061529181380805 1:-168.34616 2:-160.70874 3:-280.5015 4:3968.6136 5:64.863339 6:180.91687 7:73.648351 8:65.532565 9:50.345033 10:168.25206 11:15.690566 12:75.26448 13:-12.967218 14:-13.739049 15:-34.775878 16:400.06286 17:18.028049 18:22.370015 19:5.4882008 20:6.2938202 21:-7.2552877 22:32.110464 23:8.6926019 24:5.8044132 25:-11.626247 26:-7.741594 27:-27.086849 28:125.26571 29:12.648428 30:18.50497 31:7.4003949 32:8.6012965 33:-4.8815938 34:59.767916 35:3.2296486 36:13.845369 37:-3.7191605 38:1.6025455 39:-19.358008 40:64.097317 41:5.5381993 42:13.992788 43:-7.0578417 44:-7.0385848 45:-14.775341 46:19.902658 47:4.6864038 48:6.0970928 49:4.6035919 50:-1.7526335 51:-12.711877 52:16.358922 53:7.6604816 54:4.3816794 55:-11.980139 56:-5.4877594 57:-24.614881 58:37.727709 59:5.0868994 60:14.13918 61:-5.2700109 62:-9.5864325 63:-19.347789 64:22.517625 65:2.7270101 66:10.868329 67:-2.6502728 68:-0.58627219 69:-3.8692752 70:22.519756 71:6.6832612 72:6.7990894 
1.0613937745167914 1:-168.65867 2:-157.18544 3:-277.5893 4:3972.3936 5:62.148325 6:181.35076 7:73.079803 8:67.265213 9:48.514937 10:169.82247 11:15.548553 12:72.022858 13:-11.799556 14:-13.037438 15:-41.330361 16:393.68392 17:21.450682 18:23.865897 19:6.9899713 20:1.9091673 21:-7.8760602 22:36.278203 23:11.220623 24:6.537439 25:-8.7634725 26:-7.1962571 27:-27.640674 28:124.94423 29:13.912325 30:10.321668 31:9.7942733 32:10.589623 33:-0.19664702 34:62.191285 35:10.728979 36:11.837474 37:-1.3195464 38:-3.9642004 39:-15.266827 40:61.774487 41:10.356768 42:10.198757 43:1.6051858 44:-3.4346608 45:-12.58169 46:22.870421 47:3.5793642 48:9.3418422 49:-1.7866418 50:-1.0575708 51:-13.179373 52:16.141843 53:2.4296156 54:8.3426691 55:-9.1209813 56:-10.039672 57:-25.671989 58:35.376189 59:5.3986818 60:14.028902 61:-12.012412 62:-8.648445 63:-18.625164 64:15.244392 65:1.6608048 66:8.8240418 67:-3.3434828 68:-1.516221 69:-6.9708702 70:25.622561 71:3.9954317 72:7.5114553 
1.0612047757902332 1:-163.51447 2:-159.83642 3:-275.46022 4:3968.8669 5:64.116797 6:184.04169 7:73.061946 8:69.507854 9:52.286604 10:165.43272 11:16.068536 12:75.040895 13:-7.9966359 14:-12.665994 15:-45.723986 16:401.01306 17:23.163634 18:28.745043 19:7.0714443 20:4.4242028 21:-1.0187869 22:30.271251 23:4.4184062 24:9.9203169 25:-9.5313687 26:-15.701581 27:-23.685543 28:125.46434 29:12.010677 30:13.805675 31:17.729229 32:9.155476 33:-1.4196455 34:60.585696 35:9.1890231 36:14.812373 37:-5.6362211 38:-3.5696614 39:-22.81851 40:62.425445 41:3.4556055 42:13.011656 43:-4.2672763 44:-4.92914 45:-10.508016 46:15.172704 47:5.6818756 48:8.9681488 49:-5.9315532 50:-2.3393976 51:-10.701886 52:10.667011 53:7.4135055 54:8.7605422 55:-8.5702231 56:-10.297668 57:-24.099816 58:35.697492 59:2.8716838 60:10.556669 61:-4.9184865 62:-9.7361982 63:-18.159183 64:16.886292 65:5.3914412 66:8.7369477 67:3.1187575 68:-0.75742488 69:-4.952964 70:24.174829 71:7.8589671 72:2.9161553 
1.0614130420377852 1:-167.07265 2:-162.62815 3:-282.054 4:3970.3304 5:61.900856 6:180.48128 7:71.123292 8:67.725723 9:47.829019 10:164.4477 11:13.441134 12:68.564386 13:-8.8018825 14:-16.050649 15:-39.059647 16:398.42154 17:16.336571 18:22.488054 19:2.5622347 20:7.0439813 21:1.8457216 22:38.988417 23:9.6597635 24:8.8949914 25:-12.220839 26:-12.997222 27:-24.733646 28:119.78577 29:10.388906 30:17.258322 31:14.911215 32:9.0779475 33:-9.0154687 34:62.168961 35:10.081728 36:14.782907 37:-7.3323763 38:0.68738963 39:-19.199834 40:62.770677 41:7.7615189 42:11.387689 43:-3.2891661 44:-0.7393199 45:-12.728595 46:17.386603 47:11.236917 48:5.0599664 49:-5.8570095 50:-1.3197127 51:-10.809039 52:20.060185 53:4.4090389 54:7.2979804 55:-8.2784961 56:-9.7806947 57:-25.782307 58:34.538246 59:4.1503952 60:10.342933 61:-14.716194 62:-10.015374 63:-15.993907 64:16.890842 65:9.2295216 66:16.105199 67:-0.79430072 68:-0.21776453 69:-8.0833057 70:21.07126 71:7.071049 72:7.0649765 
1.0586236847498331 1:-168.8861 2:-159.56804 3:-280.3536 4:3971.593 5:67.829653 6:179.81396 7:72.703124 8:69.598573 9:50.037159 10:167.00964 11:15.184608 12:69.416132 13:-9.828338 14:-12.402463 15:-44.063972 16:401.17087 17:17.555835 18:22.632693 19:4.1475405 20:6.1665928 21:-5.7398152 22:28.957868 23:10.641389 24:7.3367936 25:-13.094629 26:-10.540917 27:-27.250646 28:122.94159 29:13.349437 30:10.450906 31:17.262116 32:8.5633087 33:-5.9423397 34:63.457112 35:5.9465189 36:12.211445 37:-5.9069834 38:-9.2863442 39:-16.534043 40:55.416805 41:4.2104853 42:12.213037 43:-4.9436547 44:-2.9482172 45:-12.487127 46:16.557677 47:4.1599349 48:3.756046 49:-5.29629 50:-4.6055599 51:-10.99648 52:13.132435 53:-1.2860083 54:4.6222257 55:-7.833985 56:-5.233298 57:-23.373479 58:36.601157 59:6.8597954 60:13.422825 61:-11.190582 62:-8.8991865 63:-20.393619 64:19.545143 65:4.5779624 66:10.054645 67:-2.8667134 68:-3.0464 69:-7.0276884 70:26.093341 71:2.4310645 72:2.9859577 
1.0572392446425496 1:-167.8184 2:-157.79508 3:-278.95847 4:3970.7831 5:65.435375 6:176.35792 7:71.580622 8:68.11025 9:56.184769 10:167.42103 11:15.306457 12:73.778001 13:-10.93606 14:-17.787072 15:-43.553329 16:393.69714 17:22.315406 18:22.725684 19:2.8295016 20:7.9651409 21:-5.064854 22:30.530482 23:4.354489 24:11.060997 25:-10.813471 26:-11.984376 27:-28.980505 28:120.54064 29:11.279902 30:15.444802 31:14.039107 32:12.525917 33:-6.6551869 34:57.413336 35:6.2763681 36:14.338396 37:-8.7929869 38:-6.6281756 39:-21.596033 40:61.220484 41:12.387822 42:11.374751 43:-1.4678914 44:-2.7672243 45:-12.553012 46:18.587386 47:6.4490788 48:8.7490055 49:-1.8820642 50:-1.5242019 51:-14.70405 52:11.29086 53:6.7922553 54:4.1957446 55:-9.1807449 56:-5.8435807 57:-25.37185 58:33.230962 59:5.1293791 60:14.19346 61:-6.6059641 62:-8.1061066 63:-18.142643 64:18.350067 65:7.0248331 66:8.344703 67:-1.2289472 68:-4.6737928 69:-8.9624177 70:20.685247 71:4.7963045 72:9.4443469 
1.0607422690401849 1:-165.15295 2:-156.80299 3:-275.72456 4:3971.2344 5:67.561902 6:173.45909 7:73.670944 8:69.506675 9:53.341789 10:166.99205 11:10.507838 12:75.366038 13:-13.311792 14:-17.759167 15:-36.488151 16:400.49467 17:17.024479 18:23.844867 19:7.8067974 20:6.5619996 21:-3.3405197 22:36.467158 23:6.782774 24:8.1664764 25:-13.273971 26:-11.097898 27:-24.535821 28:123.20574 29:12.431315 30:16.80837 31:11.196841 32:9.1641237 33:-4.9431763 34:61.946275 35:7.0068836 36:11.843822 37:-7.4156906 38:-6.44981 39:-21.677449 40:58.392883 41:7.5673726 42:15.230159 43:-0.96930843 44:-0.76117061 45:-13.56397 46:19.211045 47:0.12193908 48:6.2805662 49:-0.62071933 50:-0.59840951 51:-9.0606417 52:15.265013 53:4.0640454 54:7.7214676 55:-5.5396667 56:-7.4256501 57:-21.401702 58:34.899297 59:7.7358847 60:9.9919576 61:-6.3561912 62:-10.789575 63:-20.304196 64:21.249351 65:6.6858718 66:4.65076 67:2.0963614 68:-1.4324747 69:-10.555642 70:22.110867 71:7.4383844 72:4.7448019 
1.0607951186217732 1:-163.27678 2:-164.3794 3:-281.05452 4:3971.7245 5:61.92351 6:180.4539 7:69.394185 8:68.790757 9:50.053751 10:167.63935 11:16.159716 12:73.726099 13:-13.928102 14:-16.230221 15:-41.947958 16:400.274 17:19.448878 18:25.273417 19:8.4325882 20:5.8555726 21:-6.0246697 22:36.357857 23:4.7203904 24:9.0476616 25:-12.90701 26:-13.792741 27:-21.042851 28:121.73669 29:12.226252 30:17.774845 31:12.866383 32:10.858704 33:-7.6545347 34:62.982593 35:12.045912 36:15.327491 37:0.27410616 38:-4.7931005 39:-20.249234 40:59.193232 41:9.6308053 42:9.2206046 43:-1.584021 44:-4.8831656 45:-12.744853 46:20.189757 47:11.31628 48:8.5498755 49:-6.1637112 50:0.71844958 51:-8.4237632 52:17.42472 53:7.3042757 54:3.3013401 55:-6.7781312 56:-7.3392927 57:-25.362963 58:33.946892 59:5.875077 60:13.415722 61:-12.178354 62:-8.0235524 63:-18.343255 64:21.431929 65:8.4280427 66:12.70646 67:1.2100192 68:-6.1406734 69:-7.8900878 70:20.813857 71:5.8626988 72:0.67659076 
1.0620820391444448 1:-169.05893 2:-155.47756 3:-280.2642 4:3969.5295 5:68.689826 6:181.16988 7:70.683709 8:69.712963 9:47.477651 10:172.77131 11:15.311097 12:74.706648 13:-10.279317 14:-18.225202 15:-40.385273 16:394.11965 17:21.577863 18:28.63726 19:11.612608 20:3.8933474 21:-6.7515297 22:33.764149 23:10.68782 24:8.0709669 25:-8.7950946 26:-9.9580668 27:-26.545958 28:120.75637 29:11.299809 30:15.982026 31:8.3616673 32:13.125527 33:-5.1488197 34:63.802702 35:12.398589 36:16.729669 37:-4.3131874 38:-1.5356221 39:-22.888054 40:64.761358 41:6.4106331 42:15.794687 43:-3.8963247 44:-1.5274386 45:-13.639536 46:19.489506 47:0.41781468 48:9.7425756 49:-9.1374509 50:-4.6177511 51:-11.723308 52:17.084698 53:1.368932 54:10.973577 55:-15.067882 56:-4.7444796 57:-27.636496 58:34.383294 59:11.062246 60:8.3861341 61:-6.3709761 62:-4.108481 63:-17.791862 64:18.755815 65:7.986722 66:7.1771474 67:0.808528 68:0.34829441 69:-7.8032694 70:21.437902 71:2.7437083 72:7.2179627 
1.0615933503328749 1:-169.92375 2:-158.37611 3:-276.67414 4:3972.1363 5:64.975983 6:176.53071 7:73.566768 8:71.223931 9:48.73894 10:171.82366 11:10.288867 12:67.157556 13:-10.81861 14:-14.193911 15:-38.695957 16:401.35961 17:19.770778 18:23.743114 19:6.8968834 20:4.9473451 21:-3.4244012 22:32.300333 23:10.665262 24:6.4946032 25:-8.2695973 26:-7.6730233 27:-25.753404 28:124.54775 29:14.05652 30:17.139006 31:13.956269 32:11.79368 33:-2.1241283 34:56.683499 35:10.24923 36:13.701236 37:-6.9809508 38:-4.9285615 39:-19.953742 40:61.41794 41:9.6778738 42:14.527985 43:1.7152604 44:-8.760632 45:-15.775024 46:21.556331 47:3.0173018 48:5.4207615 49:-0.90431872 50:-6.9311639 51:-12.73013 52:16.274258 53:5.0823856 54:10.231721 55:-10.016892 56:-6.8861959 57:-25.117788 58:37.204755 59:7.7158908 60:10.325531 61:-8.7394397 62:-7.5768481 63:-17.175306 64:14.142332 65:0.59955013 66:14.499076 67:-0.9705018 68:-1.9770052 69:-3.9687348 70:25.220646 71:6.3556676 72:5.7613072 
1.0584417660443817 1:-169.40998 2:-157.32463 3:-279.95543 4:3968.3768 5:61.297247 6:180.20411 7:70.965419 8:67.450644 9:48.271719 10:167.97605 11:14.705162 12:71.12107 13:-10.849535 14:-10.621221 15:-43.150627 16:400.01703 17:24.614171 18:28.532253 19:7.9251188 20:4.4445823 21:-0.79670593 22:33.676649 23:4.4870035 24:13.893663 25:-8.0973265 26:-11.250069 27:-24.625029 28:123.91783 29:10.544075 30:13.619105 31:13.109983 32:11.619817 33:-3.3914422 34:64.710359 35:12.574584 36:14.15878 37:-7.3230352 38:-8.1644141 39:-25.683624 40:61.888627 41:10.488808 42:5.9907521 43:0.45065886 44:-1.4704718 45:-14.288251 46:17.856225 47:9.1593793 48:7.6132126 49:-2.3388 50:-4.4309419 51:-10.776119 52:15.195847 53:5.8791601 54:10.432676 55:-10.418274 56:-6.7368266 57:-25.354883 58:33.557453 59:5.7616981 60:15.454705 61:-9.8438148 62:-12.27506 63:-19.351251 64:16.340886 65:4.1077119 66:12.924933 67:-2.0801503 68:2.235048 69:-13.569831 70:21.281867 71:8.5267531 72:-0.41106473 
1.0545876644454035 1:-164.64076 2:-161.35949 3:-279.55526 4:3970.8189 5:63.368622 6:180.97759 7:72.033433 8:68.073295 9:51.305 10:167.45776 11:12.729405 12:74.432597 13:-11.535809 14:-16.913593 15:-45.454609 16:399.17792 17:21.688975 18:29.695029 19:8.3022947 20:9.8874198 21:-5.9299566 22:33.794308 23:6.2753059 24:5.2514048 25:-11.90241 26:-16.656475 27:-25.248506 28:117.81944 29:14.068191 30:17.668942 31:10.4862 32:10.650419 33:-6.9072955 34:64.629802 35:6.866279 36:17.108728 37:-9.913732 38:-5.3401588 39:-23.708872 40:60.529209 41:9.6684826 42:13.471523 43:-3.7829567 44:-0.74863479 45:-11.015142 46:19.366517 47:1.3493791 48:6.3838775 49:-2.9509466 50:-4.5684101 51:-9.8222427 52:15.281361 53:3.8167942 54:8.2938149 55:-8.2104722 56:-8.2694647 57:-23.781717 58:36.89305 59:9.1825606 60:12.829517 61:-6.4585495 62:-6.3367118 63:-18.021031 64:19.435675 65:4.545882 66:11.149161 67:-2.1194547 68:-3.0547263 69:-9.575469 70:25.511351 71:3.6371998 72:4.3835607 
1.045426329218073 1:-164.92187 2:-158.87164 3:-276.04275 4:3968.2214 5:61.100232 6:180.25164 7:71.076826 8:70.16556 9:48.882322 10:169.74189 11:13.401005 12:71.871382 13:-10.633469 14:-17.205912 15:-42.599663 16:396.04923 17:19.551415 18:22.123531 19:10.363435 20:3.860945 21:-3.8629446 22:31.108053 23:7.8198463 24:8.3300578 25:-10.781141 26:-13.91731 27:-25.723232 28:123.56853 29:8.562477 30:17.855171 31:10.405495 32:8.0422184 33:-3.0082833 34:60.346749 35:8.2755337 36:16.222797 37:-3.7229364 38:-4.3378115 39:-20.704413 40:61.374134 41:7.9434161 42:9.1652839 43:-0.95955168 44:-6.9641163 45:-13.805341 46:17.11574 47:7.6493333 48:10.085542 49:-5.2448074 50:-4.8209348 51:-11.696749 52:16.467273 53:2.1765644 54:6.9679063 55:-14.271885 56:-4.732803 57:-25.541849 58:34.987787 59:4.5436116 60:16.4485 61:-12.027577 62:-10.890695 63:-16.627318 64:18.901353 65:2.6456952 66:15.224195 67:-1.0561392 68:-3.0363153 69:-11.281368 70:25.120371 71:4.1106311 72:6.4347884 
1.0612307280498086 1:-163.56537 2:-160.11946 3:-274.17845 4:3971.6023 5:61.723618 6:182.9889 7:73.214173 8:71.697493 9:52.136693 10:163.98428 11:13.915141 12:73.412852 13:-9.1354746 14:-11.840512 15:-42.547011 16:399.6925 17:21.032586 18:28.283712 19:4.17011 20:9.186062 21:-3.6397239 22:39.212945 23:0.75315695 24:13.888272 25:-7.4107881 26:-15.162716 27:-25.415392 28:123.86931 29:11.339575 30:12.977428 31:10.607839 32:3.1304604 33:-2.4744257 34:64.554233 35:2.9058478 36:13.58765 37:1.0644801 38:-5.1264889 39:-22.781442 40:62.431459 41:8.7070161 42:12.464346 43:-2.8012861 44:-2.7791188 45:-14.26262 46:20.796742 47:6.8027401 48:10.334721 49:-3.60985 50:1.3527571 51:-9.6657077 52:15.756731 53:-1.1588278 54:8.0359801 55:-12.560902 56:-7.0116098 57:-25.669849 58:32.173096 59:5.230719 60:11.997857 61:-5.0764193 62:-10.225026 63:-16.758444 64:20.718585 65:8.0402355 66:18.393272 67:0.038007386 68:-2.1414882 69:-7.4924249 70:25.192238 71:7.0191089 72:5.332321 
1.0573245186890192 1:-164.63043 2:-160.47425 3:-279.33531 4:3973.5433 5:61.356599 6:178.01261 7:72.11237 8:73.843871 9:50.371476 10:168.60859 11:13.978617 12:74.444878 13:-10.197973 14:-13.238854 15:-40.372169 16:396.84861 17:18.323846 18:20.086926 19:5.4732083 20:5.9409241 21:-2.6457898 22:34.122101 23:11.108527 24:9.204535 25:-9.2966601 26:-8.461049 27:-27.050505 28:121.40321 29:9.9351774 30:13.030492 31:8.339399 32:4.9352065 33:-7.1174548 34:63.541275 35:11.127318 36:16.390016 37:-4.5829854 38:-3.6888509 39:-24.445593 40:56.403313 41:3.1923755 42:10.427491 43:-3.6944306 44:-5.0223373 45:-18.046443 46:23.519674 47:5.2951195 48:1.098298 49:-2.9543661 50:-1.6395658 51:-10.465883 52:16.133557 53:2.8560393 54:5.7896671 55:-10.871371 56:-10.795257 57:-23.410809 58:32.629813 59:6.5658787 60:12.627877 61:-8.2369929 62:-7.3153807 63:-15.644486 64:18.703526 65:4.96141 66:13.152321 67:2.0365045 68:-2.393824 69:-10.332139 70:20.149056 71:2.5467152 72:4.6517592 
1.0582383286897856 1:-166.74761 2:-167.38021 3:-279.49122 4:3973.8175 5:65.619045 6:179.42594 7:70.571918 8:65.34782 9:56.055177 10:167.94524 11:14.304726 12:69.372785 13:-12.588327 14:-17.307717 15:-41.051666 16:401.30321 17:20.746234 18:21.747296 19:5.5112742 20:6.0694802 21:-0.024905432 22:31.288892 23:2.5625517 24:12.569974 25:-4.1486242 26:-11.658302 27:-27.76897 28:120.61581 29:12.934706 30:18.019652 31:15.019381 32:10.857493 33:-0.37399427 34:63.008692 35:6.8102518 36:10.634972 37:-4.4955901 38:-6.584607 39:-21.244835 40:59.612313 41:6.7087627 42:5.3466149 43:-4.681359 44:-3.0939993 45:-12.832228 46:17.895387 47:7.2923577 48:2.5609907 49:0.059496875 50:-3.705895 51:-11.476037 52:15.082474 53:3.891009 54:5.5437184 55:-9.5237486 56:-3.4111267 57:-24.839551 58:37.025632 59:5.0575435 60:14.786738 61:-7.097945 62:-13.688365 63:-18.643718 64:18.507529 65:5.689672 66:8.215955 67:-3.2103354 68:0.20108899 69:-4.1070775 70:22.715051 71:7.2578947 72:4.1738088 
1.0576623886420207 1:-165.97373 2:-162.82544 3:-276.49377 4:3967.9733 5:63.879514 6:179.17575 7:71.318421 8:66.126592 9:51.34429 10:167.48254 11:11.029796 12:74.729579 13:-9.9785121 14:-15.093022 15:-33.195289 16:398.2249 17:20.333871 18:22.717146 19:5.5339092 20:5.242128 21:-4.8233135 22:29.221051 23:5.3070896 24:10.301548 25:-11.592326 26:-9.1205978 27:-30.976936 28:123.25272 29:11.396635 30:14.233756 31:10.453513 32:8.0756992 33:-5.1174932 34:63.250412 35:9.1102501 36:9.7949638 37:-3.4828409 38:-3.5109055 39:-18.954301 40:58.872066 41:5.8765575 42:8.4533863 43:-1.0805705 44:-2.5307979 45:-12.443213 46:20.869796 47:9.4422514 48:5.4523866 49:-3.1263766 50:-4.789131 51:-10.914444 52:12.226336 53:2.9223669 54:4.1430342 55:-5.2571148 56:-8.8864387 57:-26.283676 58:34.100395 59:1.1569796 60:12.292983 61:-10.457604 62:-9.5732401 63:-15.578789 64:19.256811 65:1.3589767 66:11.221669 67:2.5087463 68:-4.1066419 69:-8.9827261 70:23.569343 71:3.5757459 72:5.1545438 
1.0571515613498015 1:-165.98732 2:-161.70779 3:-278.81275 4:3973.2061 5:63.848207 6:174.96486 7:72.64708 8:67.701011 9:48.049435 10:169.18203 11:15.11314 12:72.001419 13:-11.42504 14:-13.209161 15:-46.198998 16:400.94296 17:21.001185 18:23.672037 19:6.5686746 20:4.8170208 21:-5.330216 22:35.004974 23:6.0433068 24:12.063669 25:-11.038559 26:-11.948644 27:-25.576387 28:122.2929 29:18.058628 30:18.464484 31:9.623447 32:11.205412 33:-5.4197498 34:63.738368 35:7.6777667 36:12.370977 37:-6.7047026 38:-6.1740752 39:-19.197753 40:57.457888 41:10.818542 42:10.875137 43:-2.3749255 44:-2.5928052 45:-11.607828 46:22.647927 47:10.261623 48:1.7573 49:-1.2025298 50:-3.7654936 51:-11.564987 52:17.619923 53:6.5251799 54:6.3408034 55:-10.851702 56:-9.9909263 57:-20.921016 58:32.17276 59:6.6020121 60:16.798414 61:-11.967519 62:-12.248178 63:-18.633186 64:17.251663 65:4.9360318 66:7.7686184 67:1.7077543 68:0.41206534 69:-8.8298803 70:21.959192 71:4.8062804 72:4.2284759 
1.0619597366903286 1:-164.46221 2:-162.41202 3:-277.41554 4:3972.6062 5:63.04866 6:178.18711 7:68.1785 8:68.530712 9:48.953667 10:165.07488 11:11.692634 12:77.239153 13:-8.3754187 14:-11.64382 15:-43.862658 16:404.4184 17:20.969058 18:21.449678 19:7.2605447 20:5.4384484 21:-3.997223 22:39.662143 23:11.657358 24:10.107843 25:-14.505732 26:-11.270488 27:-23.182305 28:124.96551 29:15.890183 30:16.950439 31:9.2147854 32:8.5558581 33:-7.8529224 34:63.750507 35:8.1074291 36:15.490405 37:-7.3964936 38:-4.6280641 39:-19.740451 40:57.131848 41:5.395908 42:11.094072 43:0.20953875 44:0.82417736 45:-15.747993 46:18.545212 47:3.4113972 48:9.8615897 49:-5.6880678 50:0.58554494 51:-15.668515 52:16.762786 53:6.1342651 54:8.6826822 55:-12.303102 56:-8.8825421 57:-20.872497 58:35.338049 59:13.425642 60:13.380928 61:-3.8580542 62:-10.363688 63:-22.121293 64:17.411771 65:5.0109377 66:13.182284 67:0.8066681 68:-1.605532 69:-7.4056528 70:22.870421 71:9.6583891 72:7.2419469 
1.0615714677948407 1:-166.71969 2:-162.6561 3:-276.33657 4:3972.4775 5:65.454375 6:176.40967 7:73.526299 8:65.955378 9:54.703839 10:165.54171 11:17.047311 12:70.841499 13:-6.8428313 14:-13.273676 15:-38.055125 16:396.83361 17:21.900509 18:24.035979 19:10.393009 20:6.9717258 21:-4.6837411 22:31.418753 23:9.9836719 24:8.9818967 25:-2.2004372 26:-13.199562 27:-23.610864 28:123.45123 29:11.918228 30:13.046807 31:12.398443 32:11.959558 33:-0.86385297 34:62.407204 35:7.4425278 36:14.401202 37:-5.08813 38:-6.2135334 39:-19.251232 40:56.814573 41:7.0179466 42:14.384693 43:-3.0213297 44:-2.3279344 45:-15.327213 46:18.329787 47:7.7764187 48:3.6410626 49:-4.9852112 50:2.6943371 51:-15.652849 52:18.12506 53:8.9561441 54:7.9725923 55:-8.1381027 56:-3.2572263 57:-24.491581 58:31.242252 59:3.6456687 60:7.8549487 61:-8.3802691 62:-5.2548211 63:-17.496116 64:14.361029 65:5.1439496 66:5.7403292 67:2.0272731 68:-2.8643468 69:-9.7377543 70:23.876554 71:5.0758765 72:2.7255995 
1.0605982678296915 1:-166.02547 2:-162.10852 3:-279.49053 4:3970.2715 5:61.969414 6:178.0667 7:73.02471 8:69.5982 9:53.336501 10:165.70396 11:12.345995 12:70.660088 13:-11.177253 14:-10.99155 15:-38.192253 16:398.19157 17:22.437205 18:24.978786 19:3.4345358 20:4.6540205 21:-5.2658971 22:31.790231 23:7.5206834 24:7.2683416 25:-8.2852923 26:-12.226648 27:-28.414542 28:120.49529 29:10.742725 30:16.944164 31:16.238202 32:16.853313 33:1.2335433 34:62.264189 35:7.5949677 36:14.147281 37:-7.0145969 38:-5.6441498 39:-24.884284 40:62.213361 41:3.791349 42:7.7344632 43:1.0509345 44:0.48552807 45:-13.199489 46:15.563239 47:5.4116053 48:4.7101819 49:-4.2821762 50:-3.7615152 51:-10.390708 52:17.52034 53:6.650504 54:5.5625277 55:-7.6336652 56:-7.8199004 57:-26.951117 58:39.139881 59:5.9040076 60:8.6513216 61:-10.599186 62:-7.4201989 63:-20.056309 64:17.352716 65:6.7131464 66:15.422815 67:1.069179 68:-3.2734983 69:-8.4229731 70:24.610718 71:3.9819206 72:9.269871 
1.0555335827652481 1:-165.53824 2:-166.24331 3:-280.11109 4:3970.941 5:67.762584 6:180.03179 7:75.107564 8:67.053412 9:51.935923 10:167.92433 11:16.116756 12:73.3905 13:-11.358704 14:-14.113844 15:-39.7856 16:401.2063 17:18.418073 18:26.202515 19:3.125402 20:5.1845996 21:-2.7537117 22:33.342265 23:7.9243513 24:7.0741644 25:-10.994097 26:-10.330676 27:-26.946488 28:120.7866 29:10.432949 30:12.469908 31:15.15102 32:11.228345 33:-0.33810593 34:56.865316 35:10.92953 36:13.702707 37:-3.260411 38:-7.8173119 39:-19.315141 40:60.41778 41:6.0181749 42:13.391048 43:-3.179351 44:-3.3866008 45:-10.982692 46:17.41926 47:4.5278803 48:1.8209727 49:-3.9741593 50:-2.5517771 51:-13.109699 52:15.82947 53:4.28201 54:6.0724763 55:-11.129987 56:-9.8170266 57:-24.945754 58:36.651414 59:10.339011 60:10.967449 61:-10.162051 62:-5.5612035 63:-14.057157 64:16.587626 65:5.209738 66:8.9920613 67:-1.9752182 68:-0.78581055 69:-7.9706116 70:21.222423 71:7.1693713 72:0.39153108 
1.0606721807579507 1:-162.99037 2:-161.58345 3:-279.05746 4:3967.868 5:64.058305 6:176.75781 7:75.645817 8:71.41605 9:52.935427 10:167.20603 11:16.194682 12:69.504295 13:-11.09607 14:-13.982187 15:-41.287994 16:392.68 17:19.413523 18:25.343342 19:9.9747291 20:4.2893613 21:-4.0633315 22:35.584652 23:12.837745 24:11.435373 25:-5.5773717 26:-13.899134 27:-31.31192 28:117.36114 29:6.2412569 30:16.326189 31:13.425486 32:12.870278 33:-4.0045695 34:60.731097 35:5.5018813 36:17.122921 37:-5.3487621 38:-6.0089384 39:-22.440581 40:62.934822 41:12.487526 42:11.979401 43:-0.7546827 44:-2.177471 45:-12.555454 46:20.208413 47:-0.41868668 48:8.9508459 49:-6.8410699 50:-0.43895788 51:-9.3110162 52:17.124023 53:5.2612968 54:6.1477619 55:-9.7703327 56:-7.4969416 57:-28.23108 58:38.476963 59:6.8533522 60:10.886561 61:-10.641485 62:-10.74239 63:-17.750328 64:16.109603 65:0.057138858 66:10.822257 67:3.7952961 68:-3.3090655 69:-9.4724913 70:22.07013 71:5.6126793 72:9.9737778 
1.0593462313327644 1:-164.92411 2:-164.70169 3:-280.64748 4:3973.3367 5:59.900325 6:180.183 7:73.341825 8:64.097535 9:53.10011 10:169.66231 11:15.713635 12:69.837944 13:-10.971578 14:-17.362828 15:-40.378398 16:400.52166 17:18.796003 18:22.257262 19:4.1994601 20:5.1418149 21:-1.6048432 22:28.244463 23:7.7193192 24:8.8559693 25:-6.7219632 26:-14.021481 27:-28.291659 28:120.83165 29:14.089742 30:13.949775 31:14.282823 32:10.146657 33:-2.4670456 34:62.117843 35:8.6607996 36:8.7893328 37:-3.5346415 38:-8.046557 39:-19.457672 40:63.477468 41:7.0990863 42:15.688455 43:0.29274677 44:-4.1010142 45:-13.129346 46:19.023736 47:7.1840513 48:5.8501488 49:-3.3113488 50:-2.3098646 51:-14.352406 52:17.003233 53:6.2537197 54:7.4075951 55:-4.9325474 56:-8.0024357 57:-26.528517 58:37.230981 59:5.7667452 60:13.116988 61:-9.5549576 62:-8.2248366 63:-22.165944 64:20.450972 65:9.6245811 66:13.930901 67:-0.93023331 68:-1.2237757 69:-6.4207824 70:22.666259 71:10.405636 72:4.8269821 
1.0608072654094183 1:-167.93053 2:-160.36156 3:-280.9153 4:3976.4325 5:68.557144 6:181.67705 7:74.924856 8:70.981032 9:51.048886 10:168.36231 11:11.520262 12:75.517868 13:-4.1883319 14:-13.530078 15:-43.722095 16:397.08542 17:21.745783 18:25.247799 19:7.09098 20:5.7177326 21:-7.4767349 22:32.111176 23:4.6683221 24:11.053229 25:-11.600055 26:-17.921218 27:-24.829767 28:120.30565 29:5.2142139 30:19.824656 31:12.723113 32:11.48147 33:-1.118227 34:60.468638 35:4.0181135 36:12.709998 37:-8.5232883 38:-5.7560116 39:-24.710591 40:60.672803 41:3.2656933 42:10.263338 43:-2.281629 44:-3.0181181 45:-11.739614 46:14.01362 47:4.7011811 48:1.0777836 49:-2.6010275 50:-6.4554576 51:-12.181945 52:16.56703 53:8.9973599 54:8.3545406 55:-10.172576 56:-9.0754793 57:-22.524153 58:36.312965 59:4.3372964 60:13.406565 61:-9.0693107 62:-9.1626794 63:-18.852934 64:15.255386 65:5.5691245 66:13.322529 67:-2.6589 68:-0.048519835 69:-8.4445784 70:24.004463 71:4.9923769 72:7.429861 
1.0608410330628484 1:-168.62862 2:-157.74371 3:-277.17319 4:3970.8678 5:61.430757 6:178.58232 7:75.504552 8:62.787617 9:52.797264 10:168.49332 11:12.712394 12:77.759345 13:-8.650638 14:-11.720178 15:-43.17042 16:396.90939 17:24.934153 18:23.758396 19:9.6803555 20:8.5184374 21:-7.9982061 22:32.430816 23:5.7983859 24:7.4788052 25:-7.405893 26:-11.904564 27:-23.299657 28:117.93346 29:10.590003 30:10.30416 31:9.9591013 32:12.937907 33:-2.5090743 34:62.614641 35:7.5906844 36:17.65871 37:-0.045645018 38:-6.0358009 39:-19.325607 40:57.998641 41:6.4686571 42:7.777519 43:-3.0597779 44:1.620995 45:-9.5075811 46:16.270579 47:5.2834435 48:7.295627 49:0.092799564 50:-3.0615717 51:-13.813343 52:11.487464 53:7.334554 54:4.1250124 55:-11.795867 56:-3.6901376 57:-22.422148 58:31.984116 59:6.4524066 60:10.775845 61:-8.0951951 62:-7.0863599 63:-16.98874 64:13.98219 65:8.8035184 66:5.6651682 67:-3.1501514 68:-1.1989189 69:-13.569374 70:26.009996 71:4.6345193 72:4.6571941 
1.0608261439308992 1:-166.31908 2:-163.47718 3:-281.11229 4:3969.6308 5:62.478875 6:181.09336 7:74.597809 8:69.556301 9:52.834723 10:171.41835 11:10.739392 12:77.299821 13:-13.447134 14:-14.320689 15:-39.438678 16:399.45277 17:20.476517 18:23.367247 19:9.4830638 20:9.5352027 21:-7.9792519 22:33.285403 23:7.3964156 24:10.452285 25:-10.738293 26:-12.338935 27:-23.961713 28:118.36022 29:10.776505 30:17.979697 31:16.173084 32:11.534875 33:-4.3927055 34:61.274534 35:4.847965 36:15.519058 37:-3.9487874 38:-3.8975917 39:-23.691422 40:57.744628 41:11.713085 42:14.227328 43:1.7093762 44:-2.1420429 45:-8.3115951 46:18.382215 47:6.4674945 48:7.7375402 49:-3.7373678 50:1.6840898 51:-12.564923 52:22.744035 53:0.94998783 54:5.7054104 55:-10.211145 56:-8.017018 57:-21.737224 58:38.906093 59:9.8434009 60:10.178805 61:-4.9527631 62:-9.5013861 63:-17.905781 64:18.922985 65:4.8537643 66:8.8679198 67:-3.290381 68:-0.53530012 69:-10.953036 70:21.871649 71:4.5721641 72:3.1962302 
1.0609541694689839 1:-167.41181 2:-163.13817 3:-277.3711 4:3969.1115 5:62.545173 6:178.57973 7:69.629791 8:70.633636 9:53.397875 10:168.08892 11:10.45984 12:67.73699 13:-12.32441 14:-18.551058 15:-43.026828 16:394.75674 17:23.823061 18:25.243815 19:11.049328 20:5.4548001 21:-6.3070774 22:33.691857 23:8.4267149 24:14.260598 25:-4.3151571 26:-14.167346 27:-25.918634 28:120.76801 29:11.377157 30:14.874299 31:13.313551 32:9.6597453 33:-2.0811881 34:63.551884 35:8.4279204 36:17.592865 37:-8.6420168 38:-7.2199218 39:-21.680457 40:64.629035 41:8.1700422 42:10.164942 43:2.9271413 44:-5.5022366 45:-15.057462 46:18.780719 47:0.99216381 48:5.7720155 49:-2.2093682 50:-6.2465027 51:-13.105394 52:12.845095 53:13.562257 54:5.1498996 55:-8.5543516 56:-9.0138799 57:-28.392298 58:32.277961 59:3.7555531 60:10.359295 61:-11.15143 62:-7.0404317 63:-17.778679 64:18.562458 65:0.52356858 66:11.651444 67:-2.8103293 68:4.9822197 69:-7.5050298 70:20.67931 71:7.2570915 72:4.8022958 
1.0608398410625626 1:-168.3288 2:-160.30283 3:-274.88314 4:3967.3792 5:64.108801 6:180.45948 7:73.304603 8:68.63704 9:51.262185 10:167.57947 11:7.645255 12:75.650607 13:-12.745421 14:-17.662031 15:-43.729037 16:403.40143 17:20.071891 18:24.896797 19:7.305372 20:6.6732662 21:-3.6015188 22:28.010422 23:9.5425654 24:8.4632882 25:-12.459257 26:-12.634168 27:-21.717953 28:120.35987 29:15.413494 30:14.138999 31:18.052116 32:13.564126 33:-1.6061977 34:62.181647 35:9.651253 36:14.856672 37:-4.8513822 38:-2.7777345 39:-23.389464 40:56.493731 41:11.670621 42:13.765968 43:-2.1406895 44:-0.62992877 45:-12.504714 46:20.940683 47:2.1711971 48:2.5617985 49:-2.2068406 50:1.0276503 51:-12.610933 52:16.417536 53:1.3092816 54:8.4844768 55:-8.0708633 56:-9.0031169 57:-26.019641 58:35.461886 59:5.1310351 60:13.904924 61:-9.6067554 62:-9.7959279 63:-15.460612 64:14.498017 65:5.2238652 66:10.516402 67:-0.97939339 68:2.2339002 69:-5.6433287 70:21.796941 71:7.3920853 72:9.7436537 
1.061125370195598 1:-163.73833 2:-160.09192 3:-274.87781 4:3970.6465 5:64.637628 6:173.09348 7:72.337766 8:74.902815 9:52.549173 10:170.95537 11:13.034109 12:75.642246 13:-8.2151403 14:-14.967999 15:-45.353716 16:406.56846 17:19.203922 18:27.349389 19:9.5252089 20:10.013442 21:-3.9464983 22:36.101904 23:6.4731885 24:8.3532756 25:-6.7268525 26:-6.1041999 27:-21.025629 28:120.94207 29:10.928568 30:10.22072 31:11.333586 32:8.5574472 33:-3.00926 34:59.863238 35:10.74296 36:14.407659 37:-4.8569602 38:-3.276549 39:-19.664177 40:57.8231 41:8.2381909 42:11.2442 43:-3.1756616 44:-5.0945362 45:-10.65579 46:24.647268 47:5.5524 48:7.0204719 49:0.12912806 50:-3.7830491 51:-11.737662 52:13.536317 53:7.9809611 54:8.3970625 55:-11.858014 56:-8.7393139 57:-22.586809 58:35.222587 59:7.5655234 60:12.387603 61:-5.9875176 62:-12.86949 63:-17.602666 64:22.171893 65:8.4120641 66:15.141645 67:0.93423834 68:3.0930774 69:-11.600519 70:25.326215 71:11.714953 72:3.9190016 
1.0557982436792379 1:-164.85117 2:-159.59675 3:-283.82258 4:3973.4546 5:63.735761 6:181.37988 7:73.16547 8:69.976077 9:51.353662 10:169.36877 11:16.518875 12:72.043827 13:-8.1749103 14:-16.223836 15:-41.753507 16:395.40463 17:20.974565 18:26.090882 19:6.5121117 20:7.8625836 21:-3.5963488 22:35.428432 23:6.5908209 24:7.8091417 25:-10.861827 26:-12.04333 27:-27.412104 28:118.64569 29:14.349909 30:15.215064 31:8.9011473 32:11.804813 33:-0.28482585 34:61.819332 35:7.9197512 36:10.72724 37:-3.060261 38:-5.3363473 39:-24.27924 40:56.490322 41:8.2411433 42:12.297827 43:-5.7175974 44:-1.1583926 45:-11.919943 46:20.306183 47:1.8287689 48:9.4442311 49:-0.4155124 50:-0.086417814 51:-10.171491 52:11.81197 53:2.9761057 54:5.7561456 55:-10.929902 56:-6.6827679 57:-22.975967 58:34.924424 59:8.664616 60:13.317811 61:-6.4037274 62:-7.4107122 63:-14.647292 64:15.669386 65:0.20003173 66:10.826296 67:-2.2901717 68:0.29928537 69:-7.4175682 70:24.928115 71:4.6210012 72:4.8408886 
1.0587652637875922 1:-165.05104 2:-156.428 3:-279.59954 4:3969.4588 5:64.282092 6:180.54681 7:68.294737 8:70.683573 9:51.374825 10:171.1729 11:10.94348 12:73.281812 13:-9.9848206 14:-15.132949 15:-41.422149 16:393.70569 17:19.106434 18:20.319965 19:8.2315895 20:5.0384894 21:-4.3656353 22:28.167864 23:9.6219367 24:6.9639526 25:-5.3129587 26:-15.781704 27:-25.502722 28:121.88582 29:13.982028 30:14.499075 31:9.3738094 32:7.6714615 33:1.8830172 34:64.772805 35:7.0200201 36:16.593726 37:-7.2420488 38:-4.9394395 39:-22.149308 40:58.906552 41:6.898442 42:9.1544364 43:-2.022754 44:-4.6025033 45:-9.6727001 46:24.390132 47:6.5550383 48:5.9370648 49:2.1531144 50:-6.3152276 51:-13.347456 52:15.417888 53:4.6276264 54:4.2544513 55:-11.248329 56:-7.3711346 57:-26.671517 58:33.115479 59:4.6730848 60:8.9274562 61:-7.3354716 62:-9.2287715 63:-15.43212 64:14.198675 65:9.732539 66:7.7322758 67:-1.1994389 68:-1.5406443 69:-6.6922512 70:22.530649 71:4.2512632 72:7.729791 
1.0623997659181386 1:-164.86966 2:-160.66895 3:-278.47873 4:3972.8008 5:64.144763 6:180.88586 7:74.441646 8:68.601893 9:47.737377 10:169.13433 11:12.459998 12:75.164381 13:-7.2891042 14:-14.709025 15:-37.168122 16:403.3456 17:25.425845 18:31.418202 19:8.5425953 20:6.6138537 21:-4.2186123 22:28.534273 23:10.386048 24:8.0833622 25:-9.4428547 26:-14.188283 27:-26.802584 28:123.78735 29:15.255483 30:15.644777 31:9.2143755 32:9.6524934 33:-3.3151652 34:66.005033 35:9.6409116 36:14.517321 37:-4.2492889 38:-1.6144097 39:-23.177766 40:64.443691 41:10.438185 42:11.14495 43:-6.8489706 44:-5.3010252 45:-7.6865409 46:21.396837 47:3.8217141 48:5.855326 49:-3.5846398 50:-7.0964985 51:-11.26179 52:14.960626 53:7.371874 54:7.8851041 55:-6.3552078 56:-7.7410962 57:-23.155641 58:33.066347 59:6.094642 60:12.040801 61:-12.490164 62:-12.117205 63:-14.139881 64:17.390496 65:6.9505413 66:8.6216545 67:2.5035319 68:-1.9297332 69:-11.037505 70:25.510032 71:5.5812266 72:15.644314 
1.0615905877863494 1:-167.17067 2:-159.249 3:-280.76201 4:3970.5189 5:63.246403 6:180.87141 7:73.889107 8:63.709033 9:45.605979 10:166.60837 11:14.128421 12:71.836831 13:-10.056905 14:-11.396937 15:-40.737504 16:399.78485 17:13.491867 18:25.944859 19:12.078206 20:5.6074951 21:-5.3450641 22:27.747657 23:7.196952 24:7.6449216 25:-6.1861343 26:-14.572098 27:-27.56457 28:127.12744 29:10.507324 30:18.773232 31:12.711362 32:12.88492 33:-5.3927068 34:65.639866 35:8.1463451 36:13.286106 37:-10.020535 38:-2.8215108 39:-17.696824 40:61.144187 41:11.243859 42:10.772218 43:-4.9004698 44:0.38923622 45:-11.308717 46:23.335585 47:8.4406219 48:2.7076671 49:-4.7562147 50:-4.1202087 51:-9.1005238 52:14.471802 53:6.6900506 54:5.4811161 55:-11.560028 56:-7.6871533 57:-22.637274 58:36.239917 59:4.0676601 60:16.783942 61:-8.3508666 62:-10.133816 63:-16.30288 64:18.972251 65:2.3977803 66:8.2886406 67:2.7260126 68:1.9698659 69:-6.2198757 70:22.706052 71:6.210635 72:4.8599907 
1.0620265588533568 1:-174.54765 2:-156.95332 3:-278.6302 4:3972.1381 5:60.745556 6:177.62723 7:77.317388 8:69.738266 9:51.625411 10:166.85608 11:14.149344 12:72.312597 13:-10.261753 14:-12.515198 15:-39.619689 16:397.8875 17:24.412058 18:23.369519 19:11.689535 20:4.4995806 21:-0.21346363 22:34.275753 23:4.7501464 24:10.358367 25:-6.6899512 26:-9.9405117 27:-27.680869 28:123.90108 29:7.836411 30:14.865867 31:11.253384 32:8.7760055 33:-1.2205738 34:59.106943 35:11.448 36:11.666928 37:-1.5032636 38:-4.1900409 39:-21.958668 40:58.864727 41:6.9531329 42:7.6624435 43:4.1862716 44:0.24587589 45:-11.720515 46:17.568709 47:6.5515065 48:6.5891032 49:3.1736561 50:0.13560855 51:-9.5187058 52:18.027642 53:3.1075021 54:6.037897 55:-8.0547048 56:-11.609304 57:-23.710642 58:38.01539 59:9.3059899 60:15.76587 61:-6.4218692 62:-7.2128357 63:-14.187831 64:13.342136 65:2.9023747 66:13.653736 67:-2.0377074 68:-2.0693063 69:-6.5911268 70:16.338318 71:5.643039 72:8.806411 
1.0606518491849022 1:-163.8673 2:-157.94666 3:-278.59128 4:3970.4456 5:60.614015 6:182.38256 7:69.24502 8:65.926085 9:53.025178 10:166.63848 11:15.968168 12:73.678652 13:-12.809057 14:-13.607425 15:-43.473233 16:400.88019 17:23.505321 18:18.244565 19:7.5394199 20:5.7711819 21:-2.9550516 22:29.381231 23:8.026252 24:7.678469 25:-8.9556878 26:-10.516829 27:-32.069657 28:123.83638 29:9.3846065 30:15.15032 31:11.976007 32:9.3225989 33:-2.2767174 34:60.611525 35:11.683368 36:18.111026 37:-7.376312 38:-3.4724023 39:-20.428515 40:63.677253 41:10.489946 42:11.031062 43:-0.44645701 44:-4.2799147 45:-11.951972 46:20.671957 47:8.7495403 48:4.4924812 49:-2.8839297 50:-1.8108596 51:-12.770346 52:13.380782 53:4.2567387 54:4.1289157 55:-10.649086 56:-2.6584878 57:-21.308899 58:34.802248 59:7.4225663 60:15.386501 61:-4.7491466 62:-7.0106087 63:-21.694834 64:19.833758 65:6.1617271 66:11.377489 67:0.47990773 68:-3.6333498 69:-18.706205 70:24.84836 71:2.2522133 72:11.478154 
1.060879328463 1:-166.26593 2:-161.3384 3:-279.84313 4:3973.531 5:62.809955 6:175.09574 7:69.710342 8:65.51873 9:50.037494 10:166.06281 11:14.491959 12:80.032285 13:-9.5912945 14:-14.782585 15:-45.83929 16:399.23589 17:20.41645 18:20.358805 19:8.7382121 20:2.8274626 21:-3.0604086 22:36.316525 23:6.8870884 24:12.616431 25:-10.290969 26:-15.473248 27:-25.047444 28:128.62281 29:7.6608292 30:18.438754 31:12.212706 32:8.8439739 33:-4.8530403 34:63.612852 35:12.202182 36:10.51449 37:-7.4633153 38:-3.7960614 39:-20.42073 40:59.83555 41:10.705157 42:13.395025 43:1.7644683 44:-2.6632868 45:-9.3198434 46:20.820279 47:2.0016142 48:10.073682 49:-0.67280193 50:-3.0825636 51:-13.471272 52:15.020427 53:5.259176 54:7.3199331 55:-8.9735066 56:-7.2757667 57:-23.593225 58:33.925142 59:4.7112264 60:12.846761 61:-8.8138844 62:-8.1901198 63:-13.624157 64:17.099905 65:7.0779336 66:9.6321826 67:1.6087536 68:-0.70928615 69:-7.8524804 70:19.225276 71:5.033759 72:6.3247802 
1.0608212536673172 1:-165.75569 2:-157.17519 3:-276.85366 4:3972.0885 5:57.420821 6:174.20302 7:75.471965 8:69.39502 9:54.426956 10:168.83861 11:14.820333 12:73.508531 13:-13.329058 14:-10.671204 15:-39.626502 16:397.88233 17:19.933432 18:26.214144 19:8.496091 20:4.7257705 21:-2.0248218 22:34.308842 23:7.6562753 24:8.0750462 25:-9.2258623 26:-9.4295967 27:-26.991744 28:124.39097 29:13.118343 30:14.442041 31:7.6652796 32:11.219102 33:-1.4066007 34:58.87236 35:6.8803909 36:14.888076 37:-2.7539403 38:-4.9353006 39:-23.430433 40:63.398751 41:6.4693592 42:8.1127357 43:-1.9726281 44:-3.1098415 45:-13.30569 46:17.85459 47:11.987645 48:11.782582 49:-3.3937139 50:-6.923497 51:-8.8893329 52:18.889256 53:4.5820622 54:6.6182305 55:-9.1892765 56:-7.5058821 57:-22.508142 58:33.221207 59:5.0003483 60:10.116746 61:-7.235299 62:-7.2136791 63:-18.768805 64:14.954633 65:6.7810996 66:13.152631 67:-3.6821856 68:-2.5287316 69:-14.741004 70:20.939477 71:9.9254325 72:4.6796979 
1.0558340177270433 1:-166.45478 2:-156.73198 3:-278.82158 4:3968.7429 5:61.035438 6:179.69973 7:67.741197 8:63.913532 9:52.578008 10:167.79297 11:12.442696 12:77.120805 13:-7.4147148 14:-8.8934238 15:-41.645162 16:400.29675 17:22.104014 18:27.985403 19:8.7325248 20:4.724739 21:-2.8847382 22:34.651844 23:6.5842522 24:11.454584 25:-8.2340245 26:-8.1894768 27:-24.158282 28:122.72348 29:13.834425 30:13.242125 31:12.802524 32:8.5441949 33:-6.6291758 34:63.059628 35:8.8049559 36:11.675305 37:-4.0484561 38:-8.1066016 39:-21.285651 40:60.415164 41:11.178994 42:8.3935981 43:-1.8679962 44:-1.2739766 45:-11.620453 46:21.215892 47:6.2738388 48:2.8389428 49:-1.582063 50:-3.6424999 51:-10.325374 52:15.015743 53:5.3301874 54:4.9967536 55:-5.9952414 56:-8.5280938 57:-21.580244 58:34.021003 59:5.527648 60:14.864376 61:-9.7519126 62:-7.7262047 63:-15.866877 64:17.794674 65:5.4683973 66:13.366723 67:2.5059362 68:-0.68100343 69:-9.1381379 70:23.118652 71:4.9773542 72:4.6644972 
1.0532919246489478 1:-164.08605 2:-157.79641 3:-279.13243 4:3971.4854 5:63.907336 6:178.7228 7:69.972121 8:67.275319 9:54.078316 10:169.07019 11:16.444045 12:76.096548 13:-9.0698947 14:-17.722356 15:-41.95897 16:394.53384 17:23.090177 18:22.702606 19:1.4864766 20:5.019624 21:-2.7628675 22:33.825787 23:6.6026323 24:7.6448332 25:-6.8563901 26:-11.621965 27:-28.97033 28:120.29673 29:11.441316 30:14.771337 31:8.3938913 32:9.4770892 33:-1.4692617 34:62.553545 35:13.164094 36:10.102824 37:-6.8821629 38:-6.4440596 39:-22.96503 40:55.695121 41:4.8761836 42:9.4154877 43:-2.1574678 44:-2.4342853 45:-9.4461593 46:19.060325 47:3.0196079 48:2.4168277 49:-5.8422071 50:-3.6060047 51:-11.647349 52:14.365726 53:6.5009122 54:4.6202274 55:-11.250906 56:-7.7318918 57:-23.562462 58:33.273553 59:7.3104738 60:16.491009 61:-12.333278 62:-9.0115433 63:-16.168903 64:17.87162 65:4.4738288 66:12.355139 67:-1.5105143 68:-1.7246887 69:-10.182024 70:21.083793 71:7.6503831 72:8.7914324 
1.0607738815389196 1:-163.93921 2:-162.13566 3:-279.79581 4:3968.1973 5:63.623403 6:178.433 7:74.479825 8:69.698543 9:57.188479 10:168.35895 11:9.9605089 12:78.870501 13:-10.448396 14:-13.790804 15:-41.333603 16:402.13708 17:22.418535 18:22.882118 19:9.8350438 20:5.6082117 21:-8.276447 22:30.069885 23:8.8193365 24:9.4985787 25:-14.226941 26:-12.881071 27:-26.01486 28:122.30497 29:8.2490332 30:17.237167 31:9.9637955 32:8.6851631 33:-4.2129853 34:63.06711 35:9.7420136 36:17.245053 37:-6.5783549 38:-0.60294476 39:-21.810537 40:62.484306 41:6.2874816 42:14.392787 43:-3.5008952 44:-3.2658734 45:-13.753087 46:21.705403 47:10.358495 48:7.2207187 49:-5.9046172 50:-2.1465615 51:-16.815912 52:15.858375 53:4.1123509 54:8.9451614 55:-11.447102 56:-9.8382953 57:-18.741915 58:37.895642 59:3.3220378 60:13.659645 61:-6.1715682 62:-5.4082559 63:-17.287914 64:17.300815 65:1.4121604 66:13.188574 67:-1.7169073 68:-5.2937205 69:-6.0367129 70:22.757271 71:8.2823864 72:9.062302 
1.0597269698311482 1:-167.27838 2:-158.61425 3:-281.09617 4:3977.5203 5:64.403516 6:180.32901 7:70.49307 8:69.320926 9:50.389668 10:170.5381 11:15.142989 12:71.959939 13:-5.476056 14:-18.489311 15:-43.107394 16:402.95109 17:23.989576 18:28.551595 19:6.4601213 20:1.9915365 21:-7.441624 22:32.486795 23:7.2311197 24:12.631963 25:-13.273663 26:-13.211556 27:-23.810101 28:120.67943 29:9.2174335 30:10.080163 31:10.181205 32:11.237513 33:-3.6983365 34:63.27459 35:4.1268939 36:7.927581 37:-6.7139643 38:-5.6416323 39:-22.579103 40:62.97506 41:5.6976923 42:13.557512 43:-5.8382314 44:-8.6695243 45:-12.959484 46:17.420759 47:4.3570564 48:6.9030144 49:-5.8787928 50:-5.6377577 51:-11.069569 52:14.706689 53:2.1322633 54:8.824179 55:-10.319883 56:-6.5828117 57:-27.161965 58:34.701351 59:7.1505452 60:15.978347 61:-9.5367366 62:-9.1304432 63:-19.695349 64:17.772652 65:0.27894039 66:9.7265315 67:-2.3962329 68:-0.15257161 69:-8.0487608 70:24.327311 71:4.1702468 72:4.2294974 
1.0605509032599452 1:-166.62435 2:-160.12315 3:-279.0479 4:3967.4205 5:66.18849 6:181.11164 7:74.951049 8:71.145083 9:54.123994 10:166.7605 11:17.64348 12:72.30649 13:-10.100641 14:-9.1208035 15:-42.066718 16:405.63939 17:20.964629 18:19.243214 19:7.2430321 20:9.283194 21:0.9233871 22:33.528199 23:2.331957 24:7.3801087 25:-8.3818441 26:-8.779196 27:-24.763031 28:120.9846 29:11.748131 30:16.477869 31:10.168277 32:6.9940249 33:-1.9623982 34:60.862831 35:8.7638844 36:18.109914 37:-4.6484907 38:-4.6373076 39:-22.022916 40:56.31299 41:10.983169 42:12.085548 43:-4.4305001 44:-5.4311823 45:-9.6938969 46:23.73295 47:2.851406 48:5.7268315 49:-2.30222 50:-3.274249 51:-7.6765322 52:16.97005 53:5.6012937 54:7.1290946 55:-11.734912 56:-3.5896773 57:-22.663689 58:37.815567 59:5.2006914 60:15.805503 61:-7.1949784 62:-8.5528293 63:-18.932001 64:19.126807 65:3.2129297 66:14.604881 67:1.1717124 68:-1.8494859 69:-9.2006713 70:25.904113 71:4.2520209 72:5.0461889 
1.0621819691991643 1:-161.14609 2:-161.14651 3:-282.5513 4:3968.0758 5:65.730644 6:183.29387 7:74.148961 8:66.799416 9:51.29133 10:165.19681 11:13.240528 12:75.930821 13:-10.137764 14:-15.206121 15:-41.372567 16:397.81032 17:15.602654 18:28.042492 19:6.8716127 20:7.4770681 21:-2.6743129 22:32.236106 23:8.5621224 24:7.8647936 25:-6.2026581 26:-10.99267 27:-29.639258 28:120.92231 29:11.44828 30:14.214235 31:14.151007 32:12.025385 33:-6.0919725 34:59.754356 35:6.8940704 36:11.428481 37:-5.395483 38:-3.6041705 39:-21.177036 40:58.93548 41:6.0798338 42:8.3489999 43:4.5597715 44:-3.0266325 45:-10.929933 46:22.365957 47:7.3051447 48:12.744023 49:-4.006565 50:-5.1468095 51:-11.827321 52:17.3484 53:2.1039053 54:6.4926608 55:-7.7445098 56:-8.0065524 57:-22.950565 58:35.460048 59:5.5013614 60:8.8803824 61:-9.1230786 62:-9.9536718 63:-16.203319 64:14.013692 65:2.5770248 66:13.07883 67:-3.2532435 68:1.1846256 69:-3.2253078 70:21.860095 71:8.4537489 72:9.2824989 
1.0579261191021905 1:-166.83852 2:-162.95291 3:-274.98544 4:3969.6226 5:65.510602 6:176.11527 7:75.570318 8:67.37038 9:53.91803 10:167.93818 11:15.163578 12:72.184323 13:-8.2976295 14:-13.296252 15:-40.037733 16:401.87398 17:21.540963 18:25.44865 19:6.5162922 20:4.6365067 21:-4.4302204 22:33.493423 23:5.6167309 24:9.2580924 25:-8.8036341 26:-11.421329 27:-29.188327 28:122.26738 29:10.848997 30:14.486646 31:11.349173 32:6.7397726 33:-2.9098637 34:61.014425 35:7.8529011 36:13.175263 37:-7.8529809 38:-3.1942018 39:-21.514929 40:58.43466 41:4.5253428 42:7.4172407 43:-4.4227516 44:-4.4890235 45:-11.881015 46:19.498273 47:5.9009555 48:7.7330159 49:0.016751112 50:-1.7022798 51:-12.327228 52:21.328391 53:1.3747806 54:6.3445475 55:-7.5164046 56:-10.231744 57:-24.13994 58:38.150103 59:11.127146 60:11.101777 61:-4.9056212 62:-10.524069 63:-11.122473 64:20.166307 65:5.4407809 66:10.337593 67:-0.24551411 68:0.58862355 69:-8.6397309 70:25.401892 71:8.3663793 72:6.4714505 
1.0614858347087808 1:-163.38184 2:-160.38762 3:-280.74603 4:3970.0049 5:62.409908 6:182.80703 7:70.378936 8:69.478566 9:46.969435 10:168.08873 11:12.444094 12:70.479469 13:-15.529095 14:-14.058062 15:-41.85869 16:396.79827 17:22.47893 18:20.741108 19:5.753793 20:5.0633836 21:-1.3739854 22:29.128468 23:6.5419376 24:9.8045322 25:-10.294114 26:-15.118709 27:-30.22779 28:123.18766 29:8.8592381 30:11.976519 31:16.296032 32:15.794278 33:-3.2897545 34:61.656384 35:8.513589 36:9.3624083 37:-3.1562716 38:-4.8381166 39:-23.272579 40:60.196078 41:10.522751 42:9.3083995 43:-0.75482484 44:-5.5698145 45:-12.076658 46:23.329803 47:3.0780552 48:11.515903 49:-3.3252507 50:-4.5472457 51:-14.522362 52:17.335847 53:4.6574187 54:8.5143861 55:-1.9937694 56:-6.9138252 57:-25.288504 58:34.856486 59:7.2284947 60:12.428957 61:-9.1851757 62:-11.56996 63:-19.4271 64:23.031622 65:2.9906522 66:12.015108 67:0.349413 68:-4.8896472 69:-6.2173393 70:27.894648 71:6.8257282 72:7.4790626 
1.0603551295621221 1:-161.19945 2:-159.13258 3:-281.95481 4:3970.5506 5:64.400398 6:180.45885 7:70.054953 8:72.752032 9:45.80622 10:166.63166 11:12.930852 12:75.573027 13:-13.535767 14:-13.67311 15:-37.927533 16:398.73506 17:19.738943 18:25.88903 19:6.2415476 20:6.2737297 21:-4.5152418 22:33.033804 23:5.7837223 24:7.0479167 25:-7.9411969 26:-12.915121 27:-25.556859 28:122.26082 29:9.6759883 30:21.5065 31:7.1959025 32:7.4089749 33:-2.1604716 34:65.192004 35:9.464435 36:15.821284 37:-6.079914 38:-3.6047164 39:-18.539213 40:64.995536 41:10.741611 42:10.490592 43:-5.3720937 44:-3.5168342 45:-11.718375 46:17.749811 47:11.370991 48:8.012278 49:-5.0791552 50:0.50801066 51:-13.258108 52:19.337427 53:6.4473679 54:7.2028537 55:-10.34284 56:-7.5411621 57:-22.495741 58:33.919119 59:6.7049958 60:11.391752 61:-11.188172 62:-9.2402895 63:-15.301272 64:17.347557 65:8.1834478 66:9.0098737 67:2.6313408 68:2.0035307 69:-8.9925948 70:23.997726 71:4.3388012 72:5.069959 
1.0578924762834288 1:-164.4862 2:-161.88989 3:-279.10805 4:3971.9512 5:66.943811 6:176.78034 7:72.966991 8:66.255947 9:47.124455 10:167.91856 11:10.999414 12:69.265304 13:-13.629556 14:-8.6329477 15:-45.783087 16:394.97508 17:16.020502 18:23.323498 19:6.9472497 20:4.7739979 21:-4.8708925 22:32.247666 23:8.4378249 24:6.9902771 25:-9.3663836 26:-12.958579 27:-24.371303 28:121.81919 29:10.410152 30:15.253369 31:7.294019 32:7.7496954 33:-3.6659196 34:60.952419 35:13.93865 36:13.369843 37:-5.0305116 38:-2.6301902 39:-20.000302 40:59.70958 41:7.6682715 42:11.581637 43:-3.8580497 44:-3.631722 45:-15.967091 46:19.751483 47:6.1207588 48:8.0734886 49:-4.8614569 50:-4.418903 51:-12.742316 52:16.49799 53:4.3382555 54:4.0667548 55:-11.053651 56:-11.37716 57:-23.40629 58:35.546583 59:5.1721547 60:7.2525031 61:-11.27439 62:-6.7935195 63:-14.369839 64:19.498671 65:3.9490145 66:10.893714 67:5.2887475 68:1.0060196 69:-11.154498 70:20.526436 71:5.6997252 72:8.668881 
1.058785500034481 1:-164.42209 2:-159.18436 3:-279.49304 4:3969.6763 5:61.902336 6:182.95603 7:66.856737 8:71.733327 9:48.383711 10:169.83756 11:14.072899 12:71.400029 13:-11.187266 14:-12.507213 15:-42.686929 16:395.7169 17:22.293466 18:23.065388 19:3.2930968 20:7.8416818 21:-6.2847931 22:30.352636 23:5.5849284 24:10.277628 25:-9.2558833 26:-14.856908 27:-30.633281 28:125.24919 29:12.258949 30:15.829122 31:16.748098 32:7.2520252 33:-1.6265003 34:60.573258 35:7.6473704 36:15.015102 37:-5.4379804 38:-5.8590632 39:-24.271997 40:58.086424 41:4.4691925 42:15.343999 43:-1.2435042 44:2.1992549 45:-14.962424 46:14.68638 47:5.4705617 48:8.6253417 49:-1.0456709 50:-3.0182587 51:-9.8771103 52:13.503893 53:2.3889129 54:2.7046992 55:-11.4501 56:-8.4959619 57:-22.059082 58:37.688338 59:7.166471 60:13.35664 61:-8.2955075 62:-10.008715 63:-16.37446 64:16.484366 65:7.1581625 66:6.8888989 67:2.7142728 68:-2.6313916 69:-7.1575767 70:23.798493 71:6.2442202 72:4.1508182 
1.0602670145436508 1:-163.36303 2:-158.68918 3:-281.8314 4:3971.0833 5:63.714822 6:179.306 7:72.694922 8:71.57111 9:47.226942 10:168.45202 11:11.481221 12:72.24113 13:-11.847829 14:-12.050479 15:-44.321791 16:400.32539 17:19.421049 18:23.922873 19:9.2171429 20:6.1741685 21:0.36268239 22:32.181321 23:7.5713825 24:5.6359563 25:-8.2028292 26:-5.907328 27:-20.897245 28:124.04607 29:11.143333 30:17.755224 31:13.833812 32:11.75797 33:-7.7796072 34:62.86262 35:9.0928546 36:12.633095 37:-6.083942 38:-8.1985768 39:-22.07789 40:59.424763 41:8.47659 42:9.8899269 43:0.9273836 44:-4.2156625 45:-11.444166 46:17.523824 47:4.9005479 48:6.7436696 49:-2.688476 50:-4.8017158 51:-10.435844 52:21.0332 53:2.8738398 54:2.5938472 55:-6.0970602 56:-5.3472591 57:-24.058911 58:37.902621 59:6.1929688 60:9.7397626 61:-8.2533117 62:-4.58972 63:-14.539387 64:15.628486 65:1.8620528 66:10.735104 67:2.0229574 68:-3.9190388 69:-12.78932 70:22.882966 71:5.5841275 72:6.6269279 
1.0591553335730244 1:-167.39955 2:-153.09466 3:-279.08455 4:3970.8951 5:63.933447 6:183.58674 7:72.531857 8:64.950484 9:48.386258 10:171.72306 11:13.498129 12:70.411162 13:-10.891271 14:-11.257997 15:-43.456333 16:403.44391 17:20.720283 18:23.107328 19:5.5407372 20:4.4759395 21:-7.2633837 22:31.988982 23:7.3050283 24:7.8550169 25:-9.4081592 26:-11.568595 27:-27.292004 28:121.23774 29:11.914933 30:18.226057 31:10.119737 32:3.2085604 33:-4.4120079 34:60.886879 35:12.131503 36:12.709916 37:-4.5769899 38:-0.96533863 39:-18.592757 40:59.669529 41:9.7889795 42:12.140425 43:-6.0852953 44:3.5436068 45:-14.275252 46:20.216863 47:4.1934445 48:7.647113 49:-1.1014682 50:-1.3895505 51:-14.552645 52:17.97656 53:5.839542 54:8.1464565 55:-10.830931 56:-9.433459 57:-20.901728 58:32.571184 59:5.9002522 60:11.530494 61:-10.040115 62:-7.3522838 63:-15.535373 64:15.690506 65:4.4625117 66:12.629885 67:-3.2213706 68:-3.2633336 69:-11.109206 70:22.807904 71:3.4401347 72:4.2180939 
1.0613971282188557 1:-163.04798 2:-159.91004 3:-273.79517 4:3967.0429 5:62.705877 6:178.09849 7:74.085127 8:71.166283 9:50.125942 10:166.70425 11:12.411113 12:75.562572 13:-10.295173 14:-14.298371 15:-46.284915 16:394.49445 17:22.913147 18:23.586553 19:10.402354 20:5.2559319 21:-1.8073214 22:31.643358 23:8.5577002 24:6.2480774 25:-6.4477047 26:-11.612387 27:-27.683231 28:124.87695 29:11.34847 30:16.436778 31:9.9619982 32:11.991577 33:-3.0753489 34:64.667479 35:10.814131 36:17.324107 37:-8.1706374 38:1.6198381 39:-21.662935 40:58.160331 41:8.6579115 42:9.5679956 43:-4.4399743 44:-0.52746502 45:-10.940213 46:20.641855 47:5.982324 48:6.2136064 49:1.9797971 50:0.056127997 51:-9.7622734 52:19.587319 53:2.3015494 54:11.897268 55:-10.361953 56:-7.7839324 57:-21.804749 58:36.079507 59:4.7462815 60:13.690266 61:-7.0457442 62:-7.802528 63:-18.243767 64:15.191049 65:8.3015353 66:13.695695 67:1.9200992 68:-1.9896422 69:-10.594982 70:26.14565 71:3.3768681 72:7.4208994 
