svm_type c_svc
kernel_type rbf
gamma 0.00694444
nr_class 2
total_sv 241
rho 0.176576
label 1 0
probA -6.69806
probB -0.178498
nr_sv 119 122
SV
0.2285693911185174 1:0.28052437 2:0.74788973 3:-0.85753779 4:-0.97854967 5:0.67531769 6:0.84166351 7:0.26406924 8:1.1279928 9:0.34631172 10:-1.6244717 11:-0.60634568 12:-0.18200903 13:0.37317962 14:0.74647727 15:-0.76887205 16:-1.0415242 17:0.64875021 18:0.85144645 19:0.34990765 20:1.0570015 21:0.40178813 22:-1.5871631 23:-0.79934309 24:0.10316519 25:-2.5719855 26:0.29475409 27:-0.91166091 28:-0.88344667 29:0.31621277 30:0.76185644 31:-0.12570836 32:0.61977774 33:0.085164263 34:-1.9585343 35:-1.3168546 36:1.1240803 37:0.31803957 38:-0.46798107 39:0.35143329 40:-0.33725272 41:-0.50782622 42:-0.059693373 43:-0.42504802 44:-0.88761585 45:-0.14915025 46:-0.35288425 47:-0.38123779 48:-0.53727849 49:0.38738768 50:-0.65928903 51:0.4345735 52:-0.31233411 53:-0.53103568 54:-0.01282771 55:-0.41924609 56:-0.94023388 57:-0.11613853 58:-0.33878503 59:-0.35760137 60:-0.53318733 61:0.29794715 62:0.76649721 63:0.56855944 64:0.27804165 65:-0.91806101 66:0.17785888 67:-0.11854321 68:-0.38377703 69:-0.49483024 70:0.56463211 71:-0.089933559 72:-0.42218625 73:-0.3404096 74:0.66969661 75:1.3626143 76:1.0962371 77:1.6075856 78:1.7602923 79:-0.05703176 80:1.1780819 81:0.95733945 82:-0.26189646 83:-0.44480502 84:-0.48131687 85:-0.61761265 86:0.54979317 87:1.3309401 88:1.0097042 89:1.6131044 90:1.7672606 91:-0.15922138 92:1.0712493 93:0.82662986 94:-0.23084788 95:-0.42359297 96:-0.25153255 97:1.0272119 98:0.68163918 99:0.22719026 100:0.98286537 101:1.6196256 102:2.3927699 103:-0.86303239 104:-0.80751236 105:-1.5961372 106:-1.2026625 107:-0.02886445 108:-0.79701512 109:-1.1121792 110:-0.016052027 111:-0.65213489 112:-0.072510296 113:-0.83236539 114:-1.1674882 115:-0.97488967 116:0.37106427 117:1.6325002 118:-0.031393177 119:-0.62508973 120:-0.083764883 121:-1.4694977 122:0.060063763 123:-0.66388897 124:-0.028054419 125:-0.86865375 126:-1.2384216 127:-0.99182986 128:0.40836914 129:1.6047216 130:0.0075513512 131:-0.62040629 132:-0.059078678 133:-1.0897227 134:0.69759519 135:1.2549864 136:0.95307895 137:1.1335524 138:0.33303699 139:-1.0863774 140:-0.1768841 141:1.8155605 142:-0.4218241 143:-0.87376374 144:-0.28043731 
0.7763560167449456 1:1.2114139 2:0.66229661 3:-1.2674461 4:-0.99805406 5:1.0653727 6:0.96812518 7:0.25265695 8:0.81862017 9:-0.80568061 10:-2.6600893 11:-1.2915185 12:0.27523552 13:1.2343969 14:0.67276464 15:-1.2384251 16:-1.0218045 17:1.0185367 18:0.87284069 19:0.34960613 20:0.84492897 21:-0.7331248 22:-2.7881787 23:-1.0356079 24:0.082867578 25:0.81154439 26:0.48665606 27:-2.0400191 28:-0.7417562 29:1.0624124 30:1.0884293 31:-1.2592805 32:-0.031586226 33:-1.7929599 34:-0.84612994 35:-0.51594752 36:0.38231194 37:0.4742884 38:-0.3967045 39:1.3239386 40:-0.64802338 41:-1.220001 42:-0.56756464 43:0.032404365 44:-0.07291607 45:-0.3650349 46:0.28227683 47:-1.0152339 48:-0.67385679 49:0.53774609 50:-0.53195266 51:1.368013 52:-0.6636397 53:-1.4117237 54:-0.57907596 55:0.078670259 56:-0.034547762 57:-0.34113209 58:0.33223492 59:-1.0419666 60:-0.68232705 61:1.1976917 62:0.66801277 63:1.5982479 64:0.22688572 65:-1.3972629 66:0.13878081 67:0.058553639 68:-0.10905764 69:0.17479532 70:2.6122057 71:0.22066786 72:-0.76606655 73:0.87949976 74:1.364459 75:1.8091447 76:1.208481 77:1.1370543 78:0.27487657 79:-3.5971747 80:-1.1341281 81:-4.4136732 82:-3.1635403 83:-1.5164771 84:-2.0583852 85:0.65641186 86:1.3542544 87:1.7634593 88:1.163731 89:1.1361978 90:0.39019716 91:-3.5238346 92:-1.2087703 93:-4.2135586 94:-3.3028074 95:-1.4416577 96:-2.1951434 97:1.2788088 98:0.47637752 99:1.5157958 100:1.4093309 101:0.70323368 102:-0.59198779 103:-1.7710834 104:-0.11054562 105:-2.8717439 106:-1.5322574 107:-2.3042371 108:-2.3263804 109:-0.85490826 110:-0.21399874 111:-0.60947435 112:-0.28709081 113:-0.4664991 114:-1.3231048 115:-0.28391666 116:0.26492871 117:-0.0071470904 118:-0.59203248 119:1.2318058 120:-0.33078262 121:-0.95871065 122:-0.17213079 123:-0.61381049 124:-0.25381851 125:-0.4545132 126:-1.4193082 127:-0.26017939 128:0.30220565 129:0.025751662 130:-0.59150548 131:1.2419429 132:-0.32131641 133:0.31325052 134:1.5607172 135:1.8638242 136:1.0504728 137:0.70890782 138:-1.3281413 139:2.176784 140:1.0028994 141:1.440014 142:4.2927024 143:-0.10565984 144:1.7149502 
0.2140274857658785 1:0.94646792 2:0.80258636 3:-0.82366667 4:-0.94270457 5:0.94203282 6:0.83238833 7:0.090007799 8:0.690537 9:-0.36844554 10:-2.2040532 11:-0.92312731 12:0.25356579 13:0.89312037 14:0.80255463 15:-0.68541095 16:-0.97982739 17:0.85434218 18:0.78305558 19:0.27943883 20:0.66512253 21:-0.48393978 22:-2.095021 23:-1.0900391 24:0.11904422 25:-1.440734 26:0.52332443 27:-0.62732521 28:-1.0205618 29:0.51272055 30:1.1271981 31:0.43695738 32:0.29965876 33:-0.88333948 34:-0.1910247 35:-0.86081193 36:-0.081084619 37:0.45639967 38:-0.2044087 39:1.4208411 40:-0.42010616 41:-0.97294967 42:-0.55566691 43:-0.65781104 44:-0.43689106 45:-0.37444357 46:-1.3011767 47:-0.70173619 48:-1.0433946 49:0.52068501 50:-0.2076063 51:1.4555657 52:-0.40462839 53:-1.0963285 54:-0.56540728 55:-0.68156107 56:-0.43006954 57:-0.35102573 58:-1.4125518 59:-0.69895778 60:-1.0949557 61:0.94390153 62:0.86494441 63:1.0118813 64:0.18637339 65:-1.2436464 66:-0.079041548 67:-0.45266446 68:-0.48056914 69:-0.22649727 70:0.71370833 71:-0.0032876456 72:-1.0453331 73:0.49645085 74:1.7103396 75:2.3621901 76:1.7827121 77:1.629831 78:1.7170028 79:-2.678178 80:0.20923306 81:-3.2972954 82:-2.5088242 83:-0.78778919 84:-1.792496 85:0.12343066 86:1.7449212 87:2.3478447 88:1.7141272 89:1.6615824 90:1.5826603 91:-2.7349915 92:0.18195882 93:-3.3309176 94:-2.4306017 95:-0.96654386 96:-1.6579687 97:0.94079805 98:0.87854913 99:1.6488289 100:1.2498532 101:1.7274745 102:-0.083855334 103:-1.0205963 104:0.27095105 105:-4.6853202 106:-1.3859772 107:-1.5664533 108:-0.88716544 109:-0.99419413 110:0.22707519 111:-0.68647206 112:-0.4953382 113:-0.6793787 114:-0.30324025 115:0.16602072 116:0.72742981 117:3.2045442 118:-1.1344473 119:0.64907347 120:-0.71807494 121:-1.2152378 122:0.33417651 123:-0.70446266 124:-0.47774907 125:-0.69327129 126:-0.28076731 127:0.19866217 128:0.75950367 129:2.9897611 130:-1.2015828 131:0.67841887 132:-0.74086172 133:-0.15850415 134:2.1306103 135:2.6193095 136:1.9845008 137:1.2264602 138:0.80941647 139:1.0104919 140:0.062157651 141:2.1777375 142:2.3759764 143:-0.51486576 144:0.91446678 
0.7699385315928774 1:-0.22705866 2:0.89562701 3:-0.11600957 4:-0.33836384 5:1.0875479 6:0.39427004 7:-0.18809902 8:0.78543909 9:-0.16635959 10:-1.4876576 11:-0.63969101 12:0.18747064 13:-0.1378712 14:0.87654606 15:-0.14665914 16:-0.36939018 17:1.0929127 18:0.42672039 19:-0.17053023 20:0.86848528 21:-0.45416337 22:-1.3765435 23:-0.69276651 24:-0.061383966 25:-1.6151855 26:1.1002894 27:0.30664839 28:0.042343969 29:1.1330237 30:0.36313816 31:-0.48999797 32:0.18074033 33:1.1805573 34:-0.2222337 35:-0.086829207 36:1.2725787 37:0.45202959 38:-0.56096609 39:0.069779664 40:-0.84758398 41:-0.50891677 42:-0.87092937 43:-0.15265633 44:0.042257254 45:-0.92676932 46:-0.70213263 47:-0.60624815 48:-0.82076774 49:0.5165112 50:-0.83220955 51:0.14237005 52:-0.89702748 53:-0.53232156 54:-0.93482781 55:-0.12008756 56:0.087813741 57:-0.94554643 58:-0.72333704 59:-0.59630457 60:-0.8447369 61:-0.1730823 62:0.94094608 63:-0.40040649 64:-0.90239805 65:-1.1127274 66:-0.84502489 67:-0.56440359 68:-0.06120879 69:-0.74016677 70:0.10913001 71:-0.23766082 72:-0.84595019 73:0.13220085 74:-0.75544057 75:1.0584436 76:2.4170982 77:1.3567667 78:1.2900567 79:0.93006002 80:1.9956599 81:1.6470533 82:-0.35146612 83:0.32329462 84:0.014954742 85:-0.038286086 86:-0.77355793 87:1.0039094 88:2.3454642 89:1.3068032 90:1.3961712 91:1.0458742 92:1.8658284 93:1.1969584 94:-0.50288589 95:0.31097779 96:0.02125316 97:1.3152024 98:0.15487515 99:1.065609 100:1.9975811 101:1.7295465 102:1.5494883 103:1.9362854 104:2.1485121 105:0.42458777 106:-0.75386369 107:0.021424148 108:-0.30126572 109:-0.9154079 110:-1.0158116 111:-0.45964734 112:-0.58160454 113:-0.85998863 114:-0.26090809 115:-1.4082225 116:-0.58013742 117:0.79441508 118:0.055062904 119:-0.28528999 120:-1.1873323 121:-1.0655827 122:-1.2196915 123:-0.44072329 124:-0.57198177 125:-0.90067574 126:-0.23571377 127:-1.4692542 128:-0.57147089 129:0.8172104 130:0.097373912 131:-0.26427691 132:-1.2639562 133:-0.47475418 134:-1.3865309 135:0.89574342 136:3.184799 137:0.79717595 138:0.25234982 139:-0.54668509 140:-0.23757405 141:2.1824973 142:-0.31174421 143:-0.17410615 144:-1.494968 
1 1:1.4678751 2:0.33209876 3:-1.7354454 4:-0.96605719 5:1.0911483 6:0.68084524 7:0.20929336 8:1.055055 9:0.25974425 10:-1.1034569 11:-0.39659588 12:0.28846954 13:1.5429247 14:0.29744092 15:-1.8315395 16:-0.99307045 17:1.1889176 18:0.68257957 19:0.33909765 20:1.0551597 21:0.39822179 22:-1.1644427 23:-0.78128621 24:0.17502411 25:-0.97021314 26:0.77085 27:-0.88364503 28:-1.9050864 29:1.1528322 30:0.2321621 31:0.11674346 32:-0.37204992 33:-0.08928561 34:-1.3705322 35:-0.18904345 36:0.46916825 37:0.36600166 38:-0.53414882 39:0.83888669 40:-0.28374728 41:-0.86832956 42:-0.59435511 43:0.11132256 44:0.5634641 45:-0.092615271 46:-0.93746654 47:-1.1282279 48:-0.020736234 49:0.43386704 50:-0.78149337 51:0.91573121 52:-0.25323572 53:-0.96608916 54:-0.60992972 55:0.16238087 56:0.62621345 57:-0.057843347 58:-0.98938662 59:-1.1679526 60:0.015810125 61:1.431638 62:0.2395448 63:2.1951889 64:0.2671137 65:-1.2601096 66:-0.33057999 67:0.029757406 68:0.54287261 69:-0.43404231 70:-0.52340299 71:-0.88110572 72:-0.29315757 73:-1.5848716 74:-0.055001822 75:0.70263664 76:-0.21346352 77:3.1225238 78:1.490548 79:-0.27122555 80:4.3720197 81:-1.7071588 82:0.35629 83:0.33567146 84:-1.137461 85:-1.7396 86:0.0048836633 87:0.62028774 88:-0.28012653 89:3.3304005 90:1.601833 91:-0.45330776 92:4.5751364 93:-1.6027016 94:0.4095862 95:0.32659542 96:-1.3193054 97:0.51637656 98:-0.45937676 99:0.73211584 100:0.62337458 101:2.176117 102:-0.29589887 103:-0.40208421 104:1.4311258 105:-0.7451331 106:1.77025 107:1.0948567 108:0.45837264 109:-0.80378242 110:-0.76458968 111:-0.65305452 112:0.31789748 113:-0.33672811 114:0.08973027 115:-0.13920285 116:1.4229915 117:-0.56775566 118:-1.7703347 119:-0.078326539 120:-0.75844923 121:-0.87291013 122:-0.86976689 123:-0.66497251 124:0.3707545 125:-0.31181317 126:0.13149903 127:-0.11117043 128:1.4228716 129:-0.55332752 130:-1.962154 131:-0.050994788 132:-0.78521412 133:-1.9922395 134:-0.45325664 135:0.41025143 136:-0.40373037 137:3.4499946 138:0.72561382 139:-0.5497454 140:5.4470556 141:-1.2681362 142:-2.0079238 143:-0.09744726 144:-0.17972934 
1 1:0.74333253 2:0.63749804 3:-0.93247167 4:-0.74863624 5:1.3387183 6:1.1583338 7:0.59378692 8:1.1105998 9:-0.095965389 10:-1.7261591 11:-0.86374495 12:-0.09993795 13:0.60497098 14:0.68295344 15:-0.81164243 16:-0.7170568 17:1.2415979 18:1.0775401 19:0.66755312 20:1.1470484 21:-0.33483318 22:-1.7602591 23:-0.92371473 24:-0.0050048127 25:-0.45725941 26:0.67857881 27:-1.0075656 28:-0.55999373 29:0.71919823 30:0.5411755 31:-0.69961548 32:1.1116515 33:-1.0628332 34:-0.29806888 35:0.40708348 36:0.26787473 37:0.75181524 38:-0.16960941 39:1.3607107 40:-0.40034476 41:-0.50109238 42:-0.33997961 43:-0.57768766 44:-0.91205579 45:-0.68550106 46:-1.2377413 47:-0.91394774 48:-1.0831816 49:0.79762551 50:-0.15154773 51:1.401341 52:-0.3825279 53:-0.52309957 54:-0.32108411 55:-0.59053955 56:-0.96859842 57:-0.68243702 58:-1.3376436 59:-0.93011524 60:-1.1402143 61:0.77710997 62:0.66424938 63:1.1283945 64:-0.15333321 65:-1.1569384 66:0.58158831 67:0.29160637 68:-0.42213396 69:-0.621234 70:0.0083615704 71:-0.23058695 72:-0.88546951 73:-0.5683483 74:0.066967491 75:1.4640774 76:0.66512931 77:0.65399578 78:0.54591818 79:-0.85029567 80:1.3100131 81:0.0078891378 82:-0.52922295 83:0.19133435 84:-0.15410591 85:-0.83757269 86:0.13148919 87:1.4229894 88:0.66910175 89:0.63214221 90:0.48914218 91:-0.55513952 92:1.2385616 93:-0.0034532255 94:-0.52613355 95:0.28937116 96:0.014639664 97:0.37067309 98:-0.99941795 99:-0.14187711 100:0.46113525 101:0.53274676 102:-0.34091521 103:0.017009962 104:0.59615932 105:-0.72466644 106:0.13170228 107:-0.59820859 108:0.33754889 109:-0.98237101 110:-0.26496093 111:-0.93415681 112:-0.25264176 113:0.020722492 114:-0.98253981 115:-1.0156987 116:-0.46283239 117:0.13899889 118:0.2219506 119:-0.34181697 120:-0.81160812 121:-1.1919148 122:-0.23334401 123:-1.0045728 124:-0.21724216 125:0.07093905 126:-1.0270105 127:-1.0361483 128:-0.44699808 129:0.1731095 130:0.26895719 131:-0.32299876 132:-0.84379381 133:-1.2147935 134:-0.13160942 135:1.3390578 136:0.24174143 137:0.4093017 138:-0.93439478 139:-1.2768066 140:-0.77053229 141:-0.11244875 142:-0.051683447 143:-0.32435575 144:-1.08986 
0.208419553069261 1:-0.076547294 2:0.62390889 3:-0.99589369 4:-0.98352803 5:0.36471159 6:0.51347748 7:0.1683429 8:0.96831533 9:0.71530135 10:-0.5164369 11:-0.11714315 12:0.2191802 13:-0.24750771 14:0.65620542 15:-0.89553519 16:-0.98202519 17:0.28336279 18:0.52847621 19:0.18546323 20:0.90956498 21:0.69389554 22:-0.54087379 23:-0.046573172 24:0.17670542 25:-1.3307232 26:-1.2468717 27:-1.1219484 28:-1.6084863 29:0.34667829 30:0.092458352 31:-1.2413343 32:0.037912648 33:0.5547369 34:-1.0670775 35:-0.4930843 36:-1.0575087 37:-0.23208114 38:-0.3455408 39:0.43849124 40:-0.076294993 41:-0.27106199 42:-0.44518146 43:-0.47097249 44:-0.45877144 45:-0.20103746 46:-0.76650447 47:-0.81860989 48:-0.19126204 49:-0.16844767 50:-0.44306596 51:0.52268126 52:-0.0276831 53:-0.25588523 54:-0.43944421 55:-0.47049782 56:-0.45429474 57:-0.16986668 58:-0.79553559 59:-0.82574063 60:-0.1629006 61:-0.092079857 62:0.62643053 63:0.8100699 64:0.36164379 65:-0.61193077 66:-0.46603894 67:-0.26536639 68:-0.24432582 69:-0.61615731 70:-0.82343336 71:-0.83325492 72:-0.3749924 73:-0.56029212 74:2.2344736 75:2.0699286 76:1.8325928 77:3.8026628 78:3.1136076 79:0.72521105 80:3.6365606 81:0.22493209 82:1.4168598 83:0.60362746 84:-1.0098747 85:-0.73313635 86:2.3271569 87:2.0559764 88:1.8872982 89:3.5559969 90:3.034779 91:0.83877334 92:3.7216517 93:0.16808416 94:1.383258 95:0.59613851 96:-0.82054937 97:-0.45439095 98:0.38029342 99:0.67680268 100:1.3733306 101:0.30561061 102:1.8585433 103:0.39181227 104:1.4352487 105:0.23869142 106:0.17370797 107:-0.51894096 108:-0.28150369 109:-1.0614001 110:-0.53066611 111:-0.69313462 112:-1.1407089 113:-0.30509779 114:-1.1373949 115:-1.0419785 116:-1.1821689 117:-1.768338 118:-1.1815372 119:-0.77011692 120:-0.89515555 121:-1.3547364 122:-0.56303049 123:-0.71236319 124:-1.2056873 125:-0.27734461 126:-1.2037632 127:-1.064757 128:-1.2283437 129:-1.8783969 130:-1.256124 131:-0.77475637 132:-0.93628629 133:-1.2701281 134:2.6905517 135:2.2102358 136:1.8576684 137:4.4980022 138:2.9769956 139:-0.5008279 140:2.2661126 141:-1.355054 142:-0.58505927 143:0.01813039 144:-0.44143861 
0.08727070493691964 1:0.43912727 2:0.49870125 3:-1.2740363 4:-1.1402953 5:0.32864222 6:0.45051829 7:0.052641345 8:0.9966526 9:0.76492037 10:-0.74314089 11:-0.33901033 12:0.39134368 13:0.68485048 14:0.52552896 15:-1.2533816 16:-1.1629751 17:0.35171017 18:0.41426178 19:0.17488425 20:1.0354544 21:0.72244246 22:-0.87248092 23:-0.15631896 24:0.26680928 25:-0.47624181 26:0.049025916 27:-1.3045953 28:-1.433506 29:-0.90729858 30:-0.20195424 31:-1.6165302 32:0.73899733 33:-0.17860394 34:-0.70217753 35:0.29320895 36:-0.38198843 37:-0.28019279 38:-0.12814334 39:0.98319962 40:-0.18623397 41:-0.27413072 42:-0.31362121 43:-0.24955688 44:-0.76764361 45:0.060274942 46:-0.69742688 47:-0.50928923 48:-0.29337656 49:-0.21923935 50:-0.085697842 51:1.0528574 52:-0.14651732 53:-0.25940171 54:-0.29166321 55:-0.22558361 56:-0.80207974 57:0.098549452 58:-0.71807575 59:-0.49290457 60:-0.27108628 61:0.39500634 62:0.49796232 63:1.471821 64:0.63568747 65:-0.58418304 66:-0.46871049 67:-0.31765833 68:-0.44269397 69:-0.45211773 70:-0.61962091 71:-0.42069605 72:-0.52313353 73:-1.6571683 74:1.6574013 75:1.5794776 76:1.5049333 77:2.6737121 78:2.6444129 79:0.41231288 80:2.8345961 81:0.34107717 82:1.0710428 83:0.45614146 84:-0.73975915 85:-1.7068222 86:1.9248128 87:1.5746484 88:1.5031225 89:2.4562596 90:2.4615969 91:0.74994003 92:2.8103289 93:0.13812551 94:1.3087936 95:0.5437632 96:-0.68288483 97:-0.28118501 98:-1.1256512 99:0.22582183 100:1.0343639 101:1.020509 102:0.63178708 103:-0.91882694 104:-0.0008901964 105:-0.033078179 106:-0.69453761 107:-0.62266195 108:-0.55922228 109:-0.86933733 110:0.55723897 111:-0.57383004 112:-0.18751255 113:1.6481584 114:-0.62275785 115:0.93589504 116:-0.30504875 117:0.67074228 118:0.10803534 119:-0.686981 120:0.36110911 121:-0.9836418 122:0.68927462 123:-0.57224361 124:-0.14844197 125:1.6575736 126:-0.62614021 127:0.95526287 128:-0.28126523 129:0.69768073 130:0.15209114 131:-0.68609952 132:0.4033761 133:-2.1185673 134:2.1341724 135:1.5587691 136:1.5922141 137:3.4559016 138:2.2609771 139:0.61760433 140:1.2415101 141:0.55185579 142:-0.012494851 143:-0.14226028 144:0.29931821 
1 1:0.046844633 2:0.5927242 3:-0.37516052 4:-0.75113099 5:0.040924463 6:0.76177596 7:1.5281121 8:2.1246706 9:0.21356732 10:-2.598787 11:-1.9285008 12:0.07112726 13:0.18232171 14:0.62820577 15:-0.51558087 16:-0.83931574 17:-0.036520506 18:0.81172749 19:1.4366604 20:2.0413927 21:0.3860481 22:-2.5064675 23:-1.7277826 24:0.14984838 25:-1.0145017 26:0.49932667 27:-1.1633719 28:-0.51562297 29:-0.27633721 30:0.45436371 31:-0.19728434 32:0.7216654 33:0.097619771 34:-2.3324883 35:-3.276789 36:0.36975343 37:-0.42464159 38:-0.035972238 39:-0.022409221 40:0.2356261 41:-0.31151418 42:-0.1971207 43:0.59849242 44:0.18863459 45:0.19158737 46:0.79488502 47:0.32835093 48:-1.2889478 49:-0.37408893 50:0.057200154 51:0.044199251 52:0.30142086 53:-0.30234218 54:-0.16271863 55:0.66617109 56:0.24149786 57:0.23144166 58:0.85013994 59:0.36811843 60:-1.3770108 61:0.0077078917 62:0.62495033 63:-0.21773638 64:0.045773043 65:-0.34073136 66:-0.007593392 67:2.2042694 68:1.8257853 69:-0.22411686 70:2.8380384 71:2.0457061 72:-1.1465952 73:-0.90438844 74:0.4445306 75:1.3121593 76:1.4777702 77:1.7039717 78:1.6133625 79:1.7697801 80:2.9421504 81:1.0478621 82:0.020249284 83:-0.028641298 84:-0.45052968 85:-1.0240021 86:0.51606741 87:1.3313635 88:1.4283709 89:1.6026527 90:1.7558541 91:1.8206071 92:2.8897299 93:1.1632701 94:0.14589783 95:-0.14739245 96:-0.58074683 97:0.21578185 98:-0.51186415 99:-0.047248023 100:0.26731064 101:1.2004862 102:0.94007388 103:0.82660163 104:0.35751543 105:-1.0780562 106:-1.4741612 107:-0.96783608 108:0.82095858 109:-0.86631755 110:0.18422211 111:-0.80962601 112:0.8258486 113:0.12466267 114:-0.88514349 115:2.1595121 116:0.094823933 117:1.1912478 118:0.83245856 119:-0.43442971 120:-0.24808628 121:-0.97839653 122:0.28668775 123:-0.85200409 124:0.86883424 125:0.17957153 126:-0.91717214 127:2.0933602 128:0.13047355 129:1.194836 130:0.8777458 131:-0.41965214 132:-0.23307438 133:-1.440737 134:0.47156792 135:1.1587098 136:1.9024782 137:1.648613 138:0.28884173 139:2.9372373 140:1.7055621 141:1.6476676 142:0.12352582 143:-0.55221659 144:-0.43857397 
0.3647321754315789 1:0.17690634 2:0.16001581 3:0.19626142 4:-0.13129795 5:-1.0840434 6:-1.1353524 7:-0.81728002 8:0.32727648 9:1.6722779 10:1.3462559 11:-0.52087413 12:-1.4822183 13:0.10459622 14:0.14521616 15:0.28756573 16:-0.13195849 17:-1.2002834 18:-1.125225 19:-0.76688263 20:0.26042682 21:1.8103622 22:1.2344002 23:-0.36669561 24:-1.2333543 25:0.033984282 26:-0.27053295 27:-0.27018692 28:0.095339998 29:-1.4027719 30:-1.1708308 31:-1.1745874 32:-0.70596272 33:-1.3005924 34:-0.78385316 35:-1.4856165 36:-0.58857814 37:-0.66255821 38:-0.35339749 39:-0.6356647 40:-0.1785698 41:-0.21703961 42:-0.040966417 43:0.35606398 44:0.17704319 45:-0.11321374 46:0.6711344 47:0.13810356 48:0.91307589 49:-0.63740277 50:-0.45658558 51:-0.64567057 52:-0.13818272 53:-0.19418738 54:0.0074176839 55:0.4181807 56:0.22940081 57:-0.079053681 58:0.72689668 59:0.17734865 60:0.95487973 61:0.11005974 62:0.051714004 63:-1.0154608 64:-0.83276469 65:0.98765884 66:-0.16292402 67:-0.88939349 68:-0.23192976 69:-0.39088009 70:0.75257084 71:0.22382032 72:1.575692 73:0.80851038 74:1.4449922 75:2.13674 76:1.7870056 77:1.3286285 78:2.4849185 79:0.68206948 80:2.3930497 81:2.2290954 82:2.1493553 83:1.2644146 84:-1.8034832 85:0.49807026 86:1.374391 87:1.9869665 88:1.7407975 89:1.3915077 90:2.5895137 91:0.76251158 92:2.2642933 93:2.3850415 94:2.1354712 95:1.2308193 96:-1.7453713 97:1.5419541 98:1.7886363 99:2.0215048 100:1.2830394 101:0.93209862 102:2.3624257 103:0.35097749 104:1.2620882 105:0.96286798 106:0.73939873 107:0.77119984 108:-1.9325728 109:-1.0066986 110:-1.4087093 111:-0.90726414 112:-1.3549563 113:-0.69637868 114:-1.5174023 115:-2.1343327 116:-1.4027173 117:-1.1798799 118:-0.24879147 119:-0.31711521 120:-0.90165844 121:-1.240274 122:-1.8212058 123:-0.97132604 124:-1.4602018 125:-0.7125987 126:-1.6492226 127:-2.3060819 128:-1.4771331 129:-1.213135 130:-0.22124214 131:-0.29731274 132:-0.94350743 133:0.15283173 134:1.3766732 135:2.2705993 136:1.6940317 137:0.83793201 138:1.4428609 139:-1.3969715 140:-0.31623976 141:1.9068985 142:1.2953047 143:1.1275868 144:0.79628969 
0.3159134185721102 1:-0.3308784 2:0.23221974 3:0.4320828 4:-0.03762834 5:-0.84394579 6:-1.1441756 7:-0.9023218 8:0.14554794 9:1.4264751 10:1.4151955 11:-0.36724572 12:-1.8326217 13:-0.4397129 14:0.18206458 15:0.47286394 16:-0.019104712 17:-0.82149604 18:-1.1289864 19:-0.8643664 20:0.11833897 21:1.2473818 22:1.6483363 23:-0.62989456 24:-1.9417724 25:0.37255627 26:0.59786734 27:-1.7189462 28:-1.0446135 29:-1.1408257 30:-0.446486 31:-1.4132999 32:-0.55833972 33:-0.59613771 34:0.468334 35:-0.35303357 36:-2.3085061 37:-0.32690229 38:-0.13797496 39:0.47827082 40:1.7500983 41:0.45492327 42:-0.51790467 43:-0.30682637 44:-0.77254424 45:0.1671614 46:-0.21639954 47:-0.12726069 48:0.55079839 49:-0.26891982 50:-0.10121991 51:0.56261142 52:1.7602156 53:0.54307896 54:-0.52215967 55:-0.28840855 56:-0.80768832 57:0.20681984 58:-0.19163494 59:-0.093306654 60:0.59807656 61:-0.34325321 62:0.16972361 63:-0.37165865 64:-0.2143746 65:0.85026144 66:-0.39801798 67:-1.2745106 68:-1.009491 69:-0.30860926 70:0.12866001 71:-0.10248096 72:1.7010196 73:0.4308955 74:0.60865397 75:2.3175185 76:1.635455 77:0.82232237 78:2.1457801 79:-0.074386656 80:1.8034766 81:2.3977487 82:2.2863338 83:1.631945 84:-2.0833835 85:0.18214988 86:0.56685987 87:2.2409012 88:1.5971482 89:0.83098439 90:1.9272577 91:-0.084450113 92:1.7588993 93:2.3690063 94:2.3691223 95:1.6685166 96:-2.2954149 97:0.95728833 98:0.66534281 99:2.7368781 100:1.8735834 101:0.30482143 102:2.142069 103:-2.1954643 104:0.77653271 105:1.1301652 106:0.59252755 107:0.88569836 108:-1.0068325 109:-1.0082423 110:-1.1443695 111:-1.3292343 112:-1.2457674 113:-0.68337326 114:-1.5096978 115:-1.4710803 116:-0.7032991 117:-1.2927604 118:-0.61240223 119:-0.45430581 120:-0.74670077 121:-1.243392 122:-1.4083935 123:-1.5140479 124:-1.3296148 125:-0.69780918 126:-1.6400167 127:-1.5398025 128:-0.70334745 129:-1.3382586 130:-0.6138449 131:-0.44046815 132:-0.77229576 133:-0.23388342 134:0.28889905 135:2.4632605 136:1.4447211 137:0.25154394 138:0.78948212 139:-1.4884732 140:-0.54425302 141:2.1344203 142:1.3258254 143:1.7234539 144:1.4615569 
0.908884834679759 1:0.19700026 2:0.83751599 3:-0.9613738 4:-1.4538192 5:-0.67324375 6:0.086809313 7:0.43578874 8:1.5322535 9:0.63784869 10:-1.5264786 11:-1.1892142 12:-0.1374461 13:-0.26260935 14:0.81639518 15:-0.82298031 16:-1.3957546 17:-0.72975994 18:-0.036613399 19:0.41322833 20:1.5088499 21:0.84983591 22:-1.4587297 23:-1.2667297 24:-0.34806358 25:-1.4021337 26:-0.91943187 27:-1.9554351 28:-1.9384639 29:-1.1562444 30:0.11443196 31:0.14024925 32:0.17578431 33:-0.4182749 34:-0.63447602 35:-1.4564952 36:-0.48972405 37:0.67911726 38:-0.46724909 39:0.47538479 40:0.94897171 41:-0.045950008 42:-0.30819712 43:-0.57488222 44:-0.7110279 45:-0.5244147 46:-1.3544318 47:-0.54271527 48:-0.83973054 49:0.7303996 50:-0.6579594 51:0.55972131 52:1.014433 53:-0.0013043811 54:-0.28562037 55:-0.58736654 56:-0.7374957 57:-0.50974929 58:-1.4758136 59:-0.52845742 60:-0.86585435 61:0.25136964 62:0.87877584 63:0.77523806 64:1.55008 65:0.51575245 66:-0.77765139 67:0.05981478 68:0.29057864 69:-0.82156199 70:-0.3662845 71:0.43485283 72:-0.67551944 73:-0.94703292 74:-0.41332566 75:1.3260127 76:0.24258352 77:0.15503337 78:2.1181212 79:0.017334009 80:0.41918007 81:0.11113176 82:-0.37745014 83:0.63586301 84:-0.81911448 85:-1.1943193 86:-0.44091045 87:1.2927335 88:0.15385417 89:0.27695614 90:1.8592636 91:0.12531884 92:0.50280056 93:-0.017200448 94:-0.33027376 95:0.5494667 96:-0.68263272 97:0.1357846 98:-0.55977515 99:1.5769811 100:-1.0804798 101:-0.42152379 102:1.6222985 103:-0.8684411 104:-0.123 105:-1.1270138 106:0.30817696 107:-0.12186812 108:-0.75852898 109:-0.99199985 110:-0.65177359 111:-0.56041371 112:0.30254673 113:-0.61528034 114:-0.5782478 115:0.5082999 116:-0.54687562 117:-0.48509824 118:-0.47931645 119:0.67021522 120:-0.53026779 121:-1.2108841 122:-0.71973675 123:-0.55666199 124:0.35534847 125:-0.62075047 126:-0.57745017 127:0.53927317 128:-0.53606573 129:-0.46650816 130:-0.46864715 131:0.69917419 132:-0.53609803 133:-1.5895149 134:-0.84229481 135:1.2238065 136:-0.019541567 137:-0.37062023 138:1.2980965 139:0.059891633 140:-1.0211071 141:-0.47984386 142:-0.70082082 143:0.48321938 144:-0.35608719 
0.319100389789601 1:0.66587957 2:0.4781015 3:-0.45004962 4:-0.51664458 5:0.28504945 6:0.42537379 7:0.76368589 8:0.88066044 9:-0.050352126 10:-0.44393835 11:0.66223224 12:0.62813293 13:0.38795764 14:0.44729452 15:-0.40129349 16:-0.63822033 17:-0.01614734 18:0.44669959 19:0.83396488 20:1.0328685 21:0.19547039 22:-0.50353831 23:0.018149162 24:0.20844484 25:0.76713162 26:1.0756852 27:-0.82964878 28:0.27510543 29:1.1190457 30:1.1141263 31:0.65666895 32:1.063888 33:-0.17777051 34:-0.98105784 35:1.5317725 36:1.1430412 37:0.47927944 38:-0.41533334 39:-0.19930615 40:0.53050075 41:-0.19458333 42:-0.62685491 43:-0.049763813 44:-0.40681658 45:-1.10317 46:-0.73478232 47:-0.72478856 48:-0.32836711 49:0.54249929 50:-0.56482648 51:-0.1479546 52:0.60242373 53:-0.1686546 54:-0.64750055 55:-0.0091474687 56:-0.39685783 57:-1.141479 58:-0.75990336 59:-0.72386436 60:-0.3083638 61:0.67774924 62:0.43603623 63:-0.2421108 64:-0.20868485 65:-0.527552 66:-0.67703568 67:0.74602684 68:-0.30893707 69:-0.94529209 70:-0.85444934 71:-1.1106557 72:-0.64944318 73:1.5349512 74:0.83875544 75:-0.23771233 76:0.58665288 77:-2.0908779 78:0.3380118 79:-2.1882774 80:0.82445422 81:-1.3134094 82:-1.0035207 83:0.88235387 84:-0.98870241 85:1.2784814 86:0.73618924 87:-0.28768686 88:0.81089512 89:-2.1014021 90:0.55202955 91:-1.6083366 92:0.85581566 93:-1.2780932 94:-1.3852414 95:0.82529803 96:-0.62113768 97:1.1205764 98:0.44171804 99:-0.79312165 100:0.18907804 101:-1.0355514 102:0.32686494 103:-1.0256161 104:0.78470392 105:-0.21753232 106:0.4923246 107:0.10257558 108:-0.14263341 109:-0.2806121 110:0.070816582 111:0.28289394 112:0.16421383 113:1.5804052 114:-0.33995775 115:-0.66562927 116:-0.26911532 117:-1.6395552 118:0.41975092 119:-0.32934259 120:-0.19135554 121:-0.14751923 122:0.15933517 123:0.36144286 124:0.21552443 125:1.5958007 126:-0.31997546 127:-0.66009287 128:-0.24378666 129:-1.7299797 130:0.46935773 131:-0.31002245 132:-0.17280313 133:1.264428 134:0.93589593 135:-0.33049376 136:0.30952041 137:0.21160866 138:-0.58623963 139:-0.18274723 140:-0.82507617 141:-2.1694472 142:0.56014931 143:0.52336695 144:0.086919956 
0.7287321546798086 1:1.4075476 2:0.59304781 3:-0.62824376 4:-0.77854837 5:0.33569595 6:0.68444503 7:0.67541138 8:0.60314366 9:-0.43385268 10:-0.13008562 11:1.3832181 12:0.6919573 13:1.8614765 14:0.55692489 15:-0.81150831 16:-0.80361859 17:0.15386261 18:0.55228886 19:0.55951632 20:0.86720731 21:-0.46059457 22:0.048553824 23:1.5010318 24:0.5531677 25:0.14938421 26:0.71270435 27:0.021441442 28:-0.9838104 29:1.147678 30:0.72157607 31:0.11882296 32:1.4542685 33:0.87409267 34:-0.67010355 35:0.36352116 36:0.25411217 37:1.2337329 38:0.019740835 39:1.5909891 40:0.37470178 41:-0.80158282 42:-0.86681751 43:-0.85193287 44:-1.2848616 45:-1.4744537 46:-0.71490384 47:-0.036520398 48:-0.33494247 49:1.2293201 50:0.14140132 51:1.6072122 52:0.44455286 53:-0.88397108 54:-0.92990895 55:-0.90539259 56:-1.4110814 57:-1.5644341 58:-0.73762731 59:-0.00014266518 60:-0.31538083 61:1.4495643 62:0.63157809 63:0.8519413 64:0.12779144 65:-0.7786306 66:-0.46943141 67:0.30182571 68:-1.2185403 69:-0.89659065 70:-0.94229665 71:-0.48344791 72:-0.66570733 73:1.1584801 74:0.56225097 75:-0.52125879 76:0.62757501 77:-1.405667 78:0.51010896 79:-1.4620414 80:1.4048355 81:-1.5980857 82:-0.4765427 83:0.89514001 84:-0.83235633 85:0.16017368 86:0.54501613 87:-0.38709743 88:0.73929045 89:-1.264407 90:0.39637855 91:-1.7221682 92:1.1894878 93:-1.3581816 94:-0.52499168 95:0.98883005 96:-0.9471433 97:1.004527 98:-0.91499818 99:-1.2649691 100:-1.7904333 101:-3.4849784 102:-0.18645051 103:-0.17554237 104:1.6601648 105:-0.1751906 106:0.046117139 107:0.39199806 108:0.32839603 109:-0.049667735 110:1.4040419 111:1.2594889 112:0.75126499 113:2.9187167 114:0.26455117 115:2.844014 116:0.09039829 117:-1.2095282 118:0.44882167 119:0.018764814 120:-0.51297853 121:0.11667387 122:1.5269028 123:1.3065955 124:0.79706763 125:2.7613029 126:0.31078362 127:2.7000882 128:0.12597906 129:-1.2458897 130:0.49854796 131:0.048151085 132:-0.51737382 133:1.0171901 134:0.95288632 135:-0.25326333 136:0.61160573 137:0.72729636 138:-0.082418941 139:1.626664 140:-0.27865114 141:-1.8014524 142:0.062850355 143:0.64279941 144:-0.3437253 
0.1459891504894262 1:1.215014 2:0.6321998 3:-0.72756347 4:-0.90798213 5:0.35556532 6:0.67496692 7:0.73141066 8:1.0446195 9:-0.13133703 10:-0.79607657 11:0.69070631 12:0.70761551 13:1.1697713 14:0.55599171 15:-0.87697186 16:-0.87797701 17:0.271517 18:0.50813494 19:0.5409832 20:1.2062058 21:-0.23124017 22:-0.60268999 23:0.71237617 24:0.74219025 25:0.14736426 26:0.62338951 27:-0.067102983 28:-0.70178704 29:-0.33752574 30:1.1270061 31:1.1734222 32:0.049297441 33:-1.4717478 34:-1.1352521 35:1.1683032 36:2.0655197 37:0.5303297 38:-0.24983056 39:-0.12406342 40:0.028114772 41:-0.59513215 42:-0.62230834 43:-0.21585276 44:-1.0088819 45:-1.1136854 46:-0.43292536 47:-0.74199701 48:-1.4096801 49:0.59094489 50:-0.2819214 51:-0.065597621 52:0.083772102 53:-0.63453885 54:-0.64223515 55:-0.18877613 56:-1.0817268 57:-1.1532573 58:-0.42588028 59:-0.74248889 60:-1.518158 61:1.205318 62:0.64778846 63:0.14988558 64:0.24929457 65:-0.72140149 66:-0.35324868 67:0.63727716 68:-0.57945276 69:-0.89177133 70:-0.36887729 71:-1.1210524 72:-1.5223235 73:0.98787491 74:0.14478816 75:0.19835587 76:0.56556739 77:-1.4766669 78:0.54349862 79:-1.0580545 80:1.5239079 81:-1.1860981 82:-0.44655109 83:0.50211733 84:-1.2713247 85:0.17862292 86:0.094493482 87:0.28013288 88:0.45127221 89:-1.3250458 90:0.498024 91:-1.4320347 92:1.6395855 93:-1.2321921 94:-0.49517974 95:0.61531489 96:-1.2783372 97:0.89748957 98:-0.014884366 99:0.025633607 100:0.3485423 101:-0.79655088 102:-0.91540782 103:-1.5528533 104:-0.082158729 105:-0.072992504 106:-1.1113901 107:0.28247596 108:-0.10699832 109:-0.28401163 110:0.30191996 111:0.64265918 112:0.85137912 113:1.6329623 114:0.1861481 115:2.2020528 116:0.61249209 117:-1.3330483 118:0.65073566 119:-0.90461568 120:-1.1169811 121:-0.15160181 122:0.4163147 123:0.72218923 124:0.89329723 125:1.643747 126:0.23068042 127:2.1316539 128:0.64712953 129:-1.3831921 130:0.69949531 131:-0.91921037 132:-1.1844475 133:0.73341128 134:0.14111394 135:0.15705641 136:0.57680834 137:0.12887475 138:-0.11599881 139:1.0667222 140:0.210884 141:-1.8820507 142:0.18904704 143:-0.16009451 144:-0.28686126 
0.7715594874750815 1:1.7525606 2:0.51227103 3:-1.2498433 4:-0.99688673 5:0.82465368 6:1.193673 7:0.50657626 8:0.45174388 9:-0.54443181 10:-0.80073889 11:0.53639934 12:0.094825568 13:1.5544224 14:0.57242991 15:-1.198121 16:-1.0803647 17:0.76208136 18:1.1325178 19:0.57151714 20:0.62646193 21:-0.54878089 22:-0.52470771 23:0.8418121 24:0.17435267 25:0.54831271 26:0.44313697 27:-1.3944639 28:-0.90991747 29:0.45579506 30:1.4958007 31:0.72519948 32:0.63140817 33:0.90071103 34:-0.25625303 35:1.0891639 36:-0.17751973 37:1.0100038 38:0.24047363 39:2.2730032 40:0.67087645 41:-0.66473991 42:-0.22751655 43:-0.2324969 44:-0.96943864 45:-0.8095453 46:-1.1858007 47:-1.237445 48:-0.67913163 49:1.0318087 50:0.46072258 51:2.1907462 52:0.74252783 53:-0.71788844 54:-0.19619181 55:-0.20693753 56:-1.035496 57:-0.81702532 58:-1.2766648 59:-1.2909717 60:-0.6881223 61:1.758252 62:0.55941822 63:1.9377847 64:0.58604983 65:-1.0657014 66:0.69259885 67:0.29763981 68:-1.0585384 69:-0.35827987 70:-1.013685 71:-1.513231 72:-0.69207728 73:0.61791654 74:0.94911551 75:-0.39815484 76:0.85748958 77:-0.4157076 78:1.1962149 79:-2.0143274 80:1.166828 81:-1.4067826 82:-1.0400877 83:0.54317092 84:-1.1601251 85:0.27336219 86:0.86042934 87:-0.32062976 88:0.81435474 89:-0.27502329 90:1.002472 91:-1.8767781 92:1.285219 93:-1.4972128 94:-1.0082988 95:0.82131645 96:-0.86186503 97:0.76891866 98:-0.15685083 99:-0.87201361 100:-0.041474413 101:-2.0776728 102:0.34261229 103:-3.5279567 104:0.77061659 105:-0.060533376 106:-0.9704026 107:0.40266913 108:-0.27737446 109:-0.29701373 110:1.010518 111:1.0522355 112:0.99884621 113:1.6286485 114:-0.13868885 115:1.6417971 116:1.9547749 117:-1.0641089 118:0.51343133 119:0.33960743 120:0.3287412 121:-0.1672738 122:1.1493359 123:1.1146314 124:1.0335885 125:1.639819 126:-0.10652471 127:1.6207219 128:1.9122073 129:-1.0859664 130:0.56318755 131:0.3718008 132:0.3701388 133:0.37421051 134:1.3224971 135:-0.23297769 136:1.0147561 137:0.37092188 138:0.22190348 139:1.2358956 140:0.98432727 141:-1.6822159 142:0.67912234 143:0.268176 144:0.72372957 
0.04744475481392996 1:1.8892215 2:0.68735386 3:-1.067282 4:-1.1036133 5:0.37778397 6:0.75947939 7:0.35007177 8:0.55344286 9:0.14307713 10:0.12664776 11:1.1209782 12:0.45469604 13:1.4458741 14:0.7012645 15:-1.0821482 16:-1.1224271 17:0.37373285 18:0.7836767 19:0.30829591 20:0.64380134 21:-0.1050358 22:-0.019486214 23:1.0592486 24:-0.16652704 25:0.74629299 26:0.96184116 27:-1.2056644 28:-0.7858124 29:1.0049154 30:1.3217618 31:0.54163835 32:0.8907633 33:0.49332867 34:1.755033 35:0.4689827 36:0.99602765 37:1.3149857 38:-0.5660062 39:0.48234043 40:-1.0864989 41:-1.0010651 42:-0.78144133 43:0.19885403 44:-0.1408126 45:-0.33285438 46:-1.157538 47:-1.6163232 48:-1.0016913 49:1.2998818 50:-0.8418217 51:0.566685 52:-1.1853323 53:-1.1316553 54:-0.82839582 55:0.25451817 56:-0.10729372 57:-0.30734922 58:-1.2436166 59:-1.7277638 60:-1.047696 61:1.9139604 62:0.67894032 63:0.93153328 64:0.31305945 65:-0.88733513 66:-0.31207181 67:0.25094186 68:-0.36411102 69:-0.53789446 70:-1.3737597 71:-1.8832247 72:-1.107389 73:0.82510003 74:0.60771469 75:0.020823754 76:0.48531675 77:-1.2074384 78:0.71100687 79:-1.0632927 80:0.2617787 81:-0.85347785 82:-1.1012957 83:1.1692433 84:-1.5046966 85:-0.0086579959 86:0.45854815 87:-0.060430202 88:0.43195528 89:-1.1912304 90:0.38124938 91:-0.82125322 92:0.24692311 93:-1.1492374 94:-1.2335025 95:1.0784978 96:-1.7129258 97:0.34265585 98:0.84716672 99:-0.98962658 100:-0.32870483 101:-0.66609902 102:-0.48716638 103:-0.55478095 104:-0.0033585385 105:-0.49456313 106:0.040322709 107:1.3585636 108:-0.91582788 109:-0.1354553 110:-0.12996263 111:1.8887069 112:0.72959642 113:0.85848381 114:-0.17343804 115:1.2094201 116:-0.087740949 117:-0.74349565 118:-0.16228906 119:-0.43214628 120:1.806644 121:0.021380898 122:-0.072500783 123:1.8654622 124:0.77613236 125:0.91618144 126:-0.1431229 127:1.2161418 128:-0.05607486 129:-0.73965841 130:-0.12969403 131:-0.41726239 132:1.8287518 133:0.65787249 134:0.58406813 135:0.2924474 136:0.42892169 137:-0.25326042 138:-0.25560902 139:0.39609962 140:-0.61169433 141:-1.3103143 142:0.284503 143:0.93684959 144:2.2847813 
0.247795956664489 1:2.0209586 2:0.31593933 3:-0.94495966 4:-0.63265298 5:0.62654242 6:0.7273119 7:1.0987494 8:1.0924204 9:-0.69375402 10:-0.9114717 11:0.49968778 12:0.39504156 13:1.3058761 14:0.37287154 15:-0.85024671 16:-0.86346527 17:0.5431739 18:0.73097775 19:0.86065063 20:0.97881689 21:-0.86869382 22:-0.92189076 23:0.70118168 24:0.34630466 25:1.4637619 26:0.1081847 27:-0.33861122 28:-0.040878202 29:0.82725174 30:1.1959889 31:1.5511712 32:1.0605918 33:0.33210006 34:0.27456942 35:0.31897894 36:1.2471152 37:1.4401703 38:0.25685088 39:0.83887003 40:2.2852079 41:-0.15868668 42:-0.14803878 43:-0.16790407 44:-1.3829003 45:-0.53189913 46:-1.5773072 47:-1.0769011 48:-1.1008211 49:1.4074299 50:0.48358472 51:0.91571524 52:2.2313765 53:-0.12797744 54:-0.10891527 55:-0.13662172 56:-1.5306813 57:-0.5177216 58:-1.7444165 59:-1.1105644 60:-1.1603335 61:2.0496284 62:0.3228665 63:0.91062745 64:0.45541559 65:-0.76439758 66:-0.03939876 67:1.2322255 68:-0.81218203 69:-0.047941527 70:-1.2758229 71:-1.3686339 72:-1.1640078 73:0.67226667 74:0.65320586 75:0.24617677 76:0.9589043 77:-0.61720104 78:0.88261568 79:0.72817947 80:1.3030717 81:-0.48123893 82:-1.2334489 83:1.456774 84:-1.904455 85:0.1215675 86:0.4827558 87:0.14412728 88:0.90483549 89:-0.69974139 90:0.96403096 91:0.91754333 92:1.2783328 93:-0.19337904 94:-1.3575059 95:1.3240351 96:-1.9158195 97:0.64502578 98:0.4592976 99:0.40411383 100:0.81549643 101:-0.11744776 102:0.9580005 103:0.5399063 104:1.3166201 105:0.092523534 106:-0.36147982 107:1.9446461 108:-0.49142359 109:-0.35647586 110:-0.2074141 111:-0.0091380834 112:0.96250953 113:1.490239 114:-1.0025058 115:1.1191393 116:-0.60650549 117:-1.244206 118:0.62699707 119:-0.71093706 120:0.22333781 121:-0.240148 122:-0.16426606 123:0.056053345 124:0.99917801 125:1.513085 126:-1.0496523 127:1.1304703 128:-0.59960116 129:-1.2842992 130:0.67603071 131:-0.71159752 132:0.26146675 133:0.39162461 134:0.62025115 135:0.044072263 136:1.1406196 137:0.21372614 138:-0.69845895 139:0.99611474 140:-0.90975565 141:-1.5304719 142:1.0113449 143:1.3445563 144:1.8078362 
0.4329982730885222 1:1.5323302 2:0.9435945 3:-0.15429718 4:-0.58313698 5:0.69323835 6:0.68586974 7:0.28887092 8:0.44365181 9:-0.14301618 10:-0.13525899 11:0.72341997 12:-0.32893094 13:1.3285575 14:0.89190384 15:-0.2406756 16:-0.61043608 17:0.49836846 18:0.75449015 19:0.12840319 20:0.5452687 21:-0.16289811 22:-0.39577886 23:1.0150849 24:-0.20303528 25:-1.202377 26:0.5539162 27:-0.43790052 28:-0.14354872 29:1.6809254 30:0.66526304 31:0.19503813 32:0.4192887 33:-0.42244352 34:0.069042308 35:1.0673593 36:0.60820829 37:3.1393367 38:-0.45467835 39:2.05784 40:0.20624688 41:-0.83565393 42:-0.60463467 43:-0.49608089 44:-0.99461926 45:-1.5642267 46:-0.96115195 47:-1.5423939 48:-1.6273681 49:2.7500623 50:-0.63519774 51:2.0106063 52:0.27090913 53:-0.92579557 54:-0.62179633 55:-0.49862168 56:-1.0649863 57:-1.668983 58:-1.0164899 59:-1.6412613 60:-1.7770086 61:1.7319646 62:1.012769 63:0.65007299 64:-0.22133508 65:-1.0584882 66:-0.33028545 67:-0.12081788 68:-1.0872884 69:-1.1978639 70:-1.1642612 71:-1.8258848 72:-1.1755292 73:0.38730975 74:0.78413609 75:0.45548971 76:0.4567288 77:-2.6828332 78:-0.45983837 79:-0.096941618 80:0.22853452 81:-0.16131812 82:0.15324613 83:1.5949276 84:-1.2300639 85:-0.20062105 86:0.77836061 87:0.43637216 88:0.55975324 89:-2.5310896 90:-0.55715242 91:0.18284768 92:0.1667964 93:-0.028719757 94:-0.035159767 95:1.7435191 96:-1.0297357 97:0.65887733 98:0.71305536 99:-0.22504571 100:0.52338741 101:-1.1838499 102:0.18111703 103:-0.3178034 104:-1.361102 105:0.63419335 106:-1.2590176 107:-0.28178294 108:0.0039559228 109:-0.7738146 110:-0.077884831 111:0.80286764 112:0.35799514 113:-0.19408614 114:0.020430765 115:0.91354092 116:0.19445844 117:0.085571607 118:2.5471553 119:1.2731309 120:0.2241209 121:-0.8243114 122:-0.01154905 123:0.87787033 124:0.41089456 125:-0.15731393 126:0.059745998 127:0.93376627 128:0.2313005 129:0.11940445 130:2.4546489 131:1.2812529 132:0.26227661 133:-0.13112235 134:0.82552644 135:0.45558646 136:0.23496584 137:-0.38389913 138:-0.32752093 139:0.27188633 140:-0.37600691 141:-0.29767863 142:1.267339 143:2.061957 144:0.72733423 
0.08549761036288148 1:0.86285906 2:0.93948871 3:0.033968962 4:-0.59643281 5:0.93990326 6:0.94808822 7:0.52079528 8:0.72398329 9:-0.30397621 10:-0.84303155 11:0.25957617 12:-0.44762465 13:-0.0067740538 14:1.0716655 15:0.41349634 16:-0.76516697 17:0.95907047 18:0.96137029 19:0.73141146 20:0.71127133 21:-0.50246665 22:-0.71146306 23:0.29811438 24:-0.44437005 25:-0.48622819 26:0.55045203 27:-0.33470106 28:0.060321892 29:1.7529755 30:0.83127819 31:1.2393141 32:1.7790338 33:0.45405887 34:0.54899374 35:0.6470135 36:0.82072047 37:3.1733444 38:0.11271761 39:3.0930407 40:1.2247751 41:-2.0018025 42:-1.4822878 43:-1.1713445 44:-1.7767038 45:-1.0506704 46:-1.5421112 47:-1.4398457 48:-1.938095 49:2.7750436 50:0.27855583 51:2.8479941 52:1.2771553 53:-2.4967999 54:-1.6999302 55:-1.2845757 56:-2.0261786 57:-1.0828415 58:-1.7015757 59:-1.5223144 60:-2.1568668 61:1.1031999 62:1.069508 63:1.0201627 64:0.10875849 65:-1.7032871 66:-0.3597889 67:-0.068529298 68:-1.5324448 69:-0.72311854 70:-1.304162 71:-1.5939963 72:-1.3358113 73:0.4681691 74:0.91377346 75:0.70874299 76:0.87365844 77:-1.7371413 78:-0.076709017 79:-0.70439709 80:0.57594743 81:0.30132909 82:0.11030048 83:1.708685 84:-0.46936376 85:0.17546734 86:0.89521911 87:0.95198662 88:0.94435803 89:-2.0423735 90:0.15262751 91:-0.4377645 92:0.56567124 93:0.31339892 94:0.23415586 95:1.5640159 96:-0.51769867 97:0.49138285 98:0.12380679 99:-0.97511646 100:1.2432093 101:-0.20949481 102:0.29611177 103:-2.1455315 104:-0.79330064 105:0.14805786 106:-0.25588831 107:1.8585155 108:-0.61470715 109:-0.80143365 110:0.1333086 111:2.3480913 112:0.23566741 113:-0.38142874 114:-1.2617517 115:1.638205 116:-0.92505563 117:-0.33561224 118:3.9854224 119:-0.39717983 120:-0.80198326 121:-0.86905795 122:0.22981904 123:2.2533955 124:0.28797314 125:-0.3607321 126:-1.3476554 127:1.6173988 128:-0.94397734 129:-0.31078802 130:3.6582671 131:-0.38071023 132:-0.83317195 133:-0.068060335 134:1.0504205 135:1.0428348 136:0.73376789 137:-0.91891371 138:-1.3498007 139:0.64307399 140:-1.3826854 141:-0.20793088 142:2.1691927 143:1.8689408 144:-0.91905697 
0.007001438160954028 1:1.5954289 2:0.72294685 3:-0.82278829 4:-0.93391816 5:0.74351499 6:0.97144345 7:0.55265419 8:0.62989316 9:-0.79638856 10:-0.74525316 11:0.7383217 12:0.45031119 13:1.6843096 14:0.7914285 15:-0.85633318 16:-1.0764652 17:0.70232225 18:1.043918 19:0.53401969 20:0.6785238 21:-0.49657537 22:-0.59118565 23:0.7564289 24:0.22216336 25:0.54177267 26:0.44899187 27:-0.61452642 28:-0.9053041 29:0.79742431 30:-0.94363705 31:0.43896649 32:1.2343861 33:-0.053070568 34:-0.82959532 35:0.58977623 36:1.9433395 37:1.4894034 38:0.097879898 39:2.8471251 40:1.0548406 41:-0.4531418 42:-0.25769188 43:-0.34808813 44:-1.4507669 45:-1.1834118 46:-0.26900912 47:-0.17783053 48:-0.95291034 49:1.4493498 50:0.25693818 51:2.6554576 52:1.116069 53:-0.46677913 54:-0.22953968 55:-0.33389609 56:-1.6143147 57:-1.2316463 58:-0.24815489 59:-0.14551109 60:-0.99264526 61:1.6500428 62:0.80059211 63:1.6026516 64:0.57657083 65:-0.94141563 66:0.28675871 67:0.31753498 68:-1.3356398 69:-0.34878854 70:-0.27097459 71:-0.66591369 72:-1.0661932 73:0.56918832 74:0.8538397 75:0.25538588 76:0.6681104 77:-1.8441585 78:-0.59738186 79:-1.4380354 80:0.92872029 81:-0.31279143 82:-0.88470775 83:1.370768 84:-1.2579736 85:0.17631218 86:0.86416247 87:0.30205182 88:0.72580387 89:-1.7507838 90:-0.66569037 91:-1.4076276 92:0.7972828 93:-0.26130016 94:-0.85188944 95:1.2805195 96:-1.5597654 97:0.35195811 98:1.1701777 99:-0.16792219 100:0.020229566 101:-0.12661293 102:-0.73184272 103:-1.6345178 104:1.4884856 105:0.17727856 106:-0.93633544 107:0.45128762 108:-0.100936 109:-0.30050739 110:-0.27788232 111:0.69198643 112:1.702876 113:-0.46725597 114:-0.42695597 115:2.033589 116:-0.15880959 117:-1.8205999 118:2.2408984 119:0.61874051 120:-0.04597013 121:-0.17150053 122:-0.24896263 123:0.77043268 124:1.6812302 125:-0.45535164 126:-0.4133647 127:1.9795345 128:-0.12933903 129:-1.9391035 130:2.1855249 131:0.64859812 132:-0.019307511 133:0.32594705 134:0.86226172 135:0.22494555 136:1.0407891 137:-0.94415726 138:-0.57663876 139:1.09373 140:-0.70475259 141:-1.8896643 142:1.6341516 143:1.5337187 144:0.55842655 
0.5410017398031093 1:0.70435883 2:-0.4584464 3:0.25494329 4:0.54706375 5:-0.27750043 6:-0.78435572 7:-0.58623535 8:0.023108047 9:0.31860339 10:0.63295198 11:0.27466121 12:-0.63646315 13:0.37154823 14:-0.29046368 15:0.24069434 16:0.4325312 17:-0.045220675 18:-0.80995166 19:-0.83164208 20:0.11028848 21:0.55895797 22:0.73050056 23:0.25010901 24:-0.75345519 25:0.21880904 26:-0.15483104 27:1.3219992 28:0.67256334 29:0.48211787 30:0.76681896 31:0.64847852 32:0.4466834 33:0.19951416 34:1.6497794 35:0.36808981 36:-0.11240428 37:1.3889471 38:0.71267288 39:-0.61194771 40:0.046554861 41:-0.52012376 42:-0.83559763 43:-1.2011212 44:0.66203445 45:0.42195808 46:-0.46150855 47:-0.71997829 48:-0.16812542 49:1.3635913 50:1.0818583 51:-0.61766433 52:0.10331833 53:-0.54554605 54:-0.89265187 55:-1.3206591 56:0.72538498 57:0.46151396 58:-0.4571288 59:-0.71866314 60:-0.1385116 61:0.79533621 62:-0.51818355 63:-1.0269939 64:-0.71091859 65:-0.079521855 66:-0.98178816 67:-1.4983376 68:0.031675419 69:-0.1374318 70:-0.65060986 71:-0.99020857 72:0.13714863 73:1.0406015 74:0.40191719 75:0.36847974 76:-0.034007716 77:-1.4337288 78:0.2660648 79:-0.33021168 80:-0.51810184 81:-0.63159113 82:-0.49814251 83:1.7335458 84:-1.7207616 85:0.42221977 86:0.30181841 87:0.47688419 88:-0.17096672 89:-1.4640455 90:0.18647493 91:-0.18832316 92:-0.34464926 93:-1.0450674 94:-0.33262093 95:1.8015336 96:-1.9794649 97:1.6047523 98:1.0683092 99:0.014157728 100:0.41030748 101:-0.928809 102:2.2476745 103:0.011184047 104:0.61350381 105:0.84948505 106:-0.24463228 107:1.4375058 108:-0.64342551 109:-0.56972943 110:-0.19917087 111:1.6321312 112:0.082555532 113:-1.0163788 114:-1.9008447 115:-1.159683 116:-0.23469859 117:-0.51644787 118:2.1323482 119:-0.98240997 120:-0.36674083 121:-0.52022404 122:-0.15443445 123:1.6416749 124:0.13212817 125:-1.0841056 126:-2.1172699 127:-1.1935631 128:-0.20798075 129:-0.4993756 130:2.0889352 131:-1.0033515 132:-0.35982993 133:0.6311931 134:0.30162322 135:0.54941382 136:-0.38877998 137:-1.3408423 138:-1.8099533 139:-1.3639563 140:-0.17178708 141:-1.0402163 142:1.2308047 143:1.7731397 144:1.035294 
0.1282899475440305 1:0.95556061 2:-0.22417221 3:-0.062600209 4:0.18465399 5:-0.50938181 6:-0.9993781 7:-0.38563717 8:0.17900591 9:-0.2634894 10:0.54783627 11:0.19296118 12:-1.4547003 13:0.65944179 14:-0.25875754 15:0.040218132 16:0.30120414 17:-0.62351453 18:-0.90467764 19:-0.4499543 20:0.40451848 21:-0.48494463 22:0.33024985 23:0.18298925 24:-1.7133649 25:0.76032724 26:0.028095139 27:0.18069243 28:-0.87509361 29:-0.12862008 30:0.17672533 31:-0.61228498 32:0.40467777 33:0.49188819 34:0.33294604 35:0.14678037 36:0.42910978 37:1.227527 38:0.42986493 39:1.4911324 40:1.0980713 41:0.59649091 42:0.24927126 43:0.44160637 44:-0.67327908 45:-0.052600754 46:0.55600524 47:-0.44580496 48:-0.11644205 49:1.2239057 50:0.71888858 51:1.5185302 52:1.1572855 53:0.69191553 54:0.31593636 55:0.50628066 56:-0.69464703 57:-0.01673604 58:0.61123941 59:-0.42564891 60:-0.084192721 61:1.0197961 62:-0.29483831 63:0.32206015 64:-0.47910366 65:0.49357852 66:-0.17933693 67:-0.50235307 68:-0.93428807 69:-0.11385264 70:0.16210637 71:-0.72535081 72:0.88665094 73:0.9901349 74:-0.024781941 75:0.73240021 76:1.1709724 77:-1.5819407 78:0.41506375 79:-0.070414261 80:0.75284252 81:0.29045898 82:0.17869002 83:1.5958821 84:-0.64348577 85:0.35683799 86:-0.027855474 87:1.1777646 88:1.1800715 89:-1.5512211 90:0.14964843 91:0.089864582 92:0.58786076 93:0.57274322 94:0.43677478 95:1.4572421 96:-0.62166572 97:0.68897637 98:0.17142702 99:-1.5865961 100:-0.026068909 101:-2.4800393 102:0.8676336 103:-0.23877604 104:1.2948872 105:0.85500685 106:-0.87291335 107:0.86365498 108:-0.13606814 109:-0.46186949 110:-0.5899114 111:3.8409475 112:2.9046391 113:0.42463439 114:-0.45378391 115:0.82962803 116:-1.4022952 117:-0.74293301 118:-0.073758668 119:0.26247427 120:-1.0266844 121:-0.37459269 122:-0.63915038 123:3.4197836 124:2.7139685 125:0.48685746 126:-0.44230419 127:0.85282997 128:-1.4766525 129:-0.739058 130:-0.036702276 131:0.29454003 132:-1.0829704 133:0.6402439 134:-0.35536928 135:1.3464966 136:2.1337897 137:-0.48706879 138:-0.62948877 139:0.22761935 140:-1.8005098 141:-0.51556449 142:-0.58926475 143:1.8263894 144:-0.97116063 
0.6567647155113807 1:0.68100321 2:-0.033921008 3:0.28216038 4:0.34256018 5:-0.81313074 6:-1.4318946 7:-0.94376495 8:-0.17186232 9:-0.030520394 10:1.136162 11:1.4627336 12:-0.69717723 13:0.64092967 14:-0.017492302 15:0.24873337 16:0.30319365 17:-0.69482703 18:-1.414696 19:-0.95122528 20:-0.058329637 21:0.33259137 22:1.2539469 23:1.3696303 24:-0.70022741 25:0.60716619 26:-0.14214578 27:0.82639946 28:-0.58407652 29:-0.38437464 30:-1.1549671 31:0.072826151 32:0.43273188 33:-0.39347983 34:0.49334325 35:0.81242304 36:0.45715959 37:-0.75757486 38:-0.030764281 39:-0.4868198 40:1.3226867 41:0.75323133 42:0.20982981 43:-0.58171165 44:-0.46415998 45:2.2177105 46:0.50494284 47:-0.021111469 48:0.22109123 49:-0.74568091 50:0.065138218 51:-0.47181141 52:1.3688579 53:0.85432081 54:0.27457328 55:-0.59509241 56:-0.46026885 57:2.1388703 58:0.55962756 59:0.015613647 60:0.26522024 61:0.58213525 62:-0.13856748 63:-0.94930357 64:-0.37651672 65:0.8834552 66:0.36744632 67:-1.4514622 68:-0.78873126 69:1.0645019 70:0.44006017 71:-0.44346645 72:0.45519716 73:0.83395463 74:0.11079711 75:1.0155379 76:0.68449254 77:-0.65171843 78:-0.8541317 79:0.25462615 80:0.052367195 81:0.14552646 82:-0.66750708 83:1.5159291 84:0.0025423408 85:0.37046225 86:0.026861933 87:1.1461479 88:0.71411639 89:-0.60623258 90:-0.72032231 91:0.14902658 92:0.1975012 93:-0.22378288 94:-0.40445902 95:1.6366632 96:-0.10442031 97:1.3711649 98:0.86598591 99:0.10912351 100:0.18786631 101:0.3221467 102:-0.44775848 103:0.50960082 104:-0.17295565 105:1.9008415 106:-1.4261455 107:1.9718551 108:0.50573605 109:-0.77242388 110:-1.0812085 111:1.5216175 112:0.055066489 113:-0.4837903 114:-0.75635337 115:-0.68975515 116:-0.83372537 117:-1.4356555 118:2.1143446 119:-1.1273191 120:-1.0728562 121:-0.82208444 122:-1.3147942 123:1.5435883 124:0.10390742 125:-0.47368623 126:-0.77345154 127:-0.6857164 128:-0.84436878 129:-1.4983006 130:2.0728529 131:-1.1612611 132:-1.1347792 133:0.31388326 134:-0.35262736 135:1.2254802 136:0.39529841 137:-0.83614027 138:-0.64318851 139:-0.68271308 140:-1.1260682 141:-1.1841705 142:1.3532429 143:1.3442488 144:-1.3917066 
0.08935841501494828 1:0.32905858 2:0.14894123 3:0.77802853 4:0.47326985 5:-0.38190789 6:-1.3222394 7:-0.80576741 8:0.69352225 9:1.1462632 10:1.1067565 11:0.41860488 12:-1.6039108 13:0.24780728 14:0.13575081 15:0.81927886 16:0.50225757 17:-0.47149818 18:-1.2790119 19:-0.96537244 20:0.78220145 21:1.05592 22:1.1716781 23:0.31186715 24:-1.650189 25:0.88050551 26:0.54018322 27:1.0034144 28:0.53239762 29:0.70301334 30:-1.016662 31:0.56368305 32:1.0198061 33:1.9774308 34:0.66153081 35:0.7935686 36:-1.8748458 37:0.48509745 38:0.43478816 39:-0.29003528 40:0.44087193 41:0.48679825 42:-0.015455375 43:-0.61804789 44:-0.87513526 45:-1.7395789 46:-0.18782694 47:-0.95351466 48:1.1635199 49:0.54803624 50:0.72542661 51:-0.24854335 52:0.51191527 53:0.57677351 54:0.034929203 55:-0.6362923 56:-0.92577829 57:-1.8759235 58:-0.16104265 59:-0.97368971 60:1.19642 61:0.35830351 62:0.1458282 63:-0.77061958 64:-0.61942139 65:0.32443119 66:0.096181872 67:-1.3761304 68:-0.82189914 69:-1.7041822 70:-0.13524441 71:-1.2372917 72:1.8288813 73:1.0222741 74:0.03651622 75:0.86102854 76:0.29471797 77:-1.0914695 78:-0.34596412 79:-0.072172244 80:0.065299942 81:-0.26721717 82:-0.034223283 83:1.6484742 84:-0.45735705 85:0.4613781 86:0.035098066 87:1.1579329 88:0.28105925 89:-0.9969574 90:-0.47499698 91:-0.2555125 92:-0.083967472 93:-0.39018895 94:0.20965229 95:1.771865 96:-0.56238558 97:1.0680425 98:0.91872045 99:-1.0398893 100:-0.33241647 101:-2.6982121 102:0.3120058 103:0.67436144 104:0.78704922 105:0.33775346 106:-0.49972149 107:0.56563583 108:0.72463021 109:-0.90670527 110:-0.69140219 111:2.3700735 112:1.9960789 113:0.38892631 114:-0.60214212 115:0.61156439 116:-0.52632381 117:-0.45492599 118:0.73999308 119:-0.59499992 120:0.26288657 121:-1.0498175 122:-0.77197508 123:2.2715747 124:1.9410619 125:0.4507464 126:-0.60356455 127:0.64067839 128:-0.51423368 129:-0.43494458 130:0.78734855 131:-0.58856203 132:0.30232088 133:0.42804339 134:-0.31410974 135:1.2095592 136:0.74820852 137:-0.48610777 138:-0.80770236 139:0.072320508 140:-0.87908209 141:-0.77195307 142:0.054552172 143:1.7128264 144:-0.028808775 
0.150080768164334 1:0.78626219 2:0.37272155 3:0.54482822 4:0.36066112 5:0.066179547 6:-1.0916795 7:-1.1794092 8:-0.13034814 9:-0.10088883 10:0.30736685 11:0.45861719 12:-1.038345 13:0.4538929 14:0.44076368 15:0.44018718 16:0.38558304 17:0.45379445 18:-0.99039554 19:-1.3363327 20:-0.18723081 21:-0.078239341 22:-0.046065638 23:0.46546914 24:-0.77979696 25:0.16879994 26:0.1667227 27:0.55978284 28:0.13657872 29:-1.1867237 30:-1.0470454 31:0.08717687 32:-0.24386772 33:0.092083859 34:1.1340769 35:-0.14530556 36:-0.34662867 37:1.6231886 38:0.43438789 39:1.6200656 40:1.0835937 41:0.83104806 42:0.057641615 43:-0.26917774 44:-0.59160904 45:-0.97270597 46:-0.085298955 47:-0.64334778 48:1.0614501 49:1.5622205 50:0.72489537 51:1.6328691 52:1.1435007 53:0.9340529 54:0.11332926 55:-0.24706757 56:-0.60251621 57:-0.99627219 58:-0.051861217 59:-0.63609009 60:1.0984669 61:0.8938575 62:0.4139859 63:0.23781286 64:-0.45217716 65:-0.016846946 66:-0.17426846 67:-1.414364 68:-0.89663265 69:-0.82158878 70:-0.42049625 71:-0.99267862 72:1.2645941 73:0.55883682 74:0.18410832 75:0.50053627 76:0.70807709 77:-1.3003893 78:-0.18946183 79:0.44587875 80:0.39658753 81:0.67980127 82:-0.9143815 83:1.2061029 84:-0.851957 85:0.060867771 86:-0.0080402865 87:0.72662527 88:0.67521161 89:-1.2895968 90:-0.080252802 91:0.37583395 92:0.50997893 93:0.54056218 94:-0.58733676 95:1.1605846 96:-0.681686 97:1.0564792 98:0.67232131 99:0.22478018 100:0.19417268 101:0.048259291 102:0.75157488 103:0.038741874 104:0.8372019 105:0.49313452 106:-0.84241793 107:0.69682108 108:0.068290572 109:-0.47452379 110:-0.34472911 111:1.6883681 112:2.5246381 113:-0.45934079 114:-0.56708701 115:-1.9096193 116:-0.15004468 117:-0.71999812 118:0.32601765 119:-0.83161843 120:-0.85174428 121:-0.3912306 122:-0.33041348 123:1.6911886 124:2.3963119 125:-0.44658694 126:-0.56527129 127:-2.0418028 128:-0.12028347 129:-0.7146052 130:0.37478456 131:-0.84065162 132:-0.88816185 133:0.21545819 134:-0.016044131 135:0.69387298 136:1.3963148 137:-0.99425681 138:-0.81720233 139:-1.4795537 140:-0.70690756 141:-0.080643194 142:0.38967119 143:0.88825853 144:-0.61381868 
0.06081570535460373 1:1.7944775 2:0.064635821 3:-0.1802828 4:-0.26806645 5:-0.72796228 6:-1.0690833 7:-0.77824444 8:0.22658985 9:0.54952725 10:0.80843676 11:0.038938967 12:-1.1583096 13:1.5528435 14:0.14194807 15:-0.12816257 16:-0.30809202 17:-0.79737712 18:-1.0912786 19:-0.91120456 20:0.032835592 21:0.22334604 22:0.96915892 23:0.33878753 24:-1.4038461 25:0.11617845 26:0.17902253 27:-0.40884407 28:0.1463839 29:0.054585628 30:-0.83631101 31:-1.3064246 32:1.1450852 33:2.0807811 34:0.61468797 35:-1.9739637 36:0.42235273 37:1.0641986 38:-0.15873309 39:-0.24942971 40:-0.31831173 41:-0.54351787 42:0.080068286 43:0.55935449 44:-0.11188422 45:-1.5152155 46:-0.0095877534 47:0.073383324 48:-0.27911177 49:1.0800982 50:-0.1341776 51:-0.20334859 52:-0.29136857 53:-0.57321143 54:0.13725715 55:0.62648442 56:-0.076242872 57:-1.6117904 58:0.02817702 59:0.11183734 60:-0.25591963 61:1.8023032 62:-0.038026064 63:-0.53899609 64:-0.77847768 65:0.44652028 66:-0.18906139 67:-0.77511433 68:-0.4918054 69:-1.5099572 70:-0.18591808 71:-0.24036204 72:0.4960549 73:0.76050714 74:0.42048509 75:0.76059782 76:-0.0031813045 77:-0.33745803 78:0.37191637 79:1.416315 80:0.93213961 81:1.2727983 82:-0.64150641 83:1.2487462 84:-0.79554287 85:0.12772417 86:0.33086061 87:1.0152411 88:0.22791105 89:-0.50747268 90:0.56908679 91:1.240191 92:0.93806274 93:1.0011849 94:-0.21566802 95:1.1155941 96:-0.78267525 97:1.8849787 98:0.31762598 99:0.037311373 100:-0.66369175 101:1.3590962 102:0.09685955 103:0.66181738 104:2.0836741 105:1.6381423 106:-3.1826851 107:1.2509975 108:0.57230779 109:-0.83380307 110:0.14056993 111:2.5317822 112:1.0318037 113:0.074085253 114:1.0251643 115:0.51508826 116:-1.5935422 117:-0.27300444 118:0.87956695 119:-0.23606146 120:-0.90033586 121:-0.92282692 122:0.23795985 123:2.4042878 124:1.064711 125:0.12685447 126:1.0641336 127:0.5459582 128:-1.6962264 129:-0.24605369 130:0.92356444 131:-0.21330243 132:-0.94203851 133:0.20454367 134:0.42621576 135:1.1321231 136:0.077239991 137:-0.36633491 138:0.35248174 139:1.4160663 140:-1.9403659 141:0.98122635 142:0.49980015 143:1.1160766 144:-0.71506529 
0.7631857840500832 1:1.4448053 2:-0.20500375 3:-0.2335701 4:0.27162142 5:-0.3303237 6:-1.1848315 7:-1.1149436 8:-0.26072017 9:0.26381973 10:0.78167834 11:0.47931506 12:-0.014050785 13:1.2035609 14:-0.22635161 15:-0.24013653 16:0.21153524 17:-0.34090075 18:-1.0549857 19:-1.0292953 20:-0.066723767 21:0.35839302 22:0.28682663 23:1.0299539 24:0.3158424 25:0.41249794 26:-0.50610835 27:0.10321838 28:0.6496472 29:0.53288332 30:-1.0465701 31:-2.4969615 32:-1.9299285 33:0.81331821 34:-0.73158794 35:0.49125779 36:-0.76988679 37:1.2541596 38:0.21065245 39:-0.18625186 40:0.058493474 41:-0.42860447 42:0.55092923 43:1.8764881 44:1.4812941 45:-0.22245917 46:-0.41463358 47:-0.26093672 48:1.1683788 49:1.2471162 50:0.41881528 51:-0.13359805 52:0.11595131 53:-0.43808724 54:0.62679145 55:1.8966446 56:1.520605 57:-0.19211199 58:-0.40592343 59:-0.23175261 60:1.2010665 61:1.4865583 62:-0.30616006 63:-0.4543619 64:-0.84263188 65:0.00738956 66:0.18221019 67:-0.35888726 68:0.61041425 69:-0.52166344 70:-0.53675185 71:-0.68486883 72:0.66769522 73:0.87215816 74:0.67251048 75:0.76812026 76:0.39224373 77:-0.84424167 78:-0.27470897 79:0.75217899 80:0.00055696063 81:1.3615297 82:-1.0034682 83:1.3642498 84:-0.10759483 85:0.39054016 86:0.92208201 87:1.1208462 88:0.51533332 89:-0.636717 90:-0.094759591 91:0.85230721 92:0.24758553 93:1.1884349 94:-1.1283823 95:1.4053878 96:-0.14948515 97:0.98687403 98:-0.12504906 99:-0.10789194 100:0.42934035 101:-0.42649235 102:0.19312907 103:1.0101531 104:-2.0201495 105:1.8646856 106:-1.280088 107:0.83997764 108:-1.021818 109:-0.6836686 110:-0.088083969 111:2.715509 112:1.4249706 113:-0.52321534 114:-0.6262946 115:-0.91065259 116:1.4850119 117:-0.87603024 118:1.0164739 119:0.54161779 120:0.89103778 121:-0.68470639 122:-0.023439631 123:2.5529569 124:1.4297608 125:-0.51754489 126:-0.63001736 127:-0.92232981 128:1.4807028 129:-0.8817932 130:1.0558367 131:0.57255218 132:0.93889718 133:0.40206129 134:0.67888254 135:1.1750355 136:0.61422255 137:-0.93675546 138:-0.84385485 139:-0.3916682 140:0.7094725 141:0.70748392 142:0.97050494 143:1.5030995 144:0.30347157 
0.6697729072593755 1:0.82367825 2:0.34013068 3:0.44945718 4:0.23207018 5:0.012107136 6:-0.75305188 7:-0.72909114 8:0.41627295 9:0.36373479 10:0.14361845 11:0.33906453 12:-0.23321539 13:0.73475126 14:0.3212925 15:0.60268708 16:0.21714263 17:-0.022433239 18:-0.66466218 19:-0.60746313 20:0.3717042 21:0.26221055 22:0.17283925 23:0.35117057 24:0.054657241 25:0.60525049 26:0.26722486 27:0.51271408 28:-0.043995657 29:-0.51114569 30:-1.300624 31:-1.181819 32:0.37130652 33:0.098886298 34:-0.70380362 35:1.0590845 36:0.56212901 37:0.95843643 38:-0.03174767 39:1.2368798 40:1.5604193 41:1.1394502 42:1.2801108 43:0.65666381 44:-0.27917786 45:0.020002228 46:-0.34333592 47:-0.45113708 48:-0.0080907338 49:0.9855877 50:0.063640396 51:1.2885922 52:1.588283 53:1.2444809 54:1.3419836 55:0.72491596 56:-0.25698922 57:0.057529974 58:-0.32843508 59:-0.43128438 60:0.028967434 61:0.87071434 62:0.31500897 63:0.037089608 64:-0.32233312 65:0.12133871 66:0.11857869 67:-0.69396774 68:-0.54321972 69:-0.40340248 70:-0.6495223 71:-0.79243872 72:-0.019725527 73:0.19404715 74:0.14480789 75:0.32110333 76:0.050712626 77:-1.447801 78:-0.76301541 79:-0.34126887 80:-0.26108632 81:0.54940357 82:-0.99202441 83:1.1862619 84:-0.19094764 85:0.11746431 86:0.086744529 87:0.60641425 88:-0.1238045 89:-1.3266147 90:-0.67963909 91:-0.41939771 92:0.089708055 93:0.62365063 94:-0.82388155 95:1.1803035 96:0.02642513 97:-0.14601438 98:0.37936296 99:-0.77789776 100:-0.92497721 101:-1.3997684 102:0.6291098 103:0.15472015 104:0.41762935 105:-0.91081803 106:-0.39091736 107:1.6530158 108:-1.0500713 109:-0.21129618 110:0.032276759 111:3.2203307 112:1.8295923 113:0.013299616 114:-0.23388266 115:0.053741528 116:-0.031131543 117:-0.57753214 118:0.38620898 119:-1.7956169 120:-0.14211802 121:-0.065584045 122:0.11548177 123:2.9506255 124:1.7941944 125:0.063136807 126:-0.20703432 127:0.085374618 128:0.0020225544 129:-0.56363051 130:0.43559538 131:-1.9106293 132:-0.12066479 133:0.029934304 134:0.056078154 135:0.83987852 136:0.46586027 137:-0.72276969 138:-0.34276366 139:-0.43050025 140:-0.25222557 141:-0.12459045 142:0.52729132 143:0.59150685 144:-0.51410365 
0.4056854607994395 1:0.8874341 2:0.57522758 3:0.53765608 4:-0.14954538 5:-0.48836114 6:-0.80509304 7:-0.88370139 8:0.18189918 9:0.35949898 10:0.32374129 11:1.2095213 12:0.55327223 13:1.1044008 14:0.60236457 15:0.40891643 16:-0.19539978 17:-0.67870413 18:-0.77810611 19:-0.95216634 20:0.21011561 21:0.61999803 22:0.16221444 23:1.1413831 24:0.29809697 25:0.27414893 26:0.81244499 27:1.1182099 28:-0.032608298 29:-1.4952436 30:0.13962067 31:0.62503102 32:1.4746515 33:1.3412186 34:1.7636355 35:1.8985877 36:0.798628 37:1.1863743 38:-0.041429246 39:0.24143943 40:0.31752338 41:0.65312116 42:-0.61855653 43:-0.7392699 44:-2.3969284 45:-0.83818777 46:-1.4080754 47:-1.2352958 48:-0.45938839 49:1.1879108 50:0.048867327 51:0.32179488 52:0.38596446 53:0.75087589 54:-0.63789247 55:-0.774907 56:-2.8635513 57:-0.84830697 58:-1.5398893 59:-1.2885389 60:-0.44890612 61:0.951095 62:0.60210221 63:-0.51478925 64:-0.64479293 65:0.48405185 66:-0.83751894 67:-1.4982273 68:-2.4498927 69:-0.97217171 70:-1.5960946 71:-1.5303872 72:-0.72447497 73:0.56054933 74:-0.083655085 75:0.77582157 76:-0.29175473 77:-0.57444115 78:-0.70614307 79:0.40217379 80:-1.0513569 81:0.25316491 82:-0.15242542 83:1.5513128 84:0.03501175 85:-0.059431749 86:0.01684324 87:0.95780582 88:-0.19762155 89:-0.42865527 90:-0.67457172 91:0.56155895 92:-0.76964271 93:0.37123748 94:-0.35161853 95:1.7065837 96:0.0085728009 97:1.1659565 98:0.0039706224 99:0.4377908 100:0.085287094 101:0.51131709 102:-0.21020162 103:2.1075665 104:0.83831386 105:0.33703228 106:0.89162676 107:0.16460326 108:-0.2495755 109:-0.80139032 110:-0.73429861 111:2.5598118 112:1.1557267 113:-0.39827912 114:0.26588746 115:-2.2844523 116:-1.2892714 117:-1.9248204 118:0.12563837 119:-0.29003114 120:-0.2974069 121:-0.86898694 122:-0.82908122 123:2.4271121 124:1.1809961 125:-0.37923627 126:0.31214469 127:-2.485479 128:-1.3485826 129:-2.0610069 130:0.17022119 131:-0.26919431 132:-0.2856472 133:0.023506173 134:-0.47905081 135:1.1529171 136:-0.059778997 137:-0.75409566 138:-0.041621196 139:-1.8310546 140:-0.29933845 141:-1.4700295 142:-0.36855524 143:1.6130078 144:-0.72466227 
0.6017207893092382 1:0.47286252 2:0.13531842 3:0.88560602 4:0.71943697 5:0.11716956 6:-1.1162915 7:-1.194381 8:0.14211942 9:0.70254662 10:0.82572024 11:0.35201941 12:-0.54160848 13:0.83149603 14:0.05817461 15:0.80816925 16:0.73535679 17:0.12928529 18:-1.2010654 19:-1.1867485 20:-0.011609695 21:0.59723311 22:0.68893863 23:0.064958681 24:-0.45080826 25:0.41378313 26:0.41225872 27:1.2061488 28:1.2638385 29:-1.1052169 30:-1.8961529 31:-3.2153977 32:0.065142613 33:0.79920775 34:0.8430258 35:-2.0626358 36:1.1938238 37:0.20944908 38:0.17431516 39:0.065392699 40:-0.23687618 41:0.20447729 42:-0.6324432 43:0.25259041 44:0.20632649 45:0.0024614963 46:0.33379087 47:-0.089677172 48:-0.7942856 49:0.28105139 50:0.36725436 51:0.13772783 52:-0.20178276 53:0.27448756 54:-0.65397659 55:0.31071974 56:0.25993767 57:0.039624954 58:0.38518532 59:-0.05464045 60:-0.81530532 61:0.47022951 62:0.093978708 63:-0.49933922 64:-0.64800894 65:-0.25213357 66:-0.50280682 67:-1.1522806 68:-0.27653551 69:-0.49686047 70:0.10186914 71:-0.50883622 72:-0.37985077 73:0.56156041 74:-0.31528226 75:1.2504 76:-0.36591679 77:-1.0310122 78:-0.022966247 79:0.53369931 80:-0.20845883 81:0.074158133 82:-0.091083314 83:1.093092 84:0.89271496 85:0.10998061 86:-0.39071717 87:1.2015072 88:-0.013092698 89:-0.88937654 90:0.33546899 91:0.53473487 92:-0.13998456 93:0.17461781 94:0.12124056 95:1.0657043 96:0.82304313 97:1.5244058 98:0.57392146 99:0.20160041 100:-1.4709258 101:-0.26160128 102:-0.28862292 103:1.5832921 104:-0.014686407 105:1.023878 106:0.80031037 107:1.7463442 108:-0.51076192 109:-0.94737076 110:0.045556238 111:1.8652727 112:2.2676842 113:-1.7185722 114:1.3159024 115:-1.8837721 116:0.54267542 117:-0.46246831 118:-0.96345318 119:-1.4472863 120:-0.34375838 121:-1.1247251 122:0.13062579 123:1.8452438 124:2.1770282 125:-1.9582638 126:1.3416043 127:-2.0117212 128:0.57846716 129:-0.44282833 130:-1.0057282 131:-1.5155703 132:-0.33520416 133:-0.064065659 134:-0.47618306 135:1.5625101 136:0.39530904 137:-1.7568533 138:0.4581659 139:-1.3708225 140:0.14678772 141:-0.51132358 142:-1.2600682 143:0.53431095 144:-0.56811108 
0.3369747636455895 1:0.64584999 2:-0.011986447 3:-1.1473901 4:-0.80065412 5:-0.58501008 6:0.20410681 7:0.73434247 8:0.29578716 9:-1.2048349 10:-0.51359721 11:0.60691592 12:0.64389672 13:0.72495621 14:-0.033101884 15:-1.1236007 16:-0.74028501 17:-0.59626007 18:0.098528282 19:0.45307783 20:0.59791237 21:-1.5207223 22:-0.3363351 23:1.0465768 24:0.6364278 25:0.88754827 26:-0.66027875 27:-0.34875396 28:-0.51583874 29:0.25919371 30:1.0679148 31:0.79154658 32:0.12903018 33:-0.72163034 34:-0.68795704 35:-0.58951476 36:0.8122716 37:-0.81415099 38:0.008042092 39:-0.48530291 40:0.064893864 41:-0.51399072 42:-0.75365006 43:0.87904577 44:0.64978183 45:-0.24644614 46:1.0396425 47:1.1838683 48:-0.69737039 49:-0.81105946 50:0.12385023 51:-0.47006242 52:0.12271693 53:-0.53830663 54:-0.79560257 55:0.94689185 56:0.71310121 57:-0.21706563 58:1.0907256 59:1.1952288 60:-0.70818094 61:0.54321169 62:-0.10677824 63:0.61669732 64:0.071577321 65:0.27878806 66:-0.96220948 67:1.0463097 68:0.077984121 69:0.67034115 70:0.62575084 71:0.38510277 72:-0.93559952 73:0.80646168 74:1.750717 75:0.57699476 76:0.45986638 77:-0.43690383 78:1.0309693 79:-0.87255819 80:1.5998168 81:-0.40158528 82:-1.1860767 83:0.33840355 84:-0.10207786 85:0.26961146 86:1.8431819 87:0.72407594 88:0.63901212 89:0.081387391 90:0.9969372 91:-0.34516902 92:1.4351137 93:-0.30699486 94:-1.2622894 95:0.30702487 96:-0.21367005 97:1.4275071 98:0.9314758 99:-0.34311423 100:-0.54243448 101:-2.0294376 102:0.96731895 103:-0.44511192 104:2.0687907 105:0.69767108 106:0.074531479 107:0.62155358 108:-0.32841429 109:-0.7268501 110:-0.75940918 111:1.6890244 112:0.26428195 113:1.7864099 114:-1.3031635 115:0.93696146 116:-1.1644228 117:-0.82139891 118:-1.1662865 119:0.53704393 120:1.5477467 121:-0.75041756 122:-0.86278716 123:1.6917649 124:0.31685095 125:1.7826292 126:-1.3959705 127:0.95628771 128:-1.2085244 129:-0.82303341 130:-1.238431 131:0.56803195 132:1.5814035 133:0.31204264 134:1.960685 135:0.77265294 136:0.19672111 137:0.43005748 138:-0.76841117 139:0.16446055 140:-1.1492698 141:-1.1472302 142:-0.33207608 143:0.090354194 144:0.8124748 
0.2402510732252773 1:0.57035924 2:0.14843019 3:-1.0685876 4:-1.0026896 5:-0.3052417 6:0.33674874 7:0.70352106 8:0.79628333 9:-0.45546603 10:-0.52219563 11:0.69421959 12:0.48962556 13:0.78418806 14:0.14845683 15:-1.0826032 16:-0.83902791 17:-0.32872666 18:0.36394246 19:0.51404216 20:0.69235196 21:-0.54902664 22:-0.84893235 23:0.86783331 24:0.5820479 25:1.46931 26:-0.33261313 27:-0.12227212 28:-0.34393139 29:0.13913428 30:0.59843526 31:1.1561865 32:1.2343718 33:0.73397803 34:0.39229762 35:0.4123981 36:-0.70420747 37:-0.55647805 38:-0.029453885 39:-0.99679991 40:-0.98261241 41:-0.66541753 42:-0.73984318 43:0.17443471 44:-0.45716537 45:-1.6370091 46:-0.9182749 47:0.014080277 48:-0.026164312 49:-0.51866815 50:0.067133332 51:-1.0877241 52:-1.0587209 53:-0.71870352 54:-0.7793557 55:0.22888802 56:-0.45251476 57:-1.7544315 58:-0.96747025 59:0.051529627 60:0.010158375 61:0.49420587 62:0.081699675 63:0.23240861 64:0.13555531 65:-0.092287511 66:-0.83416502 67:0.74066632 68:-0.42143459 69:-0.99174478 70:-0.97367792 71:-0.51393782 72:-0.37921418 73:1.1877251 74:1.3876295 75:0.26284315 76:0.61694789 77:-0.46504526 78:0.9521071 79:-1.1564333 80:1.2547882 81:0.54890424 82:-0.30420764 83:0.61851059 84:-0.56846426 85:0.50741932 86:1.5252728 87:0.38664126 88:0.57947502 89:0.10545618 90:1.0407762 91:-1.3345382 92:1.111382 93:0.61421444 94:0.067504056 95:0.56989617 96:-0.45358994 97:1.7299187 98:1.8705553 99:-0.36043932 100:0.64670151 101:-0.44078998 102:1.7109866 103:-0.75698987 104:0.50429129 105:1.345466 106:0.93188907 107:0.10431829 108:0.22862782 109:-0.92636889 110:-0.85256241 111:1.6186588 112:-0.30797512 113:1.7631492 114:-1.0013768 115:1.8686703 116:-0.50135605 117:-0.20449511 118:-0.82449103 119:-1.2193368 120:-1.0399998 121:-1.0856402 122:-0.98968863 123:1.6297735 124:-0.27605578 125:1.7616807 126:-1.0483709 127:1.8293703 128:-0.48775565 129:-0.17553872 130:-0.84901108 131:-1.2623473 132:-1.0978944 133:0.58604798 134:1.4334679 135:0.44465897 136:0.14430413 137:0.40592699 138:-0.63306869 139:0.86367948 140:-0.85561055 141:0.13516592 142:-1.0421561 143:-0.10999477 144:-1.054907 
0.2156726908218292 1:0.15082982 2:-0.024066768 3:-1.1625922 4:-0.83391358 5:-0.41969976 6:0.38190667 7:1.2179312 8:1.2768116 9:0.33203284 10:-0.24226641 11:0.26664419 12:-0.50050086 13:0.10807129 14:-0.075425865 15:-1.114078 16:-0.91851279 17:-0.42127424 18:0.39788884 19:1.1908659 20:1.4003283 21:0.4252567 22:0.059278405 23:0.23058015 24:-0.84542508 25:1.2906191 26:0.12860051 27:0.077795369 28:-0.047143506 29:-0.17207573 30:1.2617805 31:1.1695456 32:1.5204972 33:0.75556696 34:1.0452787 35:1.2969936 36:0.18325476 37:-0.85975407 38:-0.27231442 39:-0.97803232 40:-0.36280664 41:-0.84911057 42:-1.0041158 43:-1.0531507 44:-0.75696705 45:0.24936776 46:-0.84128809 47:-0.3761679 48:-0.28873303 49:-0.86426838 50:-0.31920667 51:-1.063978 52:-0.3406977 53:-0.94236773 54:-1.0956815 55:-1.1426135 56:-0.78987091 57:0.28950956 58:-0.87995077 59:-0.3522732 60:-0.26614724 61:0.066066802 62:-0.16252408 63:0.40612286 64:0.00016880855 65:-0.015503111 66:-0.94120116 67:1.1136155 68:-0.11530739 69:-0.2532241 70:-1.0325609 71:-0.71036164 72:-0.050044947 73:0.38883254 74:1.5935874 75:1.3355853 76:1.1299499 77:0.41008283 78:1.7112508 79:-0.27584631 80:0.9412665 81:-0.32284568 82:-1.2307864 83:0.47922158 84:-0.44960962 85:-0.037180089 86:1.6104518 87:1.4026444 88:0.94899114 89:0.56468955 90:1.8412683 91:-0.65579577 92:1.0471593 93:-0.062198315 94:-0.91992787 95:0.40763625 96:-0.59775574 97:1.3214956 98:1.7565083 99:1.6376674 100:1.712335 101:-0.55019316 102:1.710673 103:0.87008068 104:0.14115565 105:-0.14831014 106:-0.6343598 107:-0.25158835 108:0.41592828 109:-1.0668994 110:-1.0764014 111:-0.92141692 112:-0.8724787 113:0.1878637 114:-0.97084781 115:-1.1041385 116:-2.2419003 117:-0.77051838 118:0.40853409 119:0.14530984 120:0.83912686 121:-1.3667343 122:-1.3077421 123:-0.98880182 124:-0.89648305 125:0.24506996 126:-1.0137714 127:-1.1326422 128:-2.4698647 129:-0.76852427 130:0.45807707 131:0.17652392 132:0.88713756 133:-0.31554168 134:1.6660331 135:1.166612 136:0.68091761 137:0.24780447 138:0.36792785 139:-1.30603 140:-2.5513473 141:-1.0597896 142:0.85552354 143:0.12823609 144:0.41904301 
0.4135296715437853 1:0.19887271 2:0.2792072 3:-1.2553456 4:-1.0518578 5:-0.022186108 6:0.31193453 7:0.21214452 8:0.91009321 9:0.20334635 10:-0.69439613 11:0.00014012682 12:-0.11604607 13:0.1449578 14:0.27865456 15:-1.4000244 16:-1.1169344 17:-0.22166957 18:0.38301502 19:-0.011393043 20:0.64126585 21:-0.038506606 22:-0.70154862 23:0.024863354 24:-0.60378886 25:0.84170772 26:0.43847149 27:-0.098744708 28:-0.57791403 29:0.58000217 30:0.68521243 31:0.37012751 32:-1.0663752 33:0.40081386 34:-0.8584611 35:1.3176351 36:0.66254937 37:-0.52508076 38:-0.086229784 39:0.30423531 40:0.26924193 41:0.44596583 42:-0.026418791 43:-0.20666711 44:-0.44719378 45:0.38190019 46:-0.17788288 47:-0.85494031 48:-0.8874564 49:-0.48394315 50:-0.020140502 51:0.38638357 52:0.33621324 53:0.53359076 54:0.023115658 55:-0.17876584 56:-0.44146978 57:0.42178232 58:-0.15041273 59:-0.86541232 60:-0.91916194 61:0.14253306 62:0.23327917 63:1.1507997 64:0.57895582 65:-0.051793052 66:-0.46356305 67:-0.1029686 68:-0.30951167 69:-0.11713181 70:-0.23632996 71:-0.95935422 72:-0.74057606 73:-0.37012109 74:1.0322129 75:1.1782325 76:1.8373346 77:0.2824693 78:0.53806287 79:-1.7558324 80:1.9101077 81:1.7719534 82:-0.61070006 83:0.57035783 84:-1.6517476 85:-0.45119328 86:1.1211643 87:1.2907954 88:1.8063893 89:0.83146697 90:0.68008977 91:-1.8463561 92:2.196107 93:1.400153 94:-0.31476174 95:0.93046899 96:-1.6947989 97:0.47243494 98:0.95106712 99:1.4947841 100:-0.30956332 101:-4.1918365 102:0.2811847 103:-1.2403112 104:-0.14498881 105:0.74946184 106:-1.5453377 107:-1.0682227 108:0.52262225 109:-0.83077126 110:-0.32686261 111:0.54214148 112:0.60196378 113:2.0267129 114:-1.1568092 115:1.3471846 116:1.9435464 117:1.7999961 118:2.4051559 119:4.1634943 120:0.68819767 121:-0.91772705 122:-0.3085356 123:0.62299933 124:0.65202616 125:1.9969285 126:-1.226111 127:1.3460647 128:1.9020239 129:1.7577043 130:2.3304785 131:3.84917 132:0.73580153 133:-0.90810987 134:1.0843916 135:1.2376015 136:2.4428809 137:0.97873777 138:-1.0845976 139:0.82483999 140:1.4978888 141:2.9396768 142:1.4870367 143:1.3348997 144:1.7028588 
1 1:0.60054158 2:0.093641339 3:-1.4865389 4:-1.471353 5:-1.0656318 6:0.65966317 7:1.3890899 8:0.96774196 9:-0.037281519 10:-0.21043108 11:-0.45688328 12:-0.51974672 13:0.57868045 14:0.11708067 15:-1.4903472 16:-1.4349826 17:-1.1176685 18:0.68873759 19:1.2384736 20:0.9291827 21:0.20577203 22:-0.19874328 23:-0.1352959 24:-0.25411966 25:-0.47650303 26:0.18349648 27:-0.46566393 28:-1.2561115 29:-0.6180806 30:1.0034588 31:-0.42756142 32:-0.16288236 33:0.85157832 34:1.1348452 35:0.58011341 36:0.36453697 37:0.26427921 38:0.011379443 39:0.19901038 40:0.25254675 41:0.67301443 42:0.54708084 43:1.3385409 44:0.32975631 45:0.33856657 46:-0.57376355 47:-0.85720177 48:-0.4819857 49:0.33493714 50:0.12886402 51:0.27784239 52:0.31894956 53:0.77151101 54:0.62288492 55:1.3932522 56:0.38779432 57:0.37867295 58:-0.58061056 59:-0.8678859 60:-0.47330075 61:0.59665045 62:0.021129051 63:1.5035775 64:1.4283901 65:1.1716048 66:0.20583217 67:2.204411 68:0.29635264 69:-0.020477817 70:-0.80086255 71:-0.61215017 72:-0.16923948 73:-1.0094064 74:0.30627127 75:1.1179199 76:0.63302555 77:-0.930141 78:0.72081172 79:-0.086681297 80:2.0123361 81:2.1734741 82:-0.42467866 83:-0.18029689 84:-2.284511 85:-1.1599957 86:0.62200806 87:1.2360293 88:0.75180423 89:-1.0911561 90:0.67816464 91:-0.69311969 92:1.9137908 93:2.0211056 94:-0.76949357 95:-0.45754082 96:-1.3999694 97:0.38694082 98:-0.85390581 99:0.3361559 100:-0.54764039 101:-1.6156759 102:0.83306491 103:0.47073536 104:1.6368415 105:1.1178551 106:-1.0597006 107:-0.52189729 108:-4.5559537 109:-0.91307563 110:1.8673871 111:1.2257844 112:1.4734857 113:0.37738017 114:-0.996579 115:4.6948148 116:-0.08005228 117:2.1622416 118:4.5769028 119:3.5951968 120:9.8699641 121:-1.061344 122:1.9493889 123:1.2756615 124:1.4740393 125:0.43904357 126:-1.0429267 127:4.2504814 128:-0.048170592 129:2.0839096 130:4.1278141 131:3.3696274 132:8.3627577 133:-1.580425 134:0.783449 135:1.2906941 136:0.90711112 137:-0.45732703 138:-0.83410278 139:2.6843536 140:0.16035473 141:3.7308916 142:2.6826924 143:0.5679805 144:8.2712733 
0.08508694797458147 1:0.8117581 2:0.26155417 3:-1.5349248 4:-1.2936927 5:-0.33278714 6:0.41549404 7:0.58936459 8:1.0189741 9:-0.067384719 10:-0.50659853 11:0.84871442 12:1.4193826 13:0.48539907 14:0.30069525 15:-1.4979854 16:-1.3217482 17:-0.52399642 18:0.39769919 19:0.54461638 20:1.0362365 21:-0.38954084 22:-0.51724592 23:1.083537 24:1.1565046 25:-0.5195388 26:0.50504676 27:-1.870394 28:-0.78438346 29:0.32048047 30:1.1100126 31:0.24562673 32:2.0390879 33:1.973059 34:1.0995434 35:0.32459602 36:1.9341846 37:0.86502733 38:-0.29490099 39:-0.021155271 40:0.085698024 41:-0.57412461 42:-0.53579146 43:0.23499313 44:-0.90244924 45:-2.2989938 46:-0.20151483 47:0.04216015 48:-0.57296726 49:0.90117082 50:-0.3570074 51:0.045543381 52:0.14467457 53:-0.60952957 54:-0.54261913 55:0.29234519 56:-0.95744019 57:-2.5624049 58:-0.17568899 59:0.080118806 60:-0.57199034 61:0.85070754 62:0.18387222 63:1.5000374 64:1.0126856 65:-0.034124287 66:-0.63752859 67:0.59631474 68:-0.53401583 69:-1.7932757 70:-0.3674629 71:-0.5058207 72:-0.94275089 73:-1.3100338 74:1.6717044 75:1.70323 76:0.84453988 77:-0.14813988 78:0.60696798 79:-0.088549624 80:0.57827262 81:-0.011144459 82:-1.3008833 83:1.2107194 84:-0.90670267 85:-1.2725691 86:1.6599566 87:1.6673009 88:0.95000942 89:0.014135131 90:0.6871106 91:-0.13938945 92:0.57241348 93:0.41686181 94:-1.2864107 95:1.2627107 96:-1.0930095 97:0.18837776 98:1.1513885 99:2.3078744 100:0.74156498 101:0.12192736 102:1.0464332 103:0.7948438 104:1.1470101 105:0.52122244 106:-1.63681 107:1.1459216 108:0.094884965 109:-0.87278677 110:-0.35836484 111:-0.73682426 112:-0.53366533 113:-0.90071122 114:0.11091632 115:-2.1392149 116:0.050225703 117:-0.56729008 118:1.2915627 119:1.1673621 120:-2.2283282 121:-0.98965153 122:-0.34716463 123:-0.76439846 124:-0.51950644 125:-0.94808658 126:0.1533567 127:-2.3118797 128:0.085119127 129:-0.55283705 130:1.3177539 131:1.1804739 132:-2.4904769 133:-1.819921 134:1.9429607 135:1.6963003 136:0.369893 137:-0.77869714 138:-0.13687246 139:-2.0753036 140:-0.57680529 141:-0.66666068 142:1.5338538 143:1.4133483 144:-1.7771071 
0.5596753973974432 1:1.2873695 2:0.33140018 3:-1.643479 4:-1.1225314 5:0.41834629 6:0.83278226 7:0.87149813 8:1.1276547 9:0.096005055 10:-0.11868507 11:0.83089367 12:0.50924296 13:1.7625593 14:0.39768747 15:-1.6542441 16:-1.196707 17:0.35225228 18:0.7118332 19:0.81835738 20:1.2464073 21:0.062941344 22:-0.016117573 23:0.97491241 24:0.44787234 25:1.2361324 26:-1.2546796 27:-2.2495576 28:-0.46579504 29:1.0199287 30:1.1407191 31:1.2780144 32:0.7299603 33:-1.0542006 34:-0.56298164 35:-0.1449642 36:1.2672791 37:-0.58807678 38:0.21039433 39:0.5602015 40:-0.25011013 41:-1.5358762 42:-0.51771561 43:0.32387619 44:-1.1359327 45:0.0098764826 46:-0.0041351785 47:-1.0572533 48:-0.70693885 49:-0.55380608 50:0.41845096 51:0.64421903 52:-0.21628066 53:-1.8327316 54:-0.52194367 55:0.38485849 56:-1.2320462 57:0.047196837 58:0.033922284 59:-1.088667 60:-0.71871689 61:1.1759073 62:0.33542844 63:1.9239013 64:0.57876015 65:-1.1282559 66:-0.066173794 67:1.0485555 68:-0.58178911 69:-0.29928775 70:-0.34159998 71:-1.4101408 72:-0.90039417 73:-1.2264666 74:1.6631701 75:1.8070731 76:0.4855666 77:-1.2312303 78:-0.85675012 79:-1.4380349 80:-0.20673753 81:-0.19806068 82:-2.4017211 83:0.39650171 84:-0.7219192 85:-1.5718765 86:1.7140545 87:1.4825513 88:0.64210039 89:-1.2544576 90:-0.53000678 91:-1.4276866 92:0.069506267 93:0.040356508 94:-2.4304644 95:0.58580958 96:-1.2756016 97:-0.88326691 98:1.3363343 99:2.3963129 100:0.77065902 101:-1.9434847 102:-1.4026052 103:-0.42234809 104:0.21185933 105:1.0614754 106:-1.3155888 107:-1.2587493 108:0.43227052 109:-0.62873099 110:-0.83618631 111:-0.92528314 112:-0.62576595 113:0.91020968 114:0.66536019 115:0.78903319 116:-0.32588049 117:0.0078349199 118:0.6724782 119:0.77435325 120:-0.46116393 121:-0.60389016 122:-0.96716168 123:-0.99358391 124:-0.62056681 125:0.9662601 126:0.71294571 127:0.81353661 128:-0.30303733 129:0.040923802 130:0.72095004 131:0.80105924 132:-0.461384 133:-1.5273378 134:1.8205471 135:1.8074701 136:-0.17308857 137:-0.2319717 138:0.318913 139:0.24399863 140:-0.53495606 141:-0.3842222 142:3.1572184 143:0.22295115 144:-0.41982932 
0.2310185895786232 1:1.7409394 2:0.25174052 3:-1.8216065 4:-1.3356661 5:0.21693313 6:0.76867485 7:0.71435845 8:0.88555928 9:0.0026855229 10:-0.13088369 11:2.1534923 12:1.6087309 13:2.0728928 14:0.24334103 15:-1.5811308 16:-1.3528895 17:0.37801125 18:0.78344336 19:0.31724815 20:0.95133217 21:0.055431819 22:-0.13914643 23:2.1350442 24:1.4353274 25:1.8860265 26:0.044312512 27:-0.91776265 28:-0.95399901 29:1.1000042 30:1.4755215 31:-0.019370993 32:1.2801469 33:0.62463533 34:0.89123479 35:1.7334963 36:0.75309731 37:-0.18236996 38:-0.45659587 39:-0.097124227 40:0.3327801 41:-0.59479365 42:-1.1966978 43:0.35067645 44:-0.1253669 45:-0.37231588 46:0.40235337 47:0.1139695 48:0.036848218 49:-0.11636351 50:-0.63866088 51:-0.036338671 52:0.40163224 53:-0.63413535 54:-1.3337637 55:0.41260991 56:-0.090704324 57:-0.34878771 58:0.4553369 59:0.15295658 60:0.075620809 61:1.6438754 62:0.14997272 63:2.0062047 64:1.1584413 65:-0.6045925 66:-0.52033341 67:0.8211551 68:-0.10314838 69:-0.49523697 70:-0.0097814696 71:0.051017001 72:-0.46854291 73:-1.6848814 74:0.65037533 75:1.085877 76:1.3790265 77:-0.40819827 78:-0.601095 79:0.25494046 80:1.5191429 81:0.85803077 82:-1.9489554 83:1.4557535 84:-0.4174495 85:-1.7818131 86:0.77401988 87:0.97575526 88:1.3001195 89:-0.278605 90:-0.43182584 91:0.37590576 92:1.7487287 93:0.52248863 94:-2.1368434 95:1.147749 96:-0.65669828 97:-0.36948515 98:0.081003278 99:0.98385865 100:1.4781519 101:-0.54228596 102:-0.20141711 103:-0.30020348 104:1.0398747 105:0.72952461 106:-1.4696642 107:1.3484285 108:0.81156959 109:-0.49688555 110:-0.58379842 111:-0.71618672 112:-1.1032931 113:-0.72874313 114:-0.21018675 115:1.7998294 116:-0.41667199 117:-0.60247842 118:2.497164 119:-0.13311391 120:-0.30883353 121:-0.42091121 122:-0.63124913 123:-0.73976921 124:-1.1619457 125:-0.74950408 126:-0.18194119 127:1.7663161 128:-0.39831366 129:-0.58995339 130:2.4110532 131:-0.10719557 132:-0.29785058 133:-1.7795096 134:0.50770133 135:0.87790319 136:1.0203324 137:-0.85508002 138:-0.42959944 139:1.0538313 140:-0.60707792 141:0.21129311 142:3.2771214 143:1.4849935 144:-0.54201856 
0.6503832109300148 1:1.3267359 2:0.48764144 3:-1.6135395 4:-1.1959395 5:0.89571892 6:1.1662799 7:0.45010884 8:0.55134553 9:-0.015880828 10:-0.47549816 11:1.2963533 12:0.88599581 13:1.3099503 14:0.51380078 15:-1.6519406 16:-1.2085276 17:0.9261721 18:1.0702978 19:0.42376091 20:0.57078628 21:-0.012598106 22:-0.58614971 23:1.4876243 24:0.73494129 25:1.7932163 26:0.64411818 27:-0.13106881 28:-0.49948333 29:1.1400518 30:1.7761458 31:1.2668988 32:0.93439123 33:0.94172164 34:0.56938978 35:1.9544275 36:1.6703785 37:-0.31664434 38:-0.45428474 39:0.43138148 40:0.19496437 41:0.19630287 42:-0.89450512 43:-0.32383331 44:-0.17576794 45:-0.88245736 46:-0.075432728 47:-0.060807571 48:-1.1679443 49:-0.25797784 50:-0.63448725 51:0.51552305 52:0.25916566 53:0.26560232 54:-0.96308429 55:-0.30713442 56:-0.14492629 57:-0.89680919 58:-0.041403157 59:-0.02501502 60:-1.2371983 61:1.2369561 62:0.44291609 63:1.8194489 64:0.83940081 65:-0.78178384 66:0.33574827 67:0.174141 68:-0.39902833 69:-0.8208056 70:-0.28236643 71:-0.53932648 72:-1.3769246 73:-1.3869621 74:1.0614543 75:0.63445631 76:1.2469637 77:0.60678227 78:0.09638712 79:-0.57282831 80:0.96334672 81:0.6135229 82:-2.0802841 83:0.90111982 84:-0.22108433 85:-1.3848144 86:0.95056847 87:0.65871076 88:1.2269513 89:0.31375023 90:-0.00044214358 91:-0.4258597 92:0.70350019 93:0.94292239 94:-1.8971148 95:0.53603673 96:0.21473158 97:0.30380781 98:0.72252268 99:1.3893982 100:1.2313318 101:-0.3397576 102:-0.44524387 103:0.33731422 104:0.0043198547 105:-0.017069756 106:-2.527139 107:0.70274543 108:0.056813639 109:-0.83788177 110:-0.64613728 111:-0.8304871 112:0.050530533 113:0.37628734 114:-0.1840402 115:-0.25170894 116:-0.96874399 117:-0.71695119 118:1.0375172 119:0.73944603 120:0.66180347 121:-0.92970922 122:-0.71234651 123:-0.87731899 124:0.099243553 125:0.43793524 126:-0.15431005 127:-0.22689517 128:-0.99188117 129:-0.71135973 130:1.0760524 131:0.76697166 132:0.70920507 133:-1.8557765 134:1.039105 135:0.28480094 136:1.233505 137:0.51747145 138:-0.54390084 139:-0.71299558 140:-1.3854536 141:-0.16167971 142:2.700105 143:0.84354427 144:0.15000407 
0.1778415775687731 1:0.8630538 2:0.51954744 3:-1.0462417 4:-1.0550957 5:-0.32509555 6:0.24496193 7:0.69333663 8:0.73556614 9:0.48460955 10:0.19730354 11:0.33525947 12:0.41483913 13:0.61605476 14:0.51925561 15:-0.97309048 16:-0.98015305 17:-0.28278838 18:0.28035255 19:0.78755831 20:0.81856305 21:0.28027149 22:0.32440893 23:0.37588154 24:0.80813087 25:1.0046934 26:1.2241982 27:-0.11278415 28:-0.93986583 29:-1.1866651 30:0.84504655 31:1.0445896 32:0.79469504 33:0.2866942 34:0.84483552 35:1.3772343 36:0.89451877 37:-0.78532358 38:-0.78304165 39:-0.98126421 40:0.19814535 41:0.071740676 42:-0.84979214 43:-0.3078664 44:0.86812488 45:-0.50627119 46:-0.6900425 47:-2.1673574 48:-0.50463304 49:-0.77766048 50:-1.283628 51:-1.0680608 52:0.26247806 53:0.12924309 54:-0.9095716 55:-0.28955278 56:0.93019075 57:-0.49044343 58:-0.70982413 59:-2.3938837 60:-0.49779589 61:0.75329827 62:0.4418388 63:0.20193323 64:0.56652811 65:0.14600265 66:-0.98430747 67:0.54160817 68:0.46260526 69:-0.78791712 70:-0.95286552 71:-2.2968292 72:-0.70906113 73:-0.92683654 74:-0.080268485 75:1.4546122 76:0.48580799 77:-1.6865783 78:0.0033460989 79:0.074164324 80:1.3373141 81:1.0263644 82:-0.12040482 83:1.6619226 84:-0.97773879 85:-0.43306929 86:-0.21225971 87:1.2950922 88:0.71434359 89:-1.6639527 90:-0.19435435 91:0.14816112 92:1.405409 93:0.87127773 94:0.020336547 95:1.3140183 96:-0.73118633 97:-0.43510574 98:-0.18976522 99:1.8250743 100:0.30333409 101:-0.13171141 102:-0.4630682 103:-2.1012932 104:0.67295962 105:1.2586485 106:-0.30926847 107:0.14281208 108:-0.74566271 109:-0.43664618 110:-0.75460576 111:-0.90730205 112:-0.6366621 113:-1.2222159 114:-0.27289464 115:1.1400795 116:-0.91358837 117:-0.86209412 118:0.95979764 119:1.9346364 120:0.46128501 121:-0.34175907 122:-0.85632343 123:-0.97137278 124:-0.63259099 125:-1.331355 126:-0.24845467 127:1.1503791 128:-0.93143117 129:-0.86678091 130:1.0012376 131:1.8994798 132:0.50584817 133:-1.1154385 134:-0.48189678 135:1.3294864 136:-0.17725552 137:-1.4483848 138:-0.61166011 139:0.50994608 140:-1.1470872 141:0.25043314 142:0.23595472 143:2.3255103 144:0.59713175 
0.03391360782757574 1:0.69952087 2:0.15857695 3:-1.5566848 4:-1.4443187 5:-0.59001971 6:0.25799739 7:0.69509099 8:0.62939755 9:-0.44046818 10:0.027390649 11:1.237282 12:0.32339848 13:0.73479816 14:0.18541152 15:-1.3750642 16:-1.4156501 17:-0.64509714 18:0.1320388 19:0.55776922 20:0.89807646 21:-0.43815465 22:0.17963645 23:0.7881834 24:0.28715361 25:-4.1199337 26:0.47193048 27:-0.56164487 28:-0.9336964 29:-0.56413242 30:1.1792357 31:0.20663093 32:0.96219771 33:0.45275213 34:-0.52001375 35:1.0199324 36:0.27496337 37:0.10305812 38:-0.41830767 39:-0.76026652 40:0.48793326 41:0.63307618 42:0.033274378 43:1.1768382 44:-0.46931521 45:-0.15117629 46:1.2360169 47:0.019930336 48:-0.56793118 49:0.1753315 50:-0.57010123 51:-0.7947906 52:0.55954272 53:0.73004323 54:0.087264298 55:1.2379848 56:-0.46598729 57:-0.11823238 58:1.2808278 59:0.057490797 60:-0.56650766 61:0.67633313 62:0.040317457 63:1.2353695 64:1.4230789 65:0.5923411 66:-0.47767967 67:1.0975911 68:-0.56229509 69:-0.042952045 70:0.62480381 71:-0.48456333 72:-0.72137276 73:-1.9382826 74:0.37706313 75:1.7627876 76:1.1962388 77:-0.47746096 78:1.118209 79:1.2797107 80:1.99432 81:1.143034 82:-0.48032561 83:2.0080076 84:-0.59570237 85:-1.5540823 86:0.29718402 87:1.6397177 88:1.2451444 89:-0.30241708 90:0.82556559 91:1.1513552 92:1.828311 93:1.3246636 94:-0.45204343 95:1.9128895 96:-0.81616426 97:-1.6381965 98:0.49944734 99:2.1200413 100:1.0790332 101:-1.9118834 102:0.7241225 103:1.7851566 104:2.3381743 105:0.34067093 106:-0.92781465 107:1.1695701 108:0.11905337 109:0.11030048 110:-0.86028394 111:-0.98080534 112:-0.81089273 113:1.2523667 114:-0.42847814 115:-1.2683127 116:-0.75365105 117:-1.9797359 118:1.7148507 119:0.67848945 120:0.70724557 121:0.28662854 122:-1.0003435 123:-1.0626471 124:-0.82687501 125:1.2919954 126:-0.41500489 127:-1.3134302 128:-0.75762093 129:-2.1256999 130:1.7112738 131:0.70729063 132:0.75497096 133:-1.4160124 134:0.066202395 135:1.7371883 136:0.81821614 137:0.15663153 138:-0.062602197 139:0.018395709 140:-0.3852192 141:-0.38479321 142:0.94281303 143:2.6591689 144:0.42395821 
0.3047961240710727 1:0.52769423 2:0.045873921 3:-1.2712562 4:-1.0914139 5:-0.45473237 6:0.59132433 7:1.1389176 8:0.51105203 9:-0.068743882 10:0.42685636 11:0.81555446 12:0.94359117 13:0.51407055 14:0.054683754 15:-1.3514709 16:-1.0346722 17:-0.11657767 18:0.5642661 19:0.87522373 20:0.43771208 21:0.076832306 22:0.38398065 23:0.58446185 24:0.6077352 25:-1.8936927 26:0.0096875928 27:-1.228476 28:-0.93411479 29:-0.89362894 30:1.0098181 31:1.5544234 32:0.5622971 33:0.54548695 34:1.4719819 35:0.39150477 36:-1.9776824 37:0.81132679 38:-0.14985843 39:0.31611727 40:0.32662666 41:0.57820838 42:-0.30371101 43:0.74529423 44:-1.25677 45:-1.3508953 46:0.19653744 47:0.26284755 48:-0.19619248 49:0.85222676 50:-0.12005634 51:0.3985437 52:0.39531608 53:0.67281112 54:-0.28062545 55:0.81387226 56:-1.3770705 57:-1.4220269 58:0.24363637 59:0.30273468 60:-0.16810376 61:0.57591876 62:-0.059739797 63:1.1814525 64:0.66875733 65:0.42641674 66:-0.30478489 67:1.610245 68:-1.2649383 69:-1.1045518 70:-0.16900163 71:-0.33326512 72:-0.62287217 73:-1.4669387 74:0.24892348 75:2.3300162 76:1.7665781 77:0.19984382 78:1.5962102 79:1.6200232 80:1.8590232 81:0.96539792 82:0.71240226 83:1.9900481 84:-0.40652745 85:-1.1242249 86:0.23561581 87:2.2778369 88:1.5775777 89:0.19434156 90:1.5462832 91:1.372757 92:1.8260733 93:0.78010477 94:0.77486272 95:2.065686 96:-0.48079303 97:-1.102472 98:0.15173324 99:2.3957887 100:2.3767143 101:-0.473711 102:1.5787189 103:1.7890113 104:1.8873442 105:1.3576317 106:0.33782472 107:1.7720656 108:0.9262913 109:-0.021521675 110:-0.46224303 111:-0.98155104 112:-1.9302019 113:0.11413908 114:-0.60496306 115:-0.15574959 116:-0.60815495 117:-1.8743711 118:2.5355611 119:2.7141314 120:-1.0106118 121:0.1472772 122:-0.4763526 123:-1.0635797 124:-2.181696 125:0.16862497 126:-0.60665124 127:-0.12813816 128:-0.60136271 129:-2.0018564 130:2.4445494 131:2.6031999 132:-1.0649745 133:-1.2131332 134:0.027004713 135:2.5300479 136:1.4415357 137:0.031486583 138:0.42893036 139:1.2778543 140:-0.43140935 141:-0.5611342 142:1.3783173 143:3.0582741 144:-1.1555214 
0.1045775854436031 1:1.2276537 2:0.083522273 3:-1.5556823 4:-1.0745861 5:-0.15813704 6:0.68273597 7:0.90178503 8:1.0019595 9:0.11910016 10:-0.079940809 11:0.76634864 12:0.11562103 13:1.0949831 14:0.10347335 15:-1.544522 16:-0.96159616 17:-0.18089077 18:0.82988985 19:0.72861038 20:1.0649536 21:0.37389068 22:-0.28987437 23:0.898329 24:0.15658807 25:1.5053265 26:-0.12533663 27:-0.61072936 28:-0.52460679 29:-2.4076585 30:1.3363774 31:0.8011691 32:-0.012171741 33:0.34403834 34:0.6236088 35:0.60041655 36:0.091624649 37:-0.4688897 38:-0.29821528 39:0.0081944376 40:-0.57649562 41:0.71844998 42:-0.48144391 43:-0.076831645 44:0.18203364 45:0.96020408 46:-0.31460636 47:-0.033563056 48:-0.71339401 49:-0.42225721 50:-0.36258385 51:0.076933787 52:-0.58151914 53:0.81849312 54:-0.48059598 55:-0.038226388 56:0.23461048 57:0.98476279 58:-0.29734432 59:0.0028827833 60:-0.72582973 61:1.1293922 62:-0.034903028 63:1.5501278 64:0.39482927 65:0.15826001 66:-0.27182927 67:0.94973719 68:0.22734237 69:0.27136918 70:-0.60955583 71:-0.55883961 72:-0.73540545 73:-0.80446635 74:0.63065921 75:1.8964756 76:1.6785547 77:0.33639989 78:0.91948898 79:1.6731048 80:1.0885521 81:1.9172229 82:0.15003417 83:1.5430077 84:-0.72360041 85:-0.38366772 86:0.48377544 87:1.8031387 88:1.4722603 89:0.2765417 90:1.0694621 91:1.7155061 92:1.1533496 93:2.059742 94:0.48417205 95:1.6755779 96:-0.71576789 97:-1.2354864 98:0.58585127 99:0.3570856 100:1.4654919 101:1.4246906 102:0.78310663 103:0.33900631 104:-1.4531031 105:-1.3126165 106:-0.60651657 107:1.49175 108:0.13973795 109:0.064895564 110:0.23046127 111:0.26517306 112:-0.39268307 113:-0.42206492 114:1.6877865 115:-0.99174818 116:-0.15579165 117:0.066191748 118:2.0607823 119:-1.2906656 120:0.63962737 121:0.23934145 122:0.33791444 123:0.34324792 124:-0.3667485 125:-0.40541644 126:1.6888509 127:-1.0101224 128:-0.12622038 129:0.099876997 130:2.0249006 131:-1.3411494 132:0.68682853 133:-0.64818586 134:0.71434955 135:2.1195412 136:1.8230792 137:-0.11780252 138:1.088469 139:0.81582441 140:-0.65457289 141:2.1385177 142:0.9448177 143:1.3493235 144:0.47907368 
0.275554121814252 1:0.798563 2:0.16154834 3:-1.8956757 4:-1.4785205 5:-0.53395906 6:0.84990291 7:1.6303491 8:1.465191 9:-0.72102711 10:-1.4954007 11:0.41855393 12:0.34432669 13:0.67555423 14:0.10457794 15:-1.8988367 16:-1.44328 17:-0.74341315 18:0.76448769 19:1.7703492 20:1.2098663 21:-0.77337265 22:-1.3931563 23:0.35802943 24:0.84819081 25:1.7880346 26:1.0711382 27:-0.98385271 28:-0.79061952 29:0.32516028 30:1.0996288 31:1.9836086 32:1.0216343 33:0.45472446 34:-0.97118904 35:0.61066975 36:-0.48868175 37:-0.73475507 38:-0.53116609 39:-0.48727235 40:-0.53435653 41:-0.2553994 42:1.0200539 43:-0.20004513 44:0.016681985 45:-0.97816928 46:0.87707553 47:0.55221822 48:1.2303433 49:-0.71950464 50:-0.77589621 51:-0.4723333 52:-0.53350217 53:-0.23795712 54:1.0923757 55:-0.17155495 56:0.060753449 57:-1.0023189 58:0.93139205 59:0.58927243 60:1.2601924 61:0.69603425 62:0.028193981 63:2.0050356 64:1.2633894 65:0.28901436 66:0.67493715 67:2.1178767 68:0.66665013 69:-0.30286569 70:1.3016498 71:-0.041233217 72:0.55032133 73:-0.55405069 74:1.030244 75:1.7644455 76:1.242836 77:-0.36126624 78:0.15424253 79:1.376077 80:1.5000931 81:1.342763 82:-0.40366513 83:1.6515839 84:-0.25811591 85:-0.10392789 86:1.0105715 87:1.6448442 88:1.2722397 89:-0.28639182 90:0.26377835 91:1.8686484 92:1.2679739 93:1.6846375 94:-0.2826388 95:1.4703303 96:0.10997664 97:-1.0463462 98:0.1189562 99:1.5983105 100:2.0724564 101:0.48973246 102:0.48106425 103:0.81230203 104:-0.72278526 105:0.63657959 106:-0.95402632 107:1.9108002 108:0.30971512 109:0.1033965 110:-0.90002968 111:-0.92654455 112:-1.6148789 113:-0.16756111 114:-0.82233227 115:-0.41990811 116:-0.43748264 117:-0.56828496 118:2.728567 119:-0.50767293 120:-1.0367266 121:0.27948453 122:-1.0555292 123:-0.99514489 124:-1.7788669 125:-0.12884701 126:-0.84686599 127:-0.4014913 128:-0.4202417 129:-0.55388514 130:2.6117877 131:-0.49648738 132:-1.0942246 133:-0.42120261 134:0.9293773 135:1.7483159 136:0.57261508 137:-0.51243242 138:-0.99531428 139:0.7412464 140:-0.63767373 141:0.87979151 142:1.5513717 143:1.7370082 144:-1.2681705 
0.3225375540747065 1:1.0520608 2:0.012683476 3:-1.4904687 4:-1.4177774 5:-1.3222463 6:0.024753103 7:0.83689703 8:0.41664964 9:-0.85021678 10:-0.63031359 11:0.67414297 12:0.67944907 13:1.13429 14:0.086970514 15:-1.5099446 16:-1.4307602 17:-1.2446449 18:0.10554767 19:0.99125329 20:0.33702226 21:-0.71272102 22:-1.1162853 23:0.6218734 24:0.60084713 25:1.1492165 26:0.36943933 27:-0.42210489 28:-1.0961203 29:-0.064257127 30:-0.067239211 31:1.5144879 32:0.21107169 33:-0.72805758 34:-1.7394657 35:0.52734693 36:-0.2441573 37:-0.19384335 38:-0.082394504 39:-0.25397899 40:0.7733712 41:-0.21459858 42:-0.051255416 43:-0.17591998 44:-0.12062811 45:0.83284908 46:0.47138109 47:-1.0760215 48:0.90996292 49:-0.12834931 50:-0.014190508 51:-0.20839768 52:0.84359455 53:-0.1914087 54:-0.0037003228 55:-0.14532374 56:-0.085619447 57:0.8626857 58:0.52559761 59:-1.1095832 60:0.95185175 61:0.98613291 62:-0.090052896 63:1.3245266 64:1.4320645 65:1.300944 66:-0.67388245 67:0.81254932 68:-0.42597221 69:0.89816836 70:0.24933329 71:-1.4076212 72:0.23427344 73:-1.7619928 74:0.38496525 75:1.8413471 76:1.4941462 77:-0.75177855 78:-0.35489623 79:0.32098788 80:0.67195025 81:-0.27008078 82:-0.94164059 83:1.8971482 84:0.53571474 85:-1.38813 86:0.32974689 87:1.6565864 88:1.2934148 89:-0.71364927 90:-0.46751699 91:0.28869571 92:0.36833387 93:0.00042880242 94:-0.99230341 95:1.7576204 96:0.30708787 97:-1.6582273 98:0.78288334 99:1.912677 100:1.7416792 101:0.69977734 102:1.2219854 103:1.3997668 104:0.61193508 105:-0.63488908 106:-1.1749475 107:1.5023277 108:1.0823905 109:0.15023879 110:-0.79750754 111:-0.53679406 112:-0.71329061 113:-1.3451123 114:-1.3725993 115:-1.5507732 116:-0.040703292 117:0.29998484 118:0.66268097 119:0.40527775 120:-1.4564515 121:0.32763962 122:-0.91432797 123:-0.52931429 124:-0.71756704 125:-1.4823442 126:-1.477438 127:-1.6297383 128:-0.0077846793 129:0.33380385 130:0.71128685 131:0.43731276 132:-1.5718304 133:-1.2734106 134:0.096506474 135:1.9181434 136:1.3755351 137:-1.4071733 138:-1.3909529 139:-1.3024638 140:-0.64852134 141:-0.21834309 142:0.65634894 143:2.3959784 144:-1.7324616 
0.4828091422737234 1:0.58049616 2:0.26293881 3:-1.0510462 4:-1.2727359 5:-1.2303146 6:-0.27201133 7:0.64626499 8:0.935617 9:-0.59786939 10:-0.25861677 11:1.3862637 12:0.8030466 13:0.18847005 14:0.3032947 15:-0.97266087 16:-1.4041864 17:-1.0470504 18:-0.20645637 19:0.41132507 20:0.80117859 21:-0.23532703 22:-0.53508218 23:1.3440038 24:0.78249127 25:0.90866347 26:-0.40816396 27:0.24740559 28:-1.2862163 29:-0.71871453 30:0.37552125 31:0.25656662 32:1.1065961 33:-0.43163682 34:1.0055038 35:2.2151075 36:1.0187762 37:0.13365616 38:-0.43639963 39:-1.2999103 40:0.4178526 41:0.85238559 42:-0.40273589 43:-0.21849606 44:0.66579551 45:-0.53803423 46:-0.017779966 47:-0.72557286 48:-0.89092199 49:0.2058964 50:-0.60234333 51:-1.4846813 52:0.48853409 53:0.95581415 54:-0.39150779 55:-0.19165841 56:0.72915315 57:-0.52426031 58:0.019540302 59:-0.72471261 60:-0.92304176 61:0.56553063 62:0.16656932 63:0.044995819 64:1.0497356 65:1.4194876 66:-0.94956374 67:0.50396711 68:0.48836369 69:-0.1469619 70:-0.31910062 71:-1.0483953 72:-1.1330884 73:-2.5489031 74:0.5471492 75:1.591014 76:1.3256049 77:-0.42527415 78:-0.95608315 79:0.80771656 80:1.4795365 81:0.046480471 82:-0.96502028 83:1.6635241 84:0.85482054 85:-1.6685845 86:0.55318007 87:1.5369488 88:1.2638622 89:-0.079015359 90:-0.82755193 91:1.1814134 92:1.3455245 93:-0.12774376 94:-0.53085229 95:1.2681619 96:1.0294168 97:-2.9483701 98:-0.11333048 99:1.9048606 100:0.29876745 101:-0.10767784 102:-1.2778376 103:1.1915091 104:1.4263313 105:-0.029387924 106:-1.2955528 107:-1.0426032 108:-0.099294152 109:0.32548315 110:-0.88922335 111:-0.85113642 112:-0.15800009 113:0.40181657 114:-0.28126419 115:0.061202879 116:0.73871966 117:-0.56027996 118:2.1215752 119:2.6420944 120:0.82237024 121:0.5016536 122:-1.0404679 123:-0.90247177 124:-0.1174152 125:0.46379631 126:-0.25735852 127:0.092927474 128:0.77049774 129:-0.54545413 130:2.079314 131:2.5392186 132:0.87039819 133:-1.5499864 134:0.28117208 135:1.5238102 136:1.286878 137:-0.24604291 138:-0.23426612 139:0.35512047 140:0.26103584 141:-0.61405308 142:1.6350431 143:2.4843795 144:0.35840769 
